tree
version=v3
num_class=1
num_tree_per_iteration=1
label_index=0
max_feature_idx=27
objective=regression
feature_names=Column_0 Column_1 Column_2 Column_3 Column_4 Column_5 Column_6 Column_7 Column_8 Column_9 Column_10 Column_11 Column_12 Column_13 Column_14 Column_15 Column_16 Column_17 Column_18 Column_19 Column_20 Column_21 Column_22 Column_23 Column_24 Column_25 Column_26 Column_27
feature_infos=[205:207] [1:14] [1:641] [1:200] [9.6354999542236328:10001.138671875] [2.0600000425474718e-05:0.071199998259544373] [-110250:110250] [-110250:110250] [-1514:-1500] [27413.599609375:891620.6875] [962.21502685546875:3783.802978515625] [1046.031005859375:14591.265625] [1102.8590087890625:13930.2470703125] [1456.342041015625:16048.3212890625] [1098.2850341796875:4498.72705078125] [-0.67000001668930054:0.27399998903274536] [44.854999542236328:45.7239990234375] [24.972999572753906:25.024999618530273] [26.200000762939453:27.299999237060547] [25.799999237060547:26.600000381469727] [26.899999618530273:27.899999618530273] [25.399999618530273:26.100000381469727] [26.399999618530273:27.200000762939453] [23.700000762939453:24.700000762939453] [30:35.299999237060547] [36.900001525878906:43.599998474121094] [-97.952003479003906:-95.740997314453125] [-98.0989990234375:-95.902999877929688]
tree_sizes=655 651 660 665 659 652 658 662 660 660 671 658 662 658 653 655 663 659 664 670 667 673 673 654 670 663 666 657 669 652 665 656 669 648 659 659 657 663 674 656 659 659 655 673 682 681 668 669 657 662 655 667 666 670 672 655 670 658 662 662 660 668 650 671 678 648 657 665 663 675 670 673 660 667 660 665 667 674 654 665 679 679 653 676 671 673 668 680 679 664 648 677 666 659 654 678 661 669 660 654

Tree=0
num_leaves=6
num_cat=0
split_feature=4 6 4 4 14
split_gain=13551.6 9350.6 13440.9 2746.84 1447.41
threshold=9992.4790039062518 70375.000000000015 4938.4899902343759 257.04660034179693 2863.307983398438
decision_type=2 2 2 2 2
left_child=1 4 3 -3 -1
right_child=-2 2 -4 -5 -6
leaf_value=-0.67173468713948081 6.4594418357147942 0.016169431193214998 -8.295859700110837 -2.3204654996804406 0.057161551526108967
leaf_weight=704 81 268 74 237 20924
leaf_count=704 81 268 74 237 20924
internal_value=0.00389678 -0.0196498 -2.00261 -1.08043 0.0334357
internal_weight=0 22207 579 505 21628
internal_count=22288 22207 579 505 21628
is_linear=0
shrinkage=1


Tree=1
num_leaves=6
num_cat=0
split_feature=7 1 3 14 0
split_gain=3494.9 6850.76 1939.26 1462.49 963.86
threshold=-69124.999999999985 4.5000000000000009 2.5000000000000004 4097.4189453125009 206.50000000000003
decision_type=2 2 2 2 2
left_child=1 -1 3 -2 -3
right_child=2 4 -4 -5 -6
leaf_value=-0.3137346522904364 -1.3552915156752061 0.049936430670482958 0.0075826059822373696 -0.26143061423012631 3.4420595747283382
leaf_weight=326 437 23 20252 1016 234
leaf_count=326 437 23 20252 1016 234
internal_value=0 1.20808 -0.0324493 -0.590417 3.13848
internal_weight=0 583 21705 1453 257
internal_count=22288 583 21705 1453 257
is_linear=0
shrinkage=0.5


Tree=2
num_leaves=6
num_cat=0
split_feature=6 5 6 5 7
split_gain=1492.6 2541.92 1238.04 2528.81 879.132
threshold=-71374.999999999985 0.0015049999929033222 70375.000000000015 0.0014450000016950073 -69124.999999999985
decision_type=2 2 2 2 2
left_child=1 -1 4 -4 -2
right_child=2 -3 3 -5 -6
leaf_value=0.38522766144042503 0.60404195913451519 3.4864345036054911 -0.34250792754251547 -3.4722325286349736 -0.018601001746528512
leaf_weight=506 583 76 505 74 20544
leaf_count=506 583 76 505 74 20544
internal_value=0 0.790196 -0.0211874 -0.742507 -0.00141916
internal_weight=0 582 21706 579 21127
internal_count=22288 582 21706 579 21127
is_linear=0
shrinkage=0.5


Tree=3
num_leaves=6
num_cat=0
split_feature=4 14 13 5 3
split_gain=696.698 358.403 501.649 512.993 302.863
threshold=9992.4790039062518 2831.005493164063 11654.193359375002 0.00082249997649341833 50.500000000000007
decision_type=2 2 2 2 2
left_child=1 -1 3 4 -3
right_child=-2 2 -4 -5 -6
leaf_value=-0.41235707296194352 1.4637242688073053 0.62363779236714867 -0.020414066077534782 -0.066258157587561581 0.11736462296396653
leaf_weight=528 81 801 19567 843 468
leaf_count=528 81 801 19567 843 468
internal_value=0 -0.00533893 0.00457414 0.236082 0.436927
internal_weight=0 22207 21679 2112 1269
internal_count=22288 22207 21679 2112 1269
is_linear=0
shrinkage=0.5


Tree=4
num_leaves=6
num_cat=0
split_feature=7 5 5 5 15
split_gain=187.609 1965.15 1628.13 247.974 148.111
threshold=-69124.999999999985 0.0006464999751187862 0.0014950000331737103 0.00019749999773921448 -0.62950000166892994
decision_type=2 2 2 2 2
left_child=1 3 -3 -1 -2
right_child=4 2 -4 -5 -6
leaf_value=-0.45614203203577497 0.14417946179258606 3.4182274830647006 0.15548413276672363 0.49728609428686255 -0.01876400329160674
leaf_weight=345 1498 78 75 85 20207
leaf_count=345 1498 78 75 85 20207
internal_value=0 0.279903 1.81884 -0.267674 -0.00751824
internal_weight=0 583 153 430 21705
internal_count=22288 583 153 430 21705
is_linear=0
shrinkage=0.5


Tree=5
num_leaves=6
num_cat=0
split_feature=6 4 1 6 4
split_gain=304.374 886.319 239.038 227.284 490.869
threshold=70375.000000000015 257.04660034179693 6.5000000000000009 -71374.999999999985 509.72880554199224
decision_type=2 2 2 2 2
left_child=3 -2 -3 4 -1
right_child=1 2 -4 -5 -6
leaf_value=-0.18097447111072501 0.30862280403944986 -0.68710538757501272 -1.7165271720370732 0.0010510439476387153 0.74054238479288792
leaf_weight=267 268 237 74 21127 315
leaf_count=267 268 237 74 21127 315
internal_value=0 -0.357783 -0.932048 0.00954241 0.317785
internal_weight=0 579 311 21709 582
internal_count=22288 579 311 21709 582
is_linear=0
shrinkage=0.5


Tree=6
num_leaves=6
num_cat=0
split_feature=12 3 6 5 13
split_gain=149.417 88.2985 84.0057 903.917 540.89
threshold=9853.4106445312518 10.500000000000002 5000.0000000000009 0.00026850000722333794 15156.902832031252
decision_type=2 2 2 2 2
left_child=1 -1 -2 4 -4
right_child=2 -3 3 -5 -6
leaf_value=0.31475707599298752 0.012609664090040235 -0.42148241223920074 -0.025609109350644706 -0.86488001019855787 1.1002220588345681
leaf_weight=47 20742 305 764 306 124
leaf_count=47 20742 305 764 306 124
internal_value=0 -0.323178 0.00518593 -0.123778 0.131602
internal_weight=0 352 21936 1194 888
internal_count=22288 352 21936 1194 888
is_linear=0
shrinkage=0.5


Tree=7
num_leaves=6
num_cat=0
split_feature=12 15 3 3 12
split_gain=70.2073 184.725 68.3381 59.9817 44.9797
threshold=10346.562500000002 -0.62649998068809498 9.5000000000000018 41.500000000000007 10519.710449218752
decision_type=2 2 2 2 2
left_child=2 3 -1 4 -2
right_child=1 -3 -4 -5 -6
leaf_value=0.15472377045852209 0.14679733955434079 -0.0027227557977811292 -0.16723391243514574 0.039268680709327097 0.43655034092218514
leaf_weight=196 214 20222 1036 262 358
leaf_count=196 214 20222 1036 262 358
internal_value=0 0.00678802 -0.116013 0.237396 0.328146
internal_weight=0 21056 1232 834 572
internal_count=22288 21056 1232 834 572
is_linear=0
shrinkage=0.5


Tree=8
num_leaves=6
num_cat=0
split_feature=4 13 14 4 6
split_gain=95.3896 103.609 38.1781 226.014 36.0991
threshold=9987.8916015625018 13496.696289062502 4472.9736328125009 512.27944946289074 5000.0000000000009
decision_type=2 2 2 2 2
left_child=2 -2 4 -4 -1
right_child=1 -3 3 -5 -6
leaf_value=0.00012564886989326667 -0.62974871695041656 0.5363503952681179 -0.11447916199979354 1.1804254754729893 -0.090653522935048969
leaf_weight=20796 22 142 126 46 1156
leaf_count=20796 22 142 126 46 1156
internal_value=0 0.379922 -0.00281628 0.231833 -0.00465481
internal_weight=0 164 22124 172 21952
internal_count=22288 164 22124 172 21952
is_linear=0
shrinkage=0.5


Tree=9
num_leaves=6
num_cat=0
split_feature=13 10 6 6 6
split_gain=31.826 25.3239 194.912 91.003 474.049
threshold=8695.0776367187518 3430.440551757813 -71374.999999999985 70375.000000000015 5000.0000000000009
decision_type=2 2 2 2 2
left_child=-1 2 -2 4 -4
right_child=1 -3 3 -5 -6
leaf_value=-0.21177906385028936 0.77780297467874926 -0.0081047891784139115 0.0091179089882118692 -0.41144154220819473 1.1540021982408413
leaf_weight=176 86 16566 5248 120 92
leaf_count=176 86 16566 5248 120 92
internal_value=0 0.00168565 0.0309299 0.0191659 0.0288425
internal_weight=0 22112 5546 5460 5340
internal_count=22288 22112 5546 5460 5340
is_linear=0
shrinkage=0.5


Tree=10
num_leaves=6
num_cat=0
split_feature=26 13 10 11 15
split_gain=22.8247 35.0978 26.3898 15.3233 40.4473
threshold=-95.837001800537095 14196.188964843752 3383.3405761718755 11532.210449218752 -0.6235000193119048
decision_type=2 2 2 2 2
left_child=3 -2 -3 -1 -5
right_child=1 2 -4 4 -6
leaf_value=-0.057020154849576073 -0.36184318091466344 -0.38753273947672412 0.11734524729836267 0.10035365495830774 -0.00033375972020235591
leaf_weight=1056 110 33 120 1050 19919
leaf_count=1056 110 33 120 1050 19919
internal_value=0 -0.146425 0.00845 0.00174846 0.00470805
internal_weight=0 263 153 22025 20969
internal_count=22288 263 153 22025 20969
is_linear=0
shrinkage=0.5


Tree=11
num_leaves=6
num_cat=0
split_feature=7 1 1 10 6
split_gain=37.1052 398.86 460.418 183.451 24.3836
threshold=-69124.999999999985 5.5000000000000009 6.5000000000000009 3395.2185058593755 1.0000000180025095e-35
decision_type=2 2 2 2 2
left_child=1 3 -3 -1 -2
right_child=4 2 -4 -5 -6
leaf_value=-0.81217475344495071 0.0015573641999477841 1.6208070840504838 -0.017073374583075444 0.023709035945476294 -0.060649715446055123
leaf_weight=82 19995 82 90 329 1710
leaf_count=82 19995 82 90 329 1710
internal_value=0 0.124479 0.763777 -0.143061 -0.00334354
internal_weight=0 583 172 411 21705
internal_count=22288 583 172 411 21705
is_linear=0
shrinkage=0.5


Tree=12
num_leaves=6
num_cat=0
split_feature=4 3 10 4 6
split_gain=37.6436 48.7879 25.7385 12.3733 208.443
threshold=9986.3266601562518 4.5000000000000009 3451.2246093750005 1010.1733398437501 5000.0000000000009
decision_type=2 2 2 2 2
left_child=3 -2 -3 -1 -5
right_child=1 2 -4 4 -6
leaf_value=0.0064256524154703652 0.42369303423441756 -0.51676540495827794 0.079705026997351852 2.5745798834896532e-05 -0.37666356208410906
leaf_weight=14014 119 20 189 7560 386
leaf_count=14014 119 20 189 7560 386
internal_value=0 0.168135 0.0226265 -0.00251131 -0.018273
internal_weight=0 328 209 21960 7946
internal_count=22288 328 209 21960 7946
is_linear=0
shrinkage=0.5


Tree=13
num_leaves=6
num_cat=0
split_feature=3 4 15 4 7
split_gain=24.1003 88.0032 136.076 131.041 1178.96
threshold=6.5000000000000009 4928.2470703125009 -0.53650000691413868 1014.4452209472657 69125.000000000015
decision_type=2 2 2 2 2
left_child=1 3 -3 -1 -5
right_child=-2 2 -4 4 -6
leaf_value=0.048799139497847935 -0.0075130977552812376 0.10082509718038218 0.72343674747743336 0.077214495452467433 -2.0331323812534281
leaf_weight=2707 18438 488 107 471 77
leaf_count=2707 18438 488 107 471 77
internal_value=0 0.0359809 0.212791 0.00366086 -0.219312
internal_weight=0 3850 595 3255 548
internal_count=22288 3850 595 3255 548
is_linear=0
shrinkage=0.5


Tree=14
num_leaves=6
num_cat=0
split_feature=6 12 11 10 11
split_gain=29.475 68.7533 67.1825 70.8956 103.086
threshold=5000.0000000000009 12215.826660156252 11983.472656250002 3296.8469238281255 12408.253906250002
decision_type=2 2 2 2 2
left_child=-1 -2 -3 -4 -5
right_child=1 2 3 4 -6
leaf_value=-0.00432597725265181 0.4211678703917035 0.66226563221070822 -0.58370497512320674 0.80500829645565575 0.0042570757273574259
leaf_weight=21094 129 41 48 42 934
leaf_count=21094 129 41 48 42 934
internal_value=0 0.0764256 0.0346681 0.00953967 0.0387156
internal_weight=0 1194 1065 1024 976
internal_count=22288 1194 1065 1024 976
is_linear=0
shrinkage=0.5


Tree=15
num_leaves=6
num_cat=0
split_feature=7 1 3 11 3
split_gain=11.4884 44.783 71.872 92.3803 64.9748
threshold=-1.0000000180025095e-35 2.5000000000000004 3.5000000000000004 12758.565429687502 3.5000000000000004
decision_type=2 2 2 2 2
left_child=1 4 -3 -4 -1
right_child=-2 2 3 -5 -6
leaf_value=0.35509583097253294 0.0026983713869686253 -0.26758726923654119 -0.44519182542959851 0.12356863797274617 -0.096179022513278839
leaf_weight=148 21096 386 87 398 173
leaf_count=148 21096 386 87 398 173
internal_value=0 -0.0477557 -0.10659 0.0215436 0.111885
internal_weight=0 1192 871 485 321
internal_count=22288 1192 871 485 321
is_linear=0
shrinkage=0.5


Tree=16
num_leaves=6
num_cat=0
split_feature=3 14 7 6 5
split_gain=10.8985 72.2965 79.292 44.0318 43.7076
threshold=2.5000000000000004 4320.8999023437509 1.0000000180025095e-35 21375.000000000004 5.4250000175670727e-05
decision_type=2 2 2 2 2
left_child=1 2 4 -3 -1
right_child=-2 3 -4 -5 -6
leaf_value=0.14508322876961599 -0.0029198025758534162 0.0031438780862218766 0.24611235110109653 -0.30998221383497759 -0.17572620689968182
leaf_weight=184 20835 288 546 184 251
leaf_count=184 20835 288 546 184 251
internal_value=0 0.0418679 0.119231 -0.118922 -0.0400275
internal_weight=0 1453 981 472 435
internal_count=22288 1453 981 472 435
is_linear=0
shrinkage=0.5


Tree=17
num_leaves=6
num_cat=0
split_feature=4 23 14 7 9
split_gain=9.38403 9.61264 9.21409 69.0851 60.784
threshold=13.87144994735718 24.150000572204593 3963.2670898437505 69125.000000000015 787333.09375000012
decision_type=2 2 2 2 2
left_child=1 -1 3 4 -2
right_child=2 -3 -4 -5 -6
leaf_value=-0.36776934315760929 0.0077755494615942547 -0.045805830054091792 -0.004047871778311932 0.49322548170426961 0.56171688169240952
leaf_weight=24 5185 681 16272 76 50
leaf_count=24 5185 681 16272 76 50
internal_value=0 -0.0567663 0.00185425 0.0199373 0.0130663
internal_weight=0 705 21583 5311 5235
internal_count=22288 705 21583 5311 5235
is_linear=0
shrinkage=0.5


Tree=18
num_leaves=6
num_cat=0
split_feature=5 4 7 15 5
split_gain=8.9212 15.9486 23.083 7.37392 17.107
threshold=0.0016349999932572248 9992.4790039062518 -19124.999999999996 -0.64149999618530262 0.00062400000751949858
decision_type=2 2 2 2 2
left_child=3 2 -2 4 -1
right_child=1 -3 -4 -5 -6
leaf_value=0.22464762160410012 0.42557806683623273 -0.42055421171597007 -0.10909652657521127 -0.00087265979035525078 0.018749500532692163
leaf_weight=116 23 33 165 21177 774
leaf_count=116 23 33 165 21177 774
internal_value=0 -0.0999589 -0.0436842 0.00100108 0.0455857
internal_weight=0 221 188 22067 890
internal_count=22288 221 188 22067 890
is_linear=0
shrinkage=0.5


Tree=19
num_leaves=6
num_cat=0
split_feature=13 13 4 14 15
split_gain=5.34155 17.2982 17.6372 10.6931 17.5974
threshold=9701.1279296875018 10903.493652343752 18.250100135803226 3819.004516601563 -0.58250001072883595
decision_type=2 2 2 2 2
left_child=-1 2 -2 4 -3
right_child=1 3 -4 -5 -6
leaf_value=-0.028856962558501422 -0.016848608511597547 0.038483473269835762 0.11580013173422345 -0.00048081897507113976 -0.40915945030394052
leaf_weight=1496 409 46 647 19648 42
leaf_count=1496 409 46 647 19648 42
internal_value=0 0.00207628 0.0644239 -0.00125971 -0.175164
internal_weight=0 20792 1056 19736 88
internal_count=22288 20792 1056 19736 88
is_linear=0
shrinkage=0.5


Tree=20
num_leaves=6
num_cat=0
split_feature=3 3 14 7 9
split_gain=5.47911 5.54886 27.6096 27.0392 48.8464
threshold=108.50000000000001 2.5000000000000004 4250.2468261718759 -1.0000000180025095e-35 805544.84375000012
decision_type=2 2 2 2 2
left_child=1 2 3 4 -1
right_child=-2 -3 -4 -5 -6
leaf_value=-0.14139753676551794 0.011184091516412174 -0.0086568193063757837 -0.043977939065982435 0.16783243350945615 0.39988711304389513
leaf_weight=210 7343 13492 738 453 52
leaf_count=210 7343 13492 738 453 52
internal_value=0 -0.00549513 0.0238631 0.0938863 -0.033967
internal_weight=0 14945 1453 715 262
internal_count=22288 14945 1453 715 262
is_linear=0
shrinkage=0.5


Tree=21
num_leaves=6
num_cat=0
split_feature=4 3 5 7 4
split_gain=4.54163 12.6833 7.75799 38.6263 28.6173
threshold=9985.9125976562518 4.5000000000000009 0.00093749997904524218 69125.000000000015 4928.2470703125009
decision_type=2 2 2 2 2
left_child=2 -2 4 -4 -1
right_child=1 -3 3 -5 -6
leaf_value=0.00018943089403292398 0.15930969189898467 0.010239525063298061 -0.034985626440917038 0.54548620869373454 0.25832392402959092
leaf_weight=18355 162 1197 2437 29 108
leaf_count=18355 162 1197 2437 29 108
internal_value=0 0.0280095 -0.00181876 -0.0281593 0.0016994
internal_weight=0 1359 20929 2466 18463
internal_count=22288 1359 20929 2466 18463
is_linear=0
shrinkage=0.5


Tree=22
num_leaves=6
num_cat=0
split_feature=11 4 2 11 3
split_gain=5.90147 121.067 12.239 25.6386 16.1631
threshold=12028.727050781252 509.72880554199224 396.50000000000006 13887.602050781252 2.5000000000000004
decision_type=2 2 2 2 2
left_child=1 -1 3 -2 -4
right_child=2 -3 4 -5 -6
leaf_value=0.0042010815228937437 -0.048565651149191438 0.60826084543676939 0.12504131994741441 0.11758441115673587 -0.00018231070397278624
leaf_weight=3436 2595 85 262 255 15655
leaf_count=3436 2595 85 262 255 15655
internal_value=0 0.0187836 -0.00352412 -0.0336996 0.00187892
internal_weight=0 3521 18767 2850 15917
internal_count=22288 3521 18767 2850 15917
is_linear=0
shrinkage=0.5


Tree=23
num_leaves=6
num_cat=0
split_feature=13 27 12 15 15
split_gain=5.20375 10.2096 8.97491 12.7732 30.8266
threshold=9097.6933593750018 -97.744499206542955 9796.5087890625018 -0.48149999976158137 -0.45849999785423273
decision_type=2 2 2 2 2
left_child=1 -1 -3 -4 -5
right_child=-2 2 3 4 -6
leaf_value=-0.024737899034341437 -0.001288052162744541 0.013686513321784636 0.082258390573163823 0.66489052751825917 -0.034617464324193339
leaf_weight=282 21672 150 120 36 28
leaf_count=282 21672 150 120 36 28
internal_value=0 0.045316 0.104463 0.178466 0.358856
internal_weight=0 616 334 184 64
internal_count=22288 616 334 184 64
is_linear=0
shrinkage=0.5


Tree=24
num_leaves=6
num_cat=0
split_feature=4 5 27 4 10
split_gain=3.8458 17.716 10.252 9.04724 11.2772
threshold=9985.6909179687518 0.0015850000199861827 -97.81750106811522 9992.4790039062518 3452.8625488281255
decision_type=2 2 2 2 2
left_child=1 -1 3 4 -2
right_child=2 -3 -4 -5 -6
leaf_value=-0.00010984765891288852 0.37437105923891068 -0.10640600627906678 0.067028684674107372 -0.28052653911812553 -0.0035518648586718698
leaf_weight=19567 20 400 757 29 1515
leaf_count=19567 20 400 757 29 1515
internal_value=0 -0.00223928 0.019264 -0.00385481 0.00137221
internal_weight=0 19967 2321 1564 1535
internal_count=22288 19967 2321 1564 1535
is_linear=0
shrinkage=0.5


Tree=25
num_leaves=6
num_cat=0
split_feature=6 14 3 3 14
split_gain=5.03407 4.03922 30.2606 9.10249 8.24475
threshold=107125.00000000001 2831.005493164063 10.500000000000002 27.500000000000004 2905.120483398438
decision_type=2 2 2 2 2
left_child=1 2 -1 -4 -3
right_child=-2 4 3 -5 -6
leaf_value=0.32826526972311959 0.18183081166965789 -0.06910765080564571 -0.10584149797078125 0.044127683915546716 3.9787828059864679e-05
leaf_weight=79 38 440 154 295 21282
leaf_count=79 38 440 154 295 21282
internal_value=0 -0.000310542 0.0428997 -0.00730941 -0.00136086
internal_weight=0 22250 528 449 21722
internal_count=22288 22250 528 449 21722
is_linear=0
shrinkage=0.5


Tree=26
num_leaves=6
num_cat=0
split_feature=15 3 3 3 3
split_gain=5.17419 8.53314 11.7835 4.63447 4.38963
threshold=-0.64049997925758351 27.500000000000004 43.500000000000007 63.500000000000007 35.500000000000007
decision_type=2 2 2 2 2
left_child=1 -1 4 -2 -3
right_child=3 2 -4 -5 -6
leaf_value=-0.0041664457407748203 -0.0092960183276033139 0.18792946271997477 -0.085423705209201825 0.0054504148841374341 0.06938012630814118
leaf_weight=542 10199 175 75 11156 141
leaf_count=542 10199 175 75 11156 141
internal_value=0 0.0364472 0.0927455 -0.00159238 0.135032
internal_weight=0 933 391 21355 316
internal_count=22288 933 391 21355 316
is_linear=0
shrinkage=0.5


Tree=27
num_leaves=6
num_cat=0
split_feature=3 12 6 13 4
split_gain=2.84431 23.4368 16.2884 28.272 12.9992
threshold=2.5000000000000004 12944.136718750002 21375.000000000004 15190.033203125002 4923.8410644531259
decision_type=2 2 2 2 2
left_child=1 4 -3 -4 -1
right_child=-2 2 3 -5 -6
leaf_value=0.10764913292370189 -0.0014916220440714439 0.0054931715631998486 -0.071309034604715507 -0.52267774533141742 -0.044507444781261715
leaf_weight=664 20835 403 164 44 178
leaf_count=664 20835 403 164 44 178
internal_value=0 0.0213888 -0.0531567 -0.166791 0.075483
internal_weight=0 1453 611 208 842
internal_count=22288 1453 611 208 842
is_linear=0
shrinkage=0.5


Tree=28
num_leaves=6
num_cat=0
split_feature=18 3 10 13 12
split_gain=2.57595 6.88936 13.221 14.9067 22.4238
threshold=26.650000572204593 8.5000000000000018 3428.640991210938 13521.822265625002 12278.175781250002
decision_type=2 2 2 2 2
left_child=1 2 -1 4 -4
right_child=-2 -3 3 -5 -6
leaf_value=0.06037312679252297 0.0060772814608290801 -5.819727851600358e-05 -0.56464367607674959 -0.020566686710560014 -0.10190942423448784
leaf_weight=305 9783 10779 28 990 403
leaf_count=305 9783 10779 28 990 403
internal_value=0 -0.00475442 -0.0340827 -0.0543565 -0.131971
internal_weight=0 12505 1726 1421 431
internal_count=22288 12505 1726 1421 431
is_linear=0
shrinkage=0.5


Tree=29
num_leaves=6
num_cat=0
split_feature=16 4 4 13 12
split_gain=3.71393 3.68985 16.064 29.7473 7.23796
threshold=45.364999771118171 4920.7490234375009 1014.864471435547 11990.277343750002 12904.678222656252
decision_type=2 2 2 2 2
left_child=-1 2 -2 -4 -3
right_child=1 4 3 -5 -6
leaf_value=-0.0018321440008575551 0.022409482474981653 0.28665466130607659 0.099870208812796554 -0.73390522599220276 0.043657602052864376
leaf_weight=20626 1377 36 23 20 206
leaf_count=20626 1377 36 23 20 206
internal_value=0 0.0227375 0.0130118 -0.287932 0.0798059
internal_weight=0 1662 1420 43 242
internal_count=22288 1662 1420 43 242
is_linear=0
shrinkage=0.5


Tree=30
num_leaves=6
num_cat=0
split_feature=12 3 3 10 3
split_gain=3.17349 11.5599 7.82577 5.68435 5.48695
threshold=10480.540527343752 51.500000000000007 30.500000000000004 3198.779418945313 11.500000000000002
decision_type=2 2 2 2 2
left_child=1 2 4 -2 -1
right_child=3 -3 -4 -5 -6
leaf_value=0.012897715129673989 0.15156236076579679 -0.14581626213532944 0.043021664165346404 0.0011446026117294238 -0.069850321479475411
leaf_weight=337 63 168 497 20729 494
leaf_count=337 63 168 497 20729 494
internal_value=0 -0.0222426 -0.00660976 0.00160037 -0.0362931
internal_weight=0 1496 1328 20792 831
internal_count=22288 1496 1328 20792 831
is_linear=0
shrinkage=0.5


Tree=31
num_leaves=6
num_cat=0
split_feature=6 5 5 1 11
split_gain=1.76038 18.9031 39.7838 23.1753 13.9078
threshold=70375.000000000015 0.0014450000016950073 0.0006404999876394869 1.5000000000000002 13186.407714843752
decision_type=2 2 2 2 2
left_child=-1 2 3 -2 -5
right_child=1 -3 -4 4 -6
leaf_value=-0.00072570011902294647 0.24157655517379922 -0.20879889606825403 0.40318832413790978 -0.14908835100553308 0.050636956054915694
leaf_weight=21709 83 74 73 180 169
leaf_count=21709 83 74 73 180 169
internal_value=0 0.0272094 0.0617928 0.00410323 -0.0523732
internal_weight=0 579 505 432 349
internal_count=22288 579 505 432 349
is_linear=0
shrinkage=0.5


Tree=32
num_leaves=6
num_cat=0
split_feature=4 5 4 7 6
split_gain=3.25721 32.1797 12.4017 220.526 42.5021
threshold=4924.7700195312509 0.00079249998088926088 1014.4452209472657 69125.000000000015 -19124.999999999996
decision_type=2 2 2 2 2
left_child=2 -2 -1 4 -4
right_child=1 -3 3 -5 -6
leaf_value=0.001538938863596042 0.30055833819665406 0.0059475745757914507 -0.3615639002993703 -0.87000468179777068 0.011466161562687552
leaf_weight=16549 95 3809 80 77 1678
leaf_count=16549 95 3809 80 77 1678
internal_value=0 0.0131166 -0.00278543 -0.0417849 -0.00550904
internal_weight=0 3904 18384 1835 1758
internal_count=22288 3904 18384 1835 1758
is_linear=0
shrinkage=0.5


Tree=33
num_leaves=6
num_cat=0
split_feature=7 12 4 1 9
split_gain=6.74025 46.2553 20.2843 17.3498 11.6511
threshold=69125.000000000015 12768.762207031252 4920.7490234375009 6.5000000000000009 629539.43750000012
decision_type=2 2 2 2 2
left_child=-1 2 -2 -4 -3
right_child=1 4 3 -5 -6
leaf_value=-0.0014200113243727855 -0.0065987271527445553 0.056777676761150357 -0.4959435760974884 -0.036948549720857822 0.25081568351588923
leaf_weight=21709 166 125 50 35 203
leaf_count=21709 166 125 50 35 203
internal_value=0 0.0532418 -0.10831 -0.306946 0.176868
internal_weight=0 579 251 85 328
internal_count=22288 579 251 85 328
is_linear=0
shrinkage=0.5


Tree=34
num_leaves=6
num_cat=0
split_feature=4 11 2 11 3
split_gain=2.09866 31.994 8.37611 9.0757 5.99306
threshold=509.72880554199224 12102.335937500002 396.50000000000006 12028.727050781252 5.5000000000000009
decision_type=2 2 2 2 2
left_child=4 2 3 -2 -1
right_child=1 -3 -4 -5 -6
leaf_value=-0.028704072265966152 0.22169432061560013 0.0021624434211768508 0.0058151347388047721 0.54991105837481358 0.0005562167336697016
leaf_weight=2058 85 8395 30 28 11692
leaf_count=2058 85 8395 30 28 11692
internal_value=0 0.00615714 0.240671 0.303022 -0.00382325
internal_weight=0 8538 143 113 13750
internal_count=22288 8538 143 113 13750
is_linear=0
shrinkage=0.5


Tree=35
num_leaves=6
num_cat=0
split_feature=6 14 14 3 3
split_gain=3.8621 1.94388 8.51774 7.44247 10.1472
threshold=107125.00000000001 2863.307983398438 2891.858032226563 3.5000000000000004 4.5000000000000009
decision_type=2 2 2 2 2
left_child=1 3 -3 -1 -5
right_child=-2 2 -4 4 -6
leaf_value=-0.18670323376472181 0.15926457860730711 -0.11066236422630027 -0.00021457963361680644 0.28891741602044357 0.022827196434915195
leaf_weight=39 38 176 21370 38 627
leaf_count=39 38 176 21370 38 627
internal_value=0 -0.000272002 -0.00111678 0.0255825 0.0380324
internal_weight=0 22250 21546 704 665
internal_count=22288 22250 21546 704 665
is_linear=0
shrinkage=0.5


Tree=36
num_leaves=6
num_cat=0
split_feature=14 6 4 25 4
split_gain=1.58002 11.6385 8.18148 8.38472 8.21554
threshold=3828.141967773438 -19124.999999999996 9987.8916015625018 39.95000076293946 18.3754997253418
decision_type=2 2 2 2 2
left_child=1 -1 4 -4 -3
right_child=-2 2 3 -5 -6
leaf_value=0.3726143857294863 -0.0017418968188028887 -0.0077881885983279589 -0.44591940473765135 0.0064377621525809874 0.045597272656458201
leaf_weight=22 19030 2097 20 21 1098
leaf_count=22 19030 2097 20 21 1098
internal_value=0 0.0101744 0.00771038 -0.214224 0.0105584
internal_weight=0 3258 3236 41 3195
internal_count=22288 3258 3236 41 3195
is_linear=0
shrinkage=0.5


Tree=37
num_leaves=6
num_cat=0
split_feature=16 13 7 5 10
split_gain=1.58344 1.46794 3.37969 4.06492 2.46115
threshold=45.337999343872077 14034.397460937502 -19124.999999999996 0.00066949997562915098 3364.1994628906255
decision_type=2 2 2 2 2
left_child=-1 2 3 -2 -3
right_child=1 4 -4 -5 -6
leaf_value=-0.0013137433420535168 0.26916148016850155 -0.14675990790770999 0.018527815942767648 -0.0069133437015504269 0.0018124914058311621
leaf_weight=20314 30 29 1173 24 718
leaf_count=20314 30 29 1173 24 718
internal_value=0 0.0135194 0.0241582 0.146462 -0.00395538
internal_weight=0 1974 1227 54 747
internal_count=22288 1974 1227 54 747
is_linear=0
shrinkage=0.5


Tree=38
num_leaves=6
num_cat=0
split_feature=15 12 3 16 3
split_gain=1.37728 1.56249 4.80207 3.43352 2.59246
threshold=-0.64849999547004689 10558.178222656252 47.500000000000007 45.703001022338874 56.500000000000007
decision_type=2 2 2 2 2
left_child=-1 2 -2 -3 -4
right_child=1 3 4 -5 -6
leaf_value=0.025919391431482305 -0.0026892964974757081 0.00023006743663087014 -0.11032858283559237 0.18945927723931769 0.011786409624108816
leaf_weight=501 1016 20507 183 24 57
leaf_count=501 1016 20507 183 24 57
internal_value=0 -0.000596026 -0.0177155 0.00045127 -0.0813263
internal_weight=0 21787 1256 20531 240
internal_count=22288 21787 1256 20531 240
is_linear=0
shrinkage=0.5


Tree=39
num_leaves=6
num_cat=0
split_feature=6 14 10 11 7
split_gain=1.22459 6.60364 10.4705 5.0199 4.58853
threshold=5000.0000000000009 4250.2468261718759 3603.734985351563 13363.044921875002 69125.000000000015
decision_type=2 2 2 2 2
left_child=-1 2 3 -2 -3
right_child=1 4 -4 -5 -6
leaf_value=-0.00088176428104811213 -0.029569100297718004 0.010866512863901513 -0.37266769721394494 0.13321579866251856 0.093724648896233317
leaf_weight=21094 445 371 21 53 304
leaf_count=21094 445 371 21 53 304
internal_value=0 0.0155778 -0.0268282 -0.0122446 0.0481834
internal_weight=0 1194 519 498 675
internal_count=22288 1194 519 498 675
is_linear=0
shrinkage=0.5


Tree=40
num_leaves=6
num_cat=0
split_feature=3 11 10 16 9
split_gain=1.21398 5.89122 6.36621 4.10608 3.29391
threshold=2.5000000000000004 13127.256835937502 3474.054565429688 45.329999923706062 837312.06250000012
decision_type=2 2 2 2 2
left_child=1 4 -3 -4 -1
right_child=-2 2 3 -5 -6
leaf_value=0.049881299276885033 -0.00097448678393166101 -0.30021648192778227 -0.044523177518258406 0.041189675128457379 -0.078959171466951097
leaf_weight=775 20835 20 386 219 53
leaf_count=775 20835 20 386 219 53
internal_value=0 0.0139735 -0.0226716 -0.0134965 0.0416343
internal_weight=0 1453 625 605 828
internal_count=22288 1453 625 605 828
is_linear=0
shrinkage=0.5


Tree=41
num_leaves=6
num_cat=0
split_feature=3 3 1 13 6
split_gain=1.62913 3.49654 10.1344 1.59508 8.51399
threshold=21.500000000000004 22.500000000000004 12.000000000000002 15272.701660156252 70375.000000000015
decision_type=2 2 2 2 2
left_child=3 2 -2 -1 -5
right_child=1 -3 -4 4 -6
leaf_value=-0.0087246016397458156 -0.013138994523884591 0.0020165226844149437 0.29709121871453065 0.052337420212943755 -0.25189325064420698
leaf_weight=5895 81 15961 39 287 25
leaf_count=5895 81 15961 39 287 25
internal_value=0 0.00265581 0.0876858 -0.00688062 0.02796
internal_weight=0 16081 120 6207 312
internal_count=22288 16081 120 6207 312
is_linear=0
shrinkage=0.5


Tree=42
num_leaves=6
num_cat=0
split_feature=6 5 5 5 9
split_gain=1.44685 6.4259 4.99527 9.2003 4.33945
threshold=70375.000000000015 2.8550000024551995e-05 0.0014450000016950073 0.00019749999773921448 749941.65625000012
decision_type=2 2 2 2 2
left_child=-1 -2 3 -3 -4
right_child=1 2 4 -5 -6
leaf_value=-0.00065790812661533846 0.18890821391337173 -0.021879195998523948 -0.20440091826814286 0.13074839226773952 0.047119051187851084
leaf_weight=21709 54 305 47 146 27
leaf_count=21709 54 305 47 146 27
internal_value=0 0.0246676 0.00777425 0.0275302 -0.11263
internal_weight=0 579 525 451 74
internal_count=22288 579 525 451 74
is_linear=0
shrinkage=0.5


Tree=43
num_leaves=6
num_cat=0
split_feature=14 5 4 14 5
split_gain=1.06435 2.8261 3.02052 2.46576 1.44275
threshold=2863.307983398438 0.0013949999702163043 16.792050361633304 2878.974487304688 0.0016349999932572248
decision_type=2 2 2 2 2
left_child=1 2 -1 -2 -5
right_child=3 -3 -4 4 -6
leaf_value=0.070830846059329308 -0.084149024142375725 -0.010372114680900142 -0.077440213650847092 -0.00059155959089500531 0.053936741278567887
leaf_weight=288 88 377 39 21374 122
leaf_count=288 88 377 39 21374 122
internal_value=0 0.0191319 0.0531471 -0.000624019 -0.000282086
internal_weight=0 704 327 21584 21496
internal_count=22288 704 327 21584 21496
is_linear=0
shrinkage=0.5


Tree=44
num_leaves=6
num_cat=0
split_feature=3 6 12 4 6
split_gain=1.00259 1.01313 0.931232 3.33941 3.61689
threshold=157.50000000000003 107125.00000000001 12134.719238281252 18.473000526428226 1.0000000180025095e-35
decision_type=2 2 2 2 2
left_child=1 2 3 4 -1
right_child=-2 -3 -4 -5 -6
leaf_value=-0.0021085471459848259 0.0078415645054157584 0.080124929614708226 -0.0034326040467247709 0.05553497054451758 0.078716912276124484
leaf_weight=3568 3446 38 14788 304 144
leaf_count=3568 3446 38 14788 304 144
internal_value=0 -0.00143414 -0.00159896 0.00515303 0.00102692
internal_weight=0 18842 18804 4016 3712
internal_count=22288 18842 18804 4016 3712
is_linear=0
shrinkage=0.5


Tree=45
num_leaves=6
num_cat=0
split_feature=3 12 3 13 14
split_gain=0.800232 2.41595 2.30932 5.29837 3.2174
threshold=30.500000000000004 9853.4106445312518 35.500000000000007 10151.481933593752 3832.1760253906255
decision_type=2 2 2 2 2
left_child=-1 -2 3 -3 -4
right_child=1 2 4 -5 -6
leaf_value=-0.0043082705946009513 0.077661543028495678 0.10176495153237169 -0.017712558707429854 -0.00019026697749723097 0.0034097285875078066
leaf_weight=7265 105 187 2115 400 12216
leaf_count=7265 105 187 2115 400 12216
internal_value=0 0.00208344 0.00155149 0.0322895 0.000292456
internal_weight=0 15023 14918 587 14331
internal_count=22288 15023 14918 587 14331
is_linear=0
shrinkage=0.5


Tree=46
num_leaves=6
num_cat=0
split_feature=4 10 27 5 4
split_gain=0.904167 2.00598 1.92485 1.79138 2.71802
threshold=18.117500305175785 3230.017456054688 -95.983501434326158 2.7549999686016239e-05 15.151400089263918
decision_type=2 2 2 2 2
left_child=2 -2 3 4 -1
right_child=1 -3 -4 -5 -6
leaf_value=0.013110248609182407 0.052891313977337505 0.0011001717393297611 -0.13682464530159319 -0.0065600086725809328 0.22943449243903161
leaf_weight=53 189 17344 28 4654 20
leaf_count=53 189 17344 28 4654 20
internal_value=0 0.00165846 -0.00611521 -0.00534097 0.0723772
internal_weight=0 17533 4755 4727 73
internal_count=22288 17533 4755 4727 73
is_linear=0
shrinkage=0.5


Tree=47
num_leaves=6
num_cat=0
split_feature=10 7 11 6 6
split_gain=0.606847 8.40922 1.34943 2.24418 2.07557
threshold=3295.516967773438 -19124.999999999996 12045.330078125002 -19124.999999999996 -19124.999999999996
decision_type=2 2 2 2 2
left_child=1 -1 3 -2 -4
right_child=2 -3 4 -5 -6
leaf_value=-0.19614300314794508 0.17849945809159959 -0.0027859531770843332 -0.027530478412866207 0.015288267768097713 0.0019350229993073773
leaf_weight=57 28 4168 619 85 17331
leaf_count=57 28 4168 619 85 17331
internal_value=0 -0.00539456 0.00126181 0.05573 0.000918915
internal_weight=0 4225 18063 113 17950
internal_count=22288 4225 18063 113 17950
is_linear=0
shrinkage=0.5


Tree=48
num_leaves=6
num_cat=0
split_feature=7 4 6 13 25
split_gain=0.723564 0.910825 4.83334 3.77109 1.34509
threshold=105875.00000000001 13.622499942779543 -71374.999999999985 14196.188964843752 40.649999618530281
decision_type=2 2 2 2 2
left_child=1 2 3 -1 -4
right_child=-2 -3 4 -5 -6
leaf_value=-0.29820897745398373 0.068044942373839706 0.00021054770558937512 0.051054030890271107 -0.039998769606163186 -0.03623321972147172
leaf_weight=26 39 22015 93 31 84
leaf_count=26 39 22015 93 31 84
internal_value=0 -0.000119275 -0.0311494 -0.157779 0.00962957
internal_weight=0 22249 234 57 177
internal_count=22288 22249 234 57 177
is_linear=0
shrinkage=0.5


Tree=49
num_leaves=6
num_cat=0
split_feature=4 5 3 4 2
split_gain=0.636276 8.58589 3.36337 9.89637 8.4365
threshold=4924.7700195312509 0.00079249998088926088 4.5000000000000009 9971.1250000000018 396.50000000000006
decision_type=2 2 2 2 2
left_child=-1 -2 3 4 -3
right_child=1 2 -4 -5 -6
leaf_value=-0.0012310967563641327 0.15427161245361753 -0.11618069769794262 -0.0033645406537607795 0.09324133303696773 0.21999881259927695
leaf_weight=18384 95 123 3356 308 22
leaf_count=18384 95 123 3356 308 22
internal_value=0 0.00579725 0.00209417 0.0425344 -0.0651742
internal_weight=0 3904 3809 453 145
internal_count=22288 3904 3809 453 145
is_linear=0
shrinkage=0.5


Tree=50
num_leaves=6
num_cat=0
split_feature=4 11 5 4 12
split_gain=1.43809 19.4245 1.87997 8.28343 1.12805
threshold=9992.4790039062518 12857.078613281252 0.0016450000111944976 18.876299858093265 9693.3178710937518
decision_type=2 2 2 2 2
left_child=2 -2 -1 4 -4
right_child=1 -3 3 -5 -6
leaf_value=-7.6037717453276453e-05 -0.49411580045707526 0.073700265989440392 -0.063897610316053038 0.34787511446380187 0.051503040331105393
leaf_weight=22101 20 61 40 21 45
leaf_count=22101 20 61 40 21 45
internal_value=0 -0.0665012 0.000242563 0.0666708 -0.00280315
internal_weight=0 81 22207 106 85
internal_count=22288 81 22207 106 85
is_linear=0
shrinkage=0.5


Tree=51
num_leaves=6
num_cat=0
split_feature=22 23 13 15 15
split_gain=0.705739 1.07544 1.76393 0.6547 1.2858
threshold=26.550000190734867 24.44999980926514 9214.5180664062518 -0.62850001454353321 -0.63750001788139332
decision_type=2 2 2 2 2
left_child=1 -1 -3 4 -2
right_child=3 2 -4 -5 -6
leaf_value=0.010404429358182078 -0.0013284852153788815 -0.019027041581769783 0.17580651527700517 0.0001825941936818426 -0.036477389253702266
leaf_weight=643 894 21 26 20337 367
leaf_count=643 894 21 26 20337 367
internal_value=0 0.0157412 0.0887532 -0.000502891 -0.0115582
internal_weight=0 690 47 21598 1261
internal_count=22288 690 47 21598 1261
is_linear=0
shrinkage=0.5


Tree=52
num_leaves=6
num_cat=0
split_feature=13 6 7 14 7
split_gain=0.56123 7.68591 4.91226 2.43367 2.07628
threshold=13423.877929687502 -71374.999999999985 -19124.999999999996 4333.5590820312509 -69124.999999999985
decision_type=2 2 2 2 2
left_child=1 -1 3 -3 -2
right_child=4 2 -4 -5 -6
leaf_value=-0.14585987119270222 -0.034019053291344525 0.061155018332487689 0.0044536677685807638 0.22310908927636988 -0.0005116842197765677
leaf_weight=84 476 73 5530 34 16091
leaf_count=84 476 73 5530 34 16091
internal_value=0 0.00426963 0.0065068 0.112617 -0.00147441
internal_weight=0 5721 5637 107 16567
internal_count=22288 5721 5637 107 16567
is_linear=0
shrinkage=0.5


Tree=53
num_leaves=6
num_cat=0
split_feature=5 7 1 7 4
split_gain=0.850034 1.50336 10.9584 2.82389 5.0288
threshold=5.0750000809784985e-05 -69124.999999999985 1.5000000000000002 -1.0000000180025095e-35 16.14634990692139
decision_type=2 2 2 2 2
left_child=1 2 -1 4 -3
right_child=-2 3 -4 -5 -6
leaf_value=0.12561621323779779 -0.001916248436024568 -0.024831445248855742 -0.091310190620656678 0.0044655883896973806 0.12287141146097223
leaf_weight=81 16091 100 207 5673 136
leaf_count=81 16091 100 207 5673 136
internal_value=0 0.00497569 -0.0302996 0.00669498 0.0602855
internal_weight=0 6197 288 5909 236
internal_count=22288 6197 288 5909 236
is_linear=0
shrinkage=0.5


Tree=54
num_leaves=6
num_cat=0
split_feature=7 26 4 20 4
split_gain=1.4984 0.809033 3.08817 5.08398 1.54652
threshold=-105874.99999999999 -97.370498657226548 14.71490001678467 27.550000190734867 4925.0061035156259
decision_type=2 2 2 2 2
left_child=-1 -2 3 -3 -4
right_child=1 2 4 -5 -6
leaf_value=0.10192519863226658 0.00084801858327316303 -0.037424481161287985 -0.010690614498939575 -0.29813628529360436 0.025535773571066837
leaf_weight=36 19995 100 1781 23 353
leaf_count=36 19995 100 1781 23 353
internal_value=0 -0.000164898 -0.00913843 -0.0861755 -0.00469815
internal_weight=0 22252 2257 123 2134
internal_count=22288 22252 2257 123 2134
is_linear=0
shrinkage=0.5


Tree=55
num_leaves=6
num_cat=0
split_feature=3 11 13 12 16
split_gain=0.604856 2.25648 3.48613 3.59257 2.92637
threshold=1.5000000000000002 13129.979003906252 14615.521972656252 12994.671386718752 45.129999160766609
decision_type=2 2 2 2 2
left_child=1 -1 3 4 -3
right_child=-2 2 -4 -5 -6
leaf_value=0.010208413264437447 0.00047795207560113139 0.045382094068022877 -0.17487913138336605 0.02002512763944312 -0.14927839490274589
leaf_weight=411 21562 26 45 169 75
leaf_count=411 21562 26 45 169 75
internal_value=0 -0.014195 -0.0460357 -0.0245618 -0.0991678
internal_weight=0 726 315 270 101
internal_count=22288 726 315 270 101
is_linear=0
shrinkage=0.5


Tree=56
num_leaves=6
num_cat=0
split_feature=5 7 16 13 14
split_gain=0.590763 0.909481 0.711472 1.01336 0.551352
threshold=2.8550000024551995e-05 -105874.99999999999 45.157999038696296 14329.017089843752 4418.7504882812509
decision_type=2 2 2 2 2
left_child=2 -2 -1 -4 -3
right_child=1 4 3 -5 -6
leaf_value=-0.05739972886762449 0.091367892265595774 -0.00077363097999940582 0.11496355050596697 0.01747729552505806 0.01934548082327096
leaf_weight=28 27 21528 29 330 346
leaf_count=28 27 21528 29 330 346
internal_value=0 -0.000342188 0.019365 0.0253522 -0.00045539
internal_weight=0 21901 387 359 21874
internal_count=22288 21901 387 359 21874
is_linear=0
shrinkage=0.5


Tree=57
num_leaves=6
num_cat=0
split_feature=10 6 11 12 26
split_gain=0.462016 5.37451 4.22761 1.45533 0.83126
threshold=3626.8615722656255 -71374.999999999985 13887.602050781252 13465.784179687502 -97.370498657226548
decision_type=2 2 2 2 2
left_child=3 2 -2 -1 -4
right_child=1 -3 4 -5 -6
leaf_value=-0.00057340855780699913 -0.06857312042266131 0.0019713694859395088 0.2344550966869953 -0.10410634637125493 0.11107091009616851
leaf_weight=20080 20 2091 43 34 20
leaf_count=20080 20 2091 43 34 20
internal_value=0 0.00692441 0.131705 -0.000748417 0.195286
internal_weight=0 2174 83 20114 63
internal_count=22288 2174 83 20114 63
is_linear=0
shrinkage=0.5


Tree=58
num_leaves=6
num_cat=0
split_feature=14 14 11 23 24
split_gain=0.52231 1.95583 1.24585 1.10045 2.45009
threshold=2863.307983398438 2850.193481445313 11444.983398437502 24.550000190734867 32.350000381469734
decision_type=2 2 2 2 2
left_child=1 3 -2 -1 -5
right_child=2 -3 -4 4 -6
leaf_value=0.012800163053667277 -0.048319350556778738 0.083128892541439695 -0.00013576784010164902 -0.00199156211349943 -0.18769078900146743
leaf_weight=515 135 88 21449 78 23
leaf_count=515 135 88 21449 78 23
internal_value=0 0.0134023 -0.000437138 0.00344132 -0.0442795
internal_weight=0 704 21584 616 101
internal_count=22288 704 21584 616 101
is_linear=0
shrinkage=0.5


Tree=59
num_leaves=6
num_cat=0
split_feature=20 14 12 4 27
split_gain=0.455922 0.51366 3.67005 2.06664 0.940838
threshold=27.849999427795414 4418.7504882812509 13083.149902343752 508.72489929199224 -96.03749847412108
decision_type=2 2 2 2 2
left_child=1 -1 -3 -4 -5
right_child=-2 2 3 4 -6
leaf_value=-0.00020807276191196718 -0.058726823423057795 0.22725113728083671 -0.092810704682617345 0.0092740502529427404 0.087238604361389541
leaf_weight=21924 33 20 45 219 47
leaf_count=21924 33 20 45 219 47
internal_value=0 8.70809e-05 0.0196368 0.00628537 0.0230497
internal_weight=0 22255 331 311 266
internal_count=22288 22255 331 311 266
is_linear=0
shrinkage=0.5


Tree=60
num_leaves=6
num_cat=0
split_feature=6 4 14 11 7
split_gain=0.43212 0.40833 5.80581 1.54344 0.727352
threshold=107125.00000000001 9992.4790039062518 3827.174438476563 12982.207031250002 -69124.999999999985
decision_type=2 2 2 2 2
left_child=1 4 -3 -4 -1
right_child=-2 2 3 -5 -6
leaf_value=0.017542668564988713 0.053273318317798454 -0.26930738985538483 0.15499719427898526 -0.014425782796290771 -0.00043010451826606857
leaf_weight=578 38 20 20 41 21591
leaf_count=578 38 20 20 41 21591
internal_value=0 -9.09836e-05 -0.0355267 0.0411227 3.84896e-05
internal_weight=0 22250 81 61 22169
internal_count=22288 22250 81 61 22169
is_linear=0
shrinkage=0.5


Tree=61
num_leaves=6
num_cat=0
split_feature=7 5 4 11 1
split_gain=0.654555 6.32804 3.38316 7.33617 2.49549
threshold=-1.0000000180025095e-35 0.0016450000111944976 9992.4790039062518 12871.471191406252 2.5000000000000004
decision_type=2 2 2 2 2
left_child=1 4 -2 -4 -1
right_child=2 -3 3 -5 -6
leaf_value=0.030926087100242711 0.00026335422351754289 -0.29027782268822194 0.36588949302677065 0.013110602910663667 -0.020810112864007076
leaf_weight=321 21020 20 20 56 851
leaf_count=321 21020 20 20 56 851
internal_value=0 -0.0113991 0.000644088 0.105947 -0.00664004
internal_weight=0 1192 21096 76 1172
internal_count=22288 1192 21096 76 1172
is_linear=0
shrinkage=0.5


Tree=62
num_leaves=6
num_cat=0
split_feature=4 15 27 4 12
split_gain=1.11315 6.72276 1.82545 1.36317 11.1128
threshold=9992.4790039062518 -0.58149999380111683 -97.805999755859361 9987.8916015625018 12623.290527343752
decision_type=2 2 2 2 2
left_child=3 2 -2 -1 -5
right_child=1 -3 -4 4 -6
leaf_value=-2.6535418457637406e-05 0.16655314684127612 -0.2155899168436598 -0.037978817458497363 0.37853227404966239 -0.042306139373742495
leaf_weight=22124 24 37 20 21 62
leaf_count=22124 24 37 20 21 62
internal_value=0 -0.0585077 0.0735841 0.000213407 0.064171
internal_weight=0 81 44 22207 83
internal_count=22288 81 44 22207 83
is_linear=0
shrinkage=0.5


Tree=63
num_leaves=6
num_cat=0
split_feature=13 6 13 10 22
split_gain=0.425022 1.8543 1.27629 1.08869 0.920576
threshold=13431.063476562502 -71374.999999999985 11990.277343750002 3264.7089843750005 26.750000000000004
decision_type=2 2 2 2 2
left_child=1 2 -1 -2 -3
right_child=3 4 -4 -5 -6
leaf_value=-0.11163785180141186 -0.084749440065561191 0.0018537327753844963 0.016829254539233857 -0.0011106372811096807 0.018520194541153005
leaf_weight=58 39 4809 29 16352 1001
leaf_count=58 39 4809 29 16352 1001
internal_value=0 0.00364022 -0.0688155 -0.00130964 0.00472518
internal_weight=0 5897 87 16391 5810
internal_count=22288 5897 87 16391 5810
is_linear=0
shrinkage=0.5


Tree=64
num_leaves=6
num_cat=0
split_feature=4 10 5 14 5
split_gain=0.408995 2.8604 1.49287 1.59381 1.41508
threshold=9985.8540039062518 3452.8625488281255 0.0016450000111944976 3832.1760253906255 0.0015349999885074796
decision_type=2 2 2 2 2
left_child=4 -2 3 -3 -1
right_child=1 2 -4 -5 -6
leaf_value=0.0003568222306900245 -0.13404132409154304 -0.0029653465805694985 0.11734175417223014 0.029814267282998005 -0.018260886594213464
leaf_weight=19500 35 1079 32 565 1077
leaf_count=19500 35 1079 32 565 1077
internal_value=0 0.00742779 0.0103821 0.00830015 -0.000617628
internal_weight=0 1711 1676 1644 20577
internal_count=22288 1711 1676 1644 20577
is_linear=0
shrinkage=0.5


Tree=65
num_leaves=6
num_cat=0
split_feature=6 14 9 10 14
split_gain=0.432707 2.0059 1.94521 2.05207 2.31141
threshold=70375.000000000015 4396.1752929687509 829494.59375000012 3431.9550781250005 3963.2670898437505
decision_type=2 2 2 2 2
left_child=-1 2 3 4 -2
right_child=1 -3 -4 -5 -6
leaf_value=-0.00035979140639140803 0.0044765890389680861 -0.067864677271068985 -0.031264494224220576 0.025255578222779972 0.19923486789831749
leaf_weight=21709 25 67 121 327 39
leaf_count=21709 25 67 121 327 39
internal_value=0 0.01349 0.024136 0.0412804 0.123157
internal_weight=0 579 512 391 64
internal_count=22288 579 512 391 64
is_linear=0
shrinkage=0.5


Tree=66
num_leaves=6
num_cat=0
split_feature=4 9 15 5 7
split_gain=0.904979 8.15567 0.881939 0.820388 2.48201
threshold=9992.4790039062518 731873.84375000012 -0.57649999856948841 0.0016349999932572248 -19124.999999999996
decision_type=2 2 2 2 2
left_child=3 2 -2 -1 -5
right_child=1 -3 -4 4 -6
leaf_value=-8.839095433682308e-05 -0.018048472626231098 -0.31257380632979964 0.10423159106479336 0.18695784813683966 0.011632313427451829
leaf_weight=22019 29 22 30 23 165
leaf_count=22019 29 22 30 23 165
internal_value=0 -0.0527541 0.0441278 0.00019242 0.0330817
internal_weight=0 81 59 22207 188
internal_count=22288 81 59 22207 188
is_linear=0
shrinkage=0.5


Tree=67
num_leaves=6
num_cat=0
split_feature=3 4 0 3 11
split_gain=0.345408 1.91238 4.5331 2.71408 5.58298
threshold=21.500000000000004 113.65119934082033 206.50000000000003 4.5000000000000009 11384.273925781252
decision_type=2 2 2 2 2
left_child=1 3 -3 4 -1
right_child=-2 2 -4 -5 -6
leaf_value=0.15223283388626738 0.0012228839229880312 -0.20466183727750412 0.0048021842557176486 -0.0015363790792562238 -0.04648705072383414
leaf_weight=37 16081 26 3940 1414 790
leaf_count=37 16081 26 3940 1414 790
internal_value=0 -0.00316823 0.003429 -0.0148436 -0.0375963
internal_weight=0 6207 3966 2241 827
internal_count=22288 6207 3966 2241 827
is_linear=0
shrinkage=0.5


Tree=68
num_leaves=6
num_cat=0
split_feature=3 27 4 2 4
split_gain=0.610424 2.50133 1.91109 5.79981 1.78132
threshold=2.5000000000000004 -97.833000183105455 9971.1250000000018 396.50000000000006 4923.8410644531259
decision_type=2 2 2 2 2
left_child=1 -1 4 -4 -3
right_child=-2 2 3 -5 -6
leaf_value=0.16067351911354949 -0.00069101303470786438 0.0074681730596420177 -0.0014962420557692116 0.24588857078572002 -0.05621285751449475
leaf_weight=27 20835 1188 84 33 121
leaf_count=27 20835 1188 84 33 121
internal_value=0 0.00990864 0.00705405 0.068279 0.00158169
internal_weight=0 1453 1426 117 1309
internal_count=22288 1453 1426 117 1309
is_linear=0
shrinkage=0.5


Tree=69
num_leaves=6
num_cat=0
split_feature=21 7 7 5 4
split_gain=0.606979 0.969663 0.402391 2.81608 1.55096
threshold=26.050000190734867 -1.0000000180025095e-35 -1.0000000180025095e-35 0.0016450000111944976 4928.2470703125009
decision_type=2 2 2 2 2
left_child=2 -2 3 4 -1
right_child=1 -3 -4 -5 -6
leaf_value=-0.01454925306765842 0.13619836215816794 -0.01400987039828165 0.00038656282789280408 -0.19514629431068897 0.033061955160206255
leaf_weight=942 21 22 21074 20 209
leaf_count=942 21 22 21074 20 209
internal_value=0 0.0593476 -0.00011472 -0.0091361 -0.00590395
internal_weight=0 43 22245 1171 1151
internal_count=22288 43 22245 1171 1151
is_linear=0
shrinkage=0.5


Tree=70
num_leaves=6
num_cat=0
split_feature=5 9 7 9 7
split_gain=0.426113 1.43804 1.34343 1.90172 0.98015
threshold=5.1650000386871404e-05 847985.96875000012 19125.000000000004 803844.53125000012 -69124.999999999985
decision_type=2 2 2 2 2
left_child=2 -2 4 -4 -1
right_child=1 -3 3 -5 -6
leaf_value=-0.02673276452818148 -0.0017361140075941093 0.088785773651166397 0.012746289125172613 0.10578818362508272 0.0030849123740362191
leaf_weight=288 15266 44 213 74 6403
leaf_count=288 15266 44 213 74 6403
internal_value=0 -0.00147596 0.00323831 0.0367362 0.00180147
internal_weight=0 15310 6978 287 6691
internal_count=22288 15310 6978 287 6691
is_linear=0
shrinkage=0.5


Tree=71
num_leaves=6
num_cat=0
split_feature=6 25 4 14 4
split_gain=0.475325 0.37399 1.18141 5.09935 4.9899
threshold=-108124.99999999999 41.149999618530281 9985.6909179687518 3847.7709960937505 9986.3266601562518
decision_type=2 2 2 2 2
left_child=-1 2 -2 -4 -5
right_child=1 -3 3 4 -6
leaf_value=0.055150891737773634 -3.2045070392594825e-07 -0.0029308153304424115 0.0048898409066522961 0.18886945358937299 -0.0033140072393846713
leaf_weight=39 13339 7642 1130 79 59
leaf_count=39 13339 7642 1130 79 59
internal_value=0 -9.66733e-05 0.00138608 0.0159706 0.106704
internal_weight=0 22249 14607 1268 138
internal_count=22288 22249 14607 1268 138
is_linear=0
shrinkage=0.5


Tree=72
num_leaves=6
num_cat=0
split_feature=24 16 3 15 13
split_gain=0.353384 2.5046 1.60637 1.30123 1.1656
threshold=31.750000000000004 44.958000183105476 41.500000000000007 -0.58550000190734852 13697.899414062502
decision_type=2 2 2 2 2
left_child=1 2 -1 4 -3
right_child=-2 3 -4 -5 -6
leaf_value=-0.1695932578169615 0.0011332401525647711 -0.0182386964180055 -0.001324524596819411 0.0003486309767553597 -0.10284592295912179
leaf_weight=37 16834 544 23 4806 44
leaf_count=37 16834 544 23 4806 44
internal_value=0 -0.00349779 -0.10509 -0.00236773 -0.0245698
internal_weight=0 5454 60 5394 588
internal_count=22288 5454 60 5394 588
is_linear=0
shrinkage=0.5


Tree=73
num_leaves=6
num_cat=0
split_feature=12 4 15 10 16
split_gain=0.382069 1.27755 1.4047 0.858998 0.730483
threshold=12134.719238281252 18.549200057983402 -0.62549999356269825 3264.7089843750005 45.153999328613288
decision_type=2 2 2 2 2
left_child=1 -1 -3 -2 -4
right_child=3 2 4 -5 -6
leaf_value=0.0022382584250517741 -0.076121964308090109 0.010438703997405591 0.049089566341514679 -0.00086685009427370241 0.14423576290229043
leaf_weight=4184 38 135 43 17850 38
leaf_count=4184 38 135 43 17850 38
internal_value=0 0.00417407 0.0416715 -0.00102672 0.0937261
internal_weight=0 4400 216 17888 81
internal_count=22288 4400 216 17888 81
is_linear=0
shrinkage=0.5


Tree=74
num_leaves=6
num_cat=0
split_feature=6 12 19 10 15
split_gain=0.369844 1.14606 1.30163 1.36134 0.931613
threshold=70375.000000000015 12712.581054687502 26.050000190734867 3474.054565429688 -0.51449999213218678
decision_type=2 2 2 2 2
left_child=-1 -2 3 -3 -4
right_child=1 2 4 -5 -6
leaf_value=-0.00033263140287113858 0.037900934347407926 0.16133266793830053 -0.067541566182626411 0.0060228591931707678 -0.0029113172816363185
leaf_weight=21709 251 21 80 43 184
leaf_count=21709 251 21 80 43 184
internal_value=0 0.0124717 -0.00698792 0.0569839 -0.0224962
internal_weight=0 579 328 64 264
internal_count=22288 579 328 64 264
is_linear=0
shrinkage=0.5


Tree=75
num_leaves=6
num_cat=0
split_feature=23 15 15 11 16
split_gain=0.323822 0.449754 0.496463 0.520481 0.337535
threshold=24.650000572204593 -0.64350000023841847 -0.61349999904632557 11753.459472656252 45.68499946594239
decision_type=2 2 2 2 2
left_child=4 -2 3 -3 -1
right_child=1 2 -4 -5 -6
leaf_value=0.00026486710402417438 -0.081874573197974657 -0.013281767000129598 -0.043305184700313887 0.085272649702216902 -0.033790454424739089
leaf_weight=22073 27 37 57 21 73
leaf_count=22073 27 37 57 21 73
internal_value=0 -0.0238008 -0.010166 0.0224017 0.00015261
internal_weight=0 142 115 58 22146
internal_count=22288 142 115 58 22146
is_linear=0
shrinkage=0.5


Tree=76
num_leaves=6
num_cat=0
split_feature=5 5 16 13 10
split_gain=0.274706 0.658026 2.73088 4.01039 0.28256
threshold=0.0016849999665282669 0.0016450000111944976 45.122999191284187 13467.390625000002 3183.2829589843755
decision_type=2 2 2 2 2
left_child=1 4 -3 -4 -1
right_child=-2 2 3 -5 -6
leaf_value=0.011330514023007186 -0.036654037756699266 -0.078623362723737961 -0.059531989507377148 0.21289827589477811 -0.00036573334405664849
leaf_weight=529 51 30 22 35 21621
leaf_count=529 51 30 22 35 21621
internal_value=0 8.40651e-05 0.0434832 0.10775 -8.63963e-05
internal_weight=0 22237 87 57 22150
internal_count=22288 22237 87 57 22150
is_linear=0
shrinkage=0.5


Tree=77
num_leaves=6
num_cat=0
split_feature=5 13 5 7 27
split_gain=0.312511 2.22784 4.11809 1.48564 2.17984
threshold=0.00093749997904524218 9535.9980468750018 0.00082249997649341833 -19124.999999999996 -97.81750106811522
decision_type=2 2 2 2 2
left_child=1 2 -1 4 -2
right_child=3 -3 -4 -5 -6
leaf_value=-0.088387554821868733 -0.18744697263119398 0.00026023035984677349 0.086450750888530714 -0.002719855228077116 -0.0098601917804141213
leaf_weight=42 27 18251 170 3750 48
leaf_count=42 27 18251 170 3750 48
internal_value=0 0.000852181 0.051813 -0.00411342 -0.0737914
internal_weight=0 18463 212 3825 75
internal_count=22288 18463 212 3825 75
is_linear=0
shrinkage=0.5


Tree=78
num_leaves=6
num_cat=0
split_feature=4 11 5 3 4
split_gain=0.469963 2.44728 1.57217 4.96974 1.39868
threshold=9992.4790039062518 12871.471191406252 0.0016450000111944976 7.5000000000000009 14.03595018386841
decision_type=2 2 2 2 2
left_child=2 -2 -1 -4 -5
right_child=1 -3 3 4 -6
leaf_value=-0.00015269034291317846 -0.16809113062918185 0.020052939873754179 0.22928281392781966 -0.077915163863311848 0.058658336375006719
leaf_weight=22101 25 56 31 37 38
leaf_count=22101 25 56 31 37 38
internal_value=0 -0.0380162 0.000138664 0.0608861 -0.00871792
internal_weight=0 81 22207 106 75
internal_count=22288 81 22207 106 75
is_linear=0
shrinkage=0.5


Tree=79
num_leaves=6
num_cat=0
split_feature=15 16 16 23 16
split_gain=0.306715 1.20915 1.70556 1.39752 1.21049
threshold=-0.62950000166892994 44.969999313354499 45.05999946594239 24.050000190734867 45.013000488281257
decision_type=2 2 2 2 2
left_child=1 -1 3 4 -3
right_child=-2 2 -4 -5 -6
leaf_value=-0.082576344054484482 0.00049788662090341181 0.019257499079685658 -0.016130421990254312 0.034210608875689406 -0.094453877473080705
leaf_weight=51 20790 50 978 375 44
leaf_count=51 20790 50 978 375 44
internal_value=0 -0.00690992 -0.00424303 0.0205456 -0.0339691
internal_weight=0 1498 1447 469 94
internal_count=22288 1498 1447 469 94
is_linear=0
shrinkage=0.5


Tree=80
num_leaves=6
num_cat=0
split_feature=26 15 5 9 10
split_gain=0.265376 0.659248 0.70477 2.23263 0.918651
threshold=-97.508998870849595 -0.58650001883506764 0.00075750000542029749 726014.43750000012 3278.179565429688
decision_type=2 2 2 2 2
left_child=-1 -2 4 -4 -3
right_child=1 2 3 -5 -6
leaf_value=0.00090004874290713194 -0.021909969889374145 -0.086629604155225956 0.0080770507847591488 0.15176323446413054 -0.0028515584448754595
leaf_weight=17520 433 33 399 29 3874
leaf_count=17520 433 33 399 29 3874
internal_value=0 -0.00330723 -0.0014491 0.0178128 -0.00355918
internal_weight=0 4768 4335 428 3907
internal_count=22288 4768 4335 428 3907
is_linear=0
shrinkage=0.5


Tree=81
num_leaves=6
num_cat=0
split_feature=7 5 23 26 4
split_gain=0.236736 0.234803 0.257033 0.240263 0.82616
threshold=-105874.99999999999 2.4050000320130497e-05 24.150000572204593 -97.401000976562486 14.71490001678467
decision_type=2 2 2 2 2
left_child=-1 2 -2 -3 -5
right_child=1 3 -4 4 -6
leaf_value=0.040513474565361522 0.05311442812028893 0.00041129919216795549 -0.006067084958885971 -0.041477058398746082 -0.0025332673862992904
leaf_weight=36 43 19792 32 145 2240
leaf_count=36 43 19792 32 145 2240
internal_value=0 -6.5544e-05 0.0278636 -0.000159997 -0.00490092
internal_weight=0 22252 75 22177 2385
internal_count=22288 22252 75 22177 2385
is_linear=0
shrinkage=0.5


Tree=82
num_leaves=6
num_cat=0
split_feature=13 12 26 20 26
split_gain=0.344964 2.60475 1.0982 0.769108 0.357616
threshold=15320.241699218752 13334.555175781252 -95.805999755859361 27.750000000000004 -95.890998840332017
decision_type=2 2 2 2 2
left_child=-1 -2 3 -3 -5
right_child=1 2 -4 4 -6
leaf_value=-0.00021412336141677605 0.18693174968384915 0.0093828319716549504 0.10976419547064738 -0.02787586604245007 -0.11260733644012362
leaf_weight=22027 21 165 22 33 20
leaf_count=22027 21 165 22 33 20
internal_value=0 0.0180709 0.00329554 -0.007449 -0.05985
internal_weight=0 261 240 218 53
internal_count=22288 261 240 218 53
is_linear=0
shrinkage=0.5


Tree=83
num_leaves=6
num_cat=0
split_feature=9 26 5 4 11
split_gain=0.238811 0.43605 0.288158 0.97331 0.98797
threshold=852061.46875000012 -97.597999572753892 5.0949998694704852e-05 13.622499942779543 12526.826660156252
decision_type=2 2 2 2 2
left_child=2 -2 -1 4 -4
right_child=1 -3 3 -5 -6
leaf_value=0.0032795697823561373 -0.014064308312536805 0.031870285517550404 -0.017762178264092654 -0.00058784605745924087 -0.1516888962304663
leaf_weight=5831 552 57 40 15787 21
leaf_count=5831 552 57 40 15787 21
internal_value=0 -0.00976501 0.000274316 -0.000831416 -0.0638681
internal_weight=0 609 21679 15848 61
internal_count=22288 609 21679 15848 61
is_linear=0
shrinkage=0.5


Tree=84
num_leaves=6
num_cat=0
split_feature=13 9 6 6 3
split_gain=0.29166 0.83098 2.28879 0.793675 0.599561
threshold=13446.160644531252 603143.50000000012 -19124.999999999996 -71374.999999999985 43.500000000000007
decision_type=2 2 2 2 2
left_child=3 2 -2 -1 -5
right_child=1 -3 -4 4 -6
leaf_value=-0.042247440864836484 0.029175494227494145 -0.00093365233581144168 -0.1820331158258183 0.008963104933681014 -0.0008844033426134571
leaf_weight=96 29 15899 23 2819 3422
leaf_count=96 29 15899 23 2819 3422
internal_value=0 -0.00114004 -0.0642437 0.00286962 0.00356362
internal_weight=0 15951 52 6337 6241
internal_count=22288 15951 52 6337 6241
is_linear=0
shrinkage=0.5


Tree=85
num_leaves=6
num_cat=0
split_feature=19 16 15 15 16
split_gain=0.2635 0.272303 0.309496 0.389555 0.240902
threshold=25.849999427795414 44.909999847412116 -0.62549999356269825 -0.64049997925758351 44.909999847412116
decision_type=2 2 2 2 2
left_child=1 -1 3 -3 -2
right_child=4 2 -4 -5 -6
leaf_value=-0.048997945001130881 0.019859739271698578 -0.0064211620941360516 0.0061755856921339751 -0.062691528330299451 7.8001685566812806e-05
leaf_weight=47 155 89 169 47 21781
leaf_count=47 155 89 169 47 21781
internal_value=0 -0.0135716 -0.0081125 -0.0258675 0.00021778
internal_weight=0 352 305 136 21936
internal_count=22288 352 305 136 21936
is_linear=0
shrinkage=0.5


Tree=86
num_leaves=6
num_cat=0
split_feature=15 25 16 10 12
split_gain=0.249793 0.441323 0.404066 0.243342 0.848354
threshold=-0.44949999451637263 38.750000000000007 45.236000061035163 3179.109985351563 9906.7299804687518
decision_type=2 2 2 2 2
left_child=3 -2 -3 4 -1
right_child=1 2 -4 -5 -6
leaf_value=-0.0028477976567798237 0.029438367811962962 -0.10756279322826727 -0.0093666593311354518 -0.00015396668465046787 0.043298248303876283
leaf_weight=323 20 22 20 21759 144
leaf_count=323 20 22 20 21759 144
internal_value=0 -0.0316927 -0.0608027 8.84076e-05 0.0113814
internal_weight=0 62 42 22226 467
internal_count=22288 62 42 22226 467
is_linear=0
shrinkage=0.5


Tree=87
num_leaves=6
num_cat=0
split_feature=3 25 6 15 5
split_gain=0.266662 0.363189 0.759129 0.475328 0.76766
threshold=86.500000000000014 38.350000381469734 -19124.999999999996 -0.6325000226497649 0.00083249999443069111
decision_type=2 2 2 2 2
left_child=1 2 -1 4 -4
right_child=-2 -3 3 -5 -6
leaf_value=-0.088653385390837988 0.0020816293174571185 -0.00065391824334027889 -0.089090257614023158 -0.0046243717889369578 0.00092683225404471164
leaf_weight=30 9102 12108 45 953 50
leaf_count=30 9102 12108 45 953 50
internal_value=0 -0.0014369 -0.0102313 -0.0079864 -0.0417128
internal_weight=0 13186 1078 1048 95
internal_count=22288 13186 1078 1048 95
is_linear=0
shrinkage=0.5


Tree=88
num_leaves=6
num_cat=0
split_feature=16 15 14 5 3
split_gain=0.268751 0.621825 0.994804 1.18121 1.20368
threshold=45.177000045776374 -0.55649998784065235 3849.7504882812505 0.00065750000067055236 49.500000000000007
decision_type=2 2 2 2 2
left_child=-1 2 3 4 -2
right_child=1 -3 -4 -5 -6
leaf_value=-0.001239333069507459 0.080554314768262275 0.00014872621498017896 0.041689996333950041 -0.00041937061803885151 0.0025852941743314565
leaf_weight=14765 99 6007 231 1087 99
leaf_count=14765 99 6007 231 1087 99
internal_value=0 0.00243237 0.0114811 0.00605056 0.0415698
internal_weight=0 7523 1516 1285 198
internal_count=22288 7523 1516 1285 198
is_linear=0
shrinkage=0.5


Tree=89
num_leaves=6
num_cat=0
split_feature=15 20 21 18 20
split_gain=0.218214 0.758875 0.591498 1.72507 1.10729
threshold=-0.6274999976158141 26.94999980926514 25.849999427795414 26.750000000000004 27.150000572204593
decision_type=2 2 2 2 2
left_child=1 -1 3 -3 -5
right_child=-2 2 -4 4 -6
leaf_value=0.088736849615261668 0.0004312664521147607 0.022021375451004133 -0.00335274871728279 -0.020120778572460522 -0.12261949825149618
leaf_weight=21 20714 80 1367 49 57
leaf_count=21 20714 80 1367 49 57
internal_value=0 -0.00567551 -0.00695217 -0.033406 -0.075238
internal_weight=0 1574 1553 186 106
internal_count=22288 1574 1553 186 106
is_linear=0
shrinkage=0.5


Tree=90
num_leaves=6
num_cat=0
split_feature=21 23 14 14 9
split_gain=0.23843 2.57668 1.42264 1.33352 2.03024
threshold=25.94999980926514 24.550000190734867 2917.0834960937505 4334.1628417968759 726014.43750000012
decision_type=2 2 2 2 2
left_child=-1 3 -3 4 -2
right_child=1 2 -4 -5 -6
leaf_value=-0.00032841399921979312 0.0026016447178721929 0.045720292355066965 0.21787793473118827 0.1289626712910831 -0.1481472544534051
leaf_weight=21424 772 28 21 20 23
leaf_count=21424 772 28 21 20 23
internal_value=0 0.00814345 0.119502 0.00144827 -0.00175964
internal_weight=0 864 49 815 795
internal_count=22288 864 49 815 795
is_linear=0
shrinkage=0.5


Tree=91
num_leaves=6
num_cat=0
split_feature=5 4 3 14 5
split_gain=0.246699 1.35021 1.20823 1.07446 1.74582
threshold=0.00091549998614937078 4928.2470703125009 4.5000000000000009 2974.214477539063 0.0008205000194720925
decision_type=2 2 2 2 2
left_child=1 3 -3 4 -1
right_child=-2 2 -4 -5 -6
leaf_value=-0.0055007597248098164 -0.0036272757506587601 -0.028769843651965252 0.089302655652714655 -0.00012140283962950518 0.062635925106929266
leaf_weight=198 3873 30 78 17930 179
leaf_count=198 3873 30 78 17930 179
internal_value=0 0.00076288 0.0565047 0.000434038 0.0268506
internal_weight=0 18415 108 18307 377
internal_count=22288 18415 108 18307 377
is_linear=0
shrinkage=0.5


Tree=92
num_leaves=6
num_cat=0
split_feature=15 3 3 3 3
split_gain=0.317074 3.21828 1.32076 1.32389 0.943254
threshold=-0.62950000166892994 52.500000000000007 5.5000000000000009 2.5000000000000004 43.500000000000007
decision_type=2 2 2 2 2
left_child=1 2 3 -1 -4
right_child=-2 -3 4 -5 -6
leaf_value=-0.012077572672259536 0.00050622489109904861 -0.10151602923253771 0.0083518144272608993 -0.13195649584805644 -0.02965377030032626
leaf_weight=61 20790 85 1124 37 191
leaf_count=61 20790 85 1124 37 191
internal_value=0 -0.00702564 -0.00134151 -0.057338 0.00283161
internal_weight=0 1498 1413 98 1315
internal_count=22288 1498 1413 98 1315
is_linear=0
shrinkage=0.5


Tree=93
num_leaves=6
num_cat=0
split_feature=5 6 4 5 12
split_gain=0.267629 1.97022 1.39673 0.331827 0.320623
threshold=0.001624999975319952 -19124.999999999996 9987.8916015625018 0.0017050000024028125 12612.235839843752
decision_type=2 2 2 2 2
left_child=-1 -2 3 -3 -4
right_child=1 2 4 -5 -6
leaf_value=-0.00032040642539638594 0.12877423704996932 0.011829344121622669 -0.042635977623008546 -0.04036137624643743 -0.13109340518712997
leaf_weight=21551 33 631 21 32 20
leaf_count=21551 33 631 21 32 20
internal_value=0 0.00936917 0.00377206 0.00931033 -0.0857859
internal_weight=0 737 704 663 41
internal_count=22288 737 704 663 41
is_linear=0
shrinkage=0.5


Tree=94
num_leaves=6
num_cat=0
split_feature=4 27 25 4 13
split_gain=0.689049 1.76876 0.359071 0.298475 3.52809
threshold=9992.4790039062518 -97.833000183105455 40.549999237060554 9987.8916015625018 13508.730468750002
decision_type=2 2 2 2 2
left_child=3 -2 -3 -1 -5
right_child=1 2 -4 4 -6
leaf_value=5.5626578725937533e-05 -0.17092214058807476 0.027110168477520347 -0.053155992706623773 0.19659475301918777 -0.03372919072668689
leaf_weight=22124 21 38 22 23 60
leaf_count=22124 21 38 22 23 60
internal_value=0 -0.0460322 -0.00232076 0.000167902 0.0300955
internal_weight=0 81 60 22207 83
internal_count=22288 81 60 22207 83
is_linear=0
shrinkage=0.5


Tree=95
num_leaves=6
num_cat=0
split_feature=7 5 7 1 7
split_gain=0.249168 0.192639 5.33868 8.4636 1.96997
threshold=105875.00000000001 0.00062400000751949858 69125.000000000015 6.5000000000000009 -1.0000000180025095e-35
decision_type=2 2 2 2 2
left_child=1 -1 4 -4 -3
right_child=-2 2 3 -5 -6
leaf_value=0.00098548991146841115 0.039930391776112795 -0.039571822601569467 -0.21123820312272806 0.025557995149299403 0.0014654151988530821
leaf_weight=14689 39 305 77 74 7104
leaf_count=14689 39 305 77 74 7104
internal_value=0 -6.99935e-05 -0.00212079 -0.0951924 -0.00022393
internal_weight=0 22249 7560 151 7409
internal_count=22288 22249 7560 151 7409
is_linear=0
shrinkage=0.5


Tree=96
num_leaves=6
num_cat=0
split_feature=6 7 12 4 4
split_gain=0.225131 0.207283 2.80915 2.65613 2.06027
threshold=-108124.99999999999 69125.000000000015 12373.085449218752 1019.9326171875001 9983.2407226562518
decision_type=2 2 2 2 2
left_child=-1 -2 -3 -4 -5
right_child=1 2 3 4 -6
leaf_value=0.037955493636381551 -0.00031599491934911609 -0.068364635330730492 0.046382312437002172 -0.12108394186547462 0.012778997761071534
leaf_weight=39 21670 97 361 47 74
leaf_count=39 21670 97 361 47 74
internal_value=0 -6.65317e-05 0.00927003 0.0248936 -0.0392174
internal_weight=0 22249 579 482 121
internal_count=22288 22249 579 482 121
is_linear=0
shrinkage=0.5


Tree=97
num_leaves=6
num_cat=0
split_feature=13 7 5 14 4
split_gain=0.207481 0.945143 2.12099 0.814279 0.741845
threshold=14014.643066406252 -19124.999999999996 0.0016349999932572248 4333.5590820312509 509.72880554199224
decision_type=2 2 2 2 2
left_child=1 2 3 -1 -2
right_child=4 -3 -4 -5 -6
leaf_value=0.033110591535018212 -0.002780195505865148 0.00063943398489899658 -0.10077888591747199 0.1162278457709095 0.019845810735157184
leaf_weight=221 8708 12919 28 34 378
leaf_count=221 8708 12919 28 34 378
internal_value=0 0.00126558 0.0298494 0.0441929 -0.0018389
internal_weight=0 13202 283 255 9086
internal_count=22288 13202 283 255 9086
is_linear=0
shrinkage=0.5


Tree=98
num_leaves=6
num_cat=0
split_feature=5 6 19 10 12
split_gain=0.22678 1.76907 0.898978 0.674848 2.28743
threshold=0.0016349999932572248 -1.0000000180025095e-35 26.050000190734867 3447.9760742187505 12551.486328125002
decision_type=2 2 2 2 2
left_child=-1 -2 -3 4 -4
right_child=1 2 3 -5 -6
leaf_value=-0.00015961053948911562 0.11906338365266232 0.037434514050777905 -0.072123686860625938 -0.074793465561050848 0.13552068209364301
leaf_weight=22067 35 78 36 51 21
leaf_count=22067 35 78 36 51 21
internal_value=0 0.0159372 -0.00346824 -0.0330091 0.00437687
internal_weight=0 221 186 108 57
internal_count=22288 221 186 108 57
is_linear=0
shrinkage=0.5


Tree=99
num_leaves=6
num_cat=0
split_feature=4 9 4 11 25
split_gain=0.495589 1.21036 0.487224 2.19042 0.291299
threshold=9992.4790039062518 729626.53125000012 9987.8916015625018 12802.896484375002 39.750000000000007
decision_type=2 2 2 2 2
left_child=2 -2 -1 -4 -5
right_child=1 -3 3 4 -6
leaf_value=-1.0543388582926994e-06 0.0066049681089890115 -0.12088313563887415 0.17794578167654218 0.032800827652681622 -0.037064944327859256
leaf_weight=22124 52 29 21 25 37
leaf_count=22124 52 29 21 25 37
internal_value=0 -0.0390389 0.000142394 0.0383793 -0.00889326
internal_weight=0 81 22207 83 62
internal_count=22288 81 22207 83 62
is_linear=0
shrinkage=0.5


end of trees

feature_importances:
Column_4=68
Column_3=51
Column_5=49
Column_6=41
Column_7=37
Column_14=32
Column_13=28
Column_15=28
Column_12=25
Column_10=23
Column_11=23
Column_16=17
Column_9=14
Column_1=11
Column_26=8
Column_27=8
Column_23=7
Column_25=7
Column_20=5
Column_2=4
Column_19=3
Column_21=3
Column_0=2
Column_18=2
Column_22=2
Column_24=2

parameters:
[boosting: gbdt]
[objective: regression]
[metric: l1]
[tree_learner: serial]
[device_type: cpu]
[data: ]
[valid: ]
[num_iterations: 100]
[learning_rate: 0.5]
[num_leaves: 6]
[num_threads: 0]
[deterministic: 0]
[force_col_wise: 0]
[force_row_wise: 0]
[histogram_pool_size: -1]
[max_depth: 6]
[min_data_in_leaf: 20]
[min_sum_hessian_in_leaf: 0.001]
[bagging_fraction: 0.7]
[pos_bagging_fraction: 1]
[neg_bagging_fraction: 1]
[bagging_freq: 0]
[bagging_seed: 400]
[feature_fraction: 0.7]
[feature_fraction_bynode: 1]
[feature_fraction_seed: 30056]
[extra_trees: 0]
[extra_seed: 12879]
[early_stopping_round: 0]
[first_metric_only: 0]
[max_delta_step: 0]
[lambda_l1: 0]
[lambda_l2: 0]
[linear_lambda: 0]
[min_gain_to_split: 0]
[drop_rate: 0.8]
[max_drop: 50]
[skip_drop: 0.8]
[xgboost_dart_mode: 0]
[uniform_drop: 0]
[drop_seed: 17869]
[top_rate: 0.2]
[other_rate: 0.1]
[min_data_per_group: 100]
[max_cat_threshold: 32]
[cat_l2: 10]
[cat_smooth: 10]
[max_cat_to_onehot: 4]
[top_k: 20]
[monotone_constraints: ]
[monotone_constraints_method: basic]
[monotone_penalty: 0]
[feature_contri: ]
[forcedsplits_filename: ]
[refit_decay_rate: 0.9]
[cegb_tradeoff: 1]
[cegb_penalty_split: 0]
[cegb_penalty_feature_lazy: ]
[cegb_penalty_feature_coupled: ]
[path_smooth: 0]
[interaction_constraints: ]
[verbosity: 1]
[saved_feature_importance_type: 0]
[linear_tree: 0]
[max_bin: 255]
[max_bin_by_feature: ]
[min_data_in_bin: 3]
[bin_construct_sample_cnt: 200000]
[data_random_seed: 175]
[is_enable_sparse: 1]
[enable_bundle: 1]
[use_missing: 1]
[zero_as_missing: 0]
[feature_pre_filter: 1]
[pre_partition: 0]
[two_round: 0]
[header: 0]
[label_column: ]
[weight_column: ]
[group_column: ]
[ignore_column: ]
[categorical_feature: ]
[forcedbins_filename: ]
[precise_float_parser: 0]
[objective_seed: 16083]
[num_class: 1]
[is_unbalance: 0]
[scale_pos_weight: 1]
[sigmoid: 1]
[boost_from_average: 1]
[reg_sqrt: 0]
[alpha: 0.9]
[fair_c: 1]
[poisson_max_delta_step: 0.7]
[tweedie_variance_power: 1.5]
[lambdarank_truncation_level: 30]
[lambdarank_norm: 1]
[label_gain: ]
[eval_at: ]
[multi_error_top_k: 1]
[auc_mu_weights: ]
[num_machines: 1]
[local_listen_port: 12400]
[time_out: 120]
[machine_list_filename: ]
[machines: ]
[gpu_platform_id: -1]
[gpu_device_id: -1]
[gpu_use_dp: 0]
[num_gpu: 1]

end of parameters

pandas_categorical:null
