tree
version=v3
num_class=1
num_tree_per_iteration=1
label_index=0
max_feature_idx=27
objective=regression
feature_names=Column_0 Column_1 Column_2 Column_3 Column_4 Column_5 Column_6 Column_7 Column_8 Column_9 Column_10 Column_11 Column_12 Column_13 Column_14 Column_15 Column_16 Column_17 Column_18 Column_19 Column_20 Column_21 Column_22 Column_23 Column_24 Column_25 Column_26 Column_27
feature_infos=[205:207] [1:14] [1:641] [1:200] [9.6354999542236328:10001.138671875] [2.0600000425474718e-05:0.071199998259544373] [-110250:110250] [-110250:110250] [-1514:-1500] [27413.599609375:891620.6875] [962.21502685546875:3783.802978515625] [1046.031005859375:14591.265625] [1102.8590087890625:13930.2470703125] [1456.342041015625:16048.3212890625] [1098.2850341796875:4498.72705078125] [-0.67000001668930054:0.27399998903274536] [44.854999542236328:45.7239990234375] [24.972999572753906:25.024999618530273] [26.200000762939453:27.299999237060547] [25.799999237060547:26.600000381469727] [26.899999618530273:27.899999618530273] [25.399999618530273:26.100000381469727] [26.399999618530273:27.200000762939453] [23.700000762939453:24.700000762939453] [30:35.299999237060547] [36.900001525878906:43.599998474121094] [-97.952003479003906:-95.740997314453125] [-98.0989990234375:-95.902999877929688]
tree_sizes=652 648 660 649 665 651 665 658 650 662 667 643 664 677 651 667 662 646 670 676 668 660 663 645 670 665 652 653 670 651 667 664 672 673 673 647 665 673 662 666 672 678 651 658 661 671 648 677 651 669 667 657 668 661 665 676 672 664 657 662 673 668 684 677 673 663 657 681 651 675 674 686 660 661 672 665 669 674 655 668 675 669 663 669 648 671 673 677 663 655 661 656 664 676 665 672 649 677 677 640

Tree=0
num_leaves=6
num_cat=0
split_feature=4 6 4 4 4
split_gain=13739.3 9766.07 14064.7 2708.97 1547.28
threshold=9992.4790039062518 70375.000000000015 4929.5180664062509 257.04190063476568 9987.9482421875018
decision_type=2 2 2 2 2
left_child=1 4 3 -3 -1
right_child=-2 2 -4 -5 -6
leaf_value=0.020817128053583833 6.4590868308019882 0.017600900988025504 -8.3008321639196687 -2.321613379061807 2.1837844619905242
leaf_weight=21548 82 264 78 233 83
leaf_count=21548 82 264 78 233 83
internal_value=-0.00108971 -0.0249452 -2.0587 -1.07905 0.0291166
internal_weight=0 22206 575 497 21631
internal_count=22288 22206 575 497 21631
is_linear=0
shrinkage=1


Tree=1
num_leaves=6
num_cat=0
split_feature=7 1 3 1 14
split_gain=2716.94 5574.32 1955.46 1761.04 1572.23
threshold=-69124.999999999985 4.5000000000000009 2.5000000000000004 6.5000000000000009 4105.4731445312509
decision_type=2 2 2 2 2
left_child=1 -1 4 -3 -2
right_child=2 3 -4 -5 -6
leaf_value=-0.30023514541114915 -1.3567805666591179 3.8077799847972309 0.011850358473773435 1.0620576260140637 -0.23823935287489642
leaf_weight=326 456 163 20242 91 1010
leaf_count=326 456 163 20242 91 1010
internal_value=0 1.068 -0.028535 2.82408 -0.586162
internal_weight=0 580 21708 254 1466
internal_count=22288 580 21708 254 1466
is_linear=0
shrinkage=0.5


Tree=2
num_leaves=6
num_cat=0
split_feature=6 5 6 5 14
split_gain=1536.06 2551.42 1314.65 2639.38 1378.98
threshold=-71374.999999999985 0.0015049999929033222 70375.000000000015 0.0014749999972991648 2863.064086914063
decision_type=2 2 2 2 2
left_child=1 -1 4 -4 -2
right_child=2 -3 3 -5 -6
leaf_value=0.39272915651266338 -0.68918634793226374 3.4833465086949338 -0.34302668031459671 -3.4714806018731532 0.022550614948322587
leaf_weight=503 704 77 497 78 20429
leaf_count=503 704 77 497 78 20429
internal_value=0 0.803035 -0.0214557 -0.767408 -0.00115936
internal_weight=0 580 21708 575 21133
internal_count=22288 580 21708 575 21133
is_linear=0
shrinkage=0.5


Tree=3
num_leaves=6
num_cat=0
split_feature=4 7 4 1 14
split_gain=797.048 699.648 2150.12 1080.38 363.76
threshold=9992.4790039062518 -69124.999999999985 4929.5180664062509 6.5000000000000009 2828.619995117188
decision_type=2 2 2 2 2
left_child=1 2 -1 -4 -3
right_child=-2 4 3 -5 -6
leaf_value=-0.028030976582379474 1.5559832322888258 -0.43013158054060169 3.534710967862928 0.82365130480021642 -0.0099596768464144184
leaf_weight=428 82 528 74 73 21103
leaf_count=428 82 528 74 73 21103
internal_value=0 -0.00574577 0.538605 2.1884 -0.0202158
internal_weight=0 22206 575 147 21631
internal_count=22288 22206 575 147 21631
is_linear=0
shrinkage=0.5


Tree=4
num_leaves=6
num_cat=0
split_feature=15 5 7 5 5
split_gain=442.391 643.072 171.829 735.553 211.536
threshold=-0.6274999976158141 0.00082249997649341833 -69124.999999999985 0.00019549999706214297 0.0014950000331737103
decision_type=2 2 2 2 2
left_child=1 -1 3 -2 -5
right_child=2 -3 -4 4 -6
leaf_value=0.58394478597690413 -0.21901198329794988 -0.059619034287921001 -0.026999688442839363 1.2572753579361633 0.25198841324219334
leaf_weight=765 343 788 20155 159 78
leaf_count=765 343 788 20155 159 78
internal_value=0 0.257397 -0.0192784 0.249036 0.926421
internal_weight=0 1553 20735 580 237
internal_count=22288 1553 20735 580 237
is_linear=0
shrinkage=0.5


Tree=5
num_leaves=6
num_cat=0
split_feature=6 4 1 6 4
split_gain=314.919 863.95 258.168 223.751 475.702
threshold=70375.000000000015 257.04190063476568 6.5000000000000009 -71374.999999999985 509.73414611816412
decision_type=2 2 2 2 2
left_child=3 -2 -3 4 -1
right_child=1 2 -4 -5 -6
leaf_value=-0.16915080294840865 0.29998546579118929 -0.66632573396095396 -1.7172607122323451 0.0012631636964248569 0.73864630082201577
leaf_weight=270 264 233 78 21133 310
leaf_count=270 264 233 78 21133 310
internal_value=0 -0.365224 -0.929904 0.00967181 0.316051
internal_weight=0 575 311 21713 580
internal_count=22288 575 311 21713 580
is_linear=0
shrinkage=0.5


Tree=6
num_leaves=6
num_cat=0
split_feature=12 10 7 7 4
split_gain=139.346 138.676 1235.51 366.094 731.816
threshold=9797.8251953125018 3423.6040039062505 69125.000000000015 69125.000000000015 1019.9493408203126
decision_type=2 2 2 2 2
left_child=-1 2 -2 -3 -5
right_child=1 3 -4 4 -6
leaf_value=-0.36110012240048189 0.044674310706175141 -0.0048734521437222575 1.9893756205418023 -0.040463989462528001 -1.3633378209220246
leaf_weight=264 5110 16336 83 345 150
leaf_count=264 5110 16336 83 345 150
internal_value=0 0.00432848 0.0757566 -0.0177098 -0.441335
internal_weight=0 22024 5193 16831 495
internal_count=22288 22024 5193 16831 495
is_linear=0
shrinkage=0.5


Tree=7
num_leaves=6
num_cat=0
split_feature=15 12 3 12 3
split_gain=94.8513 154.991 67.3457 59.1881 183.881
threshold=-0.63449999690055836 10436.999511718752 41.500000000000007 10436.999511718752 7.5000000000000009
decision_type=2 2 2 2 2
left_child=1 -1 -3 4 -2
right_child=3 2 -4 -5 -6
leaf_value=-0.01008807775607193 0.47314259748567233 0.4531619819114599 0.023363294844360401 -0.003161635801239284 -0.26587192917008989
leaf_weight=747 99 379 120 20381 562
leaf_count=747 99 379 120 20381 562
internal_value=0 0.134042 0.349804 -0.00793728 -0.155187
internal_weight=0 1246 499 21042 661
internal_count=22288 1246 499 21042 661
is_linear=0
shrinkage=0.5


Tree=8
num_leaves=6
num_cat=0
split_feature=4 6 4 4 4
split_gain=90.1825 81.153 203.495 61.8285 67.5604
threshold=9986.4824218750018 21375.000000000004 257.04190063476568 4929.5180664062509 1019.9493408203126
decision_type=2 2 2 2 2
left_child=1 -1 -3 4 -4
right_child=-2 2 3 -5 -6
leaf_value=0.0019025678945125443 0.29983036497968341 0.09194153320814144 -0.52946595121652651 -0.85461276081892157 0.042916499085833212
leaf_weight=21393 248 336 156 78 77
leaf_count=21393 248 336 156 78 77
internal_value=0 -0.00337377 -0.177835 -0.469299 -0.34031
internal_weight=0 22040 647 311 233
internal_count=22288 22040 647 311 233
is_linear=0
shrinkage=0.5


Tree=9
num_leaves=6
num_cat=0
split_feature=6 10 5 13 15
split_gain=45.1837 260.24 116.192 66.4523 49.1414
threshold=-71374.999999999985 3431.037963867188 0.00062950002029538165 14513.016601562502 -0.60050001740455616
decision_type=2 2 2 2 2
left_child=1 -1 3 -3 -2
right_child=4 2 -4 -5 -6
leaf_value=0.95157809058825171 0.068443891350529709 -0.2871933308783774 0.36920600249463281 0.21386117873232016 -0.011526586302752627
leaf_weight=84 2130 258 149 89 19578
leaf_count=84 2130 258 149 89 19578
internal_value=0 0.137728 -0.000101895 -0.158681 -0.00367984
internal_weight=0 580 496 347 21708
internal_count=22288 580 496 347 21708
is_linear=0
shrinkage=0.5


Tree=10
num_leaves=6
num_cat=0
split_feature=11 13 3 3 10
split_gain=40.7707 63.1267 67.5038 42.5774 39.1249
threshold=11531.091796875002 11654.509765625002 50.500000000000007 9.5000000000000018 3266.0664062500005
decision_type=2 2 2 2 2
left_child=3 2 -2 -1 -3
right_child=1 4 -4 -5 -6
leaf_value=0.1416966174292611 0.1855622463197075 -0.48504126994382768 -0.024792733046019241 -0.13831583267853734 -0.0019417531252476543
leaf_weight=160 946 42 639 896 19605
leaf_count=160 946 42 639 896 19605
internal_value=0 0.00476919 0.100757 -0.0958897 -0.00297449
internal_weight=0 21232 1585 1056 19647
internal_count=22288 21232 1585 1056 19647
is_linear=0
shrinkage=0.5


Tree=11
num_leaves=6
num_cat=0
split_feature=7 10 10 26 1
split_gain=25.9673 200.146 85.3181 66.2895 63.2789
threshold=-69124.999999999985 3387.213012695313 3432.4074707031255 -97.562999725341783 5.5000000000000009
decision_type=2 2 2 2 2
left_child=1 -1 -3 -4 -5
right_child=-2 2 3 4 -6
leaf_value=-0.62460605156274485 -0.0027896617523099168 0.9996677041053772 -0.046919416972284612 0.15049746133574454 0.66226182394274613
leaf_weight=81 21708 33 203 169 94
leaf_count=81 21708 33 203 169 94
internal_value=0 0.10441 0.222748 0.16773 0.333409
internal_weight=0 580 499 466 263
internal_count=22288 580 499 466 263
is_linear=0
shrinkage=0.5


Tree=12
num_leaves=6
num_cat=0
split_feature=27 4 14 4 6
split_gain=18.6587 52.0585 20.3918 79.9449 25.7594
threshold=-96.021999359130845 255.87734985351565 4472.9799804687509 509.73414611816412 5000.0000000000009
decision_type=2 2 2 2 2
left_child=2 -2 4 -4 -1
right_child=1 -3 3 -5 -6
leaf_value=0.0043923293583391625 0.20555269330862858 -0.24086658037859485 -0.062500741574730651 0.72565040563015226 -0.075518129863238123
leaf_weight=20751 90 238 102 47 1060
leaf_count=20751 90 238 102 47 1060
internal_value=0 -0.118373 0.00176806 0.186111 0.000508735
internal_weight=0 328 21960 149 21811
internal_count=22288 328 21960 149 21811
is_linear=0
shrinkage=0.5


Tree=13
num_leaves=6
num_cat=0
split_feature=7 5 6 4 1
split_gain=17.9918 17.5735 62.9124 94.4884 434.514
threshold=-105874.99999999999 5.0750000809784985e-05 1.0000000180025095e-35 4929.5180664062509 5.5000000000000009
decision_type=2 2 2 2 2
left_child=-1 -2 -3 4 -4
right_child=1 2 3 -5 -6
leaf_value=-0.35820513793400355 0.023258949498261829 0.001324309100793215 -0.0084899503201137875 0.099053696198974056 -0.79806847473695308
leaf_weight=35 6166 14738 739 382 228
leaf_count=35 6166 14738 739 382 228
internal_value=0 0.000563393 -0.00813561 -0.111486 -0.194657
internal_weight=0 22253 16087 1349 967
internal_count=22288 22253 16087 1349 967
is_linear=0
shrinkage=0.5


Tree=14
num_leaves=6
num_cat=0
split_feature=3 13 7 9 9
split_gain=21.4882 63.9484 77.049 176.973 71.9488
threshold=5.5000000000000009 13508.291992187502 69125.000000000015 770952.53125000012 787211.34375000012
decision_type=2 2 2 2 2
left_child=1 2 4 -4 -1
right_child=-2 -3 3 -5 -6
leaf_value=-0.063412534030020395 -0.006888389477341177 0.074101916134977242 -0.11668955492363735 -1.5800448876840096 0.51850272532094988
leaf_weight=780 18622 2714 88 27 57
leaf_count=780 18622 2714 88 27 57
internal_value=0 0.0349906 -0.0765095 -0.46026 -0.0237839
internal_weight=0 3666 952 115 837
internal_count=22288 3666 952 115 837
is_linear=0
shrinkage=0.5


Tree=15
num_leaves=6
num_cat=0
split_feature=5 11 12 3 3
split_gain=15.7216 24.2687 9.03991 66.4374 38.7838
threshold=0.0016349999932572248 12822.618652343752 12531.674804687502 2.5000000000000004 3.5000000000000004
decision_type=2 2 2 2 2
left_child=2 -2 3 -1 -5
right_child=1 -3 -4 4 -6
leaf_value=0.18936982429412527 -0.21151474853112398 0.19833912959115374 -0.0065474643577376149 -0.2291081587371247 0.0082858620753997834
leaf_weight=509 183 45 13712 176 7663
leaf_count=509 183 45 13712 176 7663
internal_value=0 -0.130623 0.00135004 0.0143221 0.00295593
internal_weight=0 228 22060 8348 7839
internal_count=22288 228 22060 8348 7839
is_linear=0
shrinkage=0.5


Tree=16
num_leaves=6
num_cat=0
split_feature=13 14 3 15 15
split_gain=10.1687 46.1099 25.2554 22.0971 20.0214
threshold=9819.0942382812518 3224.506469726563 49.500000000000007 -0.63449999690055836 -0.6274999976158141
decision_type=2 2 2 2 2
left_child=-1 2 3 -2 -4
right_child=1 -3 4 -5 -6
leaf_value=-0.037501686031398342 0.14163577049176262 -0.0019517074973052996 -0.15156921572661736 0.41959455175164451 0.093376579790148462
leaf_weight=1672 272 19736 105 97 406
leaf_count=1672 272 19736 105 97 406
internal_value=0 0.00304146 0.115025 0.214704 0.0430453
internal_weight=0 20616 880 369 511
internal_count=22288 20616 880 369 511
is_linear=0
shrinkage=0.5


Tree=17
num_leaves=6
num_cat=0
split_feature=7 11 4 4 5
split_gain=9.67456 309.438 139.209 413.752 60.5686
threshold=69125.000000000015 12491.536621093752 9983.3310546875018 1019.9493408203126 0.00081850000424310576
decision_type=2 2 2 2 2
left_child=-1 -2 3 -3 -5
right_child=1 2 -4 4 -6
leaf_value=-0.0017027621370292805 0.95740953626402892 0.030954315608920212 0.53729907364437457 -1.6141702621541125 -0.67449250044646092
leaf_weight=21708 83 347 76 47 27
leaf_count=21708 83 347 76 47 27
internal_value=0 0.0637303 -0.0855159 -0.197948 -1.27131
internal_weight=0 580 497 421 74
internal_count=22288 580 497 421 74
is_linear=0
shrinkage=0.5


Tree=18
num_leaves=6
num_cat=0
split_feature=5 4 4 7 4
split_gain=6.57291 15.2829 10.1609 7.52987 95.5664
threshold=0.0016349999932572248 9992.4790039062518 9987.9482421875018 -69124.999999999985 4929.5180664062509
decision_type=2 2 2 2 2
left_child=1 2 3 4 -1
right_child=-2 -3 -4 -5 -6
leaf_value=-0.029406889040397358 -0.08445949120581836 0.28568626337863029 -0.22716895627732181 -0.00064366652159385197 0.58596356736647115
leaf_weight=428 228 47 49 21462 74
leaf_count=428 228 47 49 21462 74
internal_value=0 0.000872927 0.000264821 0.000772208 0.0613051
internal_weight=0 22060 22013 21964 502
internal_count=22288 22060 22013 21964 502
is_linear=0
shrinkage=0.5


Tree=19
num_leaves=6
num_cat=0
split_feature=4 5 4 14 4
split_gain=5.8319 11.6939 25.3864 12.5657 32.0705
threshold=9985.8686523437518 0.00091400000383146118 4929.5180664062509 2863.064086914063 9982.7617187500018
decision_type=2 2 2 2 2
left_child=1 2 -1 -3 -5
right_child=-2 3 -4 4 -6
leaf_value=0.00075528554751687728 0.028879311012997306 0.019911652459829988 0.29224855874820305 -0.15881733261945941 -0.0094490201682334001
leaf_weight=18290 1621 702 75 545 1055
leaf_count=18290 1621 702 75 545 1055
internal_value=0 -0.00226513 0.0019457 -0.0358585 -0.0603276
internal_weight=0 20667 18365 2302 1600
internal_count=22288 20667 18365 2302 1600
is_linear=0
shrinkage=0.5


Tree=20
num_leaves=6
num_cat=0
split_feature=7 10 15 14 7
split_gain=11.0484 33.6019 37.6345 22.3215 11.335
threshold=-1.0000000180025095e-35 3436.8735351562505 -0.53150001168251026 4249.6201171875009 -69124.999999999985
decision_type=2 2 2 2 2
left_child=1 -1 -3 -4 -5
right_child=-2 2 3 4 -6
leaf_value=-0.22176797128378542 0.0026637472797771829 -0.19980507010804832 0.14841921068584837 0.056945007333738938 -0.097311705773284018
leaf_weight=223 21081 201 305 225 253
leaf_count=223 21081 201 305 225 253
internal_value=0 -0.046524 -0.00680914 0.0427339 -0.0247013
internal_weight=0 1207 984 783 478
internal_count=22288 1207 984 783 478
is_linear=0
shrinkage=0.5


Tree=21
num_leaves=6
num_cat=0
split_feature=12 4 3 15 4
split_gain=5.18959 24.0917 24.1419 34.2155 11.3482
threshold=12078.738769531252 18.311900138854984 6.5000000000000009 -0.51250001788139332 14.388400077819826
decision_type=2 2 2 2 2
left_child=1 2 3 -1 -5
right_child=-2 -3 -4 4 -6
leaf_value=-0.028148743525511138 -0.0032549906619470381 0.11215062840498635 -0.015982305610961461 0.16322812922243474 0.45287625675332055
leaf_weight=149 18856 566 2581 63 73
leaf_count=149 18856 566 2581 63 73
internal_value=0 0.0178835 -0.000733131 0.137366 0.318701
internal_weight=0 3432 2866 285 136
internal_count=22288 3432 2866 285 136
is_linear=0
shrinkage=0.5


Tree=22
num_leaves=6
num_cat=0
split_feature=15 3 3 4 11
split_gain=5.07146 7.53572 5.50831 4.79488 103.761
threshold=-0.64849999547004689 30.500000000000004 35.500000000000007 509.73414611816412 12106.741699218752
decision_type=2 2 2 2 2
left_child=1 -1 -3 -2 -5
right_child=3 2 -4 4 -6
leaf_value=0.0026153219093286773 -0.0070720959697725804 0.21536416074934792 0.040257606698676597 0.45849165379158441 0.001372686136058638
leaf_weight=304 13266 94 86 126 8412
leaf_count=304 13266 94 86 126 8412
internal_value=0 0.0506228 0.131702 -0.00112371 0.00811864
internal_weight=0 484 180 21804 8538
internal_count=22288 484 180 21804 8538
is_linear=0
shrinkage=0.5


Tree=23
num_leaves=6
num_cat=0
split_feature=6 1 4 4 10
split_gain=4.3681 28.8128 19.2624 43.9386 12.9147
threshold=21375.000000000004 1.5000000000000002 4929.5180664062509 1019.9493408203126 3406.740600585938
decision_type=2 2 2 2 2
left_child=-1 -2 3 4 -3
right_child=1 2 -4 -5 -6
leaf_value=0.0012103029140973032 0.22545247057595671 -0.28675209183290779 -0.31283305107783049 0.30118048820015669 -0.065487470907395609
leaf_weight=21641 88 83 78 77 321
leaf_count=21641 88 83 78 77 321
internal_value=0 -0.0404825 -0.082347 -0.0449709 -0.110945
internal_weight=0 647 559 481 404
internal_count=22288 647 559 481 404
is_linear=0
shrinkage=0.5


Tree=24
num_leaves=6
num_cat=0
split_feature=4 23 7 4 5
split_gain=3.74524 5.65943 4.77438 2.97211 17.9336
threshold=13.870900154113771 24.050000190734867 -69124.999999999985 9985.6977539062518 0.0015349999885074796
decision_type=2 2 2 2 2
left_child=1 -1 -3 4 -2
right_child=3 2 -4 -5 -6
leaf_value=-0.29155300131865908 0.0014615165174141991 -0.22654916217614865 -0.019224595415120407 0.01804902147409174 -0.10076872086054847
leaf_weight=21 18818 29 654 2327 439
leaf_count=21 18818 29 654 2327 439
internal_value=0 -0.0358884 -0.0280275 0.00117056 -0.000869016
internal_weight=0 704 683 21584 19257
internal_count=22288 704 683 21584 19257
is_linear=0
shrinkage=0.5


Tree=25
num_leaves=6
num_cat=0
split_feature=6 3 16 4 26
split_gain=3.19431 3.28342 3.99352 6.45582 2.95436
threshold=107125.00000000001 110.50000000000001 45.377000808715827 9983.3310546875018 -95.910499572753892
decision_type=2 2 2 2 2
left_child=1 2 -1 -4 -5
right_child=-2 -3 3 4 -6
leaf_value=-0.0071829564015802993 0.14297030176609182 0.0085570417664403969 0.01427142901093096 0.080421322380148236 0.34564190699408454
leaf_weight=13539 39 7171 1497 21 21
leaf_count=13539 39 7171 1497 21 21
internal_value=0 -0.000250611 -0.00443947 0.0196957 0.213032
internal_weight=0 22249 15078 1539 42
internal_count=22288 22249 15078 1539 42
is_linear=0
shrinkage=0.5


Tree=26
num_leaves=6
num_cat=0
split_feature=12 14 3 3 3
split_gain=1.94068 3.2511 15.1808 5.27665 3.51755
threshold=9692.2397460937518 2828.619995117188 4.5000000000000009 27.500000000000004 10.500000000000002
decision_type=2 2 2 2 2
left_child=-1 2 -2 4 -4
right_child=1 -3 3 -5 -6
leaf_value=-0.074104844706281175 0.33653660975396632 -0.00056666157126286285 0.11824102602575136 0.05748564805426646 -0.0945248688836582
leaf_weight=88 40 21760 23 252 125
leaf_count=88 40 21760 23 252 125
internal_value=0 0.000293749 0.042845 0.0134758 -0.0614599
internal_weight=0 22200 440 400 148
internal_count=22288 22200 440 400 148
is_linear=0
shrinkage=0.5


Tree=27
num_leaves=6
num_cat=0
split_feature=21 15 4 0 11
split_gain=1.79952 3.68127 2.73256 1.90828 2.53507
threshold=26.050000190734867 -0.52150002121925343 13.62679958343506 206.50000000000003 12528.530273437502
decision_type=2 2 2 2 2
left_child=2 -2 3 -1 -5
right_child=1 -3 -4 4 -6
leaf_value=-0.03285730298620796 -0.03423576599553875 0.25907257171347736 0.00037138031299882069 -0.033503535072668456 -0.27946295365691187
leaf_weight=190 23 20 22013 22 20
leaf_count=190 23 20 22013 22 20
internal_value=0 0.102187 -0.000197529 -0.0541777 -0.150627
internal_weight=0 43 22245 232 42
internal_count=22288 43 22245 232 42
is_linear=0
shrinkage=0.5


Tree=28
num_leaves=6
num_cat=0
split_feature=6 7 1 3 14
split_gain=1.8619 1.86721 24.7017 11.4571 14.1904
threshold=-108124.99999999999 -1.0000000180025095e-35 3.5000000000000004 1.5000000000000002 4214.7487792968759
decision_type=2 2 2 2 2
left_child=-1 2 -2 4 -3
right_child=1 3 -4 -5 -6
leaf_value=0.11206927519241297 0.066578321696772261 0.29810086488456972 -0.079880512872978343 -0.0002082010601876202 0.015977655905639678
leaf_weight=37 490 72 698 20874 117
leaf_count=37 490 72 698 20874 117
internal_value=0 -0.000186354 -0.0194724 0.000901422 0.123453
internal_weight=0 22251 1188 21063 189
internal_count=22288 22251 1188 21063 189
is_linear=0
shrinkage=0.5


Tree=29
num_leaves=6
num_cat=0
split_feature=16 12 4 7 13
split_gain=1.99107 2.2789 1.38393 17.4262 16.8557
threshold=45.710500717163093 10514.835937500002 4924.7766113281259 69125.000000000015 13527.625000000002
decision_type=2 2 2 2 2
left_child=2 -2 -1 -4 -5
right_child=1 -3 3 4 -6
leaf_value=-0.002033848979585905 0.0019185304362326861 0.22534353556554942 0.0036264258979899515 -0.13565746038442567 0.39091592099178923
leaf_weight=18341 25 21 3825 21 55
leaf_count=18341 25 21 3825 21 55
internal_value=0 0.103917 -0.000214917 0.008337 0.245415
internal_weight=0 46 22242 3901 76
internal_count=22288 46 22242 3901 76
is_linear=0
shrinkage=0.5


Tree=30
num_leaves=6
num_cat=0
split_feature=3 15 5 3 3
split_gain=1.42686 1.70636 3.59536 3.56406 4.57206
threshold=150.50000000000003 -0.64250001311302174 0.00061149999964982282 30.500000000000004 43.500000000000007
decision_type=2 2 2 2 2
left_child=1 2 -1 -4 -5
right_child=-2 -3 3 4 -6
leaf_value=0.11359397374073286 0.0085737820488018014 -0.0029089224599199636 -0.020162121637204784 0.080998323589735549 -0.081386699420312097
leaf_weight=92 3985 17488 432 238 53
leaf_count=92 3985 17488 432 238 53
internal_value=0 -0.00186672 0.0204966 0.00865017 0.051423
internal_weight=0 18303 815 723 291
internal_count=22288 18303 815 723 291
is_linear=0
shrinkage=0.5


Tree=31
num_leaves=6
num_cat=0
split_feature=3 6 1 1 5
split_gain=1.28791 43.6317 50.031 22.5992 10.1723
threshold=2.5000000000000004 -1.0000000180025095e-35 5.5000000000000009 2.5000000000000004 4.8850000894162811e-05
decision_type=2 2 2 2 2
left_child=1 2 -1 4 -3
right_child=-2 3 -4 -5 -6
leaf_value=0.066690218087900668 -0.0010085167909163815 0.15516124753048643 0.55690239055055968 -0.066959852904973735 -0.034609936492483097
leaf_weight=195 20822 204 71 888 108
leaf_count=195 20822 204 71 888 108
internal_value=0 0.0143242 0.197536 -0.0262878 0.0894712
internal_weight=0 1466 266 1200 312
internal_count=22288 1466 266 1200 312
is_linear=0
shrinkage=0.5


Tree=32
num_leaves=6
num_cat=0
split_feature=6 3 4 9 4
split_gain=1.29161 1.28539 2.03733 1.87529 1.92458
threshold=107125.00000000001 63.500000000000007 9986.4824218750018 719557.28125000012 9985.9575195312518
decision_type=2 2 2 2 2
left_child=1 -1 3 4 -3
right_child=-2 2 -4 -5 -6
leaf_value=-0.0039681678340249323 0.090912548496793866 0.012766134840524959 -0.11044675121322656 0.00023452455046689202 0.086677604247457712
leaf_weight=11100 39 2740 39 8279 91
leaf_count=11100 39 2740 39 8279 91
internal_value=0 -0.000159359 0.00363271 0.00403317 0.015142
internal_weight=0 22249 11149 11110 2831
internal_count=22288 22249 11149 11110 2831
is_linear=0
shrinkage=0.5


Tree=33
num_leaves=6
num_cat=0
split_feature=11 7 7 7 12
split_gain=1.53271 6.30714 1.86992 2.14427 1.40958
threshold=13914.447265625002 69125.000000000015 -69124.999999999985 1.0000000180025095e-35 12149.068359375002
decision_type=2 2 2 2 2
left_child=4 2 -2 -4 -1
right_child=1 -3 3 -5 -6
leaf_value=0.0064565719066915694 0.12496185127426596 0.18700277922200223 -0.10787338595837355 0.0091791790471657201 -0.0035091616588511453
leaf_weight=4576 34 51 40 1789 15798
leaf_count=4576 34 51 40 1789 15798
internal_value=0 0.0135279 0.00877902 0.00661925 -0.00127086
internal_weight=0 1914 1863 1829 20374
internal_count=22288 1914 1863 1829 20374
is_linear=0
shrinkage=0.5


Tree=34
num_leaves=6
num_cat=0
split_feature=4 10 13 4 0
split_gain=1.14165 7.45872 4.37677 7.47405 5.16704
threshold=18.181300163269047 3198.6459960937505 11654.509765625002 112.7180519104004 206.50000000000003
decision_type=2 2 2 2 2
left_child=-1 -2 -3 -4 -5
right_child=1 2 3 4 -6
leaf_value=-0.0067881294197492921 0.23584499100551887 0.038084066867102494 -0.115325234316489 -0.22202992505537203 0.0010430808351995452
leaf_weight=4847 34 778 140 26 16463
leaf_count=4847 34 778 140 26 16463
internal_value=0 0.00188648 0.0014295 -0.000285409 0.000691337
internal_weight=0 17441 17407 16629 16489
internal_count=22288 17441 17407 16629 16489
is_linear=0
shrinkage=0.5


Tree=35
num_leaves=6
num_cat=0
split_feature=5 4 7 19 4
split_gain=1.252 9.81315 6.47523 2.48716 1.98323
threshold=0.0016349999932572248 9992.4790039062518 -19124.999999999996 26.150000572204593 14.032549858093263
decision_type=2 2 2 2 2
left_child=-1 2 -2 4 -4
right_child=1 -3 3 -5 -6
leaf_value=-0.00038097905813816858 0.31844744682312009 -0.2067241302824446 -0.010646067435542743 -0.079712810693308711 0.11767516121815808
leaf_weight=22060 25 35 45 32 91
leaf_count=22060 25 35 45 32 91
internal_value=0 0.0368614 0.0810349 0.0457057 0.0752159
internal_weight=0 228 193 168 136
internal_count=22288 228 193 168 136
is_linear=0
shrinkage=0.5


Tree=36
num_leaves=6
num_cat=0
split_feature=5 6 4 15 6
split_gain=1.0853 10.8221 42.978 20.4033 7.8615
threshold=0.00062950002029538165 5000.0000000000009 4921.0588378906259 -0.50049999356269825 -19124.999999999996
decision_type=2 2 2 2 2
left_child=-1 4 3 -3 -2
right_child=1 2 -4 -5 -6
leaf_value=0.0025025186805825998 0.1118968308828879 -0.74914867617189884 -0.0040637599473693177 -0.16470588850123541 -0.0033937476579086905
leaf_weight=14717 151 32 244 28 7116
leaf_count=14717 151 32 244 28 7116
internal_value=0 -0.00486456 -0.0972897 -0.476409 -0.00099814
internal_weight=0 7571 304 60 7267
internal_count=22288 7571 304 60 7267
is_linear=0
shrinkage=0.5


Tree=37
num_leaves=6
num_cat=0
split_feature=3 11 13 13 7
split_gain=1.20053 9.77587 4.63872 4.47407 28.4008
threshold=10.500000000000002 11382.755859375002 8598.2060546875018 14485.942382812502 69125.000000000015
decision_type=2 2 2 2 2
left_child=1 -1 -2 -3 -5
right_child=2 3 -4 4 -6
leaf_value=0.16591609300751436 -0.14819611584836687 -0.0057674087372595745 -0.0014263033807377598 -0.0003583601054137854 0.22260099987245419
leaf_weight=95 54 3290 17621 1063 165
leaf_count=95 54 3290 17621 1063 165
internal_value=0 0.00718307 -0.00187471 0.00384539 0.0295995
internal_weight=0 4613 17675 4518 1228
internal_count=22288 4613 17675 4518 1228
is_linear=0
shrinkage=0.5


Tree=38
num_leaves=6
num_cat=0
split_feature=3 12 15 12 3
split_gain=1.54471 5.7253 7.2247 4.52997 7.07409
threshold=2.5000000000000004 12942.511230468752 -0.49850000441074366 12314.410156250002 1.5000000000000002
decision_type=2 2 2 2 2
left_child=1 3 -3 4 -1
right_child=-2 2 -4 -5 -6
leaf_value=-0.090513178027136404 -0.0011044944892119734 -0.063434281796288586 0.04684275014990933 0.068410351173331885 0.069022491630430977
leaf_weight=137 20822 382 243 563 141
leaf_count=137 20822 382 243 563 141
internal_value=0 0.0156874 -0.0205586 0.0426241 -0.0095976
internal_weight=0 1466 625 841 278
internal_count=22288 1466 625 841 278
is_linear=0
shrinkage=0.5


Tree=39
num_leaves=6
num_cat=0
split_feature=5 7 10 14 5
split_gain=1.50979 2.22175 12.0217 11.8276 8.63338
threshold=3.9049999031703926e-05 -19124.999999999996 3387.213012695313 3819.167602539063 0.00020850000146310779
decision_type=2 2 2 2 2
left_child=-1 2 -2 -4 -5
right_child=1 -3 3 4 -6
leaf_value=-0.019047046152606949 -0.16485746001655405 9.8773725029278176e-05 -0.28462036148361536 0.0081478926093003952 0.15356121530664535
leaf_weight=994 66 20796 23 196 213
leaf_count=994 66 20796 23 196 213
internal_value=0 0.000889113 0.0338929 0.0642575 0.0838766
internal_weight=0 21294 498 432 409
internal_count=22288 21294 498 432 409
is_linear=0
shrinkage=0.5


Tree=40
num_leaves=6
num_cat=0
split_feature=6 3 16 1 14
split_gain=0.961304 0.993717 1.906 3.64654 2.75955
threshold=-108124.99999999999 67.500000000000014 44.947000503540046 4.5000000000000009 3846.3540039062505
decision_type=2 2 2 2 2
left_child=-1 2 3 -2 -5
right_child=1 -3 -4 4 -6
leaf_value=0.0805264925898833 0.008306296472823587 0.0033443840465147904 -0.0022273268672132942 -0.046903615443316261 -0.18480695025729282
leaf_weight=37 181 10679 11232 103 56
leaf_count=37 181 10679 11232 103 56
internal_value=0 -0.000133903 -0.00334377 -0.0402259 -0.0954733
internal_weight=0 22251 11572 340 159
internal_count=22288 22251 11572 340 159
is_linear=0
shrinkage=0.5


Tree=41
num_leaves=6
num_cat=0
split_feature=6 3 6 1 5
split_gain=0.982414 0.764894 10.2091 12.4239 4.85218
threshold=107125.00000000001 2.5000000000000004 -1.0000000180025095e-35 4.5000000000000009 4.9450000005890622e-05
decision_type=2 2 2 2 2
left_child=1 2 3 -1 -4
right_child=-2 -3 4 -5 -6
leaf_value=0.0080785021692844888 0.079287508260816902 -0.00091760715076132494 0.036302796614304987 0.22721384683842058 -0.031185151026502819
leaf_weight=155 39 20783 399 111 801
leaf_count=155 39 20783 399 111 801
internal_value=0 -0.000138982 0.0108993 0.0995222 -0.00874541
internal_weight=0 22249 1466 266 1200
internal_count=22288 22249 1466 266 1200
is_linear=0
shrinkage=0.5


Tree=42
num_leaves=6
num_cat=0
split_feature=5 6 27 17 3
split_gain=0.907121 3.22014 2.46536 3.23013 1.45625
threshold=0.0016349999932572248 -19124.999999999996 -97.81750106811522 25.001500129699711 11.500000000000002
decision_type=2 2 2 2 2
left_child=-1 -2 3 -3 -4
right_child=1 2 4 -5 -6
leaf_value=-0.0003242887053168596 0.17843576334416866 -0.19710939302879932 0.10114103097391004 0.048139836229383948 -0.0013649040895582336
leaf_weight=22060 32 29 60 25 82
leaf_count=22060 32 29 60 25 82
internal_value=0 0.0313763 0.00736665 -0.0835681 0.0419475
internal_weight=0 228 196 54 142
internal_count=22288 228 196 54 142
is_linear=0
shrinkage=0.5


Tree=43
num_leaves=6
num_cat=0
split_feature=4 10 5 0 4
split_gain=1.20023 10.7995 2.63858 5.41668 1.79288
threshold=9992.4790039062518 3468.0825195312505 0.0016450000111944976 205.50000000000003 9987.9482421875018
decision_type=2 2 2 2 2
left_child=2 -2 4 -4 -1
right_child=1 -3 3 -5 -6
leaf_value=9.5820671718860196e-05 -0.37986221164464951 0.042678436414609035 0.023171008626084733 0.30610108193719671 -0.08005077990653392
leaf_weight=22028 20 62 87 21 70
leaf_count=22028 20 62 87 21 70
internal_value=0 -0.0603803 0.000222966 0.0781852 -0.00015806
internal_weight=0 82 22206 108 22098
internal_count=22288 82 22206 108 22098
is_linear=0
shrinkage=0.5


Tree=44
num_leaves=6
num_cat=0
split_feature=26 4 4 7 6
split_gain=0.711543 2.46614 8.90242 35.2884 9.83225
threshold=-97.508998870849595 4921.0588378906259 1014.8880004882814 69125.000000000015 1.0000000180025095e-35
decision_type=2 2 2 2 2
left_child=-1 2 -2 4 -4
right_child=1 -3 3 -5 -6
leaf_value=0.0014708416155874344 -0.0066699811696941669 0.015948961159987403 -0.20865914585261508 -0.51191483957822936 0.14063180113832155
leaf_weight=17535 3564 1051 29 43 66
leaf_count=17535 3564 1051 29 43 66
internal_value=0 -0.0054263 -0.0114948 -0.1361 0.0340061
internal_weight=0 4753 3702 138 95
internal_count=22288 4753 3702 138 95
is_linear=0
shrinkage=0.5


Tree=45
num_leaves=6
num_cat=0
split_feature=5 7 9 6 14
split_gain=0.883651 5.69991 5.53125 4.80062 4.72641
threshold=0.00095449999207630764 69125.000000000015 734707.00000000012 1.0000000180025095e-35 2941.7299804687505
decision_type=2 2 2 2 2
left_child=4 3 -3 -2 -1
right_child=1 2 -4 -5 -6
leaf_value=0.07478964079948236 -0.0051032357161657155 0.210316910009299 -0.085568650710311805 -0.079362390735758681 0.00056072689017541266
leaf_weight=217 3516 56 22 232 18245
leaf_count=217 3516 56 22 232 18245
internal_value=0 -0.00691579 0.126862 -0.00969985 0.0014332
internal_weight=0 3826 78 3748 18462
internal_count=22288 3826 78 3748 18462
is_linear=0
shrinkage=0.5


Tree=46
num_leaves=6
num_cat=0
split_feature=5 4 9 27 25
split_gain=0.880264 2.22844 2.3406 1.53926 1.0402
threshold=0.0016349999932572248 9992.4790039062518 742652.90625000012 -97.81750106811522 41.350000381469734
decision_type=2 2 2 2 2
left_child=-1 2 4 -4 -2
right_child=1 -3 3 -5 -6
leaf_value=-0.00031945197008283763 -0.0084483702168134701 -0.085169002147657533 0.20469747709505487 0.051981619587450317 0.11112242530692708
leaf_weight=22060 105 35 33 33 22
leaf_count=22060 105 35 33 33 22
internal_value=0 0.0309084 0.0519587 0.12834 0.0122647
internal_weight=0 228 193 66 127
internal_count=22288 228 193 66 127
is_linear=0
shrinkage=0.5


Tree=47
num_leaves=6
num_cat=0
split_feature=10 11 3 15 3
split_gain=0.588485 12.6511 2.94281 7.16949 4.60426
threshold=3297.1840820312505 12035.151367187502 50.500000000000007 -0.6274999976158141 30.500000000000004
decision_type=2 2 2 2 2
left_child=2 -2 4 -4 -1
right_child=1 -3 3 -5 -6
leaf_value=-0.010290896927963601 0.21651513640330555 0.00044109746878487295 -0.12104511124614094 -0.010672311844143759 0.034777148078302129
leaf_weight=1551 68 17907 161 1708 893
leaf_count=1551 68 17907 161 1708 893
internal_value=0 0.00125851 -0.00524502 -0.0201801 0.00617627
internal_weight=0 17975 4313 1869 2444
internal_count=22288 17975 4313 1869 2444
is_linear=0
shrinkage=0.5


Tree=48
num_leaves=6
num_cat=0
split_feature=22 23 3 3 13
split_gain=0.60527 1.33483 1.37477 1.52523 1.23215
threshold=26.550000190734867 24.44999980926514 3.5000000000000004 48.500000000000007 9212.7426757812518
decision_type=2 2 2 2 2
left_child=1 2 -1 -4 -3
right_child=-2 4 3 -5 -6
leaf_value=-0.076493952100546186 -0.00046641807482170918 0.0071722803986631334 0.039356753058643501 -0.010922285566241592 0.17521048932879543
leaf_weight=44 21596 20 312 292 24
leaf_count=44 21596 20 312 292 24
internal_value=0 0.014556 0.00883374 0.0150497 0.0988295
internal_weight=0 692 648 604 44
internal_count=22288 692 648 604 44
is_linear=0
shrinkage=0.5


Tree=49
num_leaves=6
num_cat=0
split_feature=12 14 14 3 3
split_gain=0.786348 5.41371 2.26796 2.1614 4.68081
threshold=10514.835937500002 2973.8535156250005 3009.0410156250005 3.5000000000000004 10.500000000000002
decision_type=2 2 2 2 2
left_child=1 3 -3 -1 -5
right_child=-2 2 -4 4 -6
leaf_value=-0.068960152932309685 0.00082147100103705135 -0.081384787423303351 -0.26523619974032042 0.0758430930531062 -0.0086443281539991725
leaf_weight=112 20704 104 20 191 1157
leaf_count=112 20704 104 20 191 1157
internal_value=0 -0.0107372 -0.111038 -0.00221849 0.00332681
internal_weight=0 1584 124 1460 1348
internal_count=22288 1584 124 1460 1348
is_linear=0
shrinkage=0.5


Tree=50
num_leaves=6
num_cat=0
split_feature=3 13 7 4 4
split_gain=0.546882 3.74584 5.09592 5.29586 4.74087
threshold=21.500000000000004 13476.832519531252 69125.000000000015 4921.0588378906259 509.73414611816412
decision_type=2 2 2 2 2
left_child=1 2 -1 -4 -3
right_child=-2 4 3 -5 -6
leaf_value=-0.016061941229086375 0.001541147037740195 -0.006686422061220723 -0.064945346957375832 -0.31877744473792891 0.02941051987431539
leaf_weight=1761 16067 3051 86 27 1296
leaf_count=1761 16067 3051 86 27 1296
internal_value=0 -0.00398033 -0.0226667 -0.125595 0.0040754
internal_weight=0 6221 1874 113 4347
internal_count=22288 6221 1874 113 4347
is_linear=0
shrinkage=0.5


Tree=51
num_leaves=6
num_cat=0
split_feature=12 7 9 7 9
split_gain=0.766214 2.29478 7.08166 6.34647 2.31196
threshold=12498.783691406252 -1.0000000180025095e-35 803958.34375000012 -19124.999999999996 830795.15625000012
decision_type=2 2 2 2 2
left_child=1 2 -1 4 -4
right_child=-2 -3 3 -5 -6
leaf_value=-0.0038389490728823823 -0.0020651690144838698 0.0023153692916575747 0.13641479265476977 0.2991006724345921 -0.077530507646177124
leaf_weight=216 14896 7081 28 44 23
leaf_count=216 14896 7081 28 44 23
internal_value=0 0.00416163 0.0461982 0.159967 0.0399297
internal_weight=0 7392 311 95 51
internal_count=22288 7392 311 95 51
is_linear=0
shrinkage=0.5


Tree=52
num_leaves=6
num_cat=0
split_feature=5 10 5 6 10
split_gain=0.905513 2.31971 2.63297 1.95594 3.51575
threshold=0.00097649998497217904 3218.3010253906255 0.00066750001860782515 -19124.999999999996 3471.264526367188
decision_type=2 2 2 2 2
left_child=1 2 -1 4 -2
right_child=3 -3 -4 -5 -6
leaf_value=0.11502591649837354 0.25195912644267082 0.00049764639996620179 0.018626608858432842 -0.0087169004179962623 0.0093810905749767519
leaf_weight=85 20 18000 425 3699 59
leaf_count=85 20 18000 425 3699 59
internal_value=0 0.00143982 0.0346932 -0.0070543 0.0707933
internal_weight=0 18510 510 3778 79
internal_count=22288 18510 510 3778 79
is_linear=0
shrinkage=0.5


Tree=53
num_leaves=6
num_cat=0
split_feature=4 14 7 5 13
split_gain=1.05791 4.84278 0.811532 6.5896 8.18226
threshold=9992.4790039062518 3827.2009277343755 -19124.999999999996 0.00020850000146310779 14023.960937500002
decision_type=2 2 2 2 2
left_child=2 -2 3 -1 -5
right_child=1 -3 -4 4 -6
leaf_value=-0.019586704882144292 -0.27062719431705773 0.012325377194135781 -0.00031679737654767396 0.056491013030108873 0.39111450687050819
leaf_weight=422 20 62 21553 211 20
leaf_count=422 20 62 21553 211 20
internal_value=0 -0.0566874 0.000209329 0.0175747 0.0854627
internal_weight=0 82 22206 653 231
internal_count=22288 82 22206 653 231
is_linear=0
shrinkage=0.5


Tree=54
num_leaves=6
num_cat=0
split_feature=11 4 10 5 15
split_gain=0.659944 0.640112 4.87999 4.8546 1.47746
threshold=14082.827148437502 9987.9482421875018 3451.3745117187505 0.0016450000111944976 -0.58250001072883595
decision_type=2 2 2 2 2
left_child=1 -1 -3 4 -4
right_child=-2 2 3 -5 -6
leaf_value=-6.200043733535157e-05 0.024994562128340198 -0.26285147469607184 -0.15176832596598952 0.16591765639810441 -0.017316101962933317
leaf_weight=21862 261 20 27 34 84
leaf_count=21862 261 20 27 34 84
internal_value=0 -0.000296163 -0.031322 0.000613124 -0.0500207
internal_weight=0 22027 165 145 111
internal_count=22288 22027 165 145 111
is_linear=0
shrinkage=0.5


Tree=55
num_leaves=6
num_cat=0
split_feature=3 16 12 6 11
split_gain=0.512988 1.20686 0.761444 3.28042 3.78259
threshold=67.500000000000014 44.939001083374031 12502.636230468752 -71374.999999999985 12768.140136718752
decision_type=2 2 2 2 2
left_child=2 -2 3 4 -1
right_child=1 -3 -4 -5 -6
leaf_value=-0.17040426907097472 0.049832589931337906 0.0019041202620753389 -0.0056096179794512518 0.0047133206439254486 0.016267636886743063
leaf_weight=58 133 10546 6961 4539 51
leaf_count=58 133 10546 6961 4539 51
internal_value=0 0.00250104 -0.00230068 0.0026549 -0.0830624
internal_weight=0 10679 11609 4648 109
internal_count=22288 10679 11609 4648 109
is_linear=0
shrinkage=0.5


Tree=56
num_leaves=6
num_cat=0
split_feature=5 14 4 3 3
split_gain=0.523807 2.15812 4.35101 5.35601 3.32128
threshold=0.00068850000388920318 4091.850952148438 1014.4607543945314 4.5000000000000009 2.5000000000000004
decision_type=2 2 2 2 2
left_child=1 4 -3 -4 -1
right_child=-2 2 3 -5 -6
leaf_value=0.15942970248447222 -0.0035386191108282548 0.0014351495711925463 -0.12891542675434822 0.0058665760521244429 0.018551776476652956
leaf_weight=44 7118 13980 144 151 851
leaf_count=44 7118 13980 144 151 851
internal_value=0 0.00166038 0.000167105 -0.0599253 0.0254776
internal_weight=0 15170 14275 295 895
internal_count=22288 15170 14275 295 895
is_linear=0
shrinkage=0.5


Tree=57
num_leaves=6
num_cat=0
split_feature=4 0 6 9 11
split_gain=0.628284 3.35968 2.51513 10.3805 2.8195
threshold=113.0327491760254 206.50000000000003 -19124.999999999996 701528.75000000012 12857.413574218752
decision_type=2 2 2 2 2
left_child=-1 -2 3 -3 -5
right_child=1 2 -4 4 -6
leaf_value=-0.0042089860955176507 -0.17455115295187743 -0.038012533033028206 0.00095262110854668343 0.20155057699327739 0.077822776122075568
leaf_weight=6343 27 207 15509 71 131
leaf_count=6343 27 207 15509 71 131
internal_value=0 0.00167436 0.00197327 0.0406755 0.121311
internal_weight=0 15945 15918 409 202
internal_count=22288 15945 15918 409 202
is_linear=0
shrinkage=0.5


Tree=58
num_leaves=6
num_cat=0
split_feature=4 9 5 7 14
split_gain=0.753469 4.65513 1.09847 2.65998 0.619982
threshold=9992.4790039062518 732624.62500000012 0.0016349999932572248 -19124.999999999996 3819.167602539063
decision_type=2 2 2 2 2
left_child=2 -2 -1 -4 -5
right_child=1 -3 3 4 -6
leaf_value=-0.00015262126127597213 0.022058977702056195 -0.25088170632010415 0.18989870256744326 0.029251933155308874 -0.050055493561861418
leaf_weight=22013 61 21 25 138 30
leaf_count=22013 61 21 25 138 30
internal_value=0 -0.0478405 0.00017666 0.0377335 0.0150899
internal_weight=0 82 22206 193 168
internal_count=22288 82 22206 193 168
is_linear=0
shrinkage=0.5


Tree=59
num_leaves=6
num_cat=0
split_feature=19 4 4 5 4
split_gain=0.578049 4.48709 4.89818 1.33289 1.28215
threshold=26.250000000000004 9985.1547851562518 9986.1889648437518 0.0015250000287778678 9983.3310546875018
decision_type=2 2 2 2 2
left_child=-1 3 -3 4 -2
right_child=1 2 -4 -5 -6
leaf_value=-0.00093858867938672751 0.0023879013585999128 0.15704579567513194 -0.01961282303986641 -0.071346822866528742 0.12364127114415169
leaf_weight=19622 2419 99 65 61 22
leaf_count=19622 2419 99 65 61 22
internal_value=0 0.0069081 0.0870287 0.00165639 0.00348072
internal_weight=0 2666 164 2502 2441
internal_count=22288 2666 164 2502 2441
is_linear=0
shrinkage=0.5


Tree=60
num_leaves=6
num_cat=0
split_feature=11 4 14 10 24
split_gain=0.432485 2.15316 1.74063 0.90822 0.871287
threshold=11255.458007812502 14.291749954223635 2770.057983398438 3174.8139648437505 31.849999427795414
decision_type=2 2 2 2 2
left_child=1 4 -2 -4 -1
right_child=2 -3 3 -5 -6
leaf_value=0.067728071271077453 -0.087502639920434402 0.069205831161224904 0.038889314173612369 -0.00028040055743853829 -0.038506077242588317
leaf_weight=23 57 121 149 21818 120
leaf_count=23 57 121 149 21818 120
internal_value=0 0.0201171 -0.000241142 -1.47162e-05 -0.0214195
internal_weight=0 264 22024 21967 143
internal_count=22288 264 22024 21967 143
is_linear=0
shrinkage=0.5


Tree=61
num_leaves=6
num_cat=0
split_feature=21 7 15 10 4
split_gain=0.597259 3.28611 1.22531 0.441927 8.0041
threshold=26.050000190734867 -105874.99999999999 -0.52150002121925343 3374.609008789063 512.34664916992199
decision_type=2 2 2 2 2
left_child=1 -1 -2 4 -3
right_child=2 3 -4 -5 -6
leaf_value=-0.17444123795118044 -0.019835879621298416 -0.0061677172498585927 0.14938286030665041 0.0013294641472211038 0.16907186907800761
leaf_weight=27 23 5126 20 17026 66
leaf_count=27 23 5126 20 17026 66
internal_value=0 -0.000113798 0.0588705 9.80503e-05 -0.0039401
internal_weight=0 22245 43 22218 5192
internal_count=22288 22245 43 22218 5192
is_linear=0
shrinkage=0.5


Tree=62
num_leaves=6
num_cat=0
split_feature=25 16 27 14 19
split_gain=0.410569 0.544737 1.28598 1.18114 2.87181
threshold=41.049999237060554 45.153999328613288 -96.673000335693345 3854.201538085938 26.250000000000004
decision_type=2 2 2 2 2
left_child=1 2 -1 4 -3
right_child=-2 3 -4 -5 -6
leaf_value=-0.00077261178491077427 -0.002822091836765983 0.0075131103380866003 -0.051988302905345334 0.0017442615907308258 0.070682782593285753
leaf_weight=6294 8166 1030 125 6455 218
leaf_count=6294 8166 1030 125 6455 218
internal_value=0 0.00163187 -0.00176996 0.00446664 0.0185476
internal_weight=0 14122 6419 7703 1248
internal_count=22288 14122 6419 7703 1248
is_linear=0
shrinkage=0.5


Tree=63
num_leaves=6
num_cat=0
split_feature=16 15 27 4 20
split_gain=0.481165 0.940728 1.18869 0.827405 0.819907
threshold=45.05999946594239 -0.63449999690055836 -97.786499023437486 9985.9946289062518 26.94999980926514
decision_type=2 2 2 2 2
left_child=3 2 -2 -1 -4
right_child=1 -3 4 -5 -6
leaf_value=0.0038368596126273696 -0.061504838933087599 -0.00034146738329849763 0.090348616323899483 0.053120362395741819 -0.012469819415677852
leaf_weight=4035 131 17380 20 87 635
leaf_count=4035 131 17380 20 87 635
internal_value=0 -0.00110664 -0.0180261 0.00487705 -0.00933033
internal_weight=0 18166 786 4122 655
internal_count=22288 18166 786 4122 655
is_linear=0
shrinkage=0.5


Tree=64
num_leaves=6
num_cat=0
split_feature=5 7 5 4 14
split_gain=0.557145 1.56101 2.63797 1.78844 1.40544
threshold=0.0010050000273622575 -1.0000000180025095e-35 0.0016450000111944976 9985.9135742187518 2973.8535156250005
decision_type=2 2 2 2 2
left_child=4 2 3 -2 -1
right_child=1 -3 -4 -5 -6
leaf_value=0.02606460892567309 -0.097015778051519938 -0.003455013138543685 -0.21516396371986379 0.021034473384724469 0.0003610472741289496
leaf_weight=548 55 3571 22 77 18015
leaf_count=548 55 3571 22 77 18015
internal_value=0 -0.00558058 -0.054869 -0.0281531 0.00111984
internal_weight=0 3725 154 132 18563
internal_count=22288 3725 154 132 18563
is_linear=0
shrinkage=0.5


Tree=65
num_leaves=6
num_cat=0
split_feature=14 14 3 3 11
split_gain=0.399485 2.77378 2.16144 1.74698 2.26888
threshold=2863.064086914063 2890.589965820313 34.500000000000007 11.500000000000002 11412.817382812502
decision_type=2 2 2 2 2
left_child=2 -2 3 4 -1
right_child=1 -3 -4 -5 -6
leaf_value=0.056839081612175192 -0.062895498653233517 0.00013163444477198885 0.045813541777481856 -0.037568333159666512 -0.084109033399727196
leaf_weight=138 176 21408 280 250 36
leaf_count=138 176 21408 280 250 36
internal_value=0 -0.000382301 0.011721 -0.010793 0.0276774
internal_weight=0 21584 704 424 174
internal_count=22288 21584 704 424 174
is_linear=0
shrinkage=0.5


Tree=66
num_leaves=6
num_cat=0
split_feature=5 6 4 27 3
split_gain=0.520953 0.77352 2.75077 2.37848 0.730109
threshold=0.001624999975319952 -19124.999999999996 9987.9482421875018 -97.847999572753892 8.5000000000000018
decision_type=2 2 2 2 2
left_child=-1 -2 4 -4 -3
right_child=1 2 3 -5 -6
leaf_value=-0.00044890552193196557 0.085576482742492646 0.051008685595263614 0.0039925273275002839 -0.23985576787963508 0.0090086038380697443
leaf_weight=21545 35 128 20 20 540
leaf_count=21545 35 128 20 20 540
internal_value=0 0.0130171 0.00943007 -0.117932 0.0170565
internal_weight=0 743 708 40 668
internal_count=22288 743 708 40 668
is_linear=0
shrinkage=0.5


Tree=67
num_leaves=6
num_cat=0
split_feature=7 21 12 0 27
split_gain=0.385004 0.981157 0.334401 2.18122 2.1647
threshold=-105874.99999999999 26.050000190734867 12670.988281250002 206.50000000000003 -95.994998931884751
decision_type=2 2 2 2 2
left_child=-1 2 4 -4 -2
right_child=1 -3 3 -5 -6
leaf_value=0.05239953164543424 0.0023731341254643436 -0.08373194551095367 -0.14383392736177752 -0.0015464591662797359 -0.12398246955126524
leaf_weight=35 11088 35 27 11069 34
leaf_count=35 11088 35 27 11069 34
internal_value=0 -8.24151e-05 4.93579e-05 -0.00189269 0.00198686
internal_weight=0 22253 22218 11096 11122
internal_count=22288 22253 22218 11096 11122
is_linear=0
shrinkage=0.5


Tree=68
num_leaves=6
num_cat=0
split_feature=26 4 1 2 4
split_gain=0.347478 1.47167 2.04533 1.08889 1.33441
threshold=-95.868000030517564 114.08924865722658 2.5000000000000004 396.50000000000006 508.71833801269537
decision_type=2 2 2 2 2
left_child=-1 -2 -3 4 -4
right_child=1 2 3 -5 -6
leaf_value=-0.00026346823174596242 -0.052644980419666067 0.14291564774300372 -0.068793319407699602 0.078911286819708978 0.0208234625590396
leaf_weight=21898 67 35 54 54 180
leaf_count=21898 67 35 54 54 180
internal_value=0 0.0147934 0.0287822 0.0149118 0.000142667
internal_weight=0 390 323 288 234
internal_count=22288 390 323 288 234
is_linear=0
shrinkage=0.5


Tree=69
num_leaves=6
num_cat=0
split_feature=21 7 26 5 14
split_gain=0.599933 1.40081 1.19269 0.559714 1.57775
threshold=26.050000190734867 -105874.99999999999 -97.632499694824205 0.00070550001692026864 2996.335571289063
decision_type=2 2 2 2 2
left_child=1 -1 -2 4 -3
right_child=2 3 -4 -5 -6
leaf_value=-0.11393288978272015 0.14830146851018072 0.076628305556784779 -0.018649438598557659 -0.0036540971776279742 0.0013890450027686022
leaf_weight=27 20 70 23 7057 15091
leaf_count=27 20 70 23 7057 15091
internal_value=0 -0.000114052 0.0590021 2.42639e-05 0.00173643
internal_weight=0 22245 43 22218 15161
internal_count=22288 22245 43 22218 15161
is_linear=0
shrinkage=0.5


Tree=70
num_leaves=6
num_cat=0
split_feature=7 21 21 23 5
split_gain=0.554211 0.696355 0.331213 1.69114 1.13892
threshold=-105874.99999999999 26.050000190734867 25.94999980926514 24.550000190734867 4.3150001147296286e-05
decision_type=2 2 2 2 2
left_child=-1 2 -2 4 -4
right_child=1 -3 3 -5 -6
leaf_value=0.062868356278964449 -0.00035975798422478039 -0.070569727623036926 0.050334761783137526 0.10308820115017664 -0.0039426410147703917
leaf_weight=35 21423 35 114 46 635
leaf_count=35 21423 35 114 46 635
internal_value=0 -9.88807e-05 1.2132e-05 0.0100335 0.00431854
internal_weight=0 22253 22218 795 749
internal_count=22288 22253 22218 795 749
is_linear=0
shrinkage=0.5


Tree=71
num_leaves=6
num_cat=0
split_feature=6 4 26 26 27
split_gain=0.367267 0.342085 0.798183 0.723372 1.28604
threshold=107125.00000000001 9985.9135742187518 -97.898498535156236 -97.879001617431626 -97.833000183105455
decision_type=2 2 2 2 2
left_child=1 2 -1 -3 -5
right_child=-2 3 -4 4 -6
leaf_value=-0.034604208434970057 0.048478398734751418 0.030457729603148291 -0.00030316188301489903 -0.0095412083423009209 0.028165419104663313
leaf_weight=171 39 276 20725 754 323
leaf_count=171 39 276 20725 754 323
internal_value=0 -8.49772e-05 -0.000583861 0.00761988 0.00176728
internal_weight=0 22249 20896 1353 1077
internal_count=22288 22249 20896 1353 1077
is_linear=0
shrinkage=0.5


Tree=72
num_leaves=6
num_cat=0
split_feature=21 1 16 9 1
split_gain=0.406274 0.491583 0.387646 1.41845 1.28964
threshold=26.050000190734867 2.5000000000000004 44.951000213623054 703338.46875000012 9.5000000000000018
decision_type=2 2 2 2 2
left_child=2 -2 3 4 -1
right_child=1 -3 -4 -5 -6
leaf_value=-0.11129730972308727 -0.0036774334201419897 0.10327281327252942 0.00024735380357922932 0.0011137529146172857 -0.01451638613568171
leaf_weight=61 22 21 21666 439 79
leaf_count=61 22 21 21666 439 79
internal_value=0 0.0485541 -9.38559e-05 -0.0128618 -0.0566852
internal_weight=0 43 22245 579 140
internal_count=22288 43 22245 579 140
is_linear=0
shrinkage=0.5


Tree=73
num_leaves=6
num_cat=0
split_feature=4 15 7 13 10
split_gain=0.343089 1.89998 0.558367 4.55938 3.02319
threshold=9992.4790039062518 -0.58149999380111683 -19124.999999999996 15155.526367187502 3465.307983398438
decision_type=2 2 2 2 2
left_child=2 -2 3 4 -1
right_child=1 -3 -4 -5 -6
leaf_value=0.094508081643300046 0.03673077761971702 -0.11621738479447526 -0.00031720355449860107 -0.11007514133146315 0.0090170481408831608
leaf_weight=134 45 37 21553 66 453
leaf_count=134 45 37 21553 66 453
internal_value=0 -0.0322824 0.000119209 0.0145235 0.0285329
internal_weight=0 82 22206 653 587
internal_count=22288 82 22206 653 587
is_linear=0
shrinkage=0.5


Tree=74
num_leaves=6
num_cat=0
split_feature=3 3 0 13 3
split_gain=0.305756 3.00115 8.02199 1.43528 2.4808
threshold=21.500000000000004 22.500000000000004 206.50000000000003 13884.860351562502 1.5000000000000002
decision_type=2 2 2 2 2
left_child=3 2 -2 4 -1
right_child=1 -3 -4 -5 -6
leaf_value=-0.058300508969114165 0.27341514030421105 0.00056960228427395279 -0.0086995417664702136 0.0034295686665734891 -0.0068027394372182689
leaf_weight=260 37 15951 79 3635 2326
leaf_count=260 37 15951 79 3635 2326
internal_value=0 0.00115235 0.0812853 -0.00297618 -0.0119804
internal_weight=0 16067 116 6221 2586
internal_count=22288 16067 116 6221 2586
is_linear=0
shrinkage=0.5


Tree=75
num_leaves=6
num_cat=0
split_feature=4 6 26 4 6
split_gain=0.392491 2.06343 3.21384 2.00117 3.52731
threshold=113.05064773559572 -71374.999999999985 -96.584499359130845 18.892099380493168 21375.000000000004
decision_type=2 2 2 2 2
left_child=1 2 -1 -3 -5
right_child=-2 3 -4 4 -6
leaf_value=-0.031819203866514927 0.001349079440967542 0.0018127959213935984 -0.24101559888748897 -0.01546719137092905 -0.14392743328292118
leaf_weight=146 15769 5440 21 855 57
leaf_count=146 15769 5440 21 855 57
internal_value=0 -0.00326333 -0.0581253 -0.00182095 -0.023496
internal_weight=0 6519 167 6352 912
internal_count=22288 6519 167 6352 912
is_linear=0
shrinkage=0.5


Tree=76
num_leaves=6
num_cat=0
split_feature=3 2 5 5 14
split_gain=0.919361 1.60259 3.97258 1.94234 2.16893
threshold=2.5000000000000004 396.50000000000006 0.00064350001048296701 0.0014749999972991648 4249.6201171875009
decision_type=2 2 2 2 2
left_child=1 3 -3 4 -1
right_child=-2 2 -4 -5 -6
leaf_value=0.03783546850773075 -0.00085208566756423657 0.010698796131134945 0.14946057660771267 -0.048106957369109062 -0.0080565480130724999
leaf_weight=458 20822 196 70 154 588
leaf_count=458 20822 196 70 154 588
internal_value=0 0.0121024 0.0472151 0.0043191 0.0120377
internal_weight=0 1466 266 1200 1046
internal_count=22288 1466 266 1200 1046
is_linear=0
shrinkage=0.5


Tree=77
num_leaves=6
num_cat=0
split_feature=6 16 16 16 12
split_gain=0.348024 0.299777 0.653499 0.487494 0.844871
threshold=-108124.99999999999 45.72200012207032 45.710500717163093 45.68499946594239 10514.835937500002
decision_type=2 2 2 2 2
left_child=-1 2 3 -2 -5
right_child=1 -3 -4 4 -6
leaf_value=0.048452171698413989 1.6621406836286023e-05 -0.059791549574583769 0.080769649147987371 -0.078963555919472128 0.039363036905838686
leaf_weight=37 22135 21 25 48 22
leaf_count=37 22135 21 25 48 22
internal_value=0 -8.05685e-05 -2.41614e-05 -0.000115125 -0.0417752
internal_weight=0 22251 22230 22205 70
internal_count=22288 22251 22230 22205 70
is_linear=0
shrinkage=0.5


Tree=78
num_leaves=6
num_cat=0
split_feature=5 4 4 13 4
split_gain=0.291561 1.88036 0.940076 0.559097 1.07815
threshold=0.0016349999932572248 9992.4790039062518 13.829649925231935 13508.291992187502 9986.3237304687518
decision_type=2 2 2 2 2
left_child=-1 2 -2 4 -4
right_child=1 -3 3 -5 -6
leaf_value=-0.00018385006124004512 -0.039713115516034042 -0.088838937716666677 0.041481157221655678 -0.02105287081477317 0.14862754292165239
leaf_weight=22060 33 35 108 22 30
leaf_count=22060 33 35 108 22 30
internal_value=0 0.0177883 0.0371248 0.0529727 0.0647738
internal_weight=0 228 193 160 138
internal_count=22288 228 193 160 138
is_linear=0
shrinkage=0.5


Tree=79
num_leaves=6
num_cat=0
split_feature=15 13 16 14 12
split_gain=0.313069 0.527712 0.454243 0.298857 1.1953
threshold=-0.45350000262260431 8852.4311523437518 45.134000778198249 2863.064086914063 10052.955078125002
decision_type=2 2 2 2 2
left_child=3 2 -2 -1 -5
right_child=1 -3 -4 4 -6
leaf_value=0.010928829817560576 -0.12421307564945891 0.010685733729042112 -0.021181729515892981 -0.061586698505046035 2.8949446278089404e-05
leaf_weight=621 20 40 23 79 21505
leaf_count=621 20 40 23 79 21505
internal_value=0 -0.0306507 -0.0691033 0.000114569 -0.000196571
internal_weight=0 83 43 22205 21584
internal_count=22288 83 43 22205 21584
is_linear=0
shrinkage=0.5


Tree=80
num_leaves=6
num_cat=0
split_feature=24 5 22 15 5
split_gain=0.24323 0.562418 0.264906 1.0783 1.2373
threshold=35.049999237060554 0.00082650000695139181 26.750000000000004 -0.60749998688697804 0.00064849999034777295
decision_type=2 2 2 2 2
left_child=2 -2 -1 4 -4
right_child=1 -3 3 -5 -6
leaf_value=-0.00077842280946690764 -0.048336801601846405 0.010970106087207126 0.11113488359777775 0.0017369841899955798 0.018739496498251015
leaf_weight=17259 82 78 45 4638 186
leaf_count=17259 82 78 45 4638 186
internal_value=0 -0.0194247 0.000140453 0.00339757 0.0367386
internal_weight=0 160 22128 4869 231
internal_count=22288 160 22128 4869 231
is_linear=0
shrinkage=0.5


Tree=81
num_leaves=6
num_cat=0
split_feature=20 5 7 1 1
split_gain=0.246732 1.29376 2.97845 6.90632 3.21036
threshold=27.150000572204593 0.00025749999622348701 69125.000000000015 6.5000000000000009 5.5000000000000009
decision_type=2 2 2 2 2
left_child=-1 -2 -3 4 -4
right_child=1 2 3 -5 -6
leaf_value=0.00088554664868874223 0.005146725687357633 -0.0064138765208856625 -0.039991060698715351 0.044480226384672583 -0.22663133074820507
leaf_weight=17367 2411 2339 36 71 64
leaf_count=17367 2411 2339 36 71 64
internal_value=0 -0.00312524 -0.0110709 -0.0747719 -0.159441
internal_weight=0 4921 2510 171 100
internal_count=22288 4921 2510 171 100
is_linear=0
shrinkage=0.5


Tree=82
num_leaves=6
num_cat=0
split_feature=4 4 2 7 1
split_gain=0.283041 2.14994 3.39408 2.0108 2.42829
threshold=509.70849609375006 1010.2187500000001 396.50000000000006 69125.000000000015 6.5000000000000009
decision_type=2 2 2 2 2
left_child=-1 2 -2 -3 -5
right_child=1 3 -4 4 -6
leaf_value=-0.0014162169829318326 0.077505545127722952 0.0019367429954422902 -0.023974953051849577 -0.080408231393563789 0.0283577742581991
leaf_weight=13659 225 8040 130 158 76
leaf_count=13659 225 8040 130 158 76
internal_value=0 0.00224176 0.0403437 0.000606974 -0.0450825
internal_weight=0 8629 355 8274 234
internal_count=22288 8629 355 8274 234
is_linear=0
shrinkage=0.5


Tree=83
num_leaves=6
num_cat=0
split_feature=13 4 2 5 4
split_gain=0.316526 2.61943 2.01435 1.22897 0.727
threshold=15199.465820312502 508.71833801269537 396.50000000000006 3.9049999031703926e-05 509.73414611816412
decision_type=2 2 2 2 2
left_child=-1 3 -3 -2 -4
right_child=1 2 4 -5 -6
leaf_value=0.00057752628155583754 -0.15235178163502275 0.051657273798537059 -0.0054636793821791685 -0.037533039822139673 -0.074546564179353222
leaf_weight=20374 41 160 1620 54 39
leaf_count=20374 41 160 1620 54 39
internal_value=0 -0.00614761 -0.00192046 -0.0870864 -0.00708769
internal_weight=0 1914 1819 95 1659
internal_count=22288 1914 1819 95 1659
is_linear=0
shrinkage=0.5


Tree=84
num_leaves=6
num_cat=0
split_feature=4 6 4 2 27
split_gain=0.23362 2.30246 0.554192 1.55605 0.686129
threshold=9986.4824218750018 -19124.999999999996 9987.9482421875018 396.50000000000006 -97.81750106811522
decision_type=2 2 2 2 2
left_child=-1 -2 3 -3 -4
right_child=1 2 4 -5 -6
leaf_value=0.000171715435735968 0.056534243130741957 0.099352828470901364 -0.12706722779753241 -0.058123273114042896 -0.037627922325376789
leaf_weight=22040 77 21 37 62 51
leaf_count=22040 77 21 37 62 51
internal_value=0 -0.0152605 -0.0475892 -0.0182799 -0.0752331
internal_weight=0 248 171 83 88
internal_count=22288 248 171 83 88
is_linear=0
shrinkage=0.5


Tree=85
num_leaves=6
num_cat=0
split_feature=15 15 12 4 13
split_gain=0.21274 1.6618 1.15313 1.29246 1.15487
threshold=-0.64049997925758351 -0.63449999690055836 10436.999511718752 17.254699707031254 9532.5385742187518
decision_type=2 2 2 2 2
left_child=2 -2 3 4 -1
right_child=1 -3 -4 -5 -6
leaf_value=0.015725750469855568 -0.035204553905974274 0.00023834870059955438 -0.015886419401076254 0.069248574656999809 -0.089028804089009234
leaf_weight=436 336 21042 334 112 28
leaf_count=436 336 21042 334 112 28
internal_value=0 -0.000318711 0.00748725 0.0210407 0.00940435
internal_weight=0 21378 910 576 464
internal_count=22288 21378 910 576 464
is_linear=0
shrinkage=0.5


Tree=86
num_leaves=6
num_cat=0
split_feature=22 3 10 15 15
split_gain=0.197857 0.418295 0.712828 0.421289 0.703722
threshold=26.550000190734867 48.500000000000007 3248.067993164063 -0.64849999547004689 -0.57850000262260426
decision_type=2 2 2 2 2
left_child=1 3 -3 -1 -5
right_child=-2 2 -4 4 -6
leaf_value=-0.0080262684425400025 -0.00026667136959177354 -0.040296721572522072 0.011763155411775491 0.051126611685166544 0.0019392565313254052
leaf_weight=107 21596 100 192 159 134
leaf_count=107 21596 100 192 159 134
internal_value=0 0.0083223 -0.00606557 0.0188255 0.0286314
internal_weight=0 692 292 400 293
internal_count=22288 692 292 400 293
is_linear=0
shrinkage=0.5


Tree=87
num_leaves=6
num_cat=0
split_feature=5 4 15 27 25
split_gain=0.1916 1.54823 2.01969 1.38286 1.59105
threshold=0.0014150000060908499 9985.6977539062518 -0.58449998497962941 -97.81750106811522 39.850000381469734
decision_type=2 2 2 2 2
left_child=-1 2 -2 -3 -5
right_child=1 3 -4 4 -6
leaf_value=0.00059332596561865818 -0.060812887827686082 -0.0055489016416888203 -0.0062005815944967463 0.063718188788632418 0.0083384656367125488
leaf_weight=19151 241 1568 569 166 593
leaf_count=19151 241 1568 569 166 593
internal_value=0 -0.00362218 -0.0224494 0.00293135 0.0204505
internal_weight=0 3137 810 2327 759
internal_count=22288 3137 810 2327 759
is_linear=0
shrinkage=0.5


Tree=88
num_leaves=6
num_cat=0
split_feature=4 5 15 5 7
split_gain=0.276127 0.908055 2.46356 0.482751 1.46057
threshold=9992.4790039062518 0.0015250000287778678 -0.58349999785423268 0.0016349999932572248 -19124.999999999996
decision_type=2 2 2 2 2
left_child=3 -2 -3 -1 -5
right_child=1 2 -4 4 -6
leaf_value=-0.00011134590285640505 0.063679077150300148 0.020362951042204116 -0.18425812427934338 0.1377597689628601 0.0082255010465381757
leaf_weight=22013 20 38 24 25 168
leaf_count=22013 20 38 24 25 168
internal_value=0 -0.0289612 -0.0588452 0.000106945 0.0250046
internal_weight=0 82 62 22206 193
internal_count=22288 82 62 22206 193
is_linear=0
shrinkage=0.5


Tree=89
num_leaves=6
num_cat=0
split_feature=4 6 14 4 26
split_gain=0.301846 0.804585 0.821217 0.452784 0.442996
threshold=9986.4824218750018 -19124.999999999996 3828.141967773438 9987.9482421875018 -97.686500549316392
decision_type=2 2 2 2 2
left_child=-1 2 -2 -3 -5
right_child=1 3 -4 4 -6
leaf_value=0.00019518543812121675 0.10941585465999586 -0.0099647380762273464 -0.0065261399078216141 -0.10309390159877571 -0.031227632569603956
leaf_weight=22040 21 83 56 37 51
leaf_count=22040 21 83 56 37 51
internal_value=0 -0.0173463 0.0250944 -0.0364571 -0.0614441
internal_weight=0 248 77 171 88
internal_count=22288 248 77 171 88
is_linear=0
shrinkage=0.5


Tree=90
num_leaves=6
num_cat=0
split_feature=19 7 10 6 14
split_gain=0.185926 0.704125 0.51638 0.936773 0.398594
threshold=26.44999980926514 -19124.999999999996 3597.9785156250005 5000.0000000000009 3909.647094726563
decision_type=2 2 2 2 2
left_child=-1 -2 4 -4 -3
right_child=1 2 3 -5 -6
leaf_value=0.00020824096647766341 -0.074247898223499462 -0.037943362097447628 -0.0098741239961575959 -0.1156797307743697 0.020746418282140008
leaf_weight=21834 39 34 163 24 194
leaf_count=21834 39 34 163 24 194
internal_value=0 -0.0100148 -0.00397847 -0.0234535 0.0119944
internal_weight=0 454 415 187 228
internal_count=22288 454 415 187 228
is_linear=0
shrinkage=0.5


Tree=91
num_leaves=6
num_cat=0
split_feature=6 11 4 10 11
split_gain=0.197656 0.987686 3.92705 3.59852 1.84365
threshold=5000.0000000000009 13360.169921875002 217.11750030517581 3562.548950195313 13583.254394531252
decision_type=2 2 2 2 2
left_child=-1 -2 -3 -4 -5
right_child=1 2 3 4 -6
leaf_value=-0.00035331034581512243 -0.0026658410143768898 -0.11330783283587412 0.25494269692426313 0.12618719993422375 0.016205426036518672
leaf_weight=21100 858 42 20 46 222
leaf_count=21100 858 42 20 46 222
internal_value=0 0.00627513 0.0295216 0.0503509 0.0350829
internal_weight=0 1188 330 288 268
internal_count=22288 1188 330 288 268
is_linear=0
shrinkage=0.5


Tree=92
num_leaves=6
num_cat=0
split_feature=23 4 3 5 4
split_gain=0.286265 0.698947 0.283884 3.38 3.09642
threshold=23.750000000000004 113.54690170288087 1.5000000000000002 7.7400000009220107e-05 113.64470291137697
decision_type=2 2 2 2 2
left_child=1 -1 3 4 -2
right_child=2 -3 -4 -5 -6
leaf_value=-0.035456858319230379 -0.04162791265368071 0.084432739103513385 0.00024238604687434146 -0.046362802350980413 0.053372136622559851
leaf_weight=20 128 31 21511 338 260
leaf_count=20 128 31 21511 338 260
internal_value=0 0.0374172 -8.58155e-05 -0.00981025 0.0220319
internal_weight=0 51 22237 726 388
internal_count=22288 51 22237 726 388
is_linear=0
shrinkage=0.5


Tree=93
num_leaves=6
num_cat=0
split_feature=13 1 4 5 5
split_gain=0.245499 1.20749 1.34402 17.7865 5.18577
threshold=14247.367187500002 8.5000000000000018 217.11750030517581 4.2749999920488342e-05 7.7400000009220107e-05
decision_type=2 2 2 2 2
left_child=-1 2 3 -2 -4
right_child=1 -3 4 -5 -6
leaf_value=0.0010280882191749067 -0.0094510503046474122 0.095754314177846092 -0.0020765637884238562 -0.48948335478780791 0.18326291316617771
leaf_weight=16106 549 31 5544 20 38
leaf_count=16106 549 31 5544 20 38
internal_value=0 -0.00267848 -0.00317457 -0.0263239 -0.000814848
internal_weight=0 6182 6151 569 5582
internal_count=22288 6182 6151 569 5582
is_linear=0
shrinkage=0.5


Tree=94
num_leaves=6
num_cat=0
split_feature=4 11 4 14 26
split_gain=0.181857 0.49924 0.207734 2.09649 0.614042
threshold=9992.4790039062518 12860.243652343752 9986.0815429687518 3819.167602539063 -97.80199813842772
decision_type=2 2 2 2 2
left_child=2 -2 -1 -4 -5
right_child=1 -3 3 4 -6
leaf_value=-0.00019991787616550872 -0.089995742775499821 -0.00061234032289605956 0.15365124509359399 0.020873859158446889 -0.0086148769314224743
leaf_weight=21452 21 61 24 299 431
leaf_count=21452 21 61 24 299 431
internal_value=0 -0.0235032 8.67902e-05 0.0082439 0.00346339
internal_weight=0 82 22206 754 730
internal_count=22288 82 22206 754 730
is_linear=0
shrinkage=0.5


Tree=95
num_leaves=6
num_cat=0
split_feature=5 15 15 19 17
split_gain=0.179397 0.307442 0.207306 0.875432 0.734762
threshold=2.4050000320130497e-05 -0.46649999916553492 -0.47049999237060541 26.050000190734867 25.007499694824222
decision_type=2 2 2 2 2
left_child=1 -1 -2 -4 -5
right_child=2 -3 3 4 -6
leaf_value=0.003614994570223364 9.9539920525738504e-05 0.074125593824481417 0.013414071285903143 -0.02524105150525709 -0.12219232671043795
leaf_weight=52 21905 22 156 130 23
leaf_count=52 21905 22 156 130 23
internal_value=0 0.0245776 -8.18737e-05 -0.0129423 -0.0398154
internal_weight=0 74 22214 309 153
internal_count=22288 74 22214 309 153
is_linear=0
shrinkage=0.5


Tree=96
num_leaves=6
num_cat=0
split_feature=12 4 3 4 3
split_gain=0.209377 1.59372 1.00096 0.881559 0.814736
threshold=9797.8251953125018 14.448849678039553 29.500000000000004 14.200199604034426 11.500000000000002
decision_type=2 2 2 2 2
left_child=1 2 3 4 -1
right_child=-2 -3 -4 -5 -6
leaf_value=0.044498104543890804 -0.0001677850492612993 0.071873956907926723 0.041459901428039549 -0.1157298780079665 -0.050949082855861319
leaf_weight=36 22024 82 59 28 59
leaf_count=36 22024 82 59 28 59
internal_value=0 0.0139973 -0.0120789 -0.0377602 -0.0147796
internal_weight=0 264 182 123 95
internal_count=22288 264 182 123 95
is_linear=0
shrinkage=0.5


Tree=97
num_leaves=6
num_cat=0
split_feature=3 12 14 12 7
split_gain=0.178316 0.351768 0.307249 0.214889 1.0541
threshold=171.50000000000003 12519.420898437502 3973.0424804687505 12539.539550781252 -105874.99999999999
decision_type=2 2 2 2 2
left_child=3 2 -2 4 -1
right_child=1 -3 -4 -5 -6
leaf_value=-0.09361640081323426 0.04501269687095593 0.0081527054949021537 -0.0075781176998611401 -0.001814761908994277 0.0018841550026574034
leaf_weight=29 29 1629 656 12025 7920
leaf_count=29 29 1629 656 12025 7920
internal_value=0 0.00415509 -0.00535165 -0.00048137 0.00153574
internal_weight=0 2314 685 19974 7949
internal_count=22288 2314 685 19974 7949
is_linear=0
shrinkage=0.5


Tree=98
num_leaves=6
num_cat=0
split_feature=10 11 1 11 5
split_gain=0.253866 0.587023 0.531154 0.607828 1.63923
threshold=3483.7060546875005 13400.792968750002 8.5000000000000018 12877.356445312502 4.0150000131689019e-05
decision_type=2 2 2 2 2
left_child=1 -1 3 4 -2
right_child=2 -3 -4 -5 -6
leaf_value=-0.0014283991925398726 -0.12669417194344781 -0.078127136230468755 0.054266233632612661 0.0018731708984472421 0.022221222603028373
leaf_weight=11775 33 25 48 10365 42
leaf_count=11775 33 25 48 10365 42
internal_value=0 -0.0015909 0.00178991 0.00154864 -0.0433016
internal_weight=0 11800 10488 10440 75
internal_count=22288 11800 10488 10440 75
is_linear=0
shrinkage=0.5


Tree=99
num_leaves=6
num_cat=0
split_feature=4 25 11 3 3
split_gain=0.190264 1.71585 1.71808 1.59721 4.20455
threshold=12.74270009994507 40.649999618530281 12928.451171875002 5.5000000000000009 8.5000000000000018
decision_type=2 2 2 2 2
left_child=1 3 -3 -1 -5
right_child=-2 2 -4 4 -6
leaf_value=-0.030337352787369286 -0.00013033337283777723 -0.14087867948154992 0.012247663945139896 0.29251984231883571 0.013744422195534418
leaf_weight=29 22112 26 62 21 38
leaf_count=29 22112 26 62 21 38
internal_value=0 0.0163746 -0.0329942 0.0657434 0.11297
internal_weight=0 176 88 88 59
internal_count=22288 176 88 88 59
is_linear=0
shrinkage=0.5


end of trees

feature_importances:
Column_4=90
Column_3=52
Column_5=50
Column_7=39
Column_6=34
Column_14=29
Column_15=27
Column_10=21
Column_1=20
Column_12=20
Column_11=19
Column_13=18
Column_16=11
Column_9=10
Column_26=10
Column_27=10
Column_21=7
Column_0=6
Column_2=5
Column_19=5
Column_23=4
Column_25=4
Column_22=3
Column_17=2
Column_20=2
Column_24=2

parameters:
[boosting: gbdt]
[objective: regression]
[metric: l1]
[tree_learner: serial]
[device_type: cpu]
[data: ]
[valid: ]
[num_iterations: 100]
[learning_rate: 0.5]
[num_leaves: 6]
[num_threads: 0]
[deterministic: 0]
[force_col_wise: 0]
[force_row_wise: 0]
[histogram_pool_size: -1]
[max_depth: 6]
[min_data_in_leaf: 20]
[min_sum_hessian_in_leaf: 0.001]
[bagging_fraction: 0.7]
[pos_bagging_fraction: 1]
[neg_bagging_fraction: 1]
[bagging_freq: 0]
[bagging_seed: 400]
[feature_fraction: 0.7]
[feature_fraction_bynode: 1]
[feature_fraction_seed: 30056]
[extra_trees: 0]
[extra_seed: 12879]
[early_stopping_round: 0]
[first_metric_only: 0]
[max_delta_step: 0]
[lambda_l1: 0]
[lambda_l2: 0]
[linear_lambda: 0]
[min_gain_to_split: 0]
[drop_rate: 0.8]
[max_drop: 50]
[skip_drop: 0.8]
[xgboost_dart_mode: 0]
[uniform_drop: 0]
[drop_seed: 17869]
[top_rate: 0.2]
[other_rate: 0.1]
[min_data_per_group: 100]
[max_cat_threshold: 32]
[cat_l2: 10]
[cat_smooth: 10]
[max_cat_to_onehot: 4]
[top_k: 20]
[monotone_constraints: ]
[monotone_constraints_method: basic]
[monotone_penalty: 0]
[feature_contri: ]
[forcedsplits_filename: ]
[refit_decay_rate: 0.9]
[cegb_tradeoff: 1]
[cegb_penalty_split: 0]
[cegb_penalty_feature_lazy: ]
[cegb_penalty_feature_coupled: ]
[path_smooth: 0]
[interaction_constraints: ]
[verbosity: 1]
[saved_feature_importance_type: 0]
[linear_tree: 0]
[max_bin: 255]
[max_bin_by_feature: ]
[min_data_in_bin: 3]
[bin_construct_sample_cnt: 200000]
[data_random_seed: 175]
[is_enable_sparse: 1]
[enable_bundle: 1]
[use_missing: 1]
[zero_as_missing: 0]
[feature_pre_filter: 1]
[pre_partition: 0]
[two_round: 0]
[header: 0]
[label_column: ]
[weight_column: ]
[group_column: ]
[ignore_column: ]
[categorical_feature: ]
[forcedbins_filename: ]
[precise_float_parser: 0]
[objective_seed: 16083]
[num_class: 1]
[is_unbalance: 0]
[scale_pos_weight: 1]
[sigmoid: 1]
[boost_from_average: 1]
[reg_sqrt: 0]
[alpha: 0.9]
[fair_c: 1]
[poisson_max_delta_step: 0.7]
[tweedie_variance_power: 1.5]
[lambdarank_truncation_level: 30]
[lambdarank_norm: 1]
[label_gain: ]
[eval_at: ]
[multi_error_top_k: 1]
[auc_mu_weights: ]
[num_machines: 1]
[local_listen_port: 12400]
[time_out: 120]
[machine_list_filename: ]
[machines: ]
[gpu_platform_id: -1]
[gpu_device_id: -1]
[gpu_use_dp: 0]
[num_gpu: 1]

end of parameters

pandas_categorical:null
