tree
version=v3
num_class=1
num_tree_per_iteration=1
label_index=0
max_feature_idx=24
objective=regression
feature_names=Column_0 Column_1 Column_2 Column_3 Column_4 Column_5 Column_6 Column_7 Column_8 Column_9 Column_10 Column_11 Column_12 Column_13 Column_14 Column_15 Column_16 Column_17 Column_18 Column_19 Column_20 Column_21 Column_22 Column_23 Column_24
feature_infos=none [9.8702001571655273:9992.6171875] [2.0600000425474718e-05:0.0017699999734759331] [-1500:36750] [-101500:1500] [-1514:-1500] [508366.3125:872092.8125] [3128.613037109375:3768.4619140625] [11113.341796875:14555.8037109375] [9586.2783203125:13904.7109375] [8395.423828125:15679.50390625] [2688.31396484375:4488.85498046875] [-0.59399998188018799:-0.45500001311302185] [44.870998382568359:45.720001220703125] [24.972999572753906:25.018999099731445] [26.299999237060547:27.299999237060547] [25.799999237060547:26.600000381469727] [26.899999618530273:27.899999618530273] [25.399999618530273:26.100000381469727] [26.399999618530273:27.200000762939453] [23.700000762939453:24.700000762939453] [30:35.299999237060547] [37:43.400001525878906] [-97.851997375488281:-95.856002807617188] [-97.968002319335938:-95.98699951171875]
tree_sizes=665 654 655 661 660 667 654 659 659 659 663 663 671 659 659 658 666 666 664 671 668 667 662 658 672 664 667 673 664 672 678 666 663 671 662 664 670 678 668 674 663 667 670 670 660 670 668 665 666 677 672 662 668 678 664 665 666 666 668 670 678 679 666 673 666 674 675 677 676 667 677 668 667 673 672 672 679 672 671 675 670 665 677 685 667 668 670 671 667 670 670 673 671 673 679 683 674 677 682 675

Tree=0
num_leaves=6
num_cat=0
split_feature=10 11 9 10 9
split_gain=0.467932 0.876786 0.0904161 0.212284 0.0874132
threshold=8542.3891601562518 3814.5625000000005 12503.813476562502 14145.629394531252 12591.890136718752
decision_type=2 2 2 2 2
left_child=-1 -2 3 -3 -4
right_child=1 2 4 -5 -6
leaf_value=-0.071330099488322599 0.10335613669775139 -0.0034690849585237017 0.017868947596797548 -0.056463127740171787 3.5411171954462391e-05
leaf_weight=22 21 134 81 22 453
leaf_count=22 21 134 81 22 453
internal_value=0.000487853 0.00271007 -0.000353073 -0.0109426 0.0027405
internal_weight=0 711 690 156 534
internal_count=733 711 690 156 534
is_linear=0
shrinkage=1


Tree=1
num_leaves=6
num_cat=0
split_feature=1 11 6 1 12
split_gain=0.271296 0.244617 0.02873 0.0417677 0.0296609
threshold=13.618100166320803 3813.960083007813 837699.40625000012 254.66145324707034 -0.57949998974800099
decision_type=2 2 2 2 2
left_child=-1 -2 4 -4 -3
right_child=1 2 3 -5 -6
leaf_value=-0.051190145881846547 0.046778533700050723 -0.015137122325810467 -0.020418454683385788 0.0027296626730707145 0.0018203649568288422
leaf_weight=25 29 27 40 38 574
leaf_count=25 29 27 40 38 574
internal_value=0 0.00180756 -0.000113143 -0.00914117 0.00105855
internal_weight=0 708 679 78 601
internal_count=733 708 679 78 601
is_linear=0
shrinkage=0.5


Tree=2
num_leaves=6
num_cat=0
split_feature=11 10 7 1 20
split_gain=0.120483 0.119582 0.0384103 0.157417 0.142744
threshold=2716.223999023438 11603.691894531252 3520.046020507813 14.177900314331056 24.349999427795414
decision_type=2 2 2 2 2
left_child=-1 -2 3 -3 -4
right_child=1 2 4 -5 -6
leaf_value=-0.036442124579810879 0.038296770260092761 -0.045665245153941214 0.0011467524116630906 -0.0010069533663705436 0.043696708589171372
leaf_weight=22 21 21 321 327 21
leaf_count=22 21 21 321 327 21
internal_value=0 0.0011276 -3.63115e-06 -0.00370185 0.00375947
internal_weight=0 711 690 348 342
internal_count=733 711 690 348 342
is_linear=0
shrinkage=0.5


Tree=3
num_leaves=6
num_cat=0
split_feature=13 11 9 9 3
split_gain=0.0856924 0.0554291 0.0967429 0.143534 0.0679374
threshold=44.968000411987312 2719.600952148438 12234.254394531252 12376.840332031252 1.0000000180025095e-35
decision_type=2 2 2 2 2
left_child=-1 -2 4 -4 -3
right_child=1 2 3 -5 -6
leaf_value=0.030036844761090597 -0.024592271074652672 0.038124187659074472 -0.038020677023774221 -0.00071595541663971058 0.0067933442464451332
leaf_weight=23 24 24 27 573 62
leaf_count=23 24 24 27 573 62
internal_value=0 -0.000973024 -0.000146695 -0.00239467 0.0155368
internal_weight=0 710 686 600 86
internal_count=733 710 686 600 86
is_linear=0
shrinkage=0.5


Tree=4
num_leaves=6
num_cat=0
split_feature=1 14 2 13 14
split_gain=0.0490931 0.0391121 0.0615441 0.067203 0.0806458
threshold=13.585850238800051 24.989500045776371 0.00076750002335757028 45.278999328613288 24.995500564575199
decision_type=2 2 2 2 2
left_child=-1 -2 -3 4 -4
right_child=1 2 3 -5 -6
leaf_value=-0.02326225800524381 -0.018315054300518777 -0.0011634161619232929 0.023649343402786672 0.029062962621941954 -0.0040591023290557238
leaf_weight=22 26 526 38 36 85
leaf_count=22 26 526 38 36 85
internal_value=0 0.000719789 0.00144228 0.0100624 0.00450123
internal_weight=0 711 685 159 123
internal_count=733 711 685 159 123
is_linear=0
shrinkage=0.5


Tree=5
num_leaves=6
num_cat=0
split_feature=2 23 23 10 12
split_gain=0.0531204 0.111875 0.0319296 0.069471 0.105097
threshold=3.6800000088987879e-05 -95.976001739501939 -97.454998016357408 13952.100097656252 -0.51850000023841847
decision_type=2 2 2 2 2
left_child=1 -1 -2 -4 -5
right_child=2 -3 3 4 -6
leaf_value=0.043051177832586246 0.0010919783308904758 0.0022491948835695872 0.0021223293167825959 -0.042922543003582038 -0.0070050969234410117
leaf_weight=21 385 84 123 26 94
leaf_count=21 385 84 123 26 94
internal_value=0 0.0104096 -0.00174046 -0.00622806 -0.0147872
internal_weight=0 105 628 243 120
internal_count=733 105 628 243 120
is_linear=0
shrinkage=0.5


Tree=6
num_leaves=6
num_cat=0
split_feature=19 1 1 6 1
split_gain=0.0379589 0.091518 0.0491689 0.166981 0.0295378
threshold=26.650000572204593 13.779799938201906 14.779099941253664 727981.28125000012 14.196399688720705
decision_type=2 2 2 2 2
left_child=1 -1 3 -2 -5
right_child=2 -3 -4 4 -6
leaf_value=-0.037224255906905798 0.047307044817134741 -0.0022144266388620182 0.00026426368903985809 -0.016631609495644541 0.0084887949796393514
leaf_weight=21 25 168 472 22 25
leaf_count=21 25 168 472 22 25
internal_value=0 -0.00610441 0.00212083 0.0142917 -0.00326969
internal_weight=0 189 544 72 47
internal_count=733 189 544 72 47
is_linear=0
shrinkage=0.5


Tree=7
num_leaves=6
num_cat=0
split_feature=13 13 18 2 11
split_gain=0.0260787 0.0225332 0.0896473 0.0235642 0.0544596
threshold=45.479000091552741 44.968000411987312 25.849999427795414 0.0016349999932572248 3840.109985351563
decision_type=2 2 2 2 2
left_child=1 -1 3 4 -3
right_child=-2 2 -4 -5 -6
leaf_value=0.015942888142055144 -0.016209818136606675 0.025832457219898377 -0.025807303611600219 -0.01239106220503648 0.0010412118676512349
leaf_weight=23 24 23 32 30 601
leaf_count=23 24 23 32 30 601
internal_value=0 0.00054871 3.25791e-05 0.00129692 0.00195499
internal_weight=0 709 686 654 624
internal_count=733 709 686 654 624
is_linear=0
shrinkage=0.5


Tree=8
num_leaves=6
num_cat=0
split_feature=9 9 1 14 11
split_gain=0.0245462 0.0602419 0.0398618 0.0202496 0.077738
threshold=12239.108398437502 12455.571777343752 112.11495208740236 24.992500305175785 4227.3339843750009
decision_type=2 2 2 2 2
left_child=-1 -2 -3 4 -4
right_child=1 2 3 -5 -6
leaf_value=0.0066055201011403046 -0.023119794709297519 0.01646848104086102 -0.035427399870241058 -4.426528072099621e-05 0.0017912005319847091
leaf_weight=118 30 34 20 484 47
leaf_count=118 30 34 20 484 47
internal_value=0 -0.0012674 -0.000146765 -0.00117203 -0.00931883
internal_weight=0 615 585 551 67
internal_count=733 615 585 551 67
is_linear=0
shrinkage=0.5


Tree=9
num_leaves=6
num_cat=0
split_feature=24 1 9 12 18
split_gain=0.0258711 0.061606 0.0463051 0.0882987 0.0177896
threshold=-97.879001617431626 13.672649860382082 12594.699218750002 -0.51850000023841847 25.750000000000004
decision_type=2 2 2 2 2
left_child=2 -2 3 -1 -3
right_child=1 4 -4 -5 -6
leaf_value=0.04169047831369839 -0.026111201965250075 -0.0011100741263539798 -0.0037003136544458189 0.0018871335167587905 0.0086561674748629556
leaf_weight=22 24 544 54 38 51
leaf_count=22 24 544 54 38 51
internal_value=0 -0.00127477 0.0069218 0.0164817 -0.000272968
internal_weight=0 619 114 60 595
internal_count=733 619 114 60 595
is_linear=0
shrinkage=0.5


Tree=10
num_leaves=6
num_cat=0
split_feature=6 13 18 11 22
split_gain=0.0232516 0.0909979 0.0466896 0.0174549 0.044059
threshold=679534.62500000012 45.055999755859382 25.750000000000004 3905.3115234375005 40.250000000000007
decision_type=2 2 2 2 2
left_child=1 -1 -2 4 -3
right_child=2 3 -4 -5 -6
leaf_value=0.033953074472146516 -0.00088073931039030803 -0.0036594024746708811 -0.023950737329078434 -0.0017456008765451691 0.025223408504287996
leaf_weight=23 472 31 23 161 23
leaf_count=23 472 31 23 161 23
internal_value=0 0.00406124 -0.00195268 0.000863512 0.00864254
internal_weight=0 238 495 215 54
internal_count=733 238 495 215 54
is_linear=0
shrinkage=0.5


Tree=11
num_leaves=6
num_cat=0
split_feature=21 11 11 1 11
split_gain=0.0161549 0.020126 0.068351 0.0456853 0.0239226
threshold=30.750000000000004 4305.5764160156259 4312.3867187500009 13.585850238800051 4289.2299804687509
decision_type=2 2 2 2 2
left_child=-1 3 -3 -2 -5
right_child=1 2 -4 4 -6
leaf_value=0.010482469714562674 -0.025374544961821465 0.026747424739706156 0.00020167343210545857 -0.0003987906434661154 -0.015062058508192422
leaf_weight=35 21 27 238 382 30
leaf_count=35 21 27 238 382 30
internal_value=0 -0.000525625 0.00290633 -0.00262602 -0.0014665
internal_weight=0 698 265 433 412
internal_count=733 698 265 433 412
is_linear=0
shrinkage=0.5


Tree=12
num_leaves=6
num_cat=0
split_feature=24 18 18 12 22
split_gain=0.0198638 0.177086 0.0868598 0.0184708 0.0237194
threshold=-97.031501770019517 25.94999980926514 25.750000000000004 -0.50949999690055836 39.549999237060554
decision_type=2 2 2 2 2
left_child=1 3 -2 4 -1
right_child=2 -3 -4 -5 -6
leaf_value=0.003767921131664553 -0.00045599369774075658 0.043672305425388913 -0.031673375178652347 0.0038845345549946486 -0.0056058876719550926
leaf_weight=99 205 24 25 168 212
leaf_count=99 205 24 25 168 212
internal_value=0 0.00176007 -0.00384919 -0.000339921 -0.00262194
internal_weight=0 503 230 479 311
internal_count=733 503 230 479 311
is_linear=0
shrinkage=0.5


Tree=13
num_leaves=6
num_cat=0
split_feature=9 17 13 9 14
split_gain=0.0222818 0.0537916 0.0539485 0.0511118 0.0796873
threshold=12517.560058593752 27.250000000000004 45.22400093078614 12572.022949218752 25.002500534057621
decision_type=2 2 2 2 2
left_child=1 2 -1 4 -2
right_child=3 -3 -4 -5 -6
leaf_value=-0.0050880323674024359 0.00010828739219245367 -0.02606711885309778 0.017690008123134895 0.00019402644225826804 0.041431225716951306
leaf_weight=161 28 25 31 468 20
leaf_count=161 28 25 31 468 20
internal_value=0 -0.00425097 -0.00141033 0.00178771 0.0173262
internal_weight=0 217 192 516 48
internal_count=733 217 192 516 48
is_linear=0
shrinkage=0.5


Tree=14
num_leaves=6
num_cat=0
split_feature=22 1 18 11 18
split_gain=0.023421 0.0488031 0.037638 0.0301364 0.0200024
threshold=41.45000076293946 13.968249797821047 25.750000000000004 2719.600952148438 25.750000000000004
decision_type=2 2 2 2 2
left_child=1 3 -2 -1 -3
right_child=2 4 -4 -5 -6
leaf_value=-0.0051923569029895585 0.0019272256926093393 -0.0014906250664096974 0.023923787273122884 -0.032640653177804776 0.013387123307666116
leaf_weight=20 263 385 21 20 24
leaf_count=20 263 385 21 20 24
internal_value=0 -0.00224779 0.00355373 -0.0189165 -0.000617603
internal_weight=0 449 284 40 409
internal_count=733 449 284 40 409
is_linear=0
shrinkage=0.5


Tree=15
num_leaves=6
num_cat=0
split_feature=11 11 24 1 22
split_gain=0.0132663 0.0166004 0.0469662 0.0338179 0.0163118
threshold=3899.767456054688 3841.484985351563 -97.682502746582017 9992.3334960937518 39.850000381469734
decision_type=2 2 2 2 2
left_child=1 2 3 -1 -2
right_child=4 -3 -4 -5 -6
leaf_value=-0.019820852529240558 0.0045975463781450805 -0.017720745462048354 0.0139859014035513 0.005061693455817559 -0.00087317908447031201
leaf_weight=36 201 21 30 22 423
leaf_count=36 201 21 30 22 423
internal_value=0 -0.00508947 -0.00207519 -0.0103826 0.000889026
internal_weight=0 109 88 58 624
internal_count=733 109 88 58 624
is_linear=0
shrinkage=0.5


Tree=16
num_leaves=6
num_cat=0
split_feature=19 1 7 2 6
split_gain=0.0151488 0.0279595 0.0538388 0.0290979 0.0198406
threshold=26.650000572204593 112.28780364990236 3509.889526367188 4.4849999540019787e-05 626146.81250000012
decision_type=2 2 2 2 2
left_child=1 2 -1 -3 -2
right_child=4 3 -4 -5 -6
leaf_value=-0.00087964179110713305 -0.0043975520926878902 0.016597095087332571 -0.030458017105702312 -0.0031083808441895364 0.0029290152734391195
leaf_weight=40 118 23 25 101 426
leaf_count=40 118 23 25 101 426
internal_value=0 -0.00385635 -0.0122559 0.000546667 0.0013398
internal_weight=0 189 65 124 544
internal_count=733 189 65 124 544
is_linear=0
shrinkage=0.5


Tree=17
num_leaves=6
num_cat=0
split_feature=6 6 23 1 14
split_gain=0.0190626 0.0498918 0.0606622 0.0438732 0.035887
threshold=713168.03125000012 720043.37500000012 -96.572498321533189 14.177900314331056 24.996500015258793
decision_type=2 2 2 2 2
left_child=4 -2 3 -3 -1
right_child=1 2 -4 -5 -6
leaf_value=-0.0046727324018023195 -0.025913538899095284 0.02358476395602338 -0.022564470822302004 -0.00047876078875235597 0.006860913958912601
leaf_weight=101 21 20 30 358 203
leaf_count=101 21 20 30 358 203
internal_value=0 -0.00214643 -0.000923126 0.000794442 0.00302901
internal_weight=0 429 408 378 304
internal_count=733 429 408 378 304
is_linear=0
shrinkage=0.5


Tree=18
num_leaves=6
num_cat=0
split_feature=8 22 1 18 22
split_gain=0.0129004 0.0125215 0.0250174 0.0267713 0.0236179
threshold=14396.969726562502 41.45000076293946 9985.4492187500018 25.750000000000004 39.750000000000007
decision_type=2 2 2 2 2
left_child=1 4 3 -3 -1
right_child=-2 2 -4 -5 -6
leaf_value=0.0013452307054552528 0.011400846114459759 0.0021015689908381319 -0.014764571489649825 0.021160515816882254 -0.0060471781441447095
leaf_weight=235 24 234 20 20 200
leaf_count=235 24 234 20 20 200
internal_value=0 -0.000385924 0.00226163 0.00360227 -0.00205358
internal_weight=0 709 274 254 435
internal_count=733 709 274 254 435
is_linear=0
shrinkage=0.5


Tree=19
num_leaves=6
num_cat=0
split_feature=2 16 14 22 22
split_gain=0.0122771 0.0143087 0.0365444 0.0134068 0.0134412
threshold=2.4349999875994403e-05 26.44999980926514 24.998499870300297 42.350000381469734 41.250000000000007
decision_type=2 2 2 2 2
left_child=-1 3 -3 4 -2
right_child=1 2 -4 -5 -6
leaf_value=0.0099056386854499585 -0.00095760021414759329 -0.023854991948610405 0.0031693554322781235 -0.0067860396168637838 0.0039395523694206354
leaf_weight=30 361 22 29 62 229
leaf_count=30 361 22 29 62 229
internal_value=0 -0.000422716 -0.00848821 0.000208174 0.000943159
internal_weight=0 703 51 652 590
internal_count=733 703 51 652 590
is_linear=0
shrinkage=0.5


Tree=20
num_leaves=6
num_cat=0
split_feature=8 12 8 23 18
split_gain=0.00883098 0.0300459 0.0219215 0.0194754 0.092185
threshold=13331.342773437502 -0.51049998402595509 13236.809082031252 -97.251003265380845 25.94999980926514
decision_type=2 2 2 2 2
left_child=2 -2 3 4 -1
right_child=1 -3 -4 -5 -6
leaf_value=-0.00022210663250721969 -0.021159096079645678 -0.00080000278484160703 0.013014240450704366 -0.0077565547566557525 0.033770417739149364
leaf_weight=397 20 193 36 66 21
leaf_count=397 20 193 36 66 21
internal_value=0 -0.00271165 0.00111074 0.000225351 0.00148565
internal_weight=0 213 520 484 418
internal_count=733 213 520 484 418
is_linear=0
shrinkage=0.5


Tree=21
num_leaves=6
num_cat=0
split_feature=10 21 2 21 12
split_gain=0.0185468 0.0113546 0.0522066 0.0469738 0.0464398
threshold=8580.9287109375018 33.350000381469734 3.9849999666330411e-05 33.149999618530281 -0.51150000095367421
decision_type=2 2 2 2 2
left_child=-1 3 -3 -2 -5
right_child=1 2 -4 4 -6
leaf_value=-0.011968503890168522 0.0008470553605827712 0.02767764753079973 0.0011056261606486781 -0.033329866341470428 -0.0026728453531783694
leaf_weight=31 387 20 244 21 30
leaf_count=31 387 20 244 21 30
internal_value=0 0.000528524 0.00311866 -0.00103265 -0.0152963
internal_weight=0 702 264 438 51
internal_count=733 702 264 438 51
is_linear=0
shrinkage=0.5


Tree=22
num_leaves=6
num_cat=0
split_feature=1 20 14 2 14
split_gain=0.0112337 0.0122223 0.163049 0.0751203 0.0125422
threshold=507.36755371093756 24.349999427795414 24.997499465942386 4.6249999286374084e-05 25.004499435424808
decision_type=2 2 2 2 2
left_child=1 4 -3 -4 -1
right_child=-2 2 3 -5 -6
leaf_value=0.0014444469457127948 0.0019073018246130464 -0.042211110525228003 0.032369296297110849 -0.0091217461097888499 -0.0058844859983461601
leaf_weight=209 376 23 20 24 81
leaf_count=209 376 23 20 24 81
internal_value=0 -0.00200881 -0.0080954 0.00973782 -0.0006026
internal_weight=0 357 67 44 290
internal_count=733 357 67 44 290
is_linear=0
shrinkage=0.5


Tree=23
num_leaves=6
num_cat=0
split_feature=7 8 6 8 6
split_gain=0.00965367 0.0129832 0.0563741 0.0441904 0.0135777
threshold=3444.940063476563 12814.577148437502 752767.40625000012 12905.462890625002 793020.59375000012
decision_type=2 2 2 2 2
left_child=-1 2 -2 -3 -4
right_child=1 3 4 -5 -6
leaf_value=0.0030034710775258384 -0.029198001754204079 0.022316311779875486 0.011230547438442175 -0.0011622185858562143 -0.0048512100924524154
leaf_weight=196 21 21 21 439 35
leaf_count=196 21 21 21 439 35
internal_value=0 -0.00109624 -0.00710531 -9.03726e-05 0.00117945
internal_weight=0 537 77 460 56
internal_count=733 537 77 460 56
is_linear=0
shrinkage=0.5


Tree=24
num_leaves=6
num_cat=0
split_feature=24 6 24 2 19
split_gain=0.00931073 0.0385962 0.0185054 0.0152229 0.0330687
threshold=-97.716999053955064 830384.43750000012 -97.682502746582017 4.5450000470737002e-05 26.650000572204593
decision_type=2 2 2 2 2
left_child=3 2 -2 4 -1
right_child=1 -3 -4 -5 -6
leaf_value=-0.0013901545019259422 -0.015200522658415139 -0.021422845473432022 0.00039665983045821586 -3.5909576034273454e-05 0.018745562061667442
leaf_weight=44 20 23 387 221 38
leaf_count=44 20 23 387 221 38
internal_value=0 -0.00149588 -0.000369786 0.00212287 0.00794103
internal_weight=0 430 407 303 82
internal_count=733 430 407 303 82
is_linear=0
shrinkage=0.5


Tree=25
num_leaves=6
num_cat=0
split_feature=7 8 8 8 2
split_gain=0.00899345 0.0252384 0.0164473 0.0143826 0.0685494
threshold=3452.8210449218755 12811.012207031252 12901.514648437502 13010.379394531252 3.0199999855540231e-05
decision_type=2 2 2 2 2
left_child=-1 -2 -3 4 -4
right_child=1 2 3 -5 -6
leaf_value=0.002549540185963393 -0.013587454450316727 0.013843230158090591 0.011876030492463283 0.00015931035064988976 -0.026873927619308232
leaf_weight=235 38 20 21 394 25
leaf_count=235 38 20 21 394 25
internal_value=0 -0.0012031 -0.000180041 -0.000817462 -0.00918373
internal_weight=0 498 460 440 46
internal_count=733 498 460 440 46
is_linear=0
shrinkage=0.5


Tree=26
num_leaves=6
num_cat=0
split_feature=1 2 11 14 6
split_gain=0.00993541 0.0126984 0.0249483 0.0236921 0.00653795
threshold=9992.3334960937518 0.0016049999976530673 3890.8625488281255 24.999500274658207 841357.06250000012
decision_type=2 2 2 2 2
left_child=1 2 -1 -3 -4
right_child=-2 3 4 -5 -6
leaf_value=0.014879777655421225 0.010464881422442639 0.0034186102891135307 0.00016373861515641991 -0.017758221727230454 -0.0052053333088729736
leaf_weight=28 22 25 567 28 63
leaf_count=28 22 25 567 28 63
internal_value=0 -0.000323808 0.000275893 -0.00776915 -0.000373169
internal_weight=0 711 658 53 630
internal_count=733 711 658 53 630
is_linear=0
shrinkage=0.5


Tree=27
num_leaves=6
num_cat=0
split_feature=3 9 14 7 7
split_gain=0.00775491 0.0262405 0.0078311 0.0279484 0.0513827
threshold=-1.0000000180025095e-35 12496.196289062502 24.996500015258793 3520.046020507813 3488.8039550781255
decision_type=2 2 2 2 2
left_child=1 -1 -2 4 -4
right_child=2 -3 3 -5 -6
leaf_value=0.019225561490615786 0.0016556766032944129 0.00033745474096187015 -0.0034608027359087652 0.0025741415252066393 -0.030097968399059028
leaf_weight=22 214 112 191 174 20
leaf_count=22 214 112 191 174 20
internal_value=0 0.00343849 -0.000769211 -0.00211707 -0.00598565
internal_weight=0 134 599 385 211
internal_count=733 134 599 385 211
is_linear=0
shrinkage=0.5


Tree=28
num_leaves=6
num_cat=0
split_feature=24 1 2 9 6
split_gain=0.00826402 0.0304324 0.017377 0.0458597 0.0204508
threshold=-97.655498504638658 14.369199752807619 4.3750000259024098e-05 12516.028808593752 819035.31250000012
decision_type=2 2 2 2 2
left_child=2 -2 3 -1 -4
right_child=1 -3 4 -5 -6
leaf_value=-0.0053235768224112693 -0.020068180605968728 -0.00050993366800112388 0.0028809511548494441 0.028536309232003988 -0.0067608207601763635
leaf_weight=20 21 376 223 20 73
leaf_count=20 21 376 223 20 73
internal_value=0 -0.0015445 0.0018249 0.0116064 0.000503082
internal_weight=0 397 336 40 296
internal_count=733 397 336 40 296
is_linear=0
shrinkage=0.5


Tree=29
num_leaves=6
num_cat=0
split_feature=8 12 14 1 20
split_gain=0.00638781 0.00886381 0.00634063 0.0710275 0.0703342
threshold=11233.317382812502 -0.47249999642372126 25.005499839782718 14.16534996032715 24.349999427795414
decision_type=2 2 2 2 2
left_child=-1 2 3 -2 -4
right_child=1 -3 4 -5 -6
leaf_value=0.0074064429458563352 -0.029987452202476561 -0.0080510708569948158 -0.0011300272478142657 0.00042750342545750671 0.029130503945370121
leaf_weight=28 20 35 151 477 22
leaf_count=28 20 35 151 477 22
internal_value=0 -0.000294157 0.000111055 -0.000796438 0.00271813
internal_weight=0 705 670 497 173
internal_count=733 705 670 497 173
is_linear=0
shrinkage=0.5


Tree=30
num_leaves=6
num_cat=0
split_feature=1 10 23 13 3
split_gain=0.00729003 0.00771505 0.00749561 0.00880547 0.00415105
threshold=13.618100166320803 8580.9287109375018 -97.782501220703111 45.166000366210945 1.0000000180025095e-35
decision_type=2 2 2 2 2
left_child=-1 -2 3 -3 -4
right_child=1 2 4 -5 -6
leaf_value=0.0083913002908229829 -0.0099768953921739005 -0.012544109467417002 0.0029424242297931983 0.00016154138138517736 -0.0001919297475490499
leaf_weight=25 20 25 134 30 499
leaf_count=25 20 25 134 30 499
internal_value=0 -0.000296303 -1.48904e-05 -0.00561375 0.000471583
internal_weight=0 708 688 55 633
internal_count=733 708 688 55 633
is_linear=0
shrinkage=0.5


Tree=31
num_leaves=6
num_cat=0
split_feature=13 14 6 1 14
split_gain=0.00417551 0.0173756 0.0356094 0.0239893 0.0142938
threshold=45.118999481201179 25.005499839782718 780411.15625000012 14.229949951171877 24.996500015258793
decision_type=2 2 2 2 2
left_child=1 3 -3 -1 -2
right_child=4 2 -4 -5 -6
leaf_value=-0.016664639604277907 0.0028837587979566202 0.025584561295718664 -0.0032004124553747138 0.0019460274493177385 -0.0025484338552027182
leaf_weight=20 183 21 22 129 358
leaf_count=20 183 21 22 129 358
internal_value=0 0.00200318 0.0108574 -0.000552049 -0.000710927
internal_weight=0 192 43 149 541
internal_count=733 192 43 149 541
is_linear=0
shrinkage=0.5


Tree=32
num_leaves=6
num_cat=0
split_feature=20 6 8 1 14
split_gain=0.00504578 0.0232785 0.0573688 0.00609775 0.00524618
threshold=24.349999427795414 679534.62500000012 12796.364257812502 13.962699890136721 25.010499954223636
decision_type=2 2 2 2 2
left_child=3 -2 -3 -1 -5
right_child=1 2 -4 4 -6
leaf_value=0.0090757234400371083 0.0096764231517833341 0.0032134283761619232 -0.027856509327345218 -0.00011217559358022968 0.0067742321909212604
leaf_weight=20 24 39 24 597 29
leaf_count=20 24 39 24 597 29
internal_value=0 -0.00357469 -0.00862274 0.000481422 0.000206843
internal_weight=0 87 63 646 626
internal_count=733 87 63 646 626
is_linear=0
shrinkage=0.5


Tree=33
num_leaves=6
num_cat=0
split_feature=6 6 6 6 6
split_gain=0.00446901 0.0259307 0.0130397 0.00835643 0.00656847
threshold=628173.90625000012 653444.12500000012 616344.21875000012 675355.15625000012 727313.37500000012
decision_type=2 2 2 2 2
left_child=2 -2 -1 -3 -5
right_child=1 3 -4 4 -6
leaf_value=-0.00059525830784595791 0.013654211081706712 -0.008318118891717555 -0.013926283161189141 0.0033962657796528508 -0.00077646173771063335
leaf_weight=145 36 30 21 126 375
leaf_count=145 36 30 21 126 375
internal_value=0 0.000668015 -0.00228171 -0.000212405 0.000272967
internal_weight=0 567 166 531 501
internal_count=733 567 166 531 501
is_linear=0
shrinkage=0.5


Tree=34
num_leaves=6
num_cat=0
split_feature=14 1 18 1 22
split_gain=0.00686026 0.0190005 0.0104178 0.00768564 0.0251069
threshold=25.006500244140629 113.56600189208986 25.94999980926514 9987.7670898437518 39.850000381469734
decision_type=2 2 2 2 2
left_child=2 -2 3 -1 -5
right_child=1 -3 -4 4 -6
leaf_value=0.00094390666773718184 -0.012045495820833215 0.0006462173741827869 0.011179025897391788 0.0042473790943517997 -0.016670567341721974
leaf_weight=511 42 99 23 32 26
leaf_count=511 42 99 23 32 26
internal_value=0 -0.00313429 0.000746512 0.000324811 -0.00512963
internal_weight=0 141 592 569 58
internal_count=733 141 592 569 58
is_linear=0
shrinkage=0.5


Tree=35
num_leaves=6
num_cat=0
split_feature=2 2 13 9 1
split_gain=0.00481824 0.0323037 0.0106161 0.0130271 0.0100004
threshold=3.4349999623373158e-05 3.8549998862436048e-05 45.385000228881843 12518.650390625002 13.851550102233888
decision_type=2 2 2 2 2
left_child=2 -2 3 -1 -3
right_child=1 4 -4 -5 -6
leaf_value=0.0026728483848273755 0.016793923496654064 -0.0095154691890846667 0.00335909282208983 -0.01316572237143142 0.0001580733954378052
leaf_weight=20 29 28 36 37 583
leaf_count=20 29 28 36 37 583
internal_value=0 0.000488668 -0.00336288 -0.00760833 -0.000285231
internal_weight=0 640 93 57 611
internal_count=733 640 93 57 611
is_linear=0
shrinkage=0.5


Tree=36
num_leaves=6
num_cat=0
split_feature=17 14 8 14 12
split_gain=0.00629641 0.00519749 0.00389376 0.00430854 0.0125115
threshold=27.750000000000004 24.997499465942386 14396.969726562502 24.994500160217289 -0.51549997925758351
decision_type=2 2 2 2 2
left_child=2 -2 3 4 -1
right_child=1 -3 -4 -5 -6
leaf_value=-0.007631875485869034 0.0004710492205395851 -0.0099347640602250719 0.0069362368270627812 0.00087706883360977187 0.0015577115634147524
leaf_weight=62 21 28 22 508 92
leaf_count=62 21 28 22 508 92
internal_value=0 -0.00547513 0.000392224 0.000174749 -0.00214199
internal_weight=0 49 684 662 154
internal_count=733 49 684 662 154
is_linear=0
shrinkage=0.5


Tree=37
num_leaves=6
num_cat=0
split_feature=9 11 16 6 2
split_gain=0.00565668 0.0138634 0.00732823 0.00720268 0.00683136
threshold=13087.819335937502 4279.4001464843759 26.050000190734867 828056.93750000012 0.00076550000812858354
decision_type=2 2 2 2 2
left_child=4 -2 -3 -4 -1
right_child=1 2 3 -5 -6
leaf_value=-0.0003225011380651788 -0.012044522614638892 0.007575003891057956 -0.00014417657299558274 -0.0097536524893560763 0.0035645286784757968
leaf_weight=391 31 24 104 24 159
leaf_count=391 31 24 104 24 159
internal_value=0 -0.00240799 -0.000442644 -0.00194595 0.000801204
internal_weight=0 183 152 128 550
internal_count=733 183 152 128 550
is_linear=0
shrinkage=0.5


Tree=38
num_leaves=6
num_cat=0
split_feature=24 24 12 16 2
split_gain=0.00321837 0.01196 0.00567343 0.0053887 0.006098
threshold=-97.887001037597642 -97.867500305175767 -0.51750001311302174 26.050000190734867 4.6549999751732691e-05
decision_type=2 2 2 2 2
left_child=2 -2 -1 -4 -5
right_child=1 -3 3 4 -6
leaf_value=-0.0078848294643274336 0.010333028114159945 -6.1448699071202888e-05 0.0058447759924456473 -0.0096864476014161486 0.0026606204221025108
leaf_weight=34 29 605 25 20 20
leaf_count=34 29 605 25 20 20
internal_value=0 0.000414008 -0.00265133 8.61978e-05 -0.00351291
internal_weight=0 634 99 65 40
internal_count=733 634 99 65 40
is_linear=0
shrinkage=0.5


Tree=39
num_leaves=6
num_cat=0
split_feature=23 21 21 21 8
split_gain=0.00401699 0.00458074 0.00334298 0.00698632 0.00660446
threshold=-95.898998260498033 30.750000000000004 34.45000076293946 34.149999618530281 11226.869140625002
decision_type=2 2 2 2 2
left_child=1 -1 3 4 -3
right_child=-2 2 -4 -5 -6
leaf_value=0.0067505455965426965 -0.0057670771614006114 0.0084242244871954117 -0.005686447946354747 0.0056520033481151418 -0.00060246481707729085
leaf_weight=26 29 21 25 54 578
leaf_count=26 29 21 25 54 578
internal_value=0 0.000237564 -1.21961e-05 0.000205042 -0.000286003
internal_weight=0 704 678 653 599
internal_count=733 704 678 653 599
is_linear=0
shrinkage=0.5


Tree=40
num_leaves=6
num_cat=0
split_feature=22 14 22 1 22
split_gain=0.0046413 0.00817807 0.00555303 0.0203415 0.01671
threshold=38.649999618530281 25.0004997253418 39.750000000000007 14.248499870300295 40.049999237060554
decision_type=2 2 2 2 2
left_child=1 -1 3 -2 -4
right_child=2 -3 4 -5 -6
leaf_value=0.00011621420142344302 0.017518985541149352 -0.010293496359171796 -0.012471193670838451 0.0008073089211526153 0.00032356569322229174
leaf_weight=54 21 29 27 137 465
leaf_count=54 21 29 27 137 465
internal_value=0 -0.00352091 0.000449594 0.00302848 -0.000378586
internal_weight=0 83 650 158 492
internal_count=733 83 650 158 492
is_linear=0
shrinkage=0.5


Tree=41
num_leaves=6
num_cat=0
split_feature=10 4 23 4 7
split_gain=0.00655962 0.00434183 0.0114838 0.024352 0.0185231
threshold=8580.9287109375018 -69124.999999999985 -97.251003265380845 1.0000000180025095e-35 3577.6435546875005
decision_type=2 2 2 2 2
left_child=-1 -2 3 -3 -4
right_child=1 2 4 -5 -6
leaf_value=-0.0071177908685058355 -0.00035308628161347024 0.020968742508904098 -0.015312017191899941 0.0018374900639173575 0.0036661415106209461
leaf_weight=31 545 21 20 80 36
leaf_count=31 545 21 20 80 36
internal_value=0 0.000314318 0.00263111 0.00581528 -0.00311177
internal_weight=0 702 157 101 56
internal_count=733 702 157 101 56
is_linear=0
shrinkage=0.5


Tree=42
num_leaves=6
num_cat=0
split_feature=1 14 23 9 9
split_gain=0.00587633 0.0164314 0.0038815 0.00556776 0.00996525
threshold=13.968249797821047 24.997499465942386 -97.782501220703111 12499.399902343752 12529.974121093752
decision_type=2 2 2 2 2
left_child=1 -1 -2 -4 -5
right_child=2 -3 3 4 -6
leaf_value=-0.015861867450266368 -0.0036490501788317819 0.0026400651508343537 0.0037033596715431603 -0.0072014495850784115 0.00067563320444288745
leaf_weight=21 55 28 126 44 459
leaf_count=21 55 28 126 44 459
internal_value=0 -0.00528933 0.000378914 0.000731121 -1.34158e-05
internal_weight=0 49 684 629 503
internal_count=733 49 684 629 503
is_linear=0
shrinkage=0.5


Tree=43
num_leaves=6
num_cat=0
split_feature=12 22 11 14 8
split_gain=0.00503438 0.00475213 0.00835125 0.00801054 0.0158702
threshold=-0.46449999511241907 41.549999237060554 3978.337524414063 24.992500305175785 13157.130859375002
decision_type=2 2 2 2 2
left_child=1 3 -3 4 -1
right_child=-2 2 -4 -5 -6
leaf_value=0.0022501420116896043 -0.007449283900892955 -0.0082407758738367986 -0.00028240812905220219 0.0019349142900755038 -0.015704360429663212
leaf_weight=32 22 39 213 407 20
leaf_count=32 22 39 213 407 20
internal_value=0 0.000230498 -0.00151406 0.0011883 -0.00465544
internal_weight=0 711 252 459 52
internal_count=733 711 252 459 52
is_linear=0
shrinkage=0.5


Tree=44
num_leaves=6
num_cat=0
split_feature=20 21 2 14 2
split_gain=0.0045182 0.0240754 0.045021 0.0113215 0.00328867
threshold=24.349999427795414 33.750000000000007 4.4950000301469124e-05 24.999500274658207 0.0016150000155903401
decision_type=2 2 2 2 2
left_child=4 2 -2 -4 -1
right_child=1 -3 3 -5 -6
leaf_value=0.000125271815561079 -0.027879158317227849 0.01136283737113921 0.0080465134985085261 -0.007656515261094848 0.0043088991329640006
leaf_weight=595 20 21 24 22 51
leaf_count=595 20 21 24 22 51
internal_value=0 -0.00338265 -0.0080744 0.000536369 0.000455558
internal_weight=0 87 66 46 646
internal_count=733 87 66 46 646
is_linear=0
shrinkage=0.5


Tree=45
num_leaves=6
num_cat=0
split_feature=7 1 7 1 2
split_gain=0.00453789 0.0166464 0.00997417 0.00861423 0.00776474
threshold=3520.046020507813 15.064099788665773 3495.3825683593755 9989.4926757812518 0.00067149999085813772
decision_type=2 2 2 2 2
left_child=2 -2 -1 4 -3
right_child=1 3 -4 -5 -6
leaf_value=-0.0005618801985071292 0.014968501132292053 0.0004881235988895324 -0.011763638107194788 0.0099868096188980744 -0.0088895949775178451
leaf_weight=370 21 275 21 22 24
leaf_count=370 21 275 21 22 24
internal_value=0 0.00133021 -0.00116351 0.000437986 -0.000264603
internal_weight=0 342 391 321 299
internal_count=733 342 391 321 299
is_linear=0
shrinkage=0.5


Tree=46
num_leaves=6
num_cat=0
split_feature=8 7 14 7 3
split_gain=0.00493551 0.0159641 0.0109832 0.0207814 0.0159316
threshold=13010.379394531252 3552.807495117188 24.996500015258793 3455.4050292968755 -1.0000000180025095e-35
decision_type=2 2 2 2 2
left_child=1 2 3 -1 -4
right_child=-2 -3 4 -5 -6
leaf_value=1.8371587272813933e-05 0.0011968816468266375 -0.014755792705164779 0.0065647021371823475 0.017347307251342994 -0.0046163546381001062
leaf_weight=81 396 21 39 22 174
leaf_count=81 396 21 39 22 174
internal_value=0 -0.00140642 -0.000519283 0.0037197 -0.00256912
internal_weight=0 337 316 103 213
internal_count=733 337 316 103 213
is_linear=0
shrinkage=0.5


Tree=47
num_leaves=6
num_cat=0
split_feature=8 11 6 11 14
split_gain=0.0026886 0.00434936 0.00945192 0.00501953 0.00965666
threshold=11233.317382812502 3899.767456054688 721298.25000000012 3944.148559570313 24.989500045776371
decision_type=2 2 2 2 2
left_child=-1 2 -2 -3 -5
right_child=1 3 -4 4 -6
leaf_value=0.004805037909786084 -0.0096764978726342731 0.0069248949056836193 0.001193138089729473 0.010235633579379117 -0.00043832078363503448
leaf_weight=28 36 27 45 22 575
leaf_count=28 36 27 45 22 575
internal_value=0 -0.000190838 -0.00363781 0.000256605 -4.49757e-05
internal_weight=0 705 81 624 597
internal_count=733 705 81 624 597
is_linear=0
shrinkage=0.5


Tree=48
num_leaves=6
num_cat=0
split_feature=2 2 21 12 14
split_gain=0.00317519 0.0176073 0.0145347 0.0129728 0.00418756
threshold=3.9750000723870478e-05 3.5549999665818184e-05 33.149999618530281 -0.48350000381469721 24.996500015258793
decision_type=2 2 2 2 2
left_child=1 2 3 -1 -5
right_child=-2 -3 -4 4 -6
leaf_value=0.0121454990711873 -0.00049668932800630129 0.011486340019965192 -0.011449197522149636 0.0029594153309682788 -0.0062587691569595859
leaf_weight=23 597 37 26 22 28
leaf_count=23 597 37 26 22 28
internal_value=0 0.00218032 -0.00129769 0.00231792 -0.00220277
internal_weight=0 136 99 73 50
internal_count=733 136 99 73 50
is_linear=0
shrinkage=0.5


Tree=49
num_leaves=6
num_cat=0
split_feature=2 2 21 2 7
split_gain=0.0055865 0.00463382 0.0148611 0.00699904 0.00316546
threshold=2.4349999875994403e-05 3.3750000511645346e-05 32.95000076293946 3.7649999285349629e-05 3620.9050292968755
decision_type=2 2 2 2 2
left_child=-1 2 -2 -3 -5
right_child=1 3 -4 4 -6
leaf_value=0.0066819759629045926 0.0014999187689299059 0.0090847719111479819 -0.014829382845412263 6.6563988542081803e-05 -0.0050394604550092481
leaf_weight=30 38 21 22 590 32
leaf_count=30 38 21 22 590 32
internal_value=0 -0.000285148 -0.00448749 0.000106983 -0.000196125
internal_weight=0 703 60 643 622
internal_count=733 703 60 643 622
is_linear=0
shrinkage=0.5


Tree=50
num_leaves=6
num_cat=0
split_feature=21 21 20 24 9
split_gain=0.00460036 0.012726 0.0105295 0.00583513 0.0053181
threshold=32.350000381469734 32.649999618530281 24.349999427795414 -96.083499908447251 13278.054199218752
decision_type=2 2 2 2 2
left_child=2 -2 3 -1 -3
right_child=1 4 -4 -5 -6
leaf_value=0.00027806087034978601 0.0098177101872106258 0.0010461989410259775 -0.011256358967120132 -0.0076821277235957003 -0.0032418338373395523
leaf_weight=201 37 352 26 26 91
leaf_count=201 37 352 26 26 91
internal_value=0 0.000909397 -0.00172534 -0.000633679 0.000165362
internal_weight=0 480 253 227 443
internal_count=733 480 253 227 443
is_linear=0
shrinkage=0.5


Tree=51
num_leaves=6
num_cat=0
split_feature=1 14 13 1 7
split_gain=0.0023502 0.00916666 0.0102375 0.00547445 0.00313663
threshold=9987.7670898437518 25.0004997253418 45.169500350952156 4938.6252441406259 3573.2165527343755
decision_type=2 2 2 2 2
left_child=3 2 -2 4 -1
right_child=1 -3 -4 -5 -6
leaf_value=-0.00080867709600862829 4.5472087159786108e-06 0.0033109194233215283 -0.015801882345112973 0.007276320062508738 0.0015340895047406006
leaf_weight=411 21 35 20 27 219
leaf_count=411 21 35 20 27 219
internal_value=0 -0.00263237 -0.00770591 0.000304505 5.7132e-06
internal_weight=0 76 41 657 630
internal_count=733 76 41 657 630
is_linear=0
shrinkage=0.5


Tree=52
num_leaves=6
num_cat=0
split_feature=15 2 10 13 15
split_gain=0.00279422 0.00325374 0.00882062 0.0246912 0.00429065
threshold=27.150000572204593 3.6800000088987879e-05 14375.821289062502 45.30999946594239 27.050000190734867
decision_type=2 2 2 2 2
left_child=1 2 -1 -4 -3
right_child=-2 4 3 -5 -6
leaf_value=-0.0038330835832898775 -0.0050906270491675688 -0.00055066872905760013 0.020867128971440253 -0.0007411253650505573 0.005074492738155338
leaf_weight=31 26 581 20 39 36
leaf_count=31 26 581 20 39 36
internal_value=0 0.000187208 0.0029957 0.00658371 -0.000222458
internal_weight=0 707 90 59 617
internal_count=733 707 90 59 617
is_linear=0
shrinkage=0.5


Tree=53
num_leaves=6
num_cat=0
split_feature=12 1 1 13 24
split_gain=0.00363235 0.00882897 0.00817591 0.00339855 0.00314906
threshold=-0.57850000262260426 9989.7773437500018 9983.4975585937518 45.467000961303718 -97.031501770019517
decision_type=2 2 2 2 2
left_child=-1 2 3 4 -2
right_child=1 -3 -4 -5 -6
leaf_value=-0.0049705600806711509 0.00065290302500049173 0.0083618297703651479 -0.0098494804558521588 0.0054652208787517561 -0.0018329276793135956
leaf_weight=35 436 32 21 29 180
leaf_count=35 436 32 21 29 180
internal_value=0 0.00024924 -0.000140554 0.000175551 -7.34761e-05
internal_weight=0 698 666 645 616
internal_count=733 698 666 645 616
is_linear=0
shrinkage=0.5


Tree=54
num_leaves=6
num_cat=0
split_feature=13 21 2 10 1
split_gain=0.00347998 0.0076538 0.0118409 0.011099 0.00904088
threshold=45.157999038696296 33.350000381469734 4.4550000893650583e-05 13627.287597656252 14.087849617004396
decision_type=2 2 2 2 2
left_child=-1 4 -3 -4 -2
right_child=1 2 3 -5 -6
leaf_value=-0.0013199925580265209 -0.010533741116523743 0.0144500639726175 0.0088241823025107871 -0.0036487539404160565 0.00042510683845172468
leaf_weight=297 20 24 31 42 319
leaf_count=297 20 24 31 42 319
internal_value=0 0.000899169 0.0048155 0.00164797 -0.000221433
internal_weight=0 436 97 73 339
internal_count=733 436 97 73 339
is_linear=0
shrinkage=0.5


Tree=55
num_leaves=6
num_cat=0
split_feature=1 7 12 6 16
split_gain=0.00396345 0.00959434 0.00797488 0.00344273 0.00332786
threshold=15.118199825286867 3520.046020507813 -0.51350000500679005 536094.84375000012 26.150000572204593
decision_type=2 2 2 2 2
left_child=1 2 -1 -4 -5
right_child=-2 -3 3 4 -6
leaf_value=-0.0082725664199808143 -0.00055492854668804444 0.010330032142034422 0.0072021811412504083 -0.0036421832878009547 0.0039370762368586536
leaf_weight=22 597 30 26 28 30
leaf_count=22 597 30 26 28 30
internal_value=0 0.00243597 0.000201806 0.00242128 0.000278123
internal_weight=0 136 106 84 58
internal_count=733 136 106 84 58
is_linear=0
shrinkage=0.5


Tree=56
num_leaves=6
num_cat=0
split_feature=24 9 6 13 7
split_gain=0.00246659 0.0090166 0.0200106 0.0113013 0.00746814
threshold=-97.81750106811522 12527.629882812502 791608.50000000012 45.126499176025398 3569.068481445313
decision_type=2 2 2 2 2
left_child=1 2 -1 -3 -2
right_child=4 3 -4 -5 -6
leaf_value=-0.018553952072662385 0.0020427843881007882 0.0094809882245802633 -0.00034364584431993234 -0.0016508310097330986 -0.0017759622365008994
leaf_weight=22 328 30 48 95 210
leaf_count=22 328 30 48 95 210
internal_value=0 -0.00152349 -0.00606688 0.00102081 0.000552196
internal_weight=0 195 70 125 538
internal_count=733 195 70 125 538
is_linear=0
shrinkage=0.5


Tree=57
num_leaves=6
num_cat=0
split_feature=9 21 22 17 11
split_gain=0.00242709 0.00516546 0.00766926 0.00640018 0.0066316
threshold=13087.819335937502 31.94999980926514 38.649999618530281 27.650000572204593 4411.5673828125009
decision_type=2 2 2 2 2
left_child=-1 2 -2 -3 -5
right_child=1 3 -4 4 -6
leaf_value=0.00052481423566033214 -0.0037604082698145737 -0.00093492781012504236 0.0080657172948122025 -0.015000707775470801 -0.002124760369770229
leaf_weight=550 26 88 29 20 20
leaf_count=550 26 88 29 20 20
internal_value=0 -0.00157731 0.00247519 -0.00331862 -0.00856273
internal_weight=0 183 55 128 40
internal_count=733 183 55 128 40
is_linear=0
shrinkage=0.5


Tree=58
num_leaves=6
num_cat=0
split_feature=13 23 14 13 7
split_gain=0.00196666 0.0105607 0.0129984 0.00801462 0.00741096
threshold=45.157999038696296 -97.409000396728501 25.002500534057621 45.145999908447273 3571.014038085938
decision_type=2 2 2 2 2
left_child=1 3 -3 4 -1
right_child=-2 2 -4 -5 -6
leaf_value=-0.0028732670403057809 0.00067595503577474428 -0.0015374403109308333 0.01556412922218442 -0.009392264845005497 0.0037608781901821075
leaf_weight=161 436 25 20 34 57
leaf_count=161 436 25 20 34 57
internal_value=0 -0.000992311 0.00606326 -0.00225223 -0.00113865
internal_weight=0 297 45 252 218
internal_count=733 297 45 252 218
is_linear=0
shrinkage=0.5


Tree=59
num_leaves=6
num_cat=0
split_feature=10 10 14 24 9
split_gain=0.00326868 0.00929243 0.00413657 0.00767013 0.00401249
threshold=13927.900878906252 13902.840820312502 25.005499839782718 -97.72499847412108 12536.645507812502
decision_type=2 2 2 2 2
left_child=1 2 4 -4 -1
right_child=-2 -3 3 -5 -6
leaf_value=0.0048734819226383206 -0.00085184716821098483 0.011437184297912089 0.0029801672362737008 -0.0074644699716606205 9.2659712229670513e-05
leaf_weight=66 444 21 32 39 131
leaf_count=66 444 21 32 39 131
internal_value=0 0.00130872 0.000515072 -0.00275703 0.00169436
internal_weight=0 289 268 71 197
internal_count=733 289 268 71 197
is_linear=0
shrinkage=0.5


Tree=60
num_leaves=6
num_cat=0
split_feature=6 2 13 19 24
split_gain=0.00231918 0.0101055 0.00584118 0.00487196 0.00438599
threshold=653444.12500000012 0.00021900000137975442 44.968000411987312 27.050000190734867 -96.13000106811522
decision_type=2 2 2 2 2
left_child=1 -1 -2 4 -3
right_child=2 3 -4 -5 -6
leaf_value=0.011557721628130159 -0.0087209284954172153 0.00051671256078407164 -0.00021203720013955699 0.0063978690089209487 -0.0059921020107470795
leaf_weight=22 21 120 510 27 33
leaf_count=22 21 120 510 27 33
internal_value=0 0.00144197 -0.000548547 0.000205603 -0.000887149
internal_weight=0 202 531 180 153
internal_count=733 202 531 180 153
is_linear=0
shrinkage=0.5


Tree=61
num_leaves=6
num_cat=0
split_feature=2 2 2 2 9
split_gain=0.00208228 0.00433744 0.00270159 0.00234411 0.0103315
threshold=2.4349999875994403e-05 2.9349999749683778e-05 2.6050000087707307e-05 4.0850000004866167e-05 12557.453125000002
decision_type=2 2 2 2 2
left_child=-1 2 -2 4 -3
right_child=1 3 -4 -5 -6
leaf_value=0.0040794744806286571 -0.00078162005853040937 0.011115254159085453 -0.0085471485096301567 -0.0002003959195610723 -0.001143475632125046
leaf_weight=30 21 25 24 578 55
leaf_count=30 21 25 24 578 55
internal_value=0 -0.000174089 -0.00492324 0.000150701 0.00268738
internal_weight=0 703 45 658 80
internal_count=733 703 45 658 80
is_linear=0
shrinkage=0.5


Tree=62
num_leaves=6
num_cat=0
split_feature=1 1 14 23 10
split_gain=0.0014436 0.00431747 0.00602552 0.00585467 0.013434
threshold=1019.9567871093751 4924.9367675781259 24.992500305175785 -97.420501708984361 13927.900878906252
decision_type=2 2 2 2 2
left_child=-1 -2 -3 -4 -5
right_child=1 2 3 4 -6
leaf_value=-0.00044314747042387582 0.0060108118128925055 -0.0076704402480448734 -0.0016161647526384611 0.014792976911518384 -0.00028322008050357303
leaf_weight=524 37 22 83 22 45
leaf_count=524 37 22 83 22 45
internal_value=0 0.00111105 5.70304e-05 0.00119039 0.00466717
internal_weight=0 209 172 150 67
internal_count=733 209 172 150 67
is_linear=0
shrinkage=0.5


Tree=63
num_leaves=6
num_cat=0
split_feature=24 24 6 18 6
split_gain=0.00169794 0.0102127 0.0078355 0.00475667 0.00444217
threshold=-97.62850189208983 -97.682502746582017 604164.78125000012 25.750000000000004 655910.25000000012
decision_type=2 2 2 2 2
left_child=1 2 -1 -2 -4
right_child=3 -3 4 -5 -6
leaf_value=-0.0076504809549078345 -0.00022251250489383712 0.010535365878604352 0.006298209209820594 -0.0068825054070751727 0.00014127952437419658
leaf_weight=30 355 25 33 29 261
leaf_count=30 355 25 33 29 261
internal_value=0 0.000798237 4.69149e-05 -0.000725481 0.000832363
internal_weight=0 349 324 384 294
internal_count=733 349 324 384 294
is_linear=0
shrinkage=0.5


Tree=64
num_leaves=6
num_cat=0
split_feature=7 22 19 8 2
split_gain=0.00227247 0.00510347 0.00439917 0.00488106 0.00418567
threshold=3427.6215820312505 41.750000000000007 26.750000000000004 12043.275878906252 7.5349998951423927e-05
decision_type=2 2 2 2 2
left_child=1 2 3 -1 -3
right_child=-2 4 -4 -5 -6
leaf_value=0.0031589468387340147 -0.00047635351579171907 0.0013941165339201689 -0.00067049471247380347 0.012097530103000324 -0.0083103917801054198
leaf_weight=56 567 25 44 21 20
leaf_count=56 567 25 44 21 20
internal_value=0 0.00162706 0.00331775 0.00559674 -0.002919
internal_weight=0 166 121 77 45
internal_count=733 166 121 77 45
is_linear=0
shrinkage=0.5


Tree=65
num_leaves=6
num_cat=0
split_feature=12 24 14 18 12
split_gain=0.00250266 0.00795379 0.0224292 0.0187983 0.00572331
threshold=-0.49950000643730158 -97.031501770019517 25.0004997253418 25.750000000000004 -0.49750000238418574
decision_type=2 2 2 2 2
left_child=1 3 -3 -1 -2
right_child=4 2 -4 -5 -6
leaf_value=-0.00075698521427685944 0.0093895795929711309 -0.018798044239550411 0.0043109969770912786 0.014934453810565174 0.00057582468316819601
leaf_weight=418 20 21 21 20 233
leaf_count=418 20 21 21 20 233
internal_value=0 -0.000670747 -0.00724352 -4.04811e-05 0.00127256
internal_weight=0 480 42 438 253
internal_count=733 480 42 438 253
is_linear=0
shrinkage=0.5


Tree=66
num_leaves=6
num_cat=0
split_feature=16 19 14 14 18
split_gain=0.00287043 0.00498295 0.00475535 0.0136355 0.00987051
threshold=26.150000572204593 26.750000000000004 25.006500244140629 25.005499839782718 25.849999427795414
decision_type=2 2 2 2 2
left_child=1 2 3 4 -1
right_child=-2 -3 -4 -5 -6
leaf_value=0.00011495214566821232 0.00093812939884030096 -0.008508877446209746 -0.0053346596477139331 0.011109308483495485 -0.010346115217544138
leaf_weight=230 386 21 45 26 25
leaf_count=230 386 21 45 26 25
internal_value=0 -0.00104357 -0.000562673 0.000201524 -0.000910643
internal_weight=0 347 326 281 255
internal_count=733 347 326 281 255
is_linear=0
shrinkage=0.5


Tree=67
num_leaves=6
num_cat=0
split_feature=9 18 11 12 21
split_gain=0.00386702 0.00399192 0.0028207 0.00477078 0.00396148
threshold=9726.5986328125018 25.849999427795414 4083.4494628906255 -0.49650000035762781 31.250000000000004
decision_type=2 2 2 2 2
left_child=-1 2 3 4 -2
right_child=1 -3 -4 -5 -6
leaf_value=0.0061115674627944825 0.0069800748850949194 -0.0061784045408583349 -0.00058704531670175121 0.0086203935577280136 -0.00025545057834716758
leaf_weight=25 22 27 502 22 135
leaf_count=25 22 27 502 22 135
internal_value=0 -0.000215804 2.05987e-05 0.00172472 0.000758445
internal_weight=0 708 681 179 157
internal_count=733 708 681 179 157
is_linear=0
shrinkage=0.5


Tree=68
num_leaves=6
num_cat=0
split_feature=21 6 11 2 6
split_gain=0.00181499 0.00376629 0.00347429 0.00818456 0.00352384
threshold=32.149999618530281 820299.34375000012 3899.767456054688 0.00084599998081102978 837699.40625000012
decision_type=2 2 2 2 2
left_child=2 -2 -1 4 -4
right_child=1 -3 3 -5 -6
leaf_value=-0.0063158742850646377 0.0011763643816690406 -0.0021877071638720315 -0.0024803457217849362 0.0091215310269035406 0.0044558632819514188
leaf_weight=29 416 104 143 20 21
leaf_count=29 416 104 143 20 21
internal_value=0 0.00050355 -0.00122932 -0.00042764 -0.00159217
internal_weight=0 520 213 184 164
internal_count=733 520 213 184 164
is_linear=0
shrinkage=0.5


Tree=69
num_leaves=6
num_cat=0
split_feature=13 16 13 23 6
split_gain=0.0019736 0.00597598 0.00435291 0.00480238 0.0080618
threshold=45.236000061035163 26.050000190734867 45.22400093078614 -97.420501708984361 679534.62500000012
decision_type=2 2 2 2 2
left_child=2 -2 3 -1 -5
right_child=1 -3 -4 4 -6
leaf_value=-0.00045717595330279438 -0.0091934103485462916 -0.00039604465920667098 0.0076453042621280817 0.012515002058353274 0.00084747099428664349
leaf_weight=375 21 239 21 20 57
leaf_count=375 21 239 21 20 57
internal_value=0 -0.0011066 0.00060828 0.000281338 0.003878
internal_weight=0 260 473 452 77
internal_count=733 260 473 452 77
is_linear=0
shrinkage=0.5


Tree=70
num_leaves=6
num_cat=0
split_feature=23 7 23 12 12
split_gain=0.00173585 0.00393246 0.00635079 0.00717208 0.0101539
threshold=-97.454998016357408 3470.7714843750005 -95.999000549316392 -0.52150002121925343 -0.53249999880790699
decision_type=2 2 2 2 2
left_child=-1 -2 3 4 -3
right_child=1 2 -4 -5 -6
leaf_value=0.00071764242692533655 0.0024569974710983741 -0.0077510813872712402 -5.2185911824687494e-05 -0.010767368105007336 0.0066032150577732618
leaf_weight=392 72 28 184 35 22
leaf_count=392 72 28 184 35 22
internal_value=0 -0.000824973 -0.00170342 -0.00527785 -0.00143519
internal_weight=0 341 269 85 50
internal_count=733 341 269 85 50
is_linear=0
shrinkage=0.5


Tree=71
num_leaves=6
num_cat=0
split_feature=6 10 14 19 11
split_gain=0.00175961 0.00462689 0.00263005 0.0024347 0.00879354
threshold=536094.84375000012 11620.253417968752 25.0004997253418 26.650000572204593 4302.4636230468759
decision_type=2 2 2 2 2
left_child=2 -2 -1 4 -3
right_child=1 3 -4 -5 -6
leaf_value=0.0069525004232259971 -0.0063876302126024305 3.494001017560237e-06 -0.000412226758877902 0.00061434607556624216 -0.010044349566109863
leaf_weight=22 29 134 27 495 26
leaf_count=22 29 134 27 495 26
internal_value=0 -0.000207346 0.00289439 6.62846e-05 -0.00162928
internal_weight=0 684 49 655 160
internal_count=733 684 49 655 160
is_linear=0
shrinkage=0.5


Tree=72
num_leaves=6
num_cat=0
split_feature=21 8 14 1 9
split_gain=0.00268268 0.00370184 0.00352023 0.00420454 0.00455024
threshold=34.049999237060554 11226.869140625002 25.007499694824222 112.28780364990236 12671.155273437502
decision_type=2 2 2 2 2
left_child=1 -1 3 -2 -5
right_child=2 -3 -4 4 -6
leaf_value=0.0060845577397793974 -0.0055856714607216418 -0.00067203188067715481 0.0081782542460132387 0.0090725031477632001 0.0004785256677501793
leaf_weight=21 20 585 20 20 67
leaf_count=21 20 585 20 20 67
internal_value=0 -0.000437893 0.00208947 0.000951382 0.00245415
internal_weight=0 606 127 107 87
internal_count=733 606 127 107 87
is_linear=0
shrinkage=0.5


Tree=73
num_leaves=6
num_cat=0
split_feature=24 23 1 7 11
split_gain=0.00172274 0.00791558 0.00684105 0.00351007 0.00703182
threshold=-97.031501770019517 -95.991001129150376 13.618100166320803 3572.0625000000005 4302.6250000000009
decision_type=2 2 2 2 2
left_child=2 -2 -1 4 -3
right_child=1 3 -4 -5 -6
leaf_value=0.0091403397064740693 -0.010152762925082987 0.010211744805842284 0.00012397717163557882 -0.0019212739989748378 -0.00029291241574383366
leaf_weight=22 22 21 481 121 66
leaf_count=22 22 21 481 121 66
internal_value=0 -0.00113357 0.000518331 -0.000179614 0.00224269
internal_weight=0 230 503 208 87
internal_count=733 230 503 208 87
is_linear=0
shrinkage=0.5


Tree=74
num_leaves=6
num_cat=0
split_feature=13 8 8 20 22
split_gain=0.00225223 0.00205077 0.00512905 0.00458582 0.0106052
threshold=45.479000091552741 13010.379394531252 13080.516601562502 24.349999427795414 39.850000381469734
decision_type=2 2 2 2 2
left_child=1 3 -3 -1 -5
right_child=-2 2 -4 4 -6
leaf_value=0.00018569741987730666 -0.0047636738451425726 0.0087376689058146443 0.00051415297910427577 0.0041813009378054867 -0.0091202533956167703
leaf_weight=258 24 20 365 23 43
leaf_count=258 24 20 365 23 43
internal_value=0 0.000161253 0.000941349 -0.000765713 -0.00448486
internal_weight=0 709 385 324 66
internal_count=733 709 385 324 66
is_linear=0
shrinkage=0.5


Tree=75
num_leaves=6
num_cat=0
split_feature=11 11 4 17 10
split_gain=0.00233122 0.00877662 0.00447997 0.00718926 0.0136638
threshold=4305.5764160156259 4312.3867187500009 1.0000000180025095e-35 27.250000000000004 14038.984863281252
decision_type=2 2 2 2 2
left_child=2 -2 3 -1 -5
right_child=1 -3 -4 4 -6
leaf_value=-0.00032995342340961208 0.009695034967821644 0.0002203589466762776 0.002902033361856916 -0.0013645408428548014 -0.016272612476975402
leaf_weight=303 27 258 72 51 22
leaf_count=303 27 258 72 51 22
internal_value=0 0.00111796 -0.000711202 -0.0014031 -0.00585738
internal_weight=0 285 448 376 73
internal_count=733 285 448 376 73
is_linear=0
shrinkage=0.5


Tree=76
num_leaves=6
num_cat=0
split_feature=12 13 13 2 22
split_gain=0.0012186 0.00319954 0.00352142 0.00380179 0.00410724
threshold=-0.52250000834465016 45.068000793457038 45.129999160766609 0.0016349999932572248 41.350000381469734
decision_type=2 2 2 2 2
left_child=1 -1 -3 4 -4
right_child=-2 2 3 -5 -6
leaf_value=-0.0065081768179879873 0.00036510029999876968 0.0048839559921934443 0.0018832113208780946 -0.0072211569995092959 -0.0050524085925038285
leaf_weight=24 555 27 74 23 30
leaf_count=24 555 27 74 23 30
internal_value=0 -0.00113837 -0.000301522 -0.00140395 -0.000117448
internal_weight=0 178 154 127 104
internal_count=733 178 154 127 104
is_linear=0
shrinkage=0.5


Tree=77
num_leaves=6
num_cat=0
split_feature=1 1 1 9 11
split_gain=0.00216752 0.00493467 0.00198097 0.00154613 0.0070344
threshold=9991.2978515625018 9987.7670898437518 4938.6721191406259 12533.476562500002 4302.4636230468759
decision_type=2 2 2 2 2
left_child=1 2 3 4 -1
right_child=-2 -3 -4 -5 -6
leaf_value=-0.00011137429328929324 0.0037290959405033171 -0.0056626726664268439 0.0049041195251491101 0.00057934295667105222 -0.008968468666134868
leaf_weight=217 37 39 21 394 25
leaf_count=217 37 39 21 394 25
internal_value=0 -0.000198242 0.00012613 -3.16334e-05 -0.00102636
internal_weight=0 696 657 636 242
internal_count=733 696 657 636 242
is_linear=0
shrinkage=0.5


Tree=78
num_leaves=6
num_cat=0
split_feature=6 21 22 23 21
split_gain=0.0018092 0.00274651 0.00737904 0.00626731 0.00686787
threshold=845799.09375000012 33.350000381469734 40.95000076293946 -97.709499359130845 32.350000381469734
decision_type=2 2 2 2 2
left_child=1 3 -3 4 -1
right_child=-2 2 -4 -5 -6
leaf_value=-0.00088542363595306168 -0.0027854751463531066 0.0095546675751952883 0.00061556871437063007 0.00029696288148111234 -0.011106556560628599
leaf_weight=42 54 26 206 378 27
leaf_count=42 54 26 206 378 27
internal_value=0 0.000221525 0.00161736 -0.000502937 -0.004885
internal_weight=0 679 232 447 69
internal_count=733 679 232 447 69
is_linear=0
shrinkage=0.5


Tree=79
num_leaves=6
num_cat=0
split_feature=2 6 24 2 24
split_gain=0.00148767 0.00643657 0.00547003 0.00394469 0.00270425
threshold=3.0199999855540231e-05 715681.31250000012 -96.11049652099608 3.5549999665818184e-05 -96.098999023437486
decision_type=2 2 2 2 2
left_child=1 2 -1 -2 -5
right_child=3 -3 -4 4 -6
leaf_value=0.011709831438069656 -0.006987838939364467 -0.0028417871320319441 0.00028464688348321942 0.00020359151657588475 -0.0047390738884508935
leaf_weight=22 21 36 20 605 29
leaf_count=22 21 36 20 605 29
internal_value=0 0.00206417 0.00626927 -0.000245809 -2.24925e-05
internal_weight=0 78 42 655 634
internal_count=733 78 42 655 634
is_linear=0
shrinkage=0.5


Tree=80
num_leaves=6
num_cat=0
split_feature=2 23 24 16 22
split_gain=0.00121882 0.00344071 0.00520797 0.0059601 0.00436504
threshold=4.0299999454873621e-05 -97.251003265380845 -96.09099960327147 26.349999427795414 41.850000381469734
decision_type=2 2 2 2 2
left_child=1 -1 3 4 -3
right_child=-2 2 -4 -5 -6
leaf_value=0.0056962917570832789 -0.00032429562748009815 -0.011716273007914424 0.0054950622488245098 0.0019864249457727011 -0.0012699363927822561
leaf_weight=34 585 20 31 43 20
leaf_count=34 585 20 31 43 20
internal_value=0 0.00128184 -3.47455e-05 -0.0021001 -0.0064931
internal_weight=0 148 114 83 40
internal_count=733 148 114 83 40
is_linear=0
shrinkage=0.5


Tree=81
num_leaves=6
num_cat=0
split_feature=20 1 23 10 22
split_gain=0.00190889 0.00255354 0.00221564 0.00167228 0.0017926
threshold=23.94999980926514 4923.0761718750009 -95.944999694824205 13947.304687500002 42.149999618530281
decision_type=2 2 2 2 2
left_child=1 2 3 -1 -5
right_child=-2 -3 -4 4 -6
leaf_value=0.0030378944407541144 -0.00035165024977001626 0.0068457187887924235 0.0052983920627628408 -0.0044985679954650899 0.0014844876547743166
leaf_weight=23 616 21 21 31 21
leaf_count=23 616 21 21 31 21
internal_value=0 0.00185142 0.000758921 -0.000512131 -0.00208233
internal_weight=0 117 96 75 52
internal_count=733 117 96 75 52
is_linear=0
shrinkage=0.5


Tree=82
num_leaves=6
num_cat=0
split_feature=22 21 14 17 2
split_gain=0.00120207 0.00165447 0.00138157 0.00234934 0.0039421
threshold=38.049999237060554 30.750000000000004 24.991499900817875 27.750000000000004 2.4349999875994403e-05
decision_type=2 2 2 2 2
left_child=-1 -2 -3 4 -4
right_child=1 2 3 -5 -6
leaf_value=-0.0034074471564963459 0.0039589359744072513 -0.0025087652952956539 0.0066814057742400719 -0.0038694838970995452 0.00014003401714635626
leaf_weight=25 27 52 24 34 571
leaf_count=25 27 52 24 34 571
internal_value=0 0.000120319 -3.18724e-05 0.000172895 0.000403888
internal_weight=0 708 681 629 595
internal_count=733 708 681 629 595
is_linear=0
shrinkage=0.5


Tree=83
num_leaves=6
num_cat=0
split_feature=7 2 2 23 2
split_gain=0.0015893 0.00205321 0.00226615 0.00223705 0.00406955
threshold=3697.9599609375005 3.0199999855540231e-05 3.5549999665818184e-05 -97.748001098632798 4.4149999666842639e-05
decision_type=2 2 2 2 2
left_child=1 -1 -3 4 -4
right_child=-2 2 3 -5 -6
leaf_value=0.0038050730497186146 -0.0029863108734605789 -0.0052637797343777493 0.0078626967297168449 -0.00033979498456677488 0.00066467888663518588
leaf_weight=37 42 20 24 502 108
leaf_count=37 42 20 24 502 108
internal_value=0 0.000181512 -2.34903e-05 0.000141819 0.00197341
internal_weight=0 691 654 634 132
internal_count=733 691 654 634 132
is_linear=0
shrinkage=0.5


Tree=84
num_leaves=6
num_cat=0
split_feature=6 14 13 14 13
split_gain=0.00138419 0.00260661 0.00265325 0.00175388 0.00307479
threshold=833760.90625000012 25.0004997253418 45.134000778198249 25.009500503540043 44.993999481201179
decision_type=2 2 2 2 2
left_child=3 2 -2 4 -1
right_child=1 -3 -4 -5 -6
leaf_value=0.0060312303782363115 -0.0002527243341319263 0.0014434719122828727 -0.0069174269847280812 -0.0029331983729207422 0.00025388936689858766
leaf_weight=24 28 39 32 40 570
leaf_count=24 28 39 32 40 570
internal_value=0 -0.00173877 -0.00380723 0.000271512 0.000487317
internal_weight=0 99 60 634 594
internal_count=733 99 60 634 594
is_linear=0
shrinkage=0.5


Tree=85
num_leaves=6
num_cat=0
split_feature=11 16 23 21 11
split_gain=0.00110665 0.00206491 0.00188857 0.00284765 0.00431347
threshold=4409.3273925781259 26.44999980926514 -95.944999694824205 32.95000076293946 4317.0393066406259
decision_type=2 2 2 2 2
left_child=1 2 -1 4 -4
right_child=-2 -3 3 -5 -6
leaf_value=-0.00025678573701128825 0.0021785146715989903 -0.0035266146188341948 0.010121557711889701 -0.0016299052583269291 0.00040118957404047253
leaf_weight=563 54 43 21 27 25
leaf_count=563 54 43 21 27 25
internal_value=0 -0.000173254 5.34664e-05 0.00244623 0.00483875
internal_weight=0 679 636 73 46
internal_count=733 679 636 73 46
is_linear=0
shrinkage=0.5


Tree=86
num_leaves=6
num_cat=0
split_feature=23 9 1 23 14
split_gain=0.00089967 0.00418 0.00341124 0.00308053 0.00489442
threshold=-97.562999725341783 12345.379882812502 14.284249782562258 -97.632499694824205 25.0004997253418
decision_type=2 2 2 2 2
left_child=3 2 -2 -1 -5
right_child=1 -3 -4 4 -6
leaf_value=-0.00014348238657202128 -0.0099645860813325268 3.3258062477044235e-05 -0.00072981280973181126 0.0083852724177025575 -0.00037687467941877376
leaf_weight=259 20 370 20 30 34
leaf_count=259 20 370 20 30 34
internal_value=0 -0.000491665 -0.0053472 0.000624094 0.00373038
internal_weight=0 410 40 323 64
internal_count=733 410 40 323 64
is_linear=0
shrinkage=0.5


Tree=87
num_leaves=6
num_cat=0
split_feature=18 14 10 10 13
split_gain=0.0012718 0.0117901 0.00149881 0.00243525 0.00110166
threshold=25.849999427795414 24.998499870300297 11620.253417968752 11656.440917968752 45.444000244140632
decision_type=2 2 2 2 2
left_child=2 -2 -1 -4 -5
right_child=1 -3 3 4 -6
leaf_value=-0.0039726372505538166 -0.0066850846713350622 0.0093319240528486527 0.0043727822155536465 -0.00041433972808232387 0.0022361503485756528
leaf_weight=25 20 27 30 589 42
leaf_count=25 20 27 30 589 42
internal_value=0 0.00251618 -0.000172391 -2.86601e-05 -0.00023792
internal_weight=0 47 686 661 631
internal_count=733 47 686 661 631
is_linear=0
shrinkage=0.5


Tree=88
num_leaves=6
num_cat=0
split_feature=21 22 9 19 2
split_gain=0.00129918 0.00302357 0.0066334 0.003503 0.011518
threshold=32.149999618530281 39.850000381469734 12591.890136718752 26.650000572204593 4.344999979366549e-05
decision_type=2 2 2 2 2
left_child=-1 2 -2 4 -3
right_child=1 3 -4 -5 -6
leaf_value=-0.0010400744843498384 0.011190178549441043 -0.01210591709241271 -0.00034977850031502771 0.00082516022234878665 0.00014048330520684735
leaf_weight=213 20 24 33 347 96
leaf_count=213 20 24 33 347 96
internal_value=0 0.000426031 0.00400492 1.98608e-05 -0.0023088
internal_weight=0 520 53 467 120
internal_count=733 520 53 467 120
is_linear=0
shrinkage=0.5


Tree=89
num_leaves=6
num_cat=0
split_feature=12 22 11 21 18
split_gain=0.00132247 0.00279526 0.00301964 0.00207716 0.00208902
threshold=-0.46449999511241907 42.250000000000007 4226.6196289062509 34.149999618530281 25.94999980926514
decision_type=2 2 2 2 2
left_child=1 3 -3 4 -1
right_child=-2 2 -4 -5 -6
leaf_value=7.4118554415447211e-05 -0.003817982138901822 -0.006940183633964302 -0.00053898789137120135 0.004117368188737011 0.005152375902980566
leaf_weight=568 22 27 58 37 21
leaf_count=568 22 27 58 37 21
internal_value=0 0.000118137 -0.00257231 0.000483453 0.000255177
internal_weight=0 711 85 626 589
internal_count=733 711 85 626 589
is_linear=0
shrinkage=0.5


Tree=90
num_leaves=6
num_cat=0
split_feature=16 23 1 11 1
split_gain=0.000984504 0.00340335 0.00332175 0.00239505 0.00209374
threshold=25.94999980926514 -97.463001251220689 112.19784927368165 3814.5625000000005 14.16534996032715
decision_type=2 2 2 2 2
left_child=1 2 -1 -2 -5
right_child=3 -3 -4 4 -6
leaf_value=-0.0055631925468333067 -0.0048123420522272311 0.0069497095749036153 0.0024346862823271345 0.0043043279330487608 -0.00019666126562394007
leaf_weight=20 27 22 37 27 600
leaf_count=20 27 22 37 27 600
internal_value=0 0.00166726 -0.000371587 -0.000201396 -2.83876e-06
internal_weight=0 79 57 654 627
internal_count=733 79 57 654 627
is_linear=0
shrinkage=0.5


Tree=91
num_leaves=6
num_cat=0
split_feature=8 9 6 9 2
split_gain=0.00137363 0.00130661 0.000770283 0.00612476 0.0105553
threshold=11226.869140625002 12072.694824218752 724874.34375000012 12546.237792968752 3.0199999855540231e-05
decision_type=2 2 2 2 2
left_child=-1 -2 3 4 -3
right_child=1 2 -4 -5 -6
leaf_value=0.0036425046698423101 -0.0040136586453410842 0.0015022015811511033 0.00046882249793867307 0.00032361153801323809 -0.01381703433898193
leaf_weight=25 21 23 378 264 22
leaf_count=25 21 23 378 264 22
internal_value=0 -0.000128619 -9.86284e-06 -0.000595439 -0.0059872
internal_weight=0 708 687 309 45
internal_count=733 708 687 309 45
is_linear=0
shrinkage=0.5


Tree=92
num_leaves=6
num_cat=0
split_feature=18 14 14 6 1
split_gain=0.00130483 0.00700173 0.00108007 0.00429072 0.00286994
threshold=25.849999427795414 24.998499870300297 24.997499465942386 845799.09375000012 14.22345018386841
decision_type=2 2 2 2 2
left_child=2 -2 3 -1 -4
right_child=1 -3 4 -5 -6
leaf_value=0.00121245029767449 -0.0045420883194310594 0.0078010240190283017 -0.0061121951667187004 -0.0057877616879219813 -0.00036461346136116516
leaf_weight=249 20 27 23 24 390
leaf_count=249 20 27 23 24 390
internal_value=0 0.00254864 -0.000174615 0.000597047 -0.000684697
internal_weight=0 47 686 273 413
internal_count=733 47 686 273 413
is_linear=0
shrinkage=0.5


Tree=93
num_leaves=6
num_cat=0
split_feature=13 11 6 6 15
split_gain=0.00108931 0.00176572 0.00361171 0.00880763 0.00578875
threshold=45.479000091552741 4302.4636230468759 727313.37500000012 721298.25000000012 26.650000572204593
decision_type=2 2 2 2 2
left_child=1 2 3 -1 -4
right_child=-2 -3 4 -5 -6
leaf_value=0.0011459618022535191 -0.0033129285511677153 -0.0008531128119807043 0.00096959868492774051 0.011957766572860155 -0.0044111343066271565
leaf_weight=131 24 284 206 22 66
leaf_count=131 24 284 206 22 66
internal_value=0 0.000112144 0.000757163 0.0027006 -0.00033602
internal_weight=0 709 425 153 272
internal_count=733 709 425 153 272
is_linear=0
shrinkage=0.5


Tree=94
num_leaves=6
num_cat=0
split_feature=10 13 10 13 2
split_gain=0.000953029 0.00889367 0.00390133 0.00199423 0.00259998
threshold=14375.821289062502 45.068000793457038 14317.146972656252 45.090999603271491 4.4649999836110517e-05
decision_type=2 2 2 2 2
left_child=2 -2 3 4 -1
right_child=1 -3 -4 -5 -6
leaf_value=0.0012716000702413213 0.0093682748524265159 -0.00028822163401891172 -0.0070576939742100619 0.0004194919634214511 -0.0040706075313525414
leaf_weight=36 27 204 21 383 62
leaf_count=36 27 204 21 383 62
internal_value=0 0.00084046 -0.000386745 -9.54982e-05 -0.00210816
internal_weight=0 231 502 481 98
internal_count=733 231 502 481 98
is_linear=0
shrinkage=0.5


Tree=95
num_leaves=6
num_cat=0
split_feature=2 2 13 23 6
split_gain=0.00093144 0.00200605 0.00191101 0.00344963 0.00736126
threshold=4.6749999455641962e-05 7.0750000304542495e-05 45.444000244140632 -97.251003265380845 793933.12500000012
decision_type=2 2 2 2 2
left_child=2 -2 3 4 -1
right_child=1 -3 -4 -5 -6
leaf_value=0.0093866960726770154 -0.0031009531197219811 -2.8973657501938439e-05 0.0051643826141530144 -0.0021194335180457291 0.00029944211518084508
leaf_weight=26 62 372 22 95 156
leaf_count=26 62 372 22 95 156
internal_value=0 -0.000467828 0.000679055 0.000322819 0.00159762
internal_weight=0 434 299 277 182
internal_count=733 434 299 277 182
is_linear=0
shrinkage=0.5


Tree=96
num_leaves=6
num_cat=0
split_feature=13 1 20 9 13
split_gain=0.000828035 0.00204053 0.00131027 0.000809369 0.00186035
threshold=45.009000778198249 15.211800098419191 23.849999427795414 13307.345214843752 45.44799995422364
decision_type=2 2 2 2 2
left_child=1 -1 -2 4 -4
right_child=2 -3 3 -5 -6
leaf_value=0.0010602553538046778 0.0033154531359492292 -0.005542247886875306 -9.7507335177001117e-05 0.0010695241845317396 -0.0047962341645457355
leaf_weight=25 31 22 496 137 22
leaf_count=25 31 22 496 137 22
internal_value=0 -0.00203028 0.000139101 -1.12305e-05 -0.000297067
internal_weight=0 47 686 655 518
internal_count=733 47 686 655 518
is_linear=0
shrinkage=0.5


Tree=97
num_leaves=6
num_cat=0
split_feature=12 2 14 2 16
split_gain=0.00222361 0.0029067 0.00973808 0.00347885 0.00219747
threshold=-0.50949999690055836 4.4849999540019787e-05 25.0004997253418 4.8949999836622744e-05 25.94999980926514
decision_type=2 2 2 2 2
left_child=1 2 -1 -3 -2
right_child=4 3 -4 -5 -6
leaf_value=-0.010945313713039338 0.0054872750721794246 0.0061496636073570697 0.0014136915749593361 -0.00067861650986151449 0.00054020484364997482
leaf_weight=28 24 20 37 277 347
leaf_count=28 24 20 37 277 347
internal_value=0 -0.000881618 -0.00391019 -0.0002188 0.000860231
internal_weight=0 362 65 297 371
internal_count=733 362 65 297 371
is_linear=0
shrinkage=0.5


Tree=98
num_leaves=6
num_cat=0
split_feature=1 2 24 24 9
split_gain=0.000864622 0.00170541 0.00109111 0.00483606 0.00317072
threshold=9991.2978515625018 0.0016049999976530673 -97.639999389648423 -97.709499359130845 12430.363281250002
decision_type=2 2 2 2 2
left_child=1 2 3 -1 -4
right_child=-2 -3 4 -5 -6
leaf_value=0.00021768387201606543 0.0023552380070386053 -0.0033820780211642975 -0.0061929008351517432 0.0080959251527452751 -0.00012973769489294879
leaf_weight=269 37 38 23 21 345
leaf_count=269 37 38 23 21 345
internal_value=0 -0.000125207 6.28802e-05 0.000788177 -0.000508685
internal_weight=0 696 658 290 368
internal_count=733 696 658 290 368
is_linear=0
shrinkage=0.5


Tree=99
num_leaves=6
num_cat=0
split_feature=24 24 13 21 15
split_gain=0.000650638 0.00426521 0.00460147 0.00361964 0.0056722
threshold=-97.793998718261705 -97.763500213623033 45.173000335693366 33.750000000000007 26.650000572204593
decision_type=2 2 2 2 2
left_child=3 2 -2 4 -1
right_child=1 -3 -4 -5 -6
leaf_value=-0.00048011403199971507 -0.00021849521657540683 -0.00012747996056619693 0.010128916227999567 0.0016569296578421028 -0.008089191142723641
leaf_weight=95 21 469 22 93 33
leaf_count=95 21 469 22 93 33
internal_value=0 0.000309492 0.00507553 -0.000717012 -0.00244183
internal_weight=0 512 43 221 128
internal_count=733 512 43 221 128
is_linear=0
shrinkage=0.5


end of trees

feature_importances:
Column_1=49
Column_2=48
Column_14=41
Column_6=37
Column_13=32
Column_11=31
Column_9=29
Column_24=24
Column_21=23
Column_22=23
Column_23=23
Column_12=21
Column_7=20
Column_8=20
Column_10=19
Column_18=17
Column_16=10
Column_20=9
Column_19=8
Column_17=5
Column_3=4
Column_15=4
Column_4=3

parameters:
[boosting: gbdt]
[objective: regression]
[metric: l1]
[tree_learner: serial]
[device_type: cpu]
[data: ]
[valid: ]
[num_iterations: 100]
[learning_rate: 0.5]
[num_leaves: 6]
[num_threads: 0]
[deterministic: 0]
[force_col_wise: 0]
[force_row_wise: 0]
[histogram_pool_size: -1]
[max_depth: 6]
[min_data_in_leaf: 20]
[min_sum_hessian_in_leaf: 0.001]
[bagging_fraction: 0.7]
[pos_bagging_fraction: 1]
[neg_bagging_fraction: 1]
[bagging_freq: 0]
[bagging_seed: 400]
[feature_fraction: 0.7]
[feature_fraction_bynode: 1]
[feature_fraction_seed: 30056]
[extra_trees: 0]
[extra_seed: 12879]
[early_stopping_round: 0]
[first_metric_only: 0]
[max_delta_step: 0]
[lambda_l1: 0]
[lambda_l2: 0]
[linear_lambda: 0]
[min_gain_to_split: 0]
[drop_rate: 0.8]
[max_drop: 50]
[skip_drop: 0.8]
[xgboost_dart_mode: 0]
[uniform_drop: 0]
[drop_seed: 17869]
[top_rate: 0.2]
[other_rate: 0.1]
[min_data_per_group: 100]
[max_cat_threshold: 32]
[cat_l2: 10]
[cat_smooth: 10]
[max_cat_to_onehot: 4]
[top_k: 20]
[monotone_constraints: ]
[monotone_constraints_method: basic]
[monotone_penalty: 0]
[feature_contri: ]
[forcedsplits_filename: ]
[refit_decay_rate: 0.9]
[cegb_tradeoff: 1]
[cegb_penalty_split: 0]
[cegb_penalty_feature_lazy: ]
[cegb_penalty_feature_coupled: ]
[path_smooth: 0]
[interaction_constraints: ]
[verbosity: 1]
[saved_feature_importance_type: 0]
[linear_tree: 0]
[max_bin: 255]
[max_bin_by_feature: ]
[min_data_in_bin: 3]
[bin_construct_sample_cnt: 200000]
[data_random_seed: 175]
[is_enable_sparse: 1]
[enable_bundle: 1]
[use_missing: 1]
[zero_as_missing: 0]
[feature_pre_filter: 1]
[pre_partition: 0]
[two_round: 0]
[header: 0]
[label_column: ]
[weight_column: ]
[group_column: ]
[ignore_column: ]
[categorical_feature: ]
[forcedbins_filename: ]
[precise_float_parser: 0]
[objective_seed: 16083]
[num_class: 1]
[is_unbalance: 0]
[scale_pos_weight: 1]
[sigmoid: 1]
[boost_from_average: 1]
[reg_sqrt: 0]
[alpha: 0.9]
[fair_c: 1]
[poisson_max_delta_step: 0.7]
[tweedie_variance_power: 1.5]
[lambdarank_truncation_level: 30]
[lambdarank_norm: 1]
[label_gain: ]
[eval_at: ]
[multi_error_top_k: 1]
[auc_mu_weights: ]
[num_machines: 1]
[local_listen_port: 12400]
[time_out: 120]
[machine_list_filename: ]
[machines: ]
[gpu_platform_id: -1]
[gpu_device_id: -1]
[gpu_use_dp: 0]
[num_gpu: 1]

end of parameters

pandas_categorical:null
