tree
version=v3
num_class=1
num_tree_per_iteration=1
label_index=0
max_feature_idx=24
objective=regression
feature_names=Column_0 Column_1 Column_2 Column_3 Column_4 Column_5 Column_6 Column_7 Column_8 Column_9 Column_10 Column_11 Column_12 Column_13 Column_14 Column_15 Column_16 Column_17 Column_18 Column_19 Column_20 Column_21 Column_22 Column_23 Column_24
feature_infos=none [9.7512998580932617:9992.6171875] [2.0600000425474718e-05:0.0017699999734759331] [-1500:36750] [-101500:1500] [-1514:-1500] [508366.3125:872092.8125] [3128.613037109375:3768.4619140625] [11113.341796875:14555.8037109375] [9586.2783203125:13904.7109375] [8395.423828125:15663.203125] [2688.31396484375:4485.80615234375] [-0.59399998188018799:-0.45500001311302185] [44.870998382568359:45.720001220703125] [24.972999572753906:25.018999099731445] [26.299999237060547:27.299999237060547] [25.799999237060547:26.600000381469727] [26.899999618530273:27.899999618530273] [25.399999618530273:26.100000381469727] [26.399999618530273:27.200000762939453] [23.700000762939453:24.700000762939453] [30:35.299999237060547] [37:43.400001525878906] [-97.851997375488281:-95.84100341796875] [-97.968002319335938:-95.98699951171875]
tree_sizes=651 638 632 638 620 632 622 632 624 625 627 628 626 628 635 634 624 622 623 625 623 630 625 630 632 624 625 632 625 623 623 629 632 623 616 619 629 625 627 629 625 627 624 624 633 629 625 625 626 621 631 628 620 622 632 629 629 633 633 624 627 618 626 629 633 627 624 627 631 620 631 628 628 632 638 628 630 625 627 628 632 623 626 639 631 628 626 630 630 633 626 626 621 625 634 626 627 627 626 628

Tree=0
num_leaves=6
num_cat=0
split_feature=2 5 2 2 7
split_gain=5.3995e+09 1.81613e+09 1.21986e+09 5.60649e+07 1.11795e+07
threshold=0.00064499999280087661 -1506.9999999999998 0.0014850000152364375 0.00013649999891640621 3424.244995117188
decision_type=2 2 2 2 2
left_child=3 -2 -3 4 -1
right_child=1 2 -4 -5 -6
leaf_value=1363.2349390220361 1116.2199934234723 3576.8136810896958 6104.3185091994874 1634.0651127864828 1169.7019568297737
leaf_weight=99 39 94 97 101 303
leaf_count=99 39 94 97 101 303
internal_value=2218.68 4225.53 4860.42 1301.03 1217.36
internal_weight=0 230 191 503 402
internal_count=733 230 191 503 402
is_linear=0
shrinkage=1


Tree=1
num_leaves=6
num_cat=0
split_feature=1 1 1 2 1
split_gain=1.80963e+09 3.08332e+08 1.33946e+07 4.67815e+06 414975
threshold=1019.9713134765626 7460.8112792968759 254.598503112793 0.00013649999891640621 15.707750320434572
decision_type=2 2 2 2 2
left_child=2 -2 4 -4 -1
right_child=1 -3 3 -5 -6
leaf_value=-570.98064943023076 678.8497041066488 1942.8192189010149 -441.92710272471112 -307.66842246542171 -529.327803178267
leaf_weight=151 96 97 192 98 99
leaf_count=151 96 97 192 98 99
internal_value=0 1314.11 -469.672 -396.557 -554.486
internal_weight=0 193 540 290 250
internal_count=733 193 540 290 250
is_linear=0
shrinkage=0.5


Tree=2
num_leaves=6
num_cat=0
split_feature=1 1 1 6 8
split_gain=4.52408e+08 7.70831e+07 3.66093e+06 548958 493817
threshold=1019.9713134765626 7460.8112792968759 507.32054138183599 658062.43750000012 13769.089843750002
decision_type=2 2 2 2 2
left_child=2 -2 4 -4 -1
right_child=1 -3 3 -5 -6
leaf_value=-277.69807151056108 339.42486890157062 971.40967300257728 -153.83420920858578 -206.75686567656848 -235.46325270334879
leaf_weight=248 96 97 98 98 96
leaf_count=248 96 97 98 98 96
internal_value=0 657.055 -234.836 -180.296 -265.912
internal_weight=0 193 540 196 344
internal_count=733 193 540 196 344
is_linear=0
shrinkage=0.5


Tree=3
num_leaves=6
num_cat=0
split_feature=12 11 8 9 10
split_gain=1.0514e+08 1.78059e+07 1.06127e+07 696904 249722
threshold=-0.53849998116493214 4212.0791015625009 12757.737792968752 12851.928710937502 11883.019042968752
decision_type=2 2 2 2 2
left_child=-1 2 -2 -3 -5
right_child=1 3 -4 4 -6
leaf_value=479.21284469450364 -127.56125144958496 -142.79851392882964 180.42880675613239 -76.835774549797407 -111.16589572589859
leaf_weight=99 40 181 93 67 253
leaf_count=99 40 181 93 67 253
internal_value=0 -74.8298 87.8002 -118.003 -103.978
internal_weight=0 634 133 501 320
internal_count=733 634 133 501 320
is_linear=0
shrinkage=0.5


Tree=4
num_leaves=6
num_cat=0
split_feature=1 1 1 10 1
split_gain=2.76502e+07 5.45967e+06 388094 254290 231197
threshold=1019.9713134765626 7460.8112792968759 257.08634948730474 14006.683593750002 4936.7573242187509
decision_type=2 2 2 2 2
left_child=2 3 -1 4 -2
right_child=1 -3 -4 -5 -6
leaf_value=-68.29602977047918 18.557482910156249 246.09839370570231 -40.509657907725575 128.0682518005371 81.184106009347104
leaf_weight=341 20 97 199 20 56
leaf_count=341 20 97 199 20 56
internal_value=0 162.437 -58.0562 77.9044 64.7034
internal_weight=0 193 540 96 76
internal_count=733 193 540 96 76
is_linear=0
shrinkage=0.5


Tree=5
num_leaves=6
num_cat=0
split_feature=12 2 10 14 9
split_gain=6.69063e+06 1.34942e+06 668427 123771 110554
threshold=-0.54649999737739552 0.00028949999250471597 12022.097656250002 25.005499839782718 12394.404785156252
decision_type=2 2 2 2 2
left_child=-1 4 -3 -4 -2
right_child=1 2 3 -5 -6
leaf_value=123.05116780598958 -48.098797697769967 -28.679230356216429 38.462639834429766 81.178334496238008 -27.393862988107344
leaf_weight=96 76 40 74 22 425
leaf_count=96 76 40 74 22 425
internal_value=0 -18.5446 25.6249 48.2517 -30.5347
internal_weight=0 637 136 96 501
internal_count=733 637 136 96 501
is_linear=0
shrinkage=0.5


Tree=6
num_leaves=6
num_cat=0
split_feature=1 1 10 21 10
split_gain=1.71671e+06 338769 223985 133610 79894.1
threshold=7460.8112792968759 1013.7810668945314 11899.188476562502 31.250000000000004 11656.440917968752
decision_type=2 2 2 2 2
left_child=1 -1 4 -4 -3
right_child=-2 2 3 -5 -6
leaf_value=-17.066572347559188 61.95964136811876 -3.9313204969678606 57.087947255089169 13.328487961037645 -41.431976366043088
leaf_weight=443 97 49 21 103 20
leaf_count=443 97 49 21 103 20
internal_value=0 -9.44982 8.0332 20.7394 -14.8011
internal_weight=0 636 193 124 69
internal_count=733 636 193 124 69
is_linear=0
shrinkage=0.5


Tree=7
num_leaves=6
num_cat=0
split_feature=12 2 3 13 18
split_gain=412285 148414 129381 102596 33018.2
threshold=-0.54649999737739552 0.00022349999926518652 -1.0000000180025095e-35 45.45899963378907 25.750000000000004
decision_type=2 2 2 2 2
left_child=-1 3 -3 4 -2
right_child=1 2 -4 -5 -6
leaf_value=30.545764287312824 -6.8063731737415099 36.207990215670677 1.1619518552507673 -43.966011138189408 -23.299802924647476
leaf_weight=96 377 31 175 21 33
leaf_count=96 377 31 175 21 33
internal_value=0 -4.60344 6.43587 -9.87977 -8.13389
internal_weight=0 637 206 431 410
internal_count=733 637 206 431 410
is_linear=0
shrinkage=0.5


Tree=8
num_leaves=6
num_cat=0
split_feature=21 1 1 1 11
split_gain=156616 150134 136108 59364.5 13384
threshold=30.650000572204593 4936.7468261718759 1019.9713134765626 112.15805053710939 4278.1406250000009
decision_type=2 2 2 2 2
left_child=-1 2 3 -2 -5
right_child=1 -3 -4 4 -6
leaf_value=34.779518796551613 -11.640124437056089 12.733450827533252 -36.426360970539406 5.8196417748928067 -1.4826504164135332
leaf_weight=31 152 146 33 80 291
leaf_count=31 152 146 33 80 291
internal_value=0 -1.53585 -5.28282 -3.31774 0.0919678
internal_weight=0 702 556 523 371
internal_count=733 702 556 523 371
is_linear=0
shrinkage=0.5


Tree=9
num_leaves=6
num_cat=0
split_feature=11 20 21 1 1
split_gain=80451.1 120945 86393.4 20290.3 17894.4
threshold=4212.0791015625009 23.94999980926514 30.94999980926514 4924.2145996093759 15.707750320434572
decision_type=2 2 2 2 2
left_child=1 -1 -2 -3 -4
right_child=2 3 4 -5 -6
leaf_value=42.111162641774051 -26.81600697137214 -5.1121095841129618 -7.523537082724201 6.6005119388888343 -0.051914853402452124
leaf_weight=23 37 48 103 161 361
leaf_count=23 37 48 103 161 361
internal_value=0 7.69766 -3.56459 3.91053 -1.71049
internal_weight=0 232 501 209 464
internal_count=733 232 501 209 464
is_linear=0
shrinkage=0.5


Tree=10
num_leaves=6
num_cat=0
split_feature=19 6 17 13 2
split_gain=34983.9 130813 59893.3 15258.7 11589.9
threshold=27.050000190734867 616344.21875000012 27.750000000000004 44.954500198364265 2.684999981283909e-05
decision_type=2 2 2 2 2
left_child=2 -2 3 -1 -5
right_child=1 -3 -4 4 -6
leaf_value=-13.538452333211898 44.806216084957121 -3.0395794910192491 -20.395450482242985 -7.4130303637925969 1.1039344163551874
leaf_weight=20 20 50 38 43 562
leaf_count=20 20 50 38 43 562
internal_value=0 10.6306 -1.12239 0.0494109 0.498596
internal_weight=0 70 663 625 605
internal_count=733 70 663 625 605
is_linear=0
shrinkage=0.5


Tree=11
num_leaves=6
num_cat=0
split_feature=21 21 1 13 8
split_gain=63942.1 53885.9 12033.5 13395.8 7083.74
threshold=30.750000000000004 30.94999980926514 9985.8085937500018 45.45899963378907 13622.708984375002
decision_type=2 2 2 2 2
left_child=-1 -2 3 4 -3
right_child=1 2 -4 -5 -6
leaf_value=20.854757792609078 -24.845231159873631 -0.55919934756808232 5.7363829040527348 10.592840403318405 -4.8636145809865443
leaf_weight=35 23 455 75 24 121
leaf_count=35 23 455 75 24 121
internal_value=0 -1.04573 -0.23478 -0.981175 -1.46343
internal_weight=0 698 675 600 576
internal_count=733 698 675 600 576
is_linear=0
shrinkage=0.5


Tree=12
num_leaves=6
num_cat=0
split_feature=18 20 17 21 21
split_gain=35723.6 115616 45612.7 18517.6 9173.02
threshold=25.750000000000004 24.050000190734867 27.750000000000004 30.750000000000004 31.050000190734867
decision_type=2 2 2 2 2
left_child=2 -2 3 -1 -5
right_child=1 -3 -4 4 -6
leaf_value=-15.246934658288955 40.838316032239661 -1.6318814006902405 -19.63845497276634 10.484183038984026 -0.15364516691090813
leaf_weight=20 22 59 32 21 579
leaf_count=20 22 59 32 21 579
internal_value=0 9.90323 -1.23031 -0.280212 0.218679
internal_weight=0 81 652 620 600
internal_count=733 81 652 620 600
is_linear=0
shrinkage=0.5


Tree=13
num_leaves=6
num_cat=0
split_feature=21 21 21 20 20
split_gain=41547.3 159156 43315.3 5806.37 5682.34
threshold=30.849999427795414 30.550000190734867 31.050000190734867 24.44999980926514 23.94999980926514
decision_type=2 2 2 2 2
left_child=1 -1 -2 4 -4
right_child=2 -3 3 -5 -6
leaf_value=-13.096054087082544 -22.791129556569185 46.507554494199297 -3.2706561488685786 -8.0476310408633687 0.70537931257597752
leaf_weight=24 22 21 108 23 535
leaf_count=24 22 21 108 23 535
internal_value=0 14.719 -0.962723 -0.241664 0.0375538
internal_weight=0 45 688 666 643
internal_count=733 45 688 666 643
is_linear=0
shrinkage=0.5


Tree=14
num_leaves=6
num_cat=0
split_feature=21 21 13 2 1
split_gain=34152.1 33519.3 6446.92 4684.55 12813.5
threshold=30.650000572204593 30.94999980926514 45.467000961303718 0.00076550000812858354 4923.6884765625009
decision_type=2 2 2 2 2
left_child=-1 -2 3 4 -3
right_child=1 2 -4 -5 -6
leaf_value=16.241054234966153 -17.992239569072371 -0.32564858104259231 8.2010405831362885 2.0733641357495425 -9.7674240943713073
leaf_weight=31 27 457 23 156 39
leaf_count=31 27 457 23 156 39
internal_value=0 -0.717198 -0.0261959 -0.31642 -1.06805
internal_weight=0 702 675 652 496
internal_count=733 702 675 652 496
is_linear=0
shrinkage=0.5


Tree=15
num_leaves=6
num_cat=0
split_feature=14 17 14 3 24
split_gain=27922.9 73354.5 66315.8 15526.8 6169.24
threshold=24.994500160217289 27.750000000000004 24.993499755859379 -1.0000000180025095e-35 -96.121997833251939
decision_type=2 2 2 2 2
left_child=2 -2 3 -1 -5
right_child=1 -3 -4 4 -6
leaf_value=-12.701793054523675 0.28671656456562422 24.259735529913623 -25.296544077970527 -0.10845263519333405 9.487870575487614
leaf_weight=23 519 34 34 103 20
leaf_count=23 519 34 34 103 20
internal_value=0 1.76065 -5.40909 -0.77777 1.45193
internal_weight=0 553 180 146 123
internal_count=733 553 180 146 123
is_linear=0
shrinkage=0.5


Tree=16
num_leaves=6
num_cat=0
split_feature=15 23 6 22 1
split_gain=34484.5 118488 67564 74062.7 8516.33
threshold=26.849999427795414 -95.964000701904283 620121.34375000012 40.750000000000007 113.64070129394533
decision_type=2 2 2 2 2
left_child=1 -1 3 -2 -4
right_child=2 -3 4 -5 -6
leaf_value=0.59327310861951732 -45.38780888617039 39.810122239589688 -8.0829792499542243 -4.5661183393001554 1.3598357012383959
leaf_weight=521 20 20 30 25 117
leaf_count=521 20 20 30 25 117
internal_value=0 2.04306 -5.75676 -22.7091 -0.567269
internal_weight=0 541 192 45 147
internal_count=733 541 192 45 147
is_linear=0
shrinkage=0.5


Tree=17
num_leaves=6
num_cat=0
split_feature=11 6 22 1 6
split_gain=21088.4 56763.2 84129.2 37581.3 28216.1
threshold=4302.5104980468759 607154.59375000012 40.049999237060554 1019.9567871093751 626176.00000000012
decision_type=2 2 2 2 2
left_child=1 2 -1 -2 -3
right_child=3 4 -4 -5 -6
leaf_value=43.107753942906854 -1.7851140838432706 -17.08557930046862 -1.6988126581365413 -24.26220649778843 1.3265649997726239
leaf_weight=20 265 22 22 20 384
leaf_count=20 265 22 22 20 384
internal_value=0 2.13906 19.6376 -3.36245 0.328863
internal_weight=0 448 42 285 406
internal_count=733 448 42 285 406
is_linear=0
shrinkage=0.5


Tree=18
num_leaves=6
num_cat=0
split_feature=7 7 17 18 10
split_gain=27215.1 90404.6 42796.4 18147.4 8537.9
threshold=3557.6015625000005 3551.100463867188 27.750000000000004 25.94999980926514 14006.683593750002
decision_type=2 2 2 2 2
left_child=1 3 4 -1 -2
right_child=2 -3 -4 -5 -6
leaf_value=-0.1398560778842759 6.7409243968816908 -34.55253808271317 22.251974131379807 -15.230680471374875 0.18331615459173917
leaf_weight=388 65 21 28 21 210
leaf_count=388 65 21 28 21 210
internal_value=0 -2.55747 3.62941 -0.914691 1.7333
internal_weight=0 430 303 409 275
internal_count=733 430 303 409 275
is_linear=0
shrinkage=0.5


Tree=19
num_leaves=6
num_cat=0
split_feature=6 6 22 17 6
split_gain=25502.1 89645 46749.6 22398.6 5438.34
threshold=544956.75000000012 605924.96875000012 39.149999618530281 27.750000000000004 820731.75000000012
decision_type=2 2 2 2 2
left_child=2 -2 -1 4 -3
right_child=1 3 -4 -5 -6
leaf_value=-28.814182457469759 26.361563978773177 -0.49689210882132823 -0.6173533979727297 -13.260355175472796 3.1096959609124397
leaf_weight=21 33 463 49 32 135
leaf_count=21 33 463 49 32 135
internal_value=0 0.958293 -9.0764 -0.372355 0.317304
internal_weight=0 663 70 630 598
internal_count=733 663 70 630 598
is_linear=0
shrinkage=0.5


Tree=20
num_leaves=6
num_cat=0
split_feature=10 6 11 6 20
split_gain=18664.4 82233.2 30124 10570.9 5602.75
threshold=11899.188476562502 607154.59375000012 4330.5170898437509 626176.00000000012 23.94999980926514
decision_type=2 2 2 2 2
left_child=2 -2 -1 -3 -5
right_child=1 3 -4 4 -6
leaf_value=-1.619943199788823 25.742567664943635 -11.034519925713539 -21.679637720187504 -3.5336317765441807 0.80490326359810083
leaf_weight=85 32 22 24 88 482
leaf_count=85 32 22 24 88 482
internal_value=0 1.0545 -6.03676 -0.279993 0.135094
internal_weight=0 624 109 592 570
internal_count=733 624 109 592 570
is_linear=0
shrinkage=0.5


Tree=21
num_leaves=6
num_cat=0
split_feature=21 17 21 6 24
split_gain=28566.8 23518.6 12153 5886.03 4853.49
threshold=30.650000572204593 27.750000000000004 30.94999980926514 605924.96875000012 -97.917499542236314
decision_type=2 2 2 2 2
left_child=-1 2 -2 -4 -5
right_child=1 -3 3 4 -6
leaf_value=14.853776097297668 11.834649625278654 -13.483848981723627 -4.2915422852550238 -6.1043372010362562 0.53739973985849909
leaf_weight=31 21 34 84 29 534
leaf_count=31 21 34 84 29 534
internal_value=0 -0.655936 -0.0030183 -0.387239 0.195285
internal_weight=0 702 668 647 563
internal_count=733 702 668 647 563
is_linear=0
shrinkage=0.5


Tree=22
num_leaves=6
num_cat=0
split_feature=11 1 21 2 21
split_gain=13358.6 44147.8 24341.9 110107 3706.6
threshold=4391.9538574218759 1013.7810668945314 31.050000190734867 0.00064499999280087661 34.45000076293946
decision_type=2 2 2 2 2
left_child=2 -2 3 -1 -4
right_child=1 -3 4 -5 -6
leaf_value=32.229869396026643 1.5605013238779013 -21.414569664001466 -0.30025982603774215 -15.038675411181016 6.6261778652667997
leaf_weight=28 69 30 564 22 20
leaf_count=28 69 30 564 22 20
internal_value=0 -5.40164 0.843474 11.4317 -0.0630531
internal_weight=0 99 634 50 584
internal_count=733 99 634 50 584
is_linear=0
shrinkage=0.5


Tree=23
num_leaves=6
num_cat=0
split_feature=22 8 22 24 15
split_gain=14387.6 48410.5 45541.3 67477.5 5102.56
threshold=38.95000076293946 13542.550781250002 39.250000000000007 -97.639999389648423 26.849999427795414
decision_type=2 2 2 2 2
left_child=1 -1 3 -2 -4
right_child=2 -3 4 -5 -6
leaf_value=0.17529925650783948 -0.60586691475831544 -22.746106521322808 -1.0850736428445769 38.024306452274324 2.4237043599216199
leaf_weight=112 26 29 407 20 139
leaf_count=112 26 29 407 20 139
internal_value=0 -4.53903 1.08109 16.1899 -0.191813
internal_weight=0 141 592 46 546
internal_count=733 141 592 46 546
is_linear=0
shrinkage=0.5


Tree=24
num_leaves=6
num_cat=0
split_feature=21 21 13 24 6
split_gain=15494.5 23867.5 4803.75 8164.66 4313.13
threshold=30.750000000000004 30.94999980926514 45.232000350952156 -96.731002807617173 628173.90625000012
decision_type=2 2 2 2 2
left_child=-1 -2 3 -3 -4
right_child=1 2 4 -5 -6
leaf_value=10.265969329220908 -16.35399055480957 -0.36745914073934388 5.6675227334530192 -9.4882023678376122 0.61304505842797941
leaf_weight=35 23 436 58 26 155
leaf_count=35 23 436 58 26 155
internal_value=0 -0.514769 0.0249376 -0.880748 1.98938
internal_weight=0 698 675 462 213
internal_count=733 698 675 462 213
is_linear=0
shrinkage=0.5


Tree=25
num_leaves=6
num_cat=0
split_feature=13 24 17 21 22
split_gain=13480 37116.9 23589.5 10656.8 5216.25
threshold=45.44799995422364 -96.11049652099608 27.750000000000004 30.849999427795414 38.750000000000007
decision_type=2 2 2 2 2
left_child=2 -2 3 -1 -5
right_child=1 -3 -4 4 -6
leaf_value=-11.222727776194612 -22.595813362494759 5.236059937477112 12.674826599657536 4.5813450337417665 -0.25036748561158556
leaf_weight=21 23 25 38 62 564
leaf_count=21 23 25 38 62 564
internal_value=0 -8.10005 0.567595 -0.143495 0.228173
internal_weight=0 48 685 647 626
internal_count=733 48 685 647 626
is_linear=0
shrinkage=0.5


Tree=26
num_leaves=6
num_cat=0
split_feature=7 11 17 1 8
split_gain=11056.7 70465.2 39264.5 6186.9 4589.24
threshold=3606.119506835938 4281.0476074218759 27.750000000000004 13.581650257110597 13622.708984375002
decision_type=2 2 2 2 2
left_child=2 -2 3 -1 -5
right_child=1 -3 -4 4 -6
leaf_value=8.392406230623072 31.481705623865128 -1.0294922683946788 -16.42537317464226 0.14919868990469068 -6.9199915627638502
leaf_weight=22 20 100 38 529 24
leaf_count=22 20 100 38 529 24
internal_value=0 4.38904 -0.859192 0.169529 -0.157602
internal_weight=0 120 613 575 553
internal_count=733 120 613 575 553
is_linear=0
shrinkage=0.5


Tree=27
num_leaves=6
num_cat=0
split_feature=21 13 13 13 22
split_gain=10054.4 18335.4 35169.9 5353.73 13350.5
threshold=30.750000000000004 45.475000381469734 45.435998916625984 45.052000045776374 40.750000000000007
decision_type=2 2 2 2 2
left_child=-1 2 3 4 -2
right_child=1 -3 -4 -5 -6
leaf_value=8.2696936539241239 -13.914209516098103 13.468071506075237 -20.550663747570731 0.33231683089225378 -0.025369812884638385
leaf_weight=35 24 23 22 567 62
leaf_count=35 24 23 22 567 62
internal_value=0 -0.414669 -0.887711 -0.225253 -3.90133
internal_weight=0 698 675 653 86
internal_count=733 698 675 653 86
is_linear=0
shrinkage=0.5


Tree=28
num_leaves=6
num_cat=0
split_feature=21 21 9 9 21
split_gain=15700.4 32776.2 11168.6 49093.6 13195.4
threshold=30.550000190734867 30.849999427795414 13350.537109375002 13314.347656250002 31.94999980926514
decision_type=2 2 2 2 2
left_child=-1 -2 3 -3 -4
right_child=1 2 4 -5 -6
leaf_value=-12.577399750550589 19.884303569793701 -0.071267322348739032 16.320902347564697 -24.139164443720471 1.8033089385264449
leaf_weight=24 21 574 20 22 72
leaf_count=24 21 574 20 22 72
internal_value=0 0.425751 -0.168187 -0.95968 4.95931
internal_weight=0 709 688 596 92
internal_count=733 709 688 596 92
is_linear=0
shrinkage=0.5


Tree=29
num_leaves=6
num_cat=0
split_feature=8 17 8 7 10
split_gain=12791.6 82308.6 37503.3 32693 17438.6
threshold=13561.941406250002 27.750000000000004 13317.363769531252 3577.993530273438 14006.683593750002
decision_type=2 2 2 2 2
left_child=2 4 -1 -4 -2
right_child=1 -3 3 -5 -6
leaf_value=0.0019605084335002723 10.99353586775916 33.096888644354685 -29.484060730252946 -1.5841365939094907 -2.811480698801577
leaf_weight=517 28 21 21 21 125
leaf_count=517 28 21 21 21 125
internal_value=0 3.74378 -1.16533 -15.5341 -0.285072
internal_weight=0 174 559 42 153
internal_count=733 174 559 42 153
is_linear=0
shrinkage=0.5


Tree=30
num_leaves=6
num_cat=0
split_feature=22 22 23 8 7
split_gain=12191 38923.9 19737.1 6182.37 24138.4
threshold=39.149999618530281 39.350000381469734 -95.92950057983397 13616.115234375002 3617.254028320313
decision_type=2 2 2 2 2
left_child=2 -2 -1 -3 -5
right_child=1 3 -4 4 -6
leaf_value=-1.2733387802631178 18.657863616446654 1.0098053475580844 -15.562389149491128 -12.601170284407479 2.7322513470143983
leaf_weight=145 30 421 29 42 66
leaf_count=145 30 421 29 42 66
internal_value=0 1.13764 -3.65485 0.14406 -3.23075
internal_weight=0 559 174 529 108
internal_count=733 559 174 529 108
is_linear=0
shrinkage=0.5


Tree=31
num_leaves=6
num_cat=0
split_feature=21 17 6 12 9
split_gain=17997.6 12424.2 6513.81 4464.8 3748.47
threshold=30.650000572204593 27.750000000000004 845098.81250000012 -0.4784999936819076 13348.176269531252
decision_type=2 2 2 2 2
left_child=-1 2 3 4 -2
right_child=1 -3 -4 -5 -6
leaf_value=11.789983564807523 -0.63855179682881991 -9.8442518228993698 4.9241328664124016 3.0215558463876899 -5.315608762680216
leaf_weight=31 484 34 60 77 47
leaf_count=31 484 34 60 77 47
internal_value=0 -0.52064 -0.0460852 -0.536567 -1.05253
internal_weight=0 702 668 608 531
internal_count=733 702 668 608 531
is_linear=0
shrinkage=0.5


Tree=32
num_leaves=6
num_cat=0
split_feature=8 2 13 2 2
split_gain=7855.83 59174 15834.1 13064.5 4115.19
threshold=13561.941406250002 0.000221499998588115 45.451499938964851 0.00019449999672360721 3.2099998861667707e-05
decision_type=2 2 2 2 2
left_child=2 3 -1 4 -2
right_child=1 -3 -4 -5 -6
leaf_value=-0.29076154597173887 -3.4097543475420578 21.309188463006702 -12.289487894239096 -13.517050351202489 2.6283130166057038
leaf_weight=530 46 35 29 20 73
leaf_count=530 46 35 29 20 73
internal_value=0 2.9339 -0.913236 -1.69297 0.29427
internal_weight=0 174 559 139 119
internal_count=733 174 559 139 119
is_linear=0
shrinkage=0.5


Tree=33
num_leaves=6
num_cat=0
split_feature=6 7 12 21 10
split_gain=9522.42 51432 31359.6 29435.2 5044.07
threshold=607154.59375000012 3559.8374023437505 -0.48749999701976771 30.849999427795414 15289.409179687502
decision_type=2 2 2 2 2
left_child=1 2 -1 -2 -5
right_child=3 -3 -4 4 -6
leaf_value=-13.295150790451649 -14.64197399881151 20.821625167673286 6.668658160737583 -0.2216062579508746 7.0373538794368509
leaf_weight=37 36 33 42 560 25
leaf_count=37 36 33 42 560 25
internal_value=0 4.24354 -2.68148 -0.765341 0.0886057
internal_weight=0 112 79 621 585
internal_count=733 112 79 621 585
is_linear=0
shrinkage=0.5


Tree=34
num_leaves=6
num_cat=0
split_feature=6 6 22 7 21
split_gain=14332 47538.1 38647.5 29623.1 9685.52
threshold=544956.75000000012 607154.59375000012 41.149999618530281 3555.379516601563 30.650000572204593
decision_type=2 2 2 2 2
left_child=3 2 -2 -1 -3
right_child=1 4 -4 -5 -6
leaf_value=2.6346434001859866 32.905942618846893 -10.231106751908859 2.53704833984375 -18.012873582541943 0.013246548709372242
leaf_weight=38 20 24 22 32 597
leaf_count=38 20 24 22 32 597
internal_value=0 0.718394 16.9984 -6.80422 -0.38267
internal_weight=0 663 42 70 621
internal_count=733 663 42 70 621
is_linear=0
shrinkage=0.5


Tree=35
num_leaves=6
num_cat=0
split_feature=21 6 6 13 21
split_gain=27364 9912.27 54576.1 11767.8 4314.07
threshold=30.650000572204593 605924.96875000012 542688.65625000012 45.396999359130866 30.94999980926514
decision_type=2 2 2 2 2
left_child=-1 2 3 -2 -3
right_child=1 4 -4 -5 -6
leaf_value=14.537686959389717 -1.7399590793179303 7.147006880669367 -21.834581476269346 12.594590225002982 -0.14693491913569279
leaf_weight=31 41 21 33 22 585
leaf_count=31 41 21 33 22 585
internal_value=0 -0.641978 -5.36248 3.26576 0.105825
internal_weight=0 702 96 63 606
internal_count=733 702 96 63 606
is_linear=0
shrinkage=0.5


Tree=36
num_leaves=6
num_cat=0
split_feature=12 6 1 1 23
split_gain=11613.8 71897.9 63221 15929.8 9411.56
threshold=-0.49549999833106989 605924.96875000012 1019.9713134765626 1019.936004638672 -95.910499572753892
decision_type=2 2 2 2 2
left_child=1 -1 3 4 -2
right_child=2 -3 -4 -5 -6
leaf_value=25.459894468044414 0.21282040779337738 -0.15785915365601552 -26.737663536071778 12.676285654306412 -9.3450432643294334
leaf_weight=29 132 493 25 22 32
leaf_count=29 132 493 25 22 32
internal_value=0 1.26535 -3.13039 0.0426301 -1.65213
internal_weight=0 522 211 186 164
internal_count=733 522 211 186 164
is_linear=0
shrinkage=0.5


Tree=37
num_leaves=6
num_cat=0
split_feature=6 6 12 21 17
split_gain=21164 54101.7 29913 12534.7 4620.15
threshold=605506.34375000012 609235.40625000012 -0.48950000107288355 30.650000572204593 27.750000000000004
decision_type=2 2 2 2 2
left_child=2 -2 -1 -3 -5
right_child=1 3 -4 4 -6
leaf_value=-19.081555315942474 26.021834120863961 -10.988837455709776 -0.69053026010741048 0.37964111677509671 7.4630345602830248
leaf_weight=33 21 24 67 564 24
leaf_count=33 21 24 67 564 24
internal_value=0 1.06786 -6.75957 0.211599 0.668759
internal_weight=0 633 100 612 588
internal_count=733 633 100 612 588
is_linear=0
shrinkage=0.5


Tree=38
num_leaves=6
num_cat=0
split_feature=16 12 13 6 1
split_gain=10726.2 29629.3 8969.78 8116.37 35541.3
threshold=26.349999427795414 -0.49449999630451197 45.368999481201179 635971.09375000012 1019.9635009765626
decision_type=2 2 2 2 2
left_child=3 -2 -3 4 -1
right_child=1 2 -4 -5 -6
leaf_value=-0.7878317269733397 20.099229415257771 -9.0730031639337536 3.08087191742564 0.17108737357062129 -23.112941094807216
leaf_weight=118 24 20 63 487 21
leaf_count=118 24 20 63 487 21
internal_value=0 4.62632 0.152227 -0.790761 -4.16069
internal_weight=0 107 83 626 139
internal_count=733 107 83 626 139
is_linear=0
shrinkage=0.5


Tree=39
num_leaves=6
num_cat=0
split_feature=21 10 21 21 23
split_gain=21950.9 6873.63 28744.2 6345.66 5207.89
threshold=30.650000572204593 11901.758789062502 31.750000000000004 32.95000076293946 -95.937000274658189
decision_type=2 2 2 2 2
left_child=-1 2 -2 -4 -3
right_child=1 4 3 -5 -6
leaf_value=13.02063242081673 -20.370853283188559 -0.48510990577617641 -5.6036999966159016 3.1969361244528383 3.8753571130241018
leaf_weight=31 22 514 33 54 79
leaf_count=31 22 514 33 54 79
internal_value=0 -0.574985 -4.22428 -0.141236 0.0957955
internal_weight=0 702 109 87 593
internal_count=733 702 109 87 593
is_linear=0
shrinkage=0.5


Tree=40
num_leaves=6
num_cat=0
split_feature=15 21 12 22 21
split_gain=7161.04 27653.4 21057.2 26410.3 5377.78
threshold=26.94999980926514 30.94999980926514 -0.48950000107288355 40.250000000000007 31.150000572204593
decision_type=2 2 2 2 2
left_child=1 -1 3 -2 -4
right_child=2 -3 4 -5 -6
leaf_value=15.283876011448521 -23.978349154410154 -0.052484306965082411 8.2331621997058395 0.8651290163397789 -1.0347966868042324
leaf_weight=31 23 567 20 20 72
leaf_count=31 23 567 20 20 72
internal_value=0 0.742544 -3.2892 -12.4232 0.979977
internal_weight=0 598 135 43 92
internal_count=733 598 135 43 92
is_linear=0
shrinkage=0.5


Tree=41
num_leaves=6
num_cat=0
split_feature=11 6 7 10 18
split_gain=8281.26 26166.4 56636.9 13803.1 5902.73
threshold=4390.3974609375009 605924.96875000012 3489.513549804688 11965.673828125002 25.750000000000004
decision_type=2 2 2 2 2
left_child=1 2 -1 -2 -3
right_child=3 4 -4 -5 -6
leaf_value=0.58370141983032231 -15.548164396058946 -0.048813645819098389 31.526128740537736 -1.2657821881531299 -6.9444656679124543
leaf_weight=50 21 521 21 87 33
leaf_count=50 21 521 21 87 33
internal_value=0 0.698615 9.73569 -4.04291 -0.459565
internal_weight=0 625 71 108 554
internal_count=733 625 71 108 554
is_linear=0
shrinkage=0.5


Tree=42
num_leaves=6
num_cat=0
split_feature=7 2 23 21 7
split_gain=8620.75 17966.4 27855 10769.4 18451.9
threshold=3574.860473632813 0.00021649999689543622 -95.952499389648423 30.94999980926514 3555.379516601563
decision_type=2 2 2 2 2
left_child=3 -2 -3 4 -1
right_child=1 2 -4 -5 -6
leaf_value=1.2097085578875109 0.085074284999835784 -0.82117979801618135 22.323424050727716 -0.42976270030130093 -19.774340569972992
leaf_weight=22 164 26 26 475 20
leaf_count=22 164 26 26 475 20
internal_value=0 2.65283 10.7511 -1.10834 -8.7827
internal_weight=0 216 52 517 42
internal_count=733 216 52 517 42
is_linear=0
shrinkage=0.5


Tree=43
num_leaves=6
num_cat=0
split_feature=11 19 22 14 8
split_gain=6653.17 17330 12798.9 13501.6 29513.4
threshold=4306.4331054687509 27.050000190734867 40.250000000000007 24.993499755859379 13542.550781250002
decision_type=2 2 2 2 2
left_child=1 -1 3 -2 -5
right_child=2 -3 -4 4 -6
leaf_value=0.46709796367318723 3.9799755160153532 14.846103418957103 0.70977002825765378 -3.4855383025216207 -25.09886846826835
leaf_weight=441 24 22 168 56 22
leaf_count=441 24 22 168 56 22
internal_value=0 1.15033 -1.97261 -6.39065 -9.58161
internal_weight=0 463 270 102 78
internal_count=733 463 270 102 78
is_linear=0
shrinkage=0.5


Tree=44
num_leaves=6
num_cat=0
split_feature=21 1 2 18 1
split_gain=9408.11 7111.26 46270.6 8365.96 11095.8
threshold=30.650000572204593 1019.9713134765626 0.00066550000337883841 25.550000190734867 4937.2861328125009
decision_type=2 2 2 2 2
left_child=-1 -2 -3 -4 -5
right_child=1 2 3 4 -6
leaf_value=8.5242647509421072 0.55457409529681412 -25.762866377830505 -8.8473415225744247 11.845172274680365 -0.66183808472072869
leaf_weight=31 523 20 24 21 114
leaf_count=31 523 20 24 21 114
internal_value=0 -0.376428 -3.09662 -0.245516 1.2837
internal_weight=0 702 179 159 135
internal_count=733 702 179 159 135
is_linear=0
shrinkage=0.5


Tree=45
num_leaves=6
num_cat=0
split_feature=7 10 21 2 6
split_gain=8917.96 39912.9 8094.66 18807.5 8014.96
threshold=3592.579467773438 14068.774902343752 30.94999980926514 0.00022500000341096896 716631.90625000012
decision_type=2 2 2 2 2
left_child=2 -2 3 -1 -3
right_child=1 4 -4 -5 -6
leaf_value=-16.516373839378357 22.603702918342922 -9.2201092153787609 -0.33934150621281101 3.780762317812159 1.6846424541218536
leaf_weight=25 23 20 537 21 107
leaf_count=25 23 20 537 21 107
internal_value=0 3.43826 -0.884631 -7.25029 -0.0326413
internal_weight=0 150 583 46 127
internal_count=733 150 583 46 127
is_linear=0
shrinkage=0.5


Tree=46
num_leaves=6
num_cat=0
split_feature=10 6 21 9 9
split_gain=5557.1 21291.9 9741.96 9676.7 3118.21
threshold=11899.188476562502 607154.59375000012 30.650000572204593 13031.436035156252 13467.247558593752
decision_type=2 2 2 2 2
left_child=3 -2 -3 -1 -4
right_child=1 2 4 -5 -6
leaf_value=-1.0607151804345378 13.137724593281746 -9.9710127164920177 0.046510475153034483 -13.232012975215913 5.458048503313746
leaf_weight=89 32 24 540 20 28
leaf_count=89 32 24 540 20 28
internal_value=0 0.575391 -0.103654 -3.29398 0.313276
internal_weight=0 624 592 109 568
internal_count=733 624 592 109 568
is_linear=0
shrinkage=0.5


Tree=47
num_leaves=6
num_cat=0
split_feature=6 18 13 13 6
split_gain=7126.72 9246.27 28372.7 10733.3 9606.24
threshold=530396.68750000012 25.750000000000004 45.239999771118171 45.467000961303718 612243.81250000012
decision_type=2 2 2 2 2
left_child=-1 3 -3 4 -2
right_child=1 2 -4 -5 -6
leaf_value=-6.7618658760109467 -6.1035371367420472 -3.0519859699645275 19.542114814122517 10.188510003189245 0.11856365852429608
leaf_weight=37 70 33 24 24 545
leaf_count=37 70 33 24 24 545
internal_value=0 0.359467 6.46132 -0.18483 -0.589643
internal_weight=0 696 57 639 615
internal_count=733 696 57 639 615
is_linear=0
shrinkage=0.5


Tree=48
num_leaves=6
num_cat=0
split_feature=21 16 6 14 6
split_gain=8211.16 8315.32 13818.6 6221.74 6150.62
threshold=30.650000572204593 26.250000000000004 609235.40625000012 24.997499465942386 685755.59375000012
decision_type=2 2 2 2 2
left_child=-1 -2 -3 -4 -5
right_child=1 2 3 4 -6
leaf_value=7.9635728549572731 0.62487630136457939 -12.751870216801763 3.0336941924859895 -8.1815053451628916 0.27766341817649925
leaf_weight=31 531 32 53 42 44
leaf_count=31 531 32 53 42 44
internal_value=0 -0.351668 -3.38409 -1.22748 -3.85356
internal_weight=0 702 171 139 86
internal_count=733 702 171 139 86
is_linear=0
shrinkage=0.5


Tree=49
num_leaves=6
num_cat=0
split_feature=6 14 7 21 19
split_gain=8029.72 31833.8 10812.7 10152.7 4386.07
threshold=605924.96875000012 25.005499839782718 3555.379516601563 30.650000572204593 26.650000572204593
decision_type=2 2 2 2 2
left_child=1 2 4 -2 -1
right_child=3 -3 -4 -5 -6
leaf_value=-2.7257206241289773 -10.755214715997377 18.13425970488581 -10.133652155598005 -0.26969092188821031 6.7624863496628302
leaf_weight=21 24 29 24 606 29
leaf_count=21 24 29 24 606 29
internal_value=0 4.09279 -1.40994 -0.669139 2.77744
internal_weight=0 103 74 630 50
internal_count=733 103 74 630 50
is_linear=0
shrinkage=0.5


Tree=50
num_leaves=6
num_cat=0
split_feature=21 9 9 18 1
split_gain=7986.86 2676.24 6716.57 5017.34 4206.29
threshold=30.750000000000004 12279.973632812502 12448.019042968752 25.750000000000004 1019.9713134765626
decision_type=2 2 2 2 2
left_child=-1 -2 -3 4 -4
right_child=1 2 3 -5 -6
leaf_value=7.3705470715250287 -2.3875010367622949 8.8796676255518658 0.99159125576724627 -6.6322808101259429 -2.2347703079382577
leaf_weight=35 133 21 377 29 138
leaf_count=35 133 21 377 29 138
internal_value=0 -0.369583 0.105431 -0.23328 0.127052
internal_weight=0 698 565 544 515
internal_count=733 698 565 544 515
is_linear=0
shrinkage=0.5


Tree=51
num_leaves=6
num_cat=0
split_feature=8 8 21 8 2
split_gain=5406.53 25922.8 18679.4 13429.6 9251.14
threshold=13658.352050781252 13573.035644531252 32.549999237060554 13526.447265625002 4.9700000090524561e-05
decision_type=2 2 2 2 2
left_child=1 3 -3 -1 -2
right_child=4 2 -4 -5 -6
leaf_value=0.16884312215808997 -1.0565090125390129 23.049625300225756 2.6302264814342684 -12.71712357089633 -12.580699247973305
leaf_weight=544 102 21 24 21 21
leaf_count=544 102 21 24 21 21
internal_value=0 0.609768 12.1593 -0.310104 -3.02405
internal_weight=0 610 45 565 123
internal_count=733 610 45 565 123
is_linear=0
shrinkage=0.5


Tree=52
num_leaves=6
num_cat=0
split_feature=13 1 22 16 1
split_gain=5082.43 19081.1 37804.3 19067.2 17340.9
threshold=45.343999862670906 1019.9713134765626 40.049999237060554 26.349999427795414 1019.9187622070314
decision_type=2 2 2 2 2
left_child=3 4 -3 -1 -2
right_child=1 2 -4 -5 -6
leaf_value=0.12418694501870003 -1.9535804649194082 -24.772179380059242 4.276831404084251 15.47176850977398 14.323091045022011
leaf_weight=557 90 24 21 21 20
leaf_count=557 90 24 21 21 20
internal_value=0 -2.54245 -11.216 0.681798 1.00581
internal_weight=0 155 45 578 110
internal_count=733 155 45 578 110
is_linear=0
shrinkage=0.5


Tree=53
num_leaves=6
num_cat=0
split_feature=21 6 6 12 21
split_gain=4229.1 3543.84 15498 24400.5 14992.2
threshold=30.650000572204593 609235.40625000012 542688.65625000012 -0.52150002121925343 32.250000000000007
decision_type=2 2 2 2 2
left_child=-1 2 4 -4 -2
right_child=1 -3 3 -5 -6
leaf_value=5.7151784800714065 12.971172405914826 0.24227504702411642 -0.49871864434211483 -22.899242313206194 -3.2085107317784938
leaf_weight=31 22 588 31 20 41
leaf_count=31 22 588 31 20 41
internal_value=0 -0.25238 -2.80376 -9.28324 2.44154
internal_weight=0 702 114 51 63
internal_count=733 702 114 51 63
is_linear=0
shrinkage=0.5


Tree=54
num_leaves=6
num_cat=0
split_feature=2 21 2 16 22
split_gain=5113.62 19334.3 16835.6 5261.13 5556.79
threshold=0.00022500000341096896 31.050000190734867 0.00013649999891640621 26.050000190734867 41.049999237060554
decision_type=2 2 2 2 2
left_child=2 -2 -1 4 -3
right_child=1 3 -4 -5 -6
leaf_value=-0.24967283590242675 14.094900654894966 -6.8860655336879022 -12.52838181257248 1.9544245553170811 0.671315709262022
leaf_weight=402 28 43 30 174 56
leaf_count=402 28 43 30 174 56
internal_value=0 1.58213 -1.10236 0.298765 -2.61118
internal_weight=0 301 432 273 99
internal_count=733 301 432 273 99
is_linear=0
shrinkage=0.5


Tree=55
num_leaves=6
num_cat=0
split_feature=21 8 4 21 8
split_gain=5134.25 5343.85 34713.5 13067.4 4031.91
threshold=30.550000190734867 13642.791015625002 1.0000000180025095e-35 30.94999980926514 13603.108398437502
decision_type=2 2 2 2 2
left_child=-1 3 -3 -2 -5
right_child=1 2 -4 4 -6
leaf_value=-7.1924040168523788 -10.547436213493347 -1.2418592738477807 19.074946761131287 0.42477214431738763 -6.8054399967193602
leaf_weight=24 30 95 27 537 20
leaf_count=24 30 95 27 537 20
internal_value=0 0.243466 3.25448 -0.382333 0.16516
internal_weight=0 709 122 587 557
internal_count=733 709 122 587 557
is_linear=0
shrinkage=0.5


Tree=56
num_leaves=6
num_cat=0
split_feature=8 8 3 9 9
split_gain=4032.62 20551.6 6177.11 5282.86 15882
threshold=13684.043457031252 13642.791015625002 1.0000000180025095e-35 13332.521484375002 13093.001953125002
decision_type=2 2 2 2 2
left_child=1 3 -2 4 -1
right_child=2 -3 -4 -5 -6
leaf_value=0.034610926222125415 -9.3707851572997036 15.864162785666329 -0.63805459357545147 4.985613879592468 -14.315735460817814
leaf_weight=536 27 21 81 48 20
leaf_count=536 27 21 81 48 20
internal_value=0 0.48751 -2.82124 -0.0471089 -0.481589
internal_weight=0 625 108 604 556
internal_count=733 625 108 604 556
is_linear=0
shrinkage=0.5


Tree=57
num_leaves=6
num_cat=0
split_feature=21 16 17 6 6
split_gain=3594.39 3014.42 7772.77 3953.02 6229.4
threshold=30.650000572204593 26.250000000000004 27.750000000000004 699770.00000000012 720139.09375000012
decision_type=2 2 2 2 2
left_child=-1 3 -3 -2 -5
right_child=1 2 -4 4 -6
leaf_value=5.2688829129742034 2.7152492024942783 -0.76314542158475562 -10.831335013562983 -8.8146505355834961 0.033533624484542196
leaf_weight=31 133 149 22 21 377
leaf_count=31 133 149 22 21 377
internal_value=0 -0.232671 -2.05847 0.355297 -0.43333
internal_weight=0 702 171 531 398
internal_count=733 702 171 531 398
is_linear=0
shrinkage=0.5


Tree=58
num_leaves=6
num_cat=0
split_feature=12 12 21 8 7
split_gain=3904.64 14597.3 6111.1 2639.18 2980.96
threshold=-0.49050000309944147 -0.49650000035762781 30.94999980926514 13684.043457031252 3586.4389648437505
decision_type=2 2 2 2 2
left_child=1 -1 -2 4 -4
right_child=2 -3 3 -5 -6
leaf_value=0.0091413989121065242 -9.2479588127136232 10.707767342819887 -0.45900806666600824 3.472844227120794 -5.9968182179145515
leaf_weight=512 25 34 101 29 32
leaf_count=512 25 34 101 29 32
internal_value=0 0.675356 -1.9719 -0.849046 -1.79141
internal_weight=0 546 187 162 133
internal_count=733 546 187 162 133
is_linear=0
shrinkage=0.5


Tree=59
num_leaves=6
num_cat=0
split_feature=8 8 9 8 8
split_gain=3912.32 16205.8 26349.3 6631.67 6086.79
threshold=13656.535156250002 13561.941406250002 12965.723632812502 13722.428710937502 13359.854003906252
decision_type=2 2 2 2 2
left_child=1 4 -3 -2 -1
right_child=3 2 -4 -5 -6
leaf_value=0.14093255220047599 -9.4813436446366488 -0.55799833365849083 23.203889780119063 -0.64103561467632197 -7.5544874469439192
leaf_weight=532 27 28 20 99 27
leaf_count=532 27 28 20 99 27
internal_value=0 0.526291 9.34279 -2.53539 -0.23076
internal_weight=0 607 48 126 559
internal_count=733 607 48 126 559
is_linear=0
shrinkage=0.5


Tree=60
num_leaves=6
num_cat=0
split_feature=6 6 12 21 21
split_gain=4944.68 17076 10847.7 4510.25 5658.72
threshold=599085.71875000012 605924.96875000012 -0.48649999499320978 30.650000572204593 30.94999980926514
decision_type=2 2 2 2 2
left_child=2 -2 -1 -3 -5
right_child=1 3 -4 4 -6
leaf_value=-12.099015063964403 14.486863345617341 -6.7291359690328436 0.25947798469236921 8.323797308263325 -0.02988201893834222
leaf_weight=26 21 24 56 21 585
leaf_count=26 21 24 56 21 585
internal_value=0 0.460897 -3.65907 -0.00663572 0.259602
internal_weight=0 651 82 630 606
internal_count=733 651 82 630 606
is_linear=0
shrinkage=0.5


Tree=61
num_leaves=6
num_cat=0
split_feature=21 6 6 21 23
split_gain=4374.78 3127.84 9688 16430.9 5123.25
threshold=30.650000572204593 608868.46875000012 542688.65625000012 32.850000381469734 -95.952499389648423
decision_type=2 2 2 2 2
left_child=-1 2 4 -4 -2
right_child=1 -3 3 -5 -6
leaf_value=5.812778749773579 -1.8029664967741286 0.20070577472095361 -17.294312309473753 1.2072968392943342 7.7618918929781229
leaf_weight=31 42 591 24 24 21
leaf_count=31 42 591 24 24 21
internal_value=0 -0.25669 -2.69201 -8.04351 1.38532
internal_weight=0 702 111 48 63
internal_count=733 702 111 48 63
is_linear=0
shrinkage=0.5


Tree=62
num_leaves=6
num_cat=0
split_feature=11 10 21 24 15
split_gain=5244.35 7909.63 7027.09 17581.4 3875.53
threshold=4390.3974609375009 11965.673828125002 31.150000572204593 -96.160999298095689 26.650000572204593
decision_type=2 2 2 2 2
left_child=2 -2 3 -1 -4
right_child=1 -3 4 -5 -6
leaf_value=-2.4541956013248813 -11.92666240533193 -1.1150427224307224 -1.2890928500515579 14.83054297783279 1.3276447545842711
leaf_weight=31 21 87 284 28 282
leaf_count=31 21 87 284 28 282
internal_value=0 -3.2173 0.55595 5.74873 0.0146527
internal_weight=0 108 625 59 566
internal_count=733 108 625 59 566
is_linear=0
shrinkage=0.5


Tree=63
num_leaves=6
num_cat=0
split_feature=23 23 1 3 14
split_gain=5991.86 20837.2 8768.18 8103.67 8609.89
threshold=-95.944999694824205 -95.952499389648423 1019.9713134765626 1.0000000180025095e-35 25.002500534057621
decision_type=2 2 2 2 2
left_child=1 -1 3 -2 -5
right_child=2 -3 -4 4 -6
leaf_value=0.037817351590109689 -6.6588052799925208 14.778124792575836 -10.616358343760172 7.7953741627080104 -4.827574244954369
leaf_weight=585 36 25 30 35 22
leaf_count=585 36 25 30 35 22
internal_value=0 0.641928 -3.18355 -0.785866 2.92336
internal_weight=0 610 123 93 57
internal_count=733 610 123 93 57
is_linear=0
shrinkage=0.5


Tree=64
num_leaves=6
num_cat=0
split_feature=12 23 12 6 6
split_gain=3899.87 16496.8 6289.84 2600.57 2767.69
threshold=-0.49549999833106989 -95.952499389648423 -0.48950000107288355 523237.09375000006 539296.90625000012
decision_type=2 2 2 2 2
left_child=1 -1 -2 -4 -5
right_child=2 -3 3 4 -6
leaf_value=0.10283051831066849 -8.5194401800632473 13.265889222621917 4.1448005636533098 -5.762972480307023 -0.42328201492471018
leaf_weight=497 30 25 24 30 127
leaf_count=497 30 25 24 30 127
internal_value=0 0.733245 -1.814 -0.702601 -1.44361
internal_weight=0 522 211 181 157
internal_count=733 522 211 181 157
is_linear=0
shrinkage=0.5


Tree=65
num_leaves=6
num_cat=0
split_feature=21 7 8 21 8
split_gain=3838.55 3905.88 14989 11866.7 4119.38
threshold=30.550000190734867 3573.2814941406255 13296.168457031252 31.550000190734867 13213.026855468752
decision_type=2 2 2 2 2
left_child=-1 2 4 -3 -2
right_child=1 3 -4 -5 -6
leaf_value=-6.2189778884251909 -0.31173725427692295 12.988698143850673 -12.25064447751412 0.73547890832282836 5.6534000146108863
leaf_weight=24 436 22 26 194 31
leaf_count=24 436 22 26 194 31
internal_value=0 0.210515 -0.566286 1.98349 0.0842355
internal_weight=0 709 493 216 467
internal_count=733 709 493 216 467
is_linear=0
shrinkage=0.5


Tree=66
num_leaves=6
num_cat=0
split_feature=6 16 14 13 19
split_gain=3668.69 14479.9 6303.83 4859.24 3611.11
threshold=612128.40625000012 26.349999427795414 24.993499755859379 45.343999862670906 27.050000190734867
decision_type=2 2 2 2 2
left_child=1 2 -1 -4 -2
right_child=4 -3 3 -5 -6
leaf_value=7.7292125502770599 -0.1434939690407521 14.784627211838961 0.34660028699618667 -8.3700226052176383 -4.5023420210927725
leaf_weight=22 551 20 67 21 52
leaf_count=22 551 20 67 21 52
internal_value=0 2.40913 0.15904 -1.7335 -0.519381
internal_weight=0 130 110 88 603
internal_count=733 130 110 88 603
is_linear=0
shrinkage=0.5


Tree=67
num_leaves=6
num_cat=0
split_feature=13 9 2 18 18
split_gain=3328.6 6256.88 9325.39 9391.45 4946.6
threshold=45.467000961303718 13276.039550781252 4.4849999540019787e-05 25.650000572204593 25.750000000000004
decision_type=2 2 2 2 2
left_child=1 4 -3 -4 -1
right_child=-2 2 3 -5 -6
leaf_value=-0.0187572821858339 4.831123098073637 0.062548625810318684 -3.3218534943812035 -16.976447373628616 4.7161434403350277
leaf_weight=500 34 83 34 20 62
leaf_count=500 34 83 34 20 62
internal_value=0 -0.23499 -3.26482 -8.37911 0.503598
internal_weight=0 699 137 54 562
internal_count=733 699 137 54 562
is_linear=0
shrinkage=0.5


Tree=68
num_leaves=6
num_cat=0
split_feature=21 23 6 21 24
split_gain=2377.99 1559.49 13047.5 10616.8 3601.25
threshold=30.650000572204593 -95.964000701904283 542688.65625000012 31.750000000000004 -97.524501800537095
decision_type=2 2 2 2 2
left_child=-1 4 -3 -4 -2
right_child=1 2 3 -5 -6
leaf_value=4.2855889047345803 -0.34043229864716218 9.8079732003666109 -11.334123902700163 -0.78458619291006138 3.2449671815081342
leaf_weight=31 480 21 33 86 82
leaf_count=31 480 21 33 86 82
internal_value=0 -0.18925 -1.68238 -3.71009 0.182704
internal_weight=0 702 140 119 562
internal_count=733 702 140 119 562
is_linear=0
shrinkage=0.5


Tree=69
num_leaves=6
num_cat=0
split_feature=6 6 7 21 21
split_gain=2686.27 5731.22 11587.1 6294.16 1407.99
threshold=539296.90625000012 605924.96875000012 3494.712524414063 30.650000572204593 30.94999980926514
decision_type=2 2 2 2 2
left_child=-1 2 -2 -3 -5
right_child=1 3 -4 4 -6
leaf_value=-3.2653557478353896 -1.4442787626385689 -8.0502485930919647 14.70223388671875 4.228254447380702 0.06130865574296978
leaf_weight=58 25 24 20 21 585
leaf_count=58 25 24 20 21 585
internal_value=0 0.280579 5.73195 -0.108805 0.205708
internal_weight=0 675 45 630 606
internal_count=733 675 45 630 606
is_linear=0
shrinkage=0.5


Tree=70
num_leaves=6
num_cat=0
split_feature=10 1 13 17 11
split_gain=1904.8 6490.16 3977.53 3485.49 3537.88
threshold=13412.689941406252 1019.9713134765626 45.412000656127937 27.750000000000004 4003.252563476563
decision_type=2 2 2 2 2
left_child=1 2 -1 4 -2
right_child=3 -3 -4 -5 -6
leaf_value=-1.3429181652568412 2.6331970475211337 -8.7495729097953205 5.8651832316232761 5.3401857386617095 -0.53686786209397452
leaf_weight=114 111 26 23 34 425
leaf_count=114 111 26 23 34 425
internal_value=0 -1.50725 -0.132799 0.431022 0.119619
internal_weight=0 163 137 570 536
internal_count=733 163 137 570 536
is_linear=0
shrinkage=0.5


Tree=71
num_leaves=6
num_cat=0
split_feature=6 6 14 12 24
split_gain=2066.17 9120.81 3585.24 8498.26 2596
threshold=605506.34375000012 609235.40625000012 24.993499755859379 -0.48950000107288355 -97.62850189208983
decision_type=2 2 2 2 2
left_child=2 -2 -1 -4 -3
right_child=1 4 3 -5 -6
leaf_value=3.3658116006332897 10.579574617601576 1.025415538945883 -11.105073244955678 0.0022281376170177085 -1.0343288839554354
leaf_weight=23 21 302 26 51 310
leaf_count=23 21 302 26 51 310
internal_value=0 0.333657 -2.11205 -3.74829 -0.0179191
internal_weight=0 633 100 77 612
internal_count=733 633 100 77 612
is_linear=0
shrinkage=0.5


Tree=72
num_leaves=6
num_cat=0
split_feature=21 6 1 21 12
split_gain=2215.89 1861.37 6874.14 6140.64 1491.85
threshold=30.650000572204593 609235.40625000012 1019.9543762207032 31.849999427795414 -0.53849998116493214
decision_type=2 2 2 2 2
left_child=-1 2 3 -2 -3
right_child=1 4 -4 -5 -6
leaf_value=4.1369460782697125 7.6174698017537592 -1.722588508178226 -9.9715561893853266 -2.2860505941013494 0.50992587797343736
leaf_weight=31 20 88 22 72 500
leaf_count=31 20 88 22 72 500
internal_value=0 -0.182686 -2.03176 -0.133111 0.175808
internal_weight=0 702 114 92 588
internal_count=733 702 114 92 588
is_linear=0
shrinkage=0.5


Tree=73
num_leaves=6
num_cat=0
split_feature=19 8 22 22 3
split_gain=1626.5 4830.54 4934.52 2966.03 3247.39
threshold=26.650000572204593 13190.914550781252 41.350000381469734 38.350000381469734 -1.0000000180025095e-35
decision_type=2 2 2 2 2
left_child=1 -1 -3 -2 -5
right_child=3 2 -4 4 -6
leaf_value=0.046908891269961346 -4.0716343048740837 -11.68092069029808 -0.70705404168083552 3.4571394953098924 0.15757493922356111
leaf_weight=154 34 20 21 91 413
leaf_count=154 34 20 21 91 413
internal_value=0 -1.23714 -6.06016 0.448406 0.75333
internal_weight=0 195 41 538 504
internal_count=733 195 41 538 504
is_linear=0
shrinkage=0.5


Tree=74
num_leaves=6
num_cat=0
split_feature=6 12 12 18 3
split_gain=1577.07 16067.3 3236.65 3126.22 1788.44
threshold=605924.96875000012 -0.49549999833106989 -0.48250000178813929 25.750000000000004 1.0000000180025095e-35
decision_type=2 2 2 2 2
left_child=1 -1 -3 4 -2
right_child=3 2 -4 -5 -6
leaf_value=11.789424042249548 -1.8437473566245732 -6.4583701248522161 0.41077453024843907 -4.6927573335798165 0.39848762027356255
leaf_weight=29 109 27 47 38 483
leaf_count=29 109 27 47 38 483
internal_value=0 1.81382 -2.09554 -0.296546 -0.0143563
internal_weight=0 103 74 630 592
internal_count=733 103 74 630 592
is_linear=0
shrinkage=0.5


Tree=75
num_leaves=6
num_cat=0
split_feature=10 13 13 22 21
split_gain=2897.89 3422.73 2647.27 2304.32 6567.32
threshold=11899.188476562502 45.451499938964851 45.322000503540046 38.45000076293946 30.94999980926514
decision_type=2 2 2 2 2
left_child=2 3 -1 -2 -5
right_child=1 -3 -4 4 -6
leaf_value=-1.2106006513820606 -3.5037439350038766 5.8181724420615604 -7.5766881436109541 9.3213805019855496 0.093452516227348972
leaf_weight=89 40 28 20 20 536
leaf_count=89 40 28 20 20 536
internal_value=0 0.415508 -2.37869 0.161692 0.425392
internal_weight=0 624 109 596 556
internal_count=733 624 109 596 556
is_linear=0
shrinkage=0.5


Tree=76
num_leaves=6
num_cat=0
split_feature=11 12 11 3 1
split_gain=2111.11 3432.31 8125.35 4796.5 10948.1
threshold=4306.4331054687509 -0.53849998116493214 3899.767456054688 -1.0000000180025095e-35 255.73789978027347
decision_type=2 2 2 2 2
left_child=1 2 -1 4 -3
right_child=-2 3 -4 -5 -6
leaf_value=0.74092114471817672 -1.1111750493240025 -0.90348016342212412 -9.5525211829405556 0.60042887578883597 13.374541555643082
leaf_weight=73 270 29 26 310 25
leaf_count=73 270 29 26 310 25
internal_value=0 0.647985 -1.96241 1.35795 5.70672
internal_weight=0 463 99 364 54
internal_count=733 463 99 364 54
is_linear=0
shrinkage=0.5


Tree=77
num_leaves=6
num_cat=0
split_feature=6 7 12 8 2
split_gain=1636.7 12907.2 5681.02 1964.57 9448.81
threshold=605924.96875000012 3559.8374023437505 -0.48749999701976771 13612.120117187502 4.8050000259536325e-05
decision_type=2 2 2 2 2
left_child=1 2 -1 -2 -5
right_child=3 -3 -4 4 -6
leaf_value=-7.5119483822158406 0.13498865296924303 9.9997006504598893 1.68255828968471 -0.17168564153297877 -12.038599121570588
leaf_weight=28 506 33 42 104 20
leaf_count=28 506 33 42 104 20
internal_value=0 1.8478 -1.99524 -0.3021 -2.0857
internal_weight=0 103 70 630 124
internal_count=733 103 70 630 124
is_linear=0
shrinkage=0.5


Tree=78
num_leaves=6
num_cat=0
split_feature=6 6 12 21 21
split_gain=2470.71 4189.34 9455.81 4120.97 1420.08
threshold=533491.34375000012 605924.96875000012 -0.49050000309944147 30.849999427795414 31.150000572204593
decision_type=2 2 2 2 2
left_child=-1 2 -2 -3 -5
right_child=1 3 -4 4 -6
leaf_value=-3.6772198122601178 10.292390327299795 -5.3455206859442921 -2.2683496053876548 3.5761575991737433 -0.011382871318971161
leaf_weight=43 31 36 29 29 565
leaf_count=43 31 36 29 29 565
internal_value=0 0.22916 4.22137 -0.15105 0.163766
internal_weight=0 690 60 630 594
internal_count=733 690 60 630 594
is_linear=0
shrinkage=0.5


Tree=79
num_leaves=6
num_cat=0
split_feature=10 6 15 7 8
split_gain=2156.57 9055.48 3273.28 4159.5 2400.66
threshold=13926.041992187502 625805.43750000012 26.550000190734867 3555.379516601563 13233.252441406252
decision_type=2 2 2 2 2
left_child=2 -2 -1 4 -4
right_child=1 -3 3 -5 -6
leaf_value=-5.4545157938390165 10.581532535227863 0.17634972483714187 -0.13963109621575459 -5.3149991639562559 5.3730707602067431
leaf_weight=37 22 422 193 37 22
leaf_count=37 22 422 193 37 22
internal_value=0 0.691922 -1.06302 -0.418239 0.424459
internal_weight=0 444 289 252 215
internal_count=733 444 289 252 215
is_linear=0
shrinkage=0.5


Tree=80
num_leaves=6
num_cat=0
split_feature=14 3 8 17 11
split_gain=1822.83 5815.33 17522.2 4813.89 3358.43
threshold=24.998499870300297 -1.0000000180025095e-35 13190.914550781252 27.750000000000004 4081.817993164063
decision_type=2 2 2 2 2
left_child=1 2 -1 -2 -3
right_child=3 4 -4 -5 -6
leaf_value=3.7106986530125141 0.31171642738531846 2.6875264384494773 -13.544940302448888 7.9269257865168834 -1.0366924406361564
leaf_weight=28 366 87 31 22 199
leaf_count=28 366 87 31 22 199
internal_value=0 -0.836176 -5.35582 0.743507 0.0961993
internal_weight=0 345 59 388 286
internal_count=733 345 59 388 286
is_linear=0
shrinkage=0.5


Tree=81
num_leaves=6
num_cat=0
split_feature=7 8 22 1 16
split_gain=2271.87 7405.74 3552.43 7116.83 4186.3
threshold=3558.0390625000005 13245.099121093752 39.250000000000007 1019.9403076171876 26.050000190734867
decision_type=2 2 2 2 2
left_child=1 -1 3 -2 -4
right_child=2 -3 4 -5 -6
leaf_value=-0.26585640336016136 0.54550461329164956 -9.8917280378795809 3.3718056882416803 11.646635387431491 -1.2198560160217864
leaf_weight=412 42 21 71 22 165
leaf_count=412 42 21 71 22 165
internal_value=0 -0.7327 1.05753 4.36152 0.161534
internal_weight=0 433 300 64 236
internal_count=733 433 300 64 236
is_linear=0
shrinkage=0.5


Tree=82
num_leaves=6
num_cat=0
split_feature=6 23 17 20 24
split_gain=1810.41 5743.91 3101.32 2438.62 1444.59
threshold=606523.90625000012 -95.952499389648423 27.750000000000004 24.050000190734867 -97.709499359130845
decision_type=2 2 2 2 2
left_child=1 3 -2 -1 -5
right_child=2 -3 -4 4 -6
leaf_value=-4.7967083616690198 -0.06520707583262296 7.9085786517324115 -5.1181370075792074 -1.0843538088457925 4.041455623176363
leaf_weight=22 595 29 32 28 27
leaf_count=22 595 29 32 28 27
internal_value=0 1.91112 -0.323092 -0.347665 1.43195
internal_weight=0 106 627 77 55
internal_count=733 106 627 77 55
is_linear=0
shrinkage=0.5


Tree=83
num_leaves=6
num_cat=0
split_feature=2 10 2 15 23
split_gain=1345.08 9782.75 7432.69 2827.01 6141.25
threshold=0.00064499999280087661 14006.683593750002 0.00028149998979642993 26.650000572204593 -97.686500549316392
decision_type=2 2 2 2 2
left_child=2 3 -1 4 -2
right_child=1 -3 -4 -5 -6
leaf_value=0.037277089810231701 0.68643253494767431 -11.568138974905015 9.2384367967429366 1.3019013005441853 -9.2844684130471684
leaf_weight=480 47 20 23 140 23
leaf_count=480 47 20 23 140 23
internal_value=0 -1.00164 0.458006 0.00469399 -2.58972
internal_weight=0 230 503 210 70
internal_count=733 230 503 210 70
is_linear=0
shrinkage=0.5


Tree=84
num_leaves=6
num_cat=0
split_feature=7 20 8 9 21
split_gain=1536.26 5598.31 2879.74 2052.16 2450.46
threshold=3588.0825195312505 23.94999980926514 13542.550781250002 13312.136230468752 30.849999427795414
decision_type=2 2 2 2 2
left_child=2 -2 3 4 -1
right_child=1 -3 -4 -5 -6
leaf_value=-5.4126577513373419 7.404040898046186 -0.084744692969252355 -5.2359811494062685 3.6990543829672262 -0.13172222204803508
leaf_weight=23 31 128 29 33 489
leaf_count=23 31 128 29 33 489
internal_value=0 1.37533 -0.380972 -0.122632 -0.368952
internal_weight=0 159 574 545 512
internal_count=733 159 574 545 512
is_linear=0
shrinkage=0.5


Tree=85
num_leaves=6
num_cat=0
split_feature=21 13 13 21 15
split_gain=1626.42 1491.36 3702.44 1786.88 3586.22
threshold=30.650000572204593 45.427999496459968 45.467000961303718 32.149999618530281 26.94999980926514
decision_type=2 2 2 2 2
left_child=-1 3 -3 4 -2
right_child=1 2 -4 -5 -6
leaf_value=3.5442361639391993 0.5087313406997257 -6.9775028114135447 1.3085016166525227 -0.41958353444476798 7.1418046972248703
leaf_weight=31 135 26 28 489 24
leaf_count=31 135 26 28 489 24
internal_value=0 -0.156512 -2.68106 0.0538668 1.50995
internal_weight=0 702 54 648 159
internal_count=733 702 54 648 159
is_linear=0
shrinkage=0.5


Tree=86
num_leaves=6
num_cat=0
split_feature=14 7 14 14 21
split_gain=890.25 1771.61 7783.76 2898.62 2331.24
threshold=24.990499496459964 3603.015502929688 25.004499435424808 24.999500274658207 30.650000572204593
decision_type=2 2 2 2 2
left_child=-1 4 3 -3 -2
right_child=1 2 -4 -5 -6
leaf_value=-2.324456537190156 -5.4038035415467762 1.5226716846227646 8.8517369071642555 -4.5654906656207705 -0.036786096348739916
leaf_weight=39 21 60 30 29 554
leaf_count=39 21 60 30 29 554
internal_value=0 0.130625 1.88667 -0.461112 -0.232799
internal_weight=0 694 119 89 575
internal_count=733 694 119 89 575
is_linear=0
shrinkage=0.5


Tree=87
num_leaves=6
num_cat=0
split_feature=14 14 10 17 12
split_gain=1476.12 2039.75 6920.15 1681.98 1503.75
threshold=25.006500244140629 25.005499839782718 14054.574707031252 27.750000000000004 -0.46850000321865076
decision_type=2 2 2 2 2
left_child=1 3 -3 4 -1
right_child=-2 2 -4 -5 -6
leaf_value=0.11736000839681526 -1.4866067762760555 -2.1592458417782416 9.747013483358467 -3.2411969241996608 4.4379498958587646
leaf_weight=491 136 26 23 36 21
leaf_count=491 136 26 23 36 21
internal_value=0 0.338658 3.42941 0.0622949 0.294572
internal_weight=0 597 49 548 512
internal_count=733 597 49 548 512
is_linear=0
shrinkage=0.5


Tree=88
num_leaves=6
num_cat=0
split_feature=21 24 24 1 8
split_gain=2014.13 1878.29 1098.85 4034.04 2115.69
threshold=30.650000572204593 -96.083499908447251 -96.11049652099608 507.66065979003912 13526.447265625002
decision_type=2 2 2 2 2
left_child=-1 2 4 -4 -2
right_child=1 -3 3 -5 -6
leaf_value=3.9441128572629345 0.29854227017269147 -4.2635093176806418 -2.4837834264921104 6.6916553592681884 -1.9241083926745575
leaf_weight=31 490 27 23 25 137
leaf_count=31 490 27 23 25 137
internal_value=0 -0.17417 -0.0105967 2.29509 -0.187109
internal_weight=0 702 675 48 627
internal_count=733 702 675 48 627
is_linear=0
shrinkage=0.5


Tree=89
num_leaves=6
num_cat=0
split_feature=6 12 12 21 10
split_gain=1377.98 4884.15 2222.04 1787.77 1158.97
threshold=606523.90625000012 -0.49549999833106989 -0.48450000584125513 30.650000572204593 11628.146484375002
decision_type=2 2 2 2 2
left_child=1 -1 -3 -2 -5
right_child=3 2 -4 4 -6
leaf_value=6.8285464143846184 -4.5138688758015633 -4.5192215846230583 1.3336816328763961 -3.8559799939393997 0.014950606425246463
leaf_weight=32 24 24 50 20 583
leaf_count=32 24 24 50 20 583
internal_value=0 1.66732 -0.564557 -0.281876 -0.113438
internal_weight=0 106 74 627 603
internal_count=733 106 74 627 603
is_linear=0
shrinkage=0.5


Tree=90
num_leaves=6
num_cat=0
split_feature=21 6 6 1 8
split_gain=1833.75 1168.76 4579.17 2786.78 695.719
threshold=30.650000572204593 542688.65625000012 605924.96875000012 14.156749725341799 13871.652832031252
decision_type=2 2 2 2 2
left_child=-1 3 -3 -2 -4
right_child=1 2 4 -5 -6
leaf_value=3.7633620558246488 -1.3845906746573746 -6.1045401439522253 -0.23565054459309359 5.2671517278217985 1.5449236513833042
leaf_weight=31 32 33 545 31 61
leaf_count=31 32 33 545 31 61
internal_value=0 -0.166188 -0.368762 1.88849 -0.0564178
internal_weight=0 702 639 63 606
internal_count=733 702 639 63 606
is_linear=0
shrinkage=0.5


Tree=91
num_leaves=6
num_cat=0
split_feature=13 21 15 6 22
split_gain=1122.47 2694.39 2214.2 4187.25 1556.67
threshold=45.377000808715827 30.94999980926514 26.94999980926514 625805.43750000012 39.350000381469734
decision_type=2 2 2 2 2
left_child=1 -1 -2 -4 -3
right_child=2 4 3 -5 -6
leaf_value=4.6625997649900839 2.3438142517517351 -1.499441308004938 -9.0462210118770603 -0.78780469421833532 0.45707036128384576
leaf_weight=33 29 131 20 66 454
leaf_count=33 29 131 20 66 454
internal_value=0 0.266908 -1.43434 -2.70837 0.0189455
internal_weight=0 618 115 86 585
internal_count=733 618 115 86 585
is_linear=0
shrinkage=0.5


Tree=92
num_leaves=6
num_cat=0
split_feature=6 10 1 6 21
split_gain=1045.29 5347.6 3003.57 2438.79 2260.4
threshold=605924.96875000012 11899.188476562502 1019.9187622070314 538510.90625000012 30.650000572204593
decision_type=2 2 2 2 2
left_child=1 2 3 -1 -2
right_child=4 -3 -4 -5 -6
leaf_value=-1.7982807914415995 -5.0005060980717344 6.843107714317739 -6.1351255074143412 5.2271413682472136 -0.052947746472980325
leaf_weight=30 24 32 20 21 606
leaf_count=30 24 32 20 21 606
internal_value=0 1.47668 -0.941985 1.09454 -0.241426
internal_weight=0 103 71 51 630
internal_count=733 103 71 51 630
is_linear=0
shrinkage=0.5


Tree=93
num_leaves=6
num_cat=0
split_feature=21 23 1 6 1
split_gain=1288.11 1141.96 2591.16 4489.25 2082.12
threshold=30.650000572204593 -95.964000701904283 1019.9543762207032 634088.31250000012 507.66864013671881
decision_type=2 2 2 2 2
left_child=-1 -2 4 -4 -3
right_child=1 2 3 -5 -6
leaf_value=3.1541519956362825 0.17900430004061049 -1.2595283136599593 -9.6486799175089057 0.34183538737504376 4.2050285909486851
leaf_weight=31 562 72 22 23 23
leaf_count=31 562 72 22 23 23
internal_value=0 -0.139286 -1.41699 -4.54242 0.0634697
internal_weight=0 702 140 45 95
internal_count=733 702 140 45 95
is_linear=0
shrinkage=0.5


Tree=94
num_leaves=6
num_cat=0
split_feature=1 2 1 8 1
split_gain=1025.55 5021.18 3908.06 2233.88 1461.54
threshold=1019.9403076171876 0.00064499999280087661 4936.4987792968759 13328.121582031252 1013.7810668945314
decision_type=2 2 2 2 2
left_child=4 -2 -3 -4 -1
right_child=1 2 3 -5 -6
leaf_value=-0.08625875773753458 6.0446491195605354 -6.4495781687172977 -0.39385528076672927 3.8469276971569877 -2.7158086525897187
leaf_weight=443 39 22 128 41 60
leaf_count=443 39 22 128 41 60
internal_value=0 0.874614 -0.181048 0.634974 -0.399923
internal_weight=0 230 191 169 503
internal_count=733 230 191 169 503
is_linear=0
shrinkage=0.5


Tree=95
num_leaves=6
num_cat=0
split_feature=6 6 9 21 20
split_gain=1204.92 2767.29 4734.67 1572.03 1255.23
threshold=540109.09375000012 605924.96875000012 12998.420410156252 30.849999427795414 24.150000572204593
decision_type=2 2 2 2 2
left_child=4 2 -2 -3 -1
right_child=1 3 -4 -5 -6
leaf_value=-4.590060642787388 9.6906672969460494 -3.2771120038297443 -0.93883940035646607 0.12560434072507351 -0.038488568681659119
leaf_weight=28 20 36 22 594 33
leaf_count=28 20 36 22 594 33
internal_value=0 0.193143 4.12283 -0.0688366 -2.12773
internal_weight=0 672 42 630 61
internal_count=733 672 42 630 61
is_linear=0
shrinkage=0.5


Tree=96
num_leaves=6
num_cat=0
split_feature=21 7 17 8 23
split_gain=1251.27 2942.89 3248.23 3853.27 2424.35
threshold=32.250000000000007 3607.137084960938 27.750000000000004 13206.253417968752 -97.463001251220689
decision_type=2 2 2 2 2
left_child=1 2 3 4 -1
right_child=-2 -3 -4 -5 -6
leaf_value=1.2613747574518932 -0.44174608884834743 5.7699331188674217 -5.1601692400872707 5.0358237077792483 -3.2043850404467991
leaf_weight=86 503 28 24 45 47
leaf_count=86 503 28 24 45 47
internal_value=0 0.966079 0.300199 1.03643 -0.316751
internal_weight=0 230 202 178 133
internal_count=733 230 202 178 133
is_linear=0
shrinkage=0.5


Tree=97
num_leaves=6
num_cat=0
split_feature=8 6 8 6 13
split_gain=1283.57 4007.07 2763.57 6681.04 1945.08
threshold=13658.352050781252 707193.03125000012 13561.941406250002 607154.59375000012 45.45899963378907
decision_type=2 2 2 2 2
left_child=2 -2 4 -4 -1
right_child=1 -3 3 -5 -6
leaf_value=0.18982655255092404 -7.7630364781334285 -0.17855242186901615 10.945308881998063 -0.77614279139426445 -4.0859835560633133
leaf_weight=531 21 102 20 31 28
leaf_count=531 21 102 20 31 28
internal_value=0 -1.47346 0.297108 3.8205 -0.0243464
internal_weight=0 123 610 51 559
internal_count=733 123 610 51 559
is_linear=0
shrinkage=0.5


Tree=98
num_leaves=6
num_cat=0
split_feature=19 7 13 8 1
split_gain=1026.66 4664.24 2498.38 1278.13 5015.78
threshold=27.050000190734867 3599.3520507812505 45.388999938964851 13526.447265625002 1019.9635009765626
decision_type=2 2 2 2 2
left_child=3 2 -2 -1 -5
right_child=1 -3 -4 4 -6
leaf_value=0.17664353801135688 -4.2945840126276016 8.2744205258786678 2.7741949954628944 -0.26423235078372304 -8.4562985571947973
leaf_weight=517 25 20 25 124 22
leaf_count=517 25 20 25 124 22
internal_value=0 1.82112 -0.760195 -0.192276 -1.49865
internal_weight=0 70 50 663 146
internal_count=733 70 50 663 146
is_linear=0
shrinkage=0.5


Tree=99
num_leaves=6
num_cat=0
split_feature=17 10 11 18 11
split_gain=1180.35 7471.69 1010.19 2334.75 4345.18
threshold=27.750000000000004 14054.574707031252 4003.252563476563 25.550000190734867 4281.7419433593759
decision_type=2 2 2 2 2
left_child=2 -2 -1 4 -4
right_child=1 -3 3 -5 -6
leaf_value=0.87289242322955818 -3.1369180432879009 9.7176224738359451 -8.5955284436543788 -0.17523692541049216 0.91891103610396385
leaf_weight=175 26 20 24 464 24
leaf_count=175 26 20 24 464 24
internal_value=0 2.45201 -0.164181 -0.51865 -3.83831
internal_weight=0 46 687 512 48
internal_count=733 46 687 512 48
is_linear=0
shrinkage=0.5


end of trees

feature_importances:
Column_21=77
Column_6=64
Column_1=46
Column_8=37
Column_12=25
Column_13=25
Column_2=23
Column_7=23
Column_10=22
Column_22=19
Column_17=18
Column_11=16
Column_9=15
Column_14=15
Column_23=14
Column_18=11
Column_24=11
Column_3=8
Column_15=8
Column_20=8
Column_16=7
Column_19=6
Column_4=1
Column_5=1

parameters:
[boosting: gbdt]
[objective: regression]
[metric: l1]
[tree_learner: serial]
[device_type: cpu]
[data: ]
[valid: ]
[num_iterations: 100]
[learning_rate: 0.5]
[num_leaves: 6]
[num_threads: 0]
[deterministic: 0]
[force_col_wise: 0]
[force_row_wise: 0]
[histogram_pool_size: -1]
[max_depth: 6]
[min_data_in_leaf: 20]
[min_sum_hessian_in_leaf: 0.001]
[bagging_fraction: 0.7]
[pos_bagging_fraction: 1]
[neg_bagging_fraction: 1]
[bagging_freq: 0]
[bagging_seed: 400]
[feature_fraction: 0.7]
[feature_fraction_bynode: 1]
[feature_fraction_seed: 30056]
[extra_trees: 0]
[extra_seed: 12879]
[early_stopping_round: 0]
[first_metric_only: 0]
[max_delta_step: 0]
[lambda_l1: 0]
[lambda_l2: 0]
[linear_lambda: 0]
[min_gain_to_split: 0]
[drop_rate: 0.8]
[max_drop: 50]
[skip_drop: 0.8]
[xgboost_dart_mode: 0]
[uniform_drop: 0]
[drop_seed: 17869]
[top_rate: 0.2]
[other_rate: 0.1]
[min_data_per_group: 100]
[max_cat_threshold: 32]
[cat_l2: 10]
[cat_smooth: 10]
[max_cat_to_onehot: 4]
[top_k: 20]
[monotone_constraints: ]
[monotone_constraints_method: basic]
[monotone_penalty: 0]
[feature_contri: ]
[forcedsplits_filename: ]
[refit_decay_rate: 0.9]
[cegb_tradeoff: 1]
[cegb_penalty_split: 0]
[cegb_penalty_feature_lazy: ]
[cegb_penalty_feature_coupled: ]
[path_smooth: 0]
[interaction_constraints: ]
[verbosity: 1]
[saved_feature_importance_type: 0]
[linear_tree: 0]
[max_bin: 255]
[max_bin_by_feature: ]
[min_data_in_bin: 3]
[bin_construct_sample_cnt: 200000]
[data_random_seed: 175]
[is_enable_sparse: 1]
[enable_bundle: 1]
[use_missing: 1]
[zero_as_missing: 0]
[feature_pre_filter: 1]
[pre_partition: 0]
[two_round: 0]
[header: 0]
[label_column: ]
[weight_column: ]
[group_column: ]
[ignore_column: ]
[categorical_feature: ]
[forcedbins_filename: ]
[precise_float_parser: 0]
[objective_seed: 16083]
[num_class: 1]
[is_unbalance: 0]
[scale_pos_weight: 1]
[sigmoid: 1]
[boost_from_average: 1]
[reg_sqrt: 0]
[alpha: 0.9]
[fair_c: 1]
[poisson_max_delta_step: 0.7]
[tweedie_variance_power: 1.5]
[lambdarank_truncation_level: 30]
[lambdarank_norm: 1]
[label_gain: ]
[eval_at: ]
[multi_error_top_k: 1]
[auc_mu_weights: ]
[num_machines: 1]
[local_listen_port: 12400]
[time_out: 120]
[machine_list_filename: ]
[machines: ]
[gpu_platform_id: -1]
[gpu_device_id: -1]
[gpu_use_dp: 0]
[num_gpu: 1]

end of parameters

pandas_categorical:null
