tree
version=v3
num_class=1
num_tree_per_iteration=1
label_index=0
max_feature_idx=24
objective=regression
feature_names=Column_0 Column_1 Column_2 Column_3 Column_4 Column_5 Column_6 Column_7 Column_8 Column_9 Column_10 Column_11 Column_12 Column_13 Column_14 Column_15 Column_16 Column_17 Column_18 Column_19 Column_20 Column_21 Column_22 Column_23 Column_24
feature_infos=[1:200] [9.6354999542236328:10001.138671875] [2.0600000425474718e-05:0.071199998259544373] [-110250:110250] [-110250:110250] [-1514:-1500] [27413.599609375:891620.6875] [962.21502685546875:3783.802978515625] [1046.031005859375:14591.265625] [1102.8590087890625:13930.2470703125] [1456.342041015625:16048.3212890625] [1098.2850341796875:4498.72705078125] [-0.67000001668930054:0.27399998903274536] [44.854999542236328:45.7239990234375] [24.972999572753906:25.024999618530273] [26.200000762939453:27.299999237060547] [25.799999237060547:26.600000381469727] [26.899999618530273:27.899999618530273] [25.399999618530273:26.100000381469727] [26.399999618530273:27.200000762939453] [23.700000762939453:24.700000762939453] [30:35.299999237060547] [36.900001525878906:43.599998474121094] [-97.952003479003906:-95.740997314453125] [-98.0989990234375:-95.902999877929688]
tree_sizes=659 653 637 674 669 674 651 659 651 654 652 664 650 661 671 661 663 654 666 665 672 657 663 676 651 669 646 669 663 653 670 658 655 666 664 661 641 671 671 674 662 647 668 654 643 670 679 668 668 669 672 663 674 663 671 683 670 661 677 668 658 654 659 661 655 679 671 666 661 668 653 668 680 674 662 665 658 658 666 655 669 672 658 662 660 676 679 662 679 667 697 664 655 675 669 654 661 668 682 677

Tree=0
num_leaves=6
num_cat=0
split_feature=3 2 3 2 2
split_gain=9824.02 13959.8 3525.73 10874.3 2032.51
threshold=70375.000000000015 0.0014550000196322801 -71374.999999999985 0.0015049999929033222 5.9449999753269374e-05
decision_type=2 2 2 2 2
left_child=2 4 3 -1 -2
right_child=1 -3 -4 -5 -6
leaf_value=0.4148279502707492 -0.20932634333878655 -8.2997646088190855 0.022248793866581049 6.7223693387951009 -2.2462338966610207
leaf_weight=506 290 77 21124 79 212
leaf_count=506 290 77 21124 79 212
internal_value=0.00156881 -2.03107 0.0557812 1.26662 -1.06953
internal_weight=0 579 21709 585 502
internal_count=22288 579 21709 585 502
is_linear=0
shrinkage=1


Tree=1
num_leaves=6
num_cat=0
split_feature=1 3 1 8 1
split_gain=5206.68 2358.14 3489.96 1273.19 1038.09
threshold=9988.0439453125018 70375.000000000015 4937.3039550781259 11475.912597656252 257.05139160156256
decision_type=2 2 2 2 2
left_child=1 3 4 -1 -3
right_child=-2 2 -4 -5 -6
leaf_value=-0.58280239557392299 2.8420116100460291 0.13362000753443523 -4.1506662244920607 0.031283199716466197 -1.3081144416792709
leaf_weight=880 160 269 77 20669 233
leaf_count=880 160 269 77 20669 233
internal_value=0 -0.0205496 -1.01632 0.00620569 -0.535552
internal_weight=0 22128 579 21549 502
internal_count=22288 22128 579 21549 502
is_linear=0
shrinkage=0.5


Tree=2
num_leaves=6
num_cat=0
split_feature=4 2 1 1 1
split_gain=2608.89 6137.5 1784.52 1264.27 1227.6
threshold=-69124.999999999985 0.00020249999943189326 9988.0439453125018 4927.5585937500009 9992.6069335937518
decision_type=2 2 2 2 2
left_child=1 -1 3 -3 -2
right_child=4 2 -4 -5 -6
leaf_value=-0.30106637482168624 -0.035197955308137928 2.6186197655541554 1.0259726217814855 5.4331309042478866 1.9393944574307791
leaf_weight=345 21627 84 77 76 79
leaf_count=345 21627 84 77 76 79
internal_value=0 1.0447 3.00372 3.95551 -0.0280113
internal_weight=0 582 237 160 21706
internal_count=22288 582 237 160 21706
is_linear=0
shrinkage=0.5


Tree=3
num_leaves=6
num_cat=0
split_feature=4 2 3 2 9
split_gain=652.222 1542.98 729.613 2121.12 480.277
threshold=-69124.999999999985 0.00019549999706214297 1.0000000180025095e-35 0.00062850001268088828 9902.0937500000018
decision_type=2 2 2 2 2
left_child=1 -1 4 -4 -2
right_child=2 -3 3 -5 -6
leaf_value=-0.15482231530599122 -0.50372351477748123 1.5011171055879413 0.0081402311583188437 -1.2481809403614128 0.024506747742709306
leaf_weight=344 440 238 1261 458 19547
leaf_count=344 440 238 1261 458 19547
internal_value=0 0.522349 -0.0140057 -0.326586 0.0128781
internal_weight=0 582 21706 1719 19987
internal_count=22288 582 21706 1719 19987
is_linear=0
shrinkage=0.5


Tree=4
num_leaves=6
num_cat=0
split_feature=12 1 0 0 1
split_gain=431.996 500.139 310.995 328.378 550.986
threshold=-0.62950000166892994 17.55990028381348 2.5000000000000004 5.5000000000000009 4924.9729003906259
decision_type=2 2 2 2 2
left_child=1 -1 -2 4 -4
right_child=2 -3 3 -5 -6
leaf_value=0.018983339577155652 -0.24460339564911754 0.61007389495696374 0.053006275263875358 -0.025042869226727622 0.67758314747708648
leaf_weight=874 1418 606 1710 17235 445
leaf_count=874 1418 606 1710 17235 445
internal_value=0 0.261011 -0.0185648 -0.00203448 0.181979
internal_weight=0 1480 20808 19390 2155
internal_count=22288 1480 20808 19390 2155
is_linear=0
shrinkage=0.5


Tree=5
num_leaves=6
num_cat=0
split_feature=11 10 2 11 1
split_gain=160.318 228.137 171.828 144.561 123.716
threshold=2862.544555664063 11655.850097656252 0.00080849998630583297 3820.0969238281255 9992.6069335937518
decision_type=2 2 2 2 2
left_child=-1 2 -2 -3 -5
right_child=1 3 -4 4 -6
leaf_value=-0.23480366396205971 0.28502800738912804 -0.69222808140632397 -0.023886977892937904 -0.0083181266741725549 0.61865229659442655
leaf_weight=704 1224 77 712 19492 79
leaf_count=704 1224 77 712 19492 79
internal_value=0 0.00765853 0.171419 -0.00847745 -0.00578731
internal_weight=0 21584 1936 19648 19571
internal_count=22288 21584 1936 19648 19571
is_linear=0
shrinkage=0.5


Tree=6
num_leaves=6
num_cat=0
split_feature=0 2 7 11 0
split_gain=100.663 232.399 165.821 124.167 249.782
threshold=2.5000000000000004 5.9449999753269374e-05 3376.921508789063 4472.8349609375009 4.5000000000000009
decision_type=2 2 2 2 2
left_child=1 2 -1 -2 -5
right_child=3 -3 -4 4 -6
leaf_value=-1.0048188788421226 0.0058349322910354641 -0.3087180854380131 0.14413559806546791 1.2709611748056164 -0.099157941521694645
leaf_weight=33 20670 800 649 58 78
leaf_count=33 20670 800 649 58 78
internal_value=0 -0.125904 0.088541 0.00896806 0.485158
internal_weight=0 1482 682 20806 136
internal_count=22288 1482 682 20806 136
is_linear=0
shrinkage=0.5


Tree=7
num_leaves=6
num_cat=0
split_feature=8 8 1 0 4
split_gain=61.6926 64.6325 1031.81 240.58 180.089
threshold=11216.390625000002 12454.619628906252 509.73445129394537 66.500000000000014 -69124.999999999985
decision_type=2 2 2 2 2
left_child=-1 2 -2 -4 -3
right_child=1 4 3 -5 -6
leaf_value=-0.29485522011633625 0.0096125642939046217 0.27989265872052921 1.5162851984302204 0.019538025653949291 -0.02214297781198192
leaf_weight=176 5192 509 144 33 16234
leaf_count=176 5192 509 144 33 16234
internal_value=0 0.00234689 0.0500835 1.23723 -0.0129609
internal_weight=0 22112 5369 177 16743
internal_count=22288 22112 5369 177 16743
is_linear=0
shrinkage=0.5


Tree=8
num_leaves=6
num_cat=0
split_feature=12 11 0 11 0
split_gain=81.2977 45.2223 75.3407 90.8959 41.1214
threshold=-0.64149999618530262 2952.9489746093755 10.500000000000002 2807.651489257813 3.5000000000000004
decision_type=2 2 2 2 2
left_child=4 2 3 -2 -1
right_child=1 -3 -4 -5 -6
leaf_value=-0.282560179153314 0.58999076406160988 -0.0014966840131211254 -0.19145286301576978 -0.17853480011896714 0.17579002735557045
leaf_weight=52 75 20570 682 79 830
leaf_count=52 75 20570 682 79 830
internal_value=0 -0.00612971 -0.120127 0.195747 0.148767
internal_weight=0 21406 836 154 882
internal_count=22288 21406 836 154 882
is_linear=0
shrinkage=0.5


Tree=9
num_leaves=6
num_cat=0
split_feature=0 11 1 4 1
split_gain=42.2576 228.895 238.515 894.297 174.679
threshold=3.5000000000000004 4209.9851074218759 9982.9663085937518 69125.000000000015 4937.3039550781259
decision_type=2 2 2 2 2
left_child=1 2 3 4 -1
right_child=-2 -3 -4 -5 -6
leaf_value=-0.027079289528326347 0.0072085601271407096 0.043145746779599613 0.1795192081831716 -2.1013234592463874 -0.76623312011361122
leaf_weight=325 20086 1512 186 73 106
leaf_count=325 20086 1512 186 73 106
internal_value=0 -0.0657544 -0.304388 -0.482972 -0.208867
internal_weight=0 2202 690 504 431
internal_count=22288 2202 690 504 431
is_linear=0
shrinkage=0.5


Tree=10
num_leaves=6
num_cat=0
split_feature=1 1 4 1 7
split_gain=30.1231 124.916 35.0726 656.302 149.222
threshold=9992.6069335937518 9988.0439453125018 -69124.999999999985 4927.5585937500009 3429.757934570313
decision_type=2 2 2 2 2
left_child=1 2 3 4 -1
right_child=-2 -3 -4 -5 -6
leaf_value=-0.70613037741609985 0.30626268815249202 -0.62476739585399632 -0.0018905814432897132 1.4856545172239606 0.037001860681735652
leaf_weight=84 80 80 21623 76 345
leaf_count=84 80 80 21623 76 345
internal_value=0 -0.00110325 0.0011515 0.131407 -0.108507
internal_weight=0 22208 22128 505 429
internal_count=22288 22208 22128 505 429
is_linear=0
shrinkage=0.5


Tree=11
num_leaves=6
num_cat=0
split_feature=11 8 1 0 1
split_gain=22.7367 24.2224 156.741 70.6365 53.9152
threshold=2749.277954101563 11984.104003906252 512.35763549804699 43.500000000000007 18.001300811767582
decision_type=2 2 2 2 2
left_child=-1 2 3 4 -2
right_child=1 -3 -4 -5 -6
leaf_value=-0.17900135377898219 0.039523807633803858 -0.0046686688142733917 1.2230706640652247 -0.067254754073097472 0.24096379195490317
leaf_weight=176 1094 19472 28 1041 477
leaf_count=176 1094 19472 28 1041 477
internal_value=0 0.00142476 0.0463684 0.0337544 0.100687
internal_weight=0 22112 2640 2612 1571
internal_count=22288 22112 2640 2612 1571
is_linear=0
shrinkage=0.5


Tree=12
num_leaves=6
num_cat=0
split_feature=3 9 8 19 6
split_gain=18.8527 148.084 99.9489 66.0016 29.8187
threshold=70375.000000000015 12519.989746093752 13409.522460937502 26.849999427795414 827976.15625000012
decision_type=2 2 2 2 2
left_child=-1 4 3 -3 -2
right_child=1 2 -4 -5 -6
leaf_value=0.0023748771907116948 0.38732634192508469 -0.31735801035288852 0.034600402325710662 -0.92827816704909005 -0.079353377968072888
leaf_weight=21709 143 168 163 60 45
leaf_count=21709 143 168 163 60 45
internal_value=0 -0.0890435 -0.264381 -0.478126 0.275621
internal_weight=0 579 391 228 188
internal_count=22288 579 391 228 188
is_linear=0
shrinkage=0.5


Tree=13
num_leaves=6
num_cat=0
split_feature=1 20 1 1 1
split_gain=9.80039 16.9555 7.44687 31.4034 8.04834
threshold=13.886350154876711 24.050000190734867 9992.6069335937518 9988.0439453125018 9986.4897460937518
decision_type=2 2 2 2 2
left_child=1 -1 3 4 -2
right_child=2 -3 -4 -5 -6
leaf_value=-0.46846819544831914 0.0020166461729057717 -0.041689927958368379 0.15427824837970547 -0.31123680863529446 0.15992550124172811
leaf_weight=24 21255 768 80 80 81
leaf_count=24 21255 768 80 80 81
internal_value=0 -0.0546226 0.00201252 0.00144373 0.00261613
internal_weight=0 792 21496 21416 21336
internal_count=22288 792 21496 21416 21336
is_linear=0
shrinkage=0.5


Tree=14
num_leaves=6
num_cat=0
split_feature=12 11 2 0 0
split_gain=11.7101 10.3795 45.8636 34.6759 20.6965
threshold=-0.46349999308586115 3163.744018554688 0.00066650001099333178 49.500000000000007 50.500000000000007
decision_type=2 2 2 2 2
left_child=1 2 3 -1 -4
right_child=-2 -3 4 -5 -6
leaf_value=0.26141198521683778 -0.12294780837479873 -0.0026084304032305897 0.021944437085168921 0.011471769180692112 -0.10924994013750905
leaf_weight=329 192 19815 1323 240 389
leaf_count=329 192 19815 1323 240 389
internal_value=0 0.00106834 0.0330083 0.155989 -0.0078655
internal_weight=0 22096 2281 569 1712
internal_count=22288 22096 2281 569 1712
is_linear=0
shrinkage=0.5


Tree=15
num_leaves=6
num_cat=0
split_feature=0 2 1 1 0
split_gain=8.2176 75.3644 217.912 47.995 59.095
threshold=3.5000000000000004 7.5149997428525253e-05 512.35763549804699 9969.7475585937518 2.5000000000000004
decision_type=2 2 2 2 2
left_child=1 2 -1 4 -3
right_child=-2 3 -4 -5 -6
leaf_value=0.0046582243148963528 0.0031788408341332157 -0.097572072251369393 0.92722363594700308 0.065142143312018799 -0.39558668173987122
leaf_weight=1090 20086 558 68 249 237
leaf_count=1090 20086 558 68 249 237
internal_value=0 -0.0289965 0.058833 -0.126417 -0.186414
internal_weight=0 2202 1158 1044 795
internal_count=22288 2202 1158 1044 795
is_linear=0
shrinkage=0.5


Tree=16
num_leaves=6
num_cat=0
split_feature=1 7 4 1 4
split_gain=7.2531 150.585 59.3243 80.2204 40.7958
threshold=509.73445129394537 3424.394409179688 -19124.999999999996 9988.0439453125018 69125.000000000015
decision_type=2 2 2 2 2
left_child=-1 -2 3 -3 -4
right_child=1 2 4 -5 -6
leaf_value=-0.0071096269904190176 0.40442836198959214 0.49158137883333597 -0.00057039376415291292 -0.14710480650257948 -0.21465959404818877
leaf_weight=13747 237 136 7862 77 229
leaf_count=13747 237 136 7862 77 229
internal_value=0 0.0114432 0.000227181 0.260695 -0.00662977
internal_weight=0 8541 8304 213 8091
internal_count=22288 8541 8304 213 8091
is_linear=0
shrinkage=0.5


Tree=17
num_leaves=6
num_cat=0
split_feature=10 1 6 6 3
split_gain=8.07392 43.8125 7.74766 6.34572 6.18001
threshold=15316.544921875002 508.73014831542974 653829.93750000012 862264.65625000012 107125.00000000001
decision_type=2 2 2 2 2
left_child=3 -2 -3 4 -1
right_child=1 2 -4 -5 -6
leaf_value=0.0012207736118927061 -0.50825326727703213 0.28622115338626114 -0.02121419718357774 -0.13373359014954547 0.20303384253853246
leaf_weight=21902 50 23 188 87 38
leaf_count=21902 50 23 188 87 38
internal_value=0 -0.0874247 0.0122977 0.0010359 0.00157031
internal_weight=0 261 211 22027 21940
internal_count=22288 261 211 22027 21940
is_linear=0
shrinkage=0.5


Tree=18
num_leaves=6
num_cat=0
split_feature=6 12 4 24 24
split_gain=5.23351 6.00852 5.80966 4.70771 5.79631
threshold=523704.68750000006 -0.48149999976158137 69125.000000000015 -96.021999359130845 -97.778999328613267
decision_type=2 2 2 2 2
left_child=-1 -2 3 4 -3
right_child=1 2 -4 -5 -6
leaf_value=0.034355368285559962 -0.00017872686159094029 -0.16908306857714286 0.18383905198425055 -0.17777435732164626 -0.022614391259810959
leaf_weight=1056 20552 78 26 72 504
leaf_count=1056 20552 78 26 72 504
internal_value=0 -0.00170871 -0.0479501 -0.057165 -0.0422442
internal_weight=0 21232 680 654 582
internal_count=22288 21232 680 654 582
is_linear=0
shrinkage=0.5


Tree=19
num_leaves=6
num_cat=0
split_feature=1 3 9 1 3
split_gain=5.09566 12.7828 5.04411 52.1959 45.8278
threshold=9985.9213867187518 5000.0000000000009 12534.434570312502 4927.5585937500009 -71374.999999999985
decision_type=2 2 2 2 2
left_child=2 -2 3 4 -1
right_child=1 -3 -4 -5 -6
leaf_value=-0.33973118525076035 0.020187066749666627 0.27541967240326543 -0.0083440178762660602 0.42272585034370425 0.0077065427470700398
leaf_weight=96 1287 51 12414 75 8365
leaf_count=96 1287 51 12414 75 8365
internal_value=0 0.0299157 -0.0019106 0.00744558 0.00376445
internal_weight=0 1338 20950 8536 8461
internal_count=22288 1338 20950 8536 8461
is_linear=0
shrinkage=0.5


Tree=20
num_leaves=6
num_cat=0
split_feature=0 2 1 2 4
split_gain=7.22385 5.65741 19.5412 32.1566 18.2382
threshold=62.500000000000007 0.0015949999797157945 4927.5585937500009 0.0014550000196322801 69125.000000000015
decision_type=2 2 2 2 2
left_child=1 2 -1 -4 -5
right_child=-2 -3 3 4 -6
leaf_value=-0.010367458347477492 0.0088963809203995506 -0.044089845811083855 0.30444575010848635 -0.021814212210674901 0.39943964087537359
leaf_weight=9496 11275 1046 131 312 28
leaf_count=9496 11275 1046 131 312 28
internal_value=0 -0.00910803 -0.00543681 0.0939717 0.0128773
internal_weight=0 11013 9967 471 340
internal_count=22288 11013 9967 471 340
is_linear=0
shrinkage=0.5


Tree=21
num_leaves=6
num_cat=0
split_feature=3 1 0 1 0
split_gain=4.88683 18.1705 56.9035 24.9268 19.6944
threshold=1.0000000180025095e-35 218.82845306396487 2.5000000000000004 113.55504989624025 1.5000000000000002
decision_type=2 2 2 2 2
left_child=-1 2 3 -2 -5
right_child=1 -3 -4 4 -6
leaf_value=0.0024998824495657416 0.10629715724227329 -0.052050357579602267 -0.084835584217609603 0.52072232773032368 -0.024053335536293508
leaf_weight=20007 225 1567 389 79 21
leaf_count=20007 225 1567 389 79 21
internal_value=0 -0.0219269 0.0441845 0.198612 0.406319
internal_weight=0 2281 714 325 100
internal_count=22288 2281 714 325 100
is_linear=0
shrinkage=0.5


Tree=22
num_leaves=6
num_cat=0
split_feature=6 7 4 8 4
split_gain=4.01689 10.434 7.82285 9.60437 6.04098
threshold=653829.93750000012 3271.3049316406255 -69124.999999999985 13409.522460937502 -1.0000000180025095e-35
decision_type=2 2 2 2 2
left_child=2 -2 3 -1 -4
right_child=1 -3 4 -5 -6
leaf_value=0.015026404423018296 -0.1819352808116691 -0.0031312490790229184 -0.084974784858613497 0.28868901623146875 0.011250949159025301
leaf_weight=75 82 16310 168 56 5597
leaf_count=75 82 16310 168 56 5597
internal_value=0 -0.00402571 0.0111922 0.132012 0.0084468
internal_weight=0 16392 5896 131 5765
internal_count=22288 16392 5896 131 5765
is_linear=0
shrinkage=0.5


Tree=23
num_leaves=6
num_cat=0
split_feature=3 1 2 3 11
split_gain=3.54459 3.06751 8.00706 19.2774 15.2356
threshold=107125.00000000001 9985.8901367187518 0.0014049999881535771 70375.000000000015 2787.9589843750005
decision_type=2 2 2 2 2
left_child=1 2 4 -4 -1
right_child=-2 -3 3 -5 -6
leaf_value=0.28238645136783208 0.15257761840659537 0.021458613997538272 -0.023288620889986164 -0.27949778561468247 0.00033672109339423842
leaf_weight=48 38 1515 1578 77 19032
leaf_count=48 38 1515 1578 77 19032
internal_value=0 -0.000260582 -0.00184749 -0.0352089 0.00104628
internal_weight=0 22250 20735 1655 19080
internal_count=22288 22250 20735 1655 19080
is_linear=0
shrinkage=0.5


Tree=24
num_leaves=6
num_cat=0
split_feature=11 0 11 0 0
split_gain=2.47928 10.841 22.4944 13.095 7.2291
threshold=2929.445434570313 10.500000000000002 2807.651489257813 24.500000000000004 2.5000000000000004
decision_type=2 2 2 2 2
left_child=1 2 -1 -3 -4
right_child=-2 3 4 -5 -6
leaf_value=0.29447876129831585 0.0012266378226544179 -0.15233746390944969 -0.16434496800866327 -0.013130498742563671 0.050855892002582552
leaf_weight=77 21144 225 64 678 100
leaf_count=77 21144 225 64 678 100
internal_value=0 -0.0226714 0.0715451 -0.0478166 -0.0331249
internal_weight=0 1144 241 903 164
internal_count=22288 1144 241 903 164
is_linear=0
shrinkage=0.5


Tree=25
num_leaves=6
num_cat=0
split_feature=4 13 0 12 9
split_gain=3.18469 2.64681 3.21833 6.87143 7.18711
threshold=-105874.99999999999 45.361000061035163 50.500000000000007 -0.55649998784065235 10344.851562500002
decision_type=2 2 2 2 2
left_child=-1 -2 3 4 -3
right_child=1 2 -4 -5 -6
leaf_value=0.14095598263666034 -0.0018434545668494697 0.010138028122879483 -0.041908607130385557 0.0032751620920514401 0.13104314647551457
leaf_weight=40 20505 230 196 1053 264
leaf_count=40 20505 230 196 1053 264
internal_value=0 -0.000253427 0.018452 0.0260995 0.0747513
internal_weight=0 22248 1743 1547 494
internal_count=22288 22248 1743 1547 494
is_linear=0
shrinkage=0.5


Tree=26
num_leaves=6
num_cat=0
split_feature=8 1 3 3 1
split_gain=2.2635 4.12338 3.20434 3.38938 2.7433
threshold=13901.853027343752 255.42095184326175 -19124.999999999996 5000.0000000000009 256.04930114746099
decision_type=2 2 2 2 2
left_child=-1 -2 -3 -4 -5
right_child=1 2 3 4 -6
leaf_value=-0.0016569759463734165 -0.13445625222391552 0.1260992627479692 0.010895017327415947 0.20391238569503739 0.019753690512003139
leaf_weight=20113 45 67 1982 42 39
leaf_count=20113 45 67 1982 42 39
internal_value=0 0.0153226 0.018487 0.0149921 0.115243
internal_weight=0 2175 2130 2063 81
internal_count=22288 2175 2130 2063 81
is_linear=0
shrinkage=0.5


Tree=27
num_leaves=6
num_cat=0
split_feature=0 0 4 1 11
split_gain=2.34141 3.3683 12.2723 15.6371 21.5488
threshold=110.50000000000001 2.5000000000000004 1.0000000180025095e-35 508.73014831542974 3908.578491210938
decision_type=2 2 2 2 2
left_child=1 2 -1 -4 -5
right_child=-2 -3 3 4 -6
leaf_value=-0.03251403758795951 0.0074331047348763623 -0.0059955793795837499 -0.0040339474065694955 -0.052427450348077727 0.20885150820944773
leaf_weight=648 7181 13625 450 111 273
leaf_count=648 7181 13625 450 111 273
internal_value=0 -0.00353327 0.0191043 0.0592107 0.133326
internal_weight=0 15107 1482 834 384
internal_count=22288 15107 1482 834 384
is_linear=0
shrinkage=0.5


Tree=28
num_leaves=6
num_cat=0
split_feature=11 1 0 0 0
split_gain=2.62522 15.986 12.3747 12.0838 14.8167
threshold=3826.546997070313 18.434299468994144 46.500000000000007 30.500000000000004 33.500000000000007
decision_type=2 2 2 2 2
left_child=1 2 3 -1 -5
right_child=-2 -3 -4 4 -6
leaf_value=-0.016769636244299783 -0.0021368025670368837 0.074277730997455368 -0.067453083419518195 0.2494004061538726 0.036538769616916919
leaf_weight=1014 19296 800 630 100 448
leaf_count=1014 19296 800 630 100 448
internal_value=0 0.0137807 -0.00829856 0.0155602 0.0753821
internal_weight=0 2992 2192 1562 548
internal_count=22288 2992 2192 1562 548
is_linear=0
shrinkage=0.5


Tree=29
num_leaves=6
num_cat=0
split_feature=18 11 20 11 1
split_gain=2.02941 3.35628 3.44088 4.54688 2.62307
threshold=25.94999980926514 4334.2910156250009 24.550000190734867 2916.0729980468755 13.619400024414064
decision_type=2 2 2 2 2
left_child=4 2 -2 -4 -1
right_child=1 -3 3 -5 -6
leaf_value=-0.087104524564479521 0.011034090344764991 0.22621056623756886 0.010072606477748465 0.31629128415476193 -0.00060226105665510247
leaf_weight=88 794 20 27 22 21337
leaf_count=88 794 20 27 22 21337
internal_value=0 0.0237725 0.0189697 0.147559 -0.000957556
internal_weight=0 863 843 49 21425
internal_count=22288 863 843 49 21425
is_linear=0
shrinkage=0.5


Tree=30
num_leaves=6
num_cat=0
split_feature=0 0 3 8 1
split_gain=1.66297 2.92825 9.36734 2.45613 46.8759
threshold=21.500000000000004 22.500000000000004 -1.0000000180025095e-35 12540.997070312502 509.73445129394537
decision_type=2 2 2 2 2
left_child=3 2 -2 4 -1
right_child=1 -3 -4 -5 -6
leaf_value=-0.016257631961530634 -0.011554933858773087 0.0021077858421398375 0.29383970610797405 -0.013291278626919287 0.2687741788421924
leaf_weight=1657 83 15935 36 4419 158
leaf_count=1657 83 15935 36 4419 158
internal_value=0 0.00269134 0.0808334 -0.00693082 0.00855505
internal_weight=0 16054 119 6234 1815
internal_count=22288 16054 119 6234 1815
is_linear=0
shrinkage=0.5


Tree=31
num_leaves=6
num_cat=0
split_feature=11 0 23 6 2
split_gain=3.09782 9.18935 5.96792 5.01677 2.17987
threshold=4472.8349609375009 4.5000000000000009 -95.860000610351548 662590.18750000012 5.0650000048335648e-05
decision_type=2 2 2 2 2
left_child=4 2 3 -2 -1
right_child=1 -3 -4 -5 -6
leaf_value=0.0087238181359371187 -0.094500213033623159 0.06002932412024492 0.01189344171434641 -0.37795874154245529 -0.0024837348589218065
leaf_weight=5927 27 78 30 37 16189
leaf_count=5927 27 78 30 37 16189
internal_value=0 -0.0668424 -0.172119 -0.258375 0.000519845
internal_weight=0 172 94 64 22116
internal_count=22288 172 94 64 22116
is_linear=0
shrinkage=0.5


Tree=32
num_leaves=6
num_cat=0
split_feature=0 1 1 1 1
split_gain=1.7795 7.69567 11.2367 9.07829 8.35908
threshold=2.5000000000000004 114.32324981689455 113.55504989624025 9985.8461914062518 16.351699829101566
decision_type=2 2 2 2 2
left_child=1 2 4 -3 -1
right_child=-2 3 -4 -5 -6
leaf_value=0.093297144012212174 -0.0011923763231754645 -0.017025430697912947 0.23195081168849921 0.23207008985704497 -0.058077000742502459
leaf_weight=228 20806 977 87 38 152
leaf_count=228 20806 977 87 38 152
internal_value=0 0.0167399 0.0698582 -0.00769969 0.0327475
internal_weight=0 1482 467 1015 380
internal_count=22288 1482 467 1015 380
is_linear=0
shrinkage=0.5


Tree=33
num_leaves=6
num_cat=0
split_feature=6 0 7 8 0
split_gain=2.09661 6.41278 9.10548 17.6623 10.4525
threshold=653829.93750000012 5.5000000000000009 3281.7475585937505 12423.666015625002 4.5000000000000009
decision_type=2 2 2 2 2
left_child=-1 2 -2 4 -4
right_child=1 -3 3 -5 -6
leaf_value=0.0080859334308429221 -0.15206937252336905 0.001399206245203279 0.14729350570069497 -0.032703181438157057 -0.16775859367723267
leaf_weight=5896 135 13778 215 2234 30
leaf_count=5896 135 13778 215 2234 30
internal_value=0 -0.00290841 -0.0256132 -0.0187267 0.108716
internal_weight=0 16392 2614 2479 245
internal_count=22288 16392 2614 2479 245
is_linear=0
shrinkage=0.5


Tree=34
num_leaves=6
num_cat=0
split_feature=0 3 9 10 1
split_gain=1.99827 12.9505 7.92827 9.3014 5.80733
threshold=2.5000000000000004 -1.0000000180025095e-35 13190.416992187502 13748.237792968752 1013.7439575195314
decision_type=2 2 2 2 2
left_child=1 4 3 -3 -1
right_child=-2 2 -4 -5 -6
leaf_value=0.053508336534038407 -0.0012635453877296997 -0.04546470044640033 -0.080748485272220269 0.056520052235928125 0.20083318889976062
leaf_weight=158 20806 365 266 577 116
leaf_count=158 20806 365 266 577 116
internal_value=0 0.0177391 -0.00452123 0.0170037 0.115879
internal_weight=0 1482 1208 942 274
internal_count=22288 1482 1208 942 274
is_linear=0
shrinkage=0.5


Tree=35
num_leaves=6
num_cat=0
split_feature=1 3 1 18 10
split_gain=2.02644 1.9429 19.6435 15.1752 9.91041
threshold=9992.6069335937518 -19124.999999999996 218.82845306396487 25.849999427795414 13660.959960937502
decision_type=2 2 2 2 2
left_child=1 2 3 -1 -4
right_child=-2 -3 4 -5 -6
leaf_value=-0.23358229957274254 0.079434828436933461 0.00048376336129731982 -0.06712674298994914 0.0093119705369255311 0.11728460308153925
leaf_weight=151 80 21622 111 112 212
leaf_count=151 80 21622 111 112 212
internal_value=0 -0.000286149 -0.0286941 -0.130144 0.053911
internal_weight=0 22208 586 263 323
internal_count=22288 22208 586 263 323
is_linear=0
shrinkage=0.5


Tree=36
num_leaves=6
num_cat=0
split_feature=19 21 0 8 9
split_gain=1.52088 1.8763 2.73289 2.11714 1.51838
threshold=26.550000190734867 33.750000000000007 9.5000000000000018 11443.815429687502 9796.8867187500018
decision_type=2 2 2 2 2
left_child=1 2 3 -1 -4
right_child=-2 -3 4 -5 -6
leaf_value=0.24270495941693132 -0.00073547952069476924 -0.086317172118248672 -0.07129271918624315 0.0668293623844851 0.023611120122232692
leaf_weight=22 21603 37 46 77 503
leaf_count=22 21603 37 46 77 503
internal_value=0 0.023195 0.029448 0.105913 0.0156593
internal_weight=0 685 648 99 549
internal_count=22288 685 648 99 549
is_linear=0
shrinkage=0.5


Tree=37
num_leaves=6
num_cat=0
split_feature=3 4 13 1 12
split_gain=1.31608 1.27424 1.25932 3.7748 1.16207
threshold=107125.00000000001 105875.00000000001 45.707000732421882 18.001300811767582 -0.62950000166892994
decision_type=2 2 2 2 2
left_child=1 2 4 -4 -1
right_child=-2 -3 3 -5 -6
leaf_value=-0.014168459828444198 0.092971208064179675 0.090140027412323825 -0.019277175226689952 0.24908660454675555 0.00045016637113859631
leaf_weight=1455 38 39 38 20 20698
leaf_count=1455 38 39 38 20 20698
internal_value=0 -0.000158782 -0.000317337 0.0732621 -0.000509979
internal_weight=0 22250 22211 58 22153
internal_count=22288 22250 22211 58 22153
is_linear=0
shrinkage=0.5


Tree=38
num_leaves=6
num_cat=0
split_feature=1 1 1 9 9
split_gain=1.20098 8.35118 7.18043 4.50407 2.79931
threshold=257.05139160156256 507.43075561523443 504.30316162109381 12219.220703125002 12281.298339843752
decision_type=2 2 2 2 2
left_child=-1 2 -2 -3 -5
right_child=1 3 -4 4 -6
leaf_value=0.0036838423206017007 -0.010719011064131999 0.17977343631141326 -0.2127039564524735 -0.078440494004947445 -0.0016526869707324155
leaf_weight=11103 88 34 88 120 10855
leaf_count=11103 88 34 88 120 10855
internal_value=0 -0.00365684 -0.111711 -0.00192937 -0.00249228
internal_weight=0 11185 176 11009 10975
internal_count=22288 11185 176 11009 10975
is_linear=0
shrinkage=0.5


Tree=39
num_leaves=6
num_cat=0
split_feature=8 4 1 24 2
split_gain=1.01067 2.06972 1.02237 9.56159 7.8356
threshold=14084.099609375002 -19124.999999999996 9985.7055664062518 -97.825000762939439 0.0015349999885074796
decision_type=2 2 2 2 2
left_child=2 -2 4 -4 -1
right_child=1 -3 3 -5 -6
leaf_value=0.00010987419857331025 0.18549165949225427 0.018104537075947724 -0.01252122911376608 0.056272260977122096 -0.061976940353477721
leaf_weight=19188 20 241 1573 744 522
leaf_count=19188 20 241 1573 744 522
internal_value=0 0.0309311 -0.000366506 0.0095687 -0.00153443
internal_weight=0 261 22027 2317 19710
internal_count=22288 261 22027 2317 19710
is_linear=0
shrinkage=0.5


Tree=40
num_leaves=6
num_cat=0
split_feature=8 0 1 8 0
split_gain=2.03841 7.58366 6.92055 5.38267 4.79284
threshold=11475.912597656252 9.5000000000000018 16.14634990692139 11530.630859375002 29.500000000000004
decision_type=2 2 2 2 2
left_child=1 -1 4 -2 -3
right_child=3 2 -4 -5 -6
leaf_value=0.14451241449543598 -0.08804979691922199 -0.061746513225852603 0.10330793086033897 -0.00024762742813717046 0.026180197593395987
leaf_weight=113 176 307 147 21232 313
leaf_count=113 176 307 147 21232 313
internal_value=0 0.0235845 0.00576856 -0.000969469 -0.0173577
internal_weight=0 880 767 21408 620
internal_count=22288 880 767 21408 620
is_linear=0
shrinkage=0.5


Tree=41
num_leaves=6
num_cat=0
split_feature=2 4 9 11 9
split_gain=1.34842 2.30068 1.54598 1.6838 1.54296
threshold=0.0016349999932572248 69125.000000000015 9692.8173828125018 3820.0969238281255 12576.228027343752
decision_type=2 2 2 2 2
left_child=-1 2 -2 4 -4
right_child=1 -3 3 -5 -6
leaf_value=-0.00039274098045454729 -0.057627817338451424 0.19209457730705087 0.026738229877082631 -0.038391775069443572 0.1446341238155657
leaf_weight=22063 47 22 64 43 49
leaf_count=22063 47 22 64 43 49
internal_value=0 0.0385113 0.0218668 0.0458171 0.0778612
internal_weight=0 225 203 156 113
internal_count=22288 225 203 156 113
is_linear=0
shrinkage=0.5


Tree=42
num_leaves=6
num_cat=0
split_feature=2 3 11 2 2
split_gain=1.30283 1.15547 5.5953 6.13432 8.03405
threshold=0.0017349999980069699 21375.000000000004 4364.7895507812509 0.0014550000196322801 7.7349999628495439e-05
decision_type=2 2 2 2 2
left_child=1 -1 3 4 -3
right_child=-2 2 -4 -5 -6
leaf_value=-0.00074393787772037768 0.12448014080014434 0.022304344208541695 -0.076477059202599687 -0.087911297047099504 0.16864342779400898
leaf_weight=21613 21 324 121 77 132
leaf_count=21613 21 324 121 77 132
internal_value=0 -0.000117397 0.0205881 0.0426236 0.0646657
internal_weight=0 22267 654 533 456
internal_count=22288 22267 654 533 456
is_linear=0
shrinkage=0.5


Tree=43
num_leaves=6
num_cat=0
split_feature=7 4 1 1 1
split_gain=1.16143 1.39057 39.7445 104.338 15.5518
threshold=3148.3239746093755 19125.000000000004 1019.9175415039064 9983.6098632812518 218.82845306396487
decision_type=2 2 2 2 2
left_child=-1 -2 4 -4 -3
right_child=1 2 3 -5 -6
leaf_value=0.057327858344334265 0.00045783710776575297 -0.038163809517095443 -0.67725690097024993 0.15445321975037074 0.1393916240009947
leaf_weight=88 21554 262 73 78 233
leaf_count=88 21554 262 73 78 233
internal_value=0 -0.000227246 -0.0230853 -0.247632 0.0454128
internal_weight=0 22200 646 151 495
internal_count=22288 22200 646 151 495
is_linear=0
shrinkage=0.5


Tree=44
num_leaves=6
num_cat=0
split_feature=11 8 0 24 13
split_gain=1.10161 3.83914 1.75974 3.78221 1.29647
threshold=4472.8349609375009 12433.333984375002 5.5000000000000009 -96.09099960327147 45.403999328613288
decision_type=2 2 2 2 2
left_child=-1 -2 3 -3 -5
right_child=1 2 -4 4 -6
leaf_value=0.00030999806656743664 -0.22999065401761429 -0.19269174407236278 0.055668065200249355 -0.069579341651304902 0.084124819512533797
leaf_weight=22116 23 32 60 23 34
leaf_count=22116 23 32 60 23 34
internal_value=0 -0.03986 -0.010511 -0.055126 0.0221038
internal_weight=0 172 149 89 57
internal_count=22288 172 149 89 57
is_linear=0
shrinkage=0.5


Tree=45
num_leaves=6
num_cat=0
split_feature=13 8 9 1 4
split_gain=0.946737 1.25987 1.30178 1.06719 1.81623
threshold=45.267000198364265 11216.390625000002 9796.8867187500018 13.703249931335451 -69124.999999999985
decision_type=2 2 2 2 2
left_child=3 -2 -3 4 -1
right_child=1 2 -4 -5 -6
leaf_value=0.090001849314341173 0.097817715591727153 -0.092942439339822158 0.0084915541972891868 -0.00082833061971639772 -0.050090713705590352
leaf_weight=26 39 32 2741 19240 210
leaf_count=26 39 32 2741 19240 210
internal_value=0 0.00857613 0.00732102 -0.00123825 -0.0346568
internal_weight=0 2812 2773 19476 236
internal_count=22288 2812 2773 19476 236
is_linear=0
shrinkage=0.5


Tree=46
num_leaves=6
num_cat=0
split_feature=0 13 15 2 10
split_gain=0.856539 1.05743 0.93796 1.13689 2.12397
threshold=145.50000000000003 44.943000793457038 26.650000572204593 0.0010050000273622575 13646.738769531252
decision_type=2 2 2 2 2
left_child=2 -2 3 -1 -5
right_child=1 -3 -4 4 -6
leaf_value=-0.0026458415207298845 0.073332057173909809 0.0053682086490535012 0.0023172328718486651 -0.01389274663260761 -0.10926770681580224
leaf_weight=8092 58 4321 8400 1356 61
leaf_count=8092 58 4321 8400 1356 61
internal_value=0 0.00626839 -0.00153271 -0.00493365 -0.0179985
internal_weight=0 4379 17909 9509 1417
internal_count=22288 4379 17909 9509 1417
is_linear=0
shrinkage=0.5


Tree=47
num_leaves=6
num_cat=0
split_feature=3 1 3 11 1
split_gain=1.1647 0.926796 3.24854 2.10963 0.982857
threshold=-108124.99999999999 9988.0439453125018 1.0000000180025095e-35 3820.0969238281255 4924.7668457031259
decision_type=2 2 2 2 2
left_child=-1 4 -3 -4 -2
right_child=1 2 3 -5 -6
leaf_value=0.088637059239821653 -0.0013989303431382939 0.034076657644296182 0.0089370530734483433 -0.16390427967364138 0.0074153217663743085
leaf_weight=37 18266 79 26 55 3825
leaf_count=37 18266 79 26 55 3825
internal_value=0 -0.00014739 -0.0380645 -0.108424 0.000127235
internal_weight=0 22251 160 81 22091
internal_count=22288 22251 160 81 22091
is_linear=0
shrinkage=0.5


Tree=48
num_leaves=6
num_cat=0
split_feature=12 7 7 12 0
split_gain=0.799421 1.0759 1.01779 0.979434 17.1436
threshold=-0.65549999475479115 3206.2465820312505 3186.4384765625005 -0.62950000166892994 50.500000000000007
decision_type=2 2 2 2 2
left_child=1 2 -1 4 -2
right_child=3 -3 -4 -5 -6
leaf_value=-0.016002485927726542 0.0059876899573739284 0.0013673009060878765 0.11307190206883076 0.00055011669920239966 -0.18294371470614379
leaf_weight=21 1155 114 56 20808 134
leaf_count=21 1155 114 56 20808 134
internal_value=0 0.0322086 0.0778698 -0.000278402 -0.013653
internal_weight=0 191 77 22097 1289
internal_count=22288 191 77 22097 1289
is_linear=0
shrinkage=0.5


Tree=49
num_leaves=6
num_cat=0
split_feature=11 0 0 10 0
split_gain=1.02817 3.94781 4.8749 4.99228 2.90881
threshold=3820.0969238281255 40.500000000000007 30.500000000000004 9956.8344726562518 10.500000000000002
decision_type=2 2 2 2 2
left_child=1 2 3 4 -1
right_child=-2 -3 -4 -5 -6
leaf_value=0.029316636869332776 -0.0012448316519157656 -0.014193207440080407 0.075034763536113755 0.074130636367529715 -0.027698138247944485
leaf_weight=356 19648 1068 374 240 602
leaf_count=356 19648 1068 374 240 602
internal_value=0 0.00926457 0.0252015 0.00964424 -0.00651102
internal_weight=0 2640 1572 1198 958
internal_count=22288 2640 1572 1198 958
is_linear=0
shrinkage=0.5


Tree=50
num_leaves=6
num_cat=0
split_feature=12 0 20 12 1
split_gain=1.35207 3.86804 2.61092 2.25428 5.05445
threshold=-0.64149999618530262 35.500000000000007 24.550000190734867 -0.60050001740455616 18.679900169372562
decision_type=2 2 2 2 2
left_child=1 2 -1 4 -2
right_child=3 -3 -4 -5 -6
leaf_value=0.0098035790827866141 0.012752381148854113 -0.081335445146004742 -0.085270203850197457 -0.00048729083743599385 0.1383658859061164
leaf_weight=605 1164 195 82 20156 86
leaf_count=605 1164 195 82 20156 86
internal_value=0 -0.0191853 -0.00154438 0.000790498 0.0213946
internal_weight=0 882 687 21406 1250
internal_count=22288 882 687 21406 1250
is_linear=0
shrinkage=0.5


Tree=51
num_leaves=6
num_cat=0
split_feature=2 1 4 0 23
split_gain=0.852734 11.7647 3.32654 3.06324 2.568
threshold=0.00095349998446181427 4927.5585937500009 69125.000000000015 4.5000000000000009 -95.868000030517564
decision_type=2 2 2 2 2
left_child=1 -1 4 -3 -2
right_child=2 3 -4 -5 -6
leaf_value=0.00034467876761021721 -0.010377321120808934 0.060841645960780705 0.09412366036267486 0.21576179309110893 0.10723256406577383
leaf_weight=18308 3722 55 80 76 47
leaf_count=18308 3722 55 80 76 47
internal_value=0 0.00141301 -0.00676918 0.150719 -0.00891071
internal_weight=0 18439 3849 131 3769
internal_count=22288 18439 3849 131 3769
is_linear=0
shrinkage=0.5


Tree=52
num_leaves=6
num_cat=0
split_feature=0 12 1 24 0
split_gain=1.5033 4.32376 4.42447 3.31353 2.94249
threshold=5.5000000000000009 -0.52750000357627858 4923.9736328125009 -97.763500213623033 3.5000000000000004
decision_type=2 2 2 2 2
left_child=1 3 4 -1 -3
right_child=-2 2 -4 -5 -6
leaf_value=-0.084560530058089375 0.0018237524174302927 0.010601085799341211 0.091548124534012967 -0.019733647367470825 -0.024028798491417192
leaf_weight=271 18616 1521 129 723 1028
leaf_count=271 18616 1521 129 723 1028
internal_value=0 -0.00924591 0.001207 -0.0374078 -0.00336499
internal_weight=0 3672 2678 994 2549
internal_count=22288 3672 2678 994 2549
is_linear=0
shrinkage=0.5


Tree=53
num_leaves=6
num_cat=0
split_feature=1 1 16 0 10
split_gain=0.764442 7.20222 3.56705 5.02893 2.38992
threshold=9985.1860351562518 9982.9663085937518 26.250000000000004 6.5000000000000009 13929.392578125002
decision_type=2 2 2 2 2
left_child=1 -1 -2 -4 -3
right_child=2 4 3 -5 -6
leaf_value=8.086972744477247e-05 0.0032794138606249829 -0.116751848751433 -0.0069947828032812217 0.17030649262633693 -0.015055067958391467
leaf_weight=19619 2247 176 81 79 86
leaf_count=19619 2247 176 81 79 86
internal_value=0 -0.00101889 0.00841565 0.0805477 -0.0833705
internal_weight=0 19881 2407 160 262
internal_count=22288 19881 2407 160 262
is_linear=0
shrinkage=0.5


Tree=54
num_leaves=6
num_cat=0
split_feature=22 13 12 7 0
split_gain=0.521905 1.19196 1.2345 1.09799 1.37202
threshold=41.149999618530281 45.134000778198249 -0.47650000452995295 3190.5939941406255 17.500000000000004
decision_type=2 2 2 2 2
left_child=-1 2 -2 4 -3
right_child=1 3 -4 -5 -6
leaf_value=0.0017472081528924319 0.00093459202011601523 -0.15217814489927453 0.099478356009058189 -0.0094133021422425269 -0.024375082321161503
leaf_weight=14649 4654 30 32 2853 70
leaf_count=14649 4654 30 32 2853 70
internal_value=0 -0.00335055 0.00160753 -0.0112183 -0.062716
internal_weight=0 7639 4686 2953 100
internal_count=22288 7639 4686 2953 100
is_linear=0
shrinkage=0.5


Tree=55
num_leaves=6
num_cat=0
split_feature=7 1 12 12 12
split_gain=0.555488 4.85111 2.84669 2.81097 4.29439
threshold=3229.9204101562505 18.126299858093265 -0.62950000166892994 -0.62950000166892994 -0.62149998545646656
decision_type=2 2 2 2 2
left_child=1 -1 -3 -2 -5
right_child=3 2 -4 4 -6
leaf_value=-0.00041729990441063714 -0.042829621267495413 0.035359183699862719 0.16301412790522185 0.10292377148534167 -0.00043609052922717763
leaf_weight=1577 389 111 72 101 20038
leaf_count=1577 389 111 72 101 20038
internal_value=0 0.00852489 0.0855841 -0.000730895 8.22741e-05
internal_weight=0 1760 183 20528 20139
internal_count=22288 1760 183 20528 20139
is_linear=0
shrinkage=0.5


Tree=56
num_leaves=6
num_cat=0
split_feature=3 10 2 8 4
split_gain=0.50474 0.507898 5.42992 12.3914 1.95395
threshold=107125.00000000001 14621.228515625002 7.7349999628495439e-05 13409.522460937502 69125.000000000015
decision_type=2 2 2 2 2
left_child=1 -1 4 -4 -3
right_child=-2 2 3 -5 -6
leaf_value=0.00092957731052707747 0.057576011817314122 -0.0055985090388214311 0.068067152053117752 -0.4700616031885147 0.062434479095427042
leaf_weight=18774 38 3324 23 20 109
leaf_count=18774 38 3324 23 20 109
internal_value=0 -9.83321e-05 -0.00565011 -0.182225 -0.00343842
internal_weight=0 22250 3476 43 3433
internal_count=22288 22250 3476 43 3433
is_linear=0
shrinkage=0.5


Tree=57
num_leaves=6
num_cat=0
split_feature=3 3 6 0 3
split_gain=0.689758 0.427058 2.91798 10.0963 3.22229
threshold=-108124.99999999999 21375.000000000004 727670.00000000012 2.5000000000000004 107125.00000000001
decision_type=2 2 2 2 2
left_child=-1 -2 4 -4 -3
right_child=1 2 3 -5 -6
leaf_value=0.068211364887050679 -0.00049460570112676457 -0.0049089399242032671 0.022829806210758058 0.38881620124448091 -0.16810624822563328
leaf_weight=37 21597 274 326 20 34
leaf_count=37 21597 274 326 20 34
internal_value=0 -0.000113425 0.0124743 0.0439851 -0.0229242
internal_weight=0 22251 654 346 308
internal_count=22288 22251 654 346 308
is_linear=0
shrinkage=0.5


Tree=58
num_leaves=6
num_cat=0
split_feature=3 1 0 7 9
split_gain=1.06234 0.451395 0.532539 2.52272 2.31201
threshold=107125.00000000001 9992.6069335937518 5.5000000000000009 3174.849975585938 12955.396484375002
decision_type=2 2 2 2 2
left_child=1 2 3 -1 -5
right_child=-2 -3 -4 4 -6
leaf_value=0.074064284207755307 0.083529421324400527 0.037347846015836697 0.00079278512106195056 -0.019992274651186828 0.0059563881697241331
leaf_weight=96 38 80 18616 1874 1584
leaf_count=96 38 80 18616 1874 1584
internal_value=0 -0.000142657 -0.000277941 -0.00588645 -0.00810602
internal_weight=0 22250 22170 3554 3458
internal_count=22288 22250 22170 3554 3458
is_linear=0
shrinkage=0.5


Tree=59
num_leaves=6
num_cat=0
split_feature=0 3 10 9 18
split_gain=0.532959 3.59855 3.44669 3.74869 2.47633
threshold=2.5000000000000004 -1.0000000180025095e-35 13444.152343750002 12629.482910156252 25.750000000000004
decision_type=2 2 2 2 2
left_child=1 -1 -3 -4 -5
right_child=-2 2 3 4 -6
leaf_value=0.060894189917407658 -0.00065254607344437325 -0.049140550069881841 0.050629359156683727 -0.00751387688410253 -0.182724653521464
leaf_weight=274 20806 299 380 508 21
leaf_count=274 20806 299 380 508 21
internal_value=0 0.00916118 -0.00257296 0.0127447 -0.0144693
internal_weight=0 1482 1208 909 529
internal_count=22288 1482 1208 909 529
is_linear=0
shrinkage=0.5


Tree=60
num_leaves=6
num_cat=0
split_feature=1 0 13 0 12
split_gain=0.570767 1.60086 1.57529 0.795402 0.715386
threshold=13.664649963378908 4.5000000000000009 45.118999481201179 7.5000000000000009 -0.50450000166892994
decision_type=2 2 2 2 2
left_child=1 2 -1 -3 -5
right_child=-2 3 -4 4 -6
leaf_value=0.0095190610603562431 0.00032052096138920455 0.049455449750114767 -0.12355315659317326 -0.0048987317484274579 -0.10477928898762912
leaf_weight=35 21936 63 61 173 20
leaf_count=35 21936 63 61 173 20
internal_value=0 -0.0199743 -0.0750372 0.000674324 -0.015249
internal_weight=0 352 96 256 193
internal_count=22288 352 96 256 193
is_linear=0
shrinkage=0.5


Tree=61
num_leaves=6
num_cat=0
split_feature=3 11 0 24 1
split_gain=0.664708 0.390432 1.77848 3.21168 2.33626
threshold=107125.00000000001 4472.8349609375009 4.5000000000000009 -96.006500244140611 512.35763549804699
decision_type=2 2 2 2 2
left_child=1 -1 3 4 -3
right_child=-2 2 -4 -5 -6
leaf_value=7.2024641955182548e-05 0.066072859213148288 -0.21456620016354411 0.031971922932335965 0.10761926230043173 -0.036296799432602708
leaf_weight=22078 38 34 78 20 40
leaf_count=22078 38 34 78 20 40
internal_value=0 -0.000112843 -0.0238426 -0.0701568 -0.118204
internal_weight=0 22250 172 94 74
internal_count=22288 22250 172 94 74
is_linear=0
shrinkage=0.5


Tree=62
num_leaves=6
num_cat=0
split_feature=1 3 3 18 1
split_gain=0.534418 1.16953 0.696865 4.51974 3.6112
threshold=12.676650047302248 107125.00000000001 70375.000000000015 25.750000000000004 18.979800224304203
decision_type=2 2 2 2 2
left_child=1 -1 -2 4 -4
right_child=2 -3 3 -5 -6
leaf_value=-0.0097147509588122946 -0.00023028361893678333 -0.12114988271579412 0.11066846453508183 0.21727333689988074 -0.0092018925399856236
leaf_weight=148 21561 28 73 27 451
leaf_count=148 21561 28 73 27 451
internal_value=0 -0.0274431 0.000218432 0.017777 0.0074976
internal_weight=0 176 22112 551 524
internal_count=22288 176 22112 551 524
is_linear=0
shrinkage=0.5


Tree=63
num_leaves=6
num_cat=0
split_feature=1 8 3 11 4
split_gain=0.501708 3.75251 3.17268 3.53261 2.58907
threshold=113.04414749145509 12988.078613281252 -71374.999999999985 4311.4721679687509 -69124.999999999985
decision_type=2 2 2 2 2
left_child=1 -1 3 -3 -4
right_child=-2 2 4 -5 -6
leaf_value=0.0016683110587403529 0.0015105706630112532 -0.065642631754784256 -0.11438218950449179 -0.30880150720477106 -0.015919371208536946
leaf_weight=5361 15858 59 72 20 918
leaf_count=5361 15858 59 72 20 918
internal_value=0 -0.00372545 -0.030775 -0.127202 -0.0230803
internal_weight=0 6430 1069 79 990
internal_count=22288 6430 1069 79 990
is_linear=0
shrinkage=0.5


Tree=64
num_leaves=6
num_cat=0
split_feature=3 1 10 23 9
split_gain=0.536232 3.76144 2.72257 3.5003 1.61294
threshold=-71374.999999999985 114.32324981689455 13537.460937500002 -95.922000885009751 13098.270019531252
decision_type=2 2 2 2 2
left_child=1 -1 -3 -4 -5
right_child=-2 2 3 4 -6
leaf_value=-0.044249810541615538 -0.00040265114074239025 -0.019841441820277188 0.096730672635442008 0.061574940857965318 -0.11675855596695328
leaf_weight=184 21703 123 225 21 32
leaf_count=184 21703 123 225 21 32
internal_value=0 0.014938 0.0420965 0.0695007 -0.0460981
internal_weight=0 585 401 278 53
internal_count=22288 585 401 278 53
is_linear=0
shrinkage=0.5


Tree=65
num_leaves=6
num_cat=0
split_feature=3 13 19 22 24
split_gain=0.589779 0.449389 0.760305 0.843224 0.708539
threshold=-108124.99999999999 45.252000808715827 26.550000190734867 38.95000076293946 -96.69250106811522
decision_type=2 2 2 2 2
left_child=-1 4 3 -3 -2
right_child=1 2 -4 -5 -6
leaf_value=0.063074379240640924 -0.00064562490762146965 0.12419783519137473 0.0026240633450546639 0.020940551989795862 -0.024266255235021225
leaf_weight=37 18589 21 2980 338 323
leaf_count=37 18589 21 2980 338 323
internal_value=0 -0.000104883 0.00524282 0.0269807 -0.00104904
internal_weight=0 22251 3339 359 18912
internal_count=22288 22251 3339 359 18912
is_linear=0
shrinkage=0.5


Tree=66
num_leaves=6
num_cat=0
split_feature=4 9 9 9 10
split_gain=0.441416 0.687388 0.446601 1.86915 1.86318
threshold=105875.00000000001 9692.8173828125018 9902.0937500000018 9852.7592773437518 9003.7797851562518
decision_type=2 2 2 2 2
left_child=1 -1 3 -3 -4
right_child=-2 2 4 -5 -6
leaf_value=-0.04470814009923637 0.053147331821188949 -0.0032880976593305327 -0.071209554846459272 0.080855294935397323 9.5594857394890254e-05
leaf_weight=86 39 264 92 88 21719
leaf_count=86 39 264 92 88 21719
internal_value=0 -9.31613e-05 7.996e-05 0.0177478 -0.000205174
internal_weight=0 22249 22163 352 21811
internal_count=22288 22249 22163 352 21811
is_linear=0
shrinkage=0.5


Tree=67
num_leaves=6
num_cat=0
split_feature=6 0 7 4 7
split_gain=0.366769 0.540987 0.480677 0.476118 4.62673
threshold=853915.12500000012 1.5000000000000002 3590.1669921875005 -19124.999999999996 3318.5185546875005
decision_type=2 2 2 2 2
left_child=3 -2 -3 4 -1
right_child=1 2 -4 -5 -6
leaf_value=-0.12046226048300139 -0.070562870934223518 -0.084374032262712714 -0.0048249383937818109 -0.0001119766414231654 0.027889722941193084
leaf_weight=58 39 20 376 21235 560
leaf_count=58 39 20 376 21235 560
internal_value=0 -0.0143761 -0.00884257 0.000286167 0.0139667
internal_weight=0 435 396 21853 618
internal_count=22288 435 396 21853 618
is_linear=0
shrinkage=0.5


Tree=68
num_leaves=6
num_cat=0
split_feature=1 13 21 2 1
split_gain=0.474134 0.728668 0.623963 0.59591 2.03431
threshold=9988.0439453125018 45.18499946594239 33.049999237060554 0.0016349999932572248 14.320849895477297
decision_type=2 2 2 2 2
left_child=3 -2 -3 -1 -5
right_child=1 2 -4 4 -6
leaf_value=-2.7422286006530788e-05 0.0074762923513145112 -0.035257398421245235 -0.13682277128100395 -0.031705369967138013 0.080623177091021916
leaf_weight=21965 78 62 20 73 90
leaf_count=21965 78 62 20 73 90
internal_value=0 -0.0271204 -0.0600294 0.000196098 0.0303165
internal_weight=0 160 82 22128 163
internal_count=22288 160 82 22128 163
is_linear=0
shrinkage=0.5


Tree=69
num_leaves=6
num_cat=0
split_feature=7 24 14 3 2
split_gain=0.449827 0.489965 0.37038 0.324865 0.418051
threshold=3148.3239746093755 -97.770999908447251 24.998499870300297 107125.00000000001 5.1650000386871404e-05
decision_type=2 2 2 2 2
left_child=1 -1 -3 4 -2
right_child=3 2 -4 -5 -6
leaf_value=0.10231794869261128 0.0029972116307718801 0.060038481735520892 -0.015752767896628939 0.046049623505065314 -0.0016861597422528989
leaf_weight=21 6935 27 40 38 15227
leaf_count=21 6935 27 40 38 15227
internal_value=0 0.0356773 0.01479 -0.000141424 -0.000220625
internal_weight=0 88 67 22200 22162
internal_count=22288 88 67 22200 22162
is_linear=0
shrinkage=0.5


Tree=70
num_leaves=6
num_cat=0
split_feature=1 8 6 23 3
split_gain=0.468922 0.82693 0.493595 0.467775 0.869572
threshold=12.676650047302248 13004.222656250002 724704.34375000012 -97.647998809814439 21375.000000000004
decision_type=2 2 2 2 2
left_child=1 2 3 -1 -5
right_child=-2 -3 -4 4 -6
leaf_value=-0.0016948665152229959 0.00020461001310591464 0.038529159934021152 -0.11080899794140588 0.003139430821950858 -0.12766434383337144
leaf_weight=63 22112 39 23 24 27
leaf_count=63 22112 39 23 24 27
internal_value=0 -0.0257065 -0.0439925 -0.030512 -0.0661096
internal_weight=0 176 137 114 51
internal_count=22288 176 137 114 51
is_linear=0
shrinkage=0.5


Tree=71
num_leaves=6
num_cat=0
split_feature=21 13 2 21 15
split_gain=0.373371 0.828148 0.322077 0.559688 1.11195
threshold=34.549999237060554 45.009000778198249 0.00082549999933689844 35.049999237060554 26.750000000000004
decision_type=2 2 2 2 2
left_child=-1 -2 3 4 -3
right_child=1 2 -4 -5 -6
leaf_value=-0.00043747349976927703 0.10332310456863564 0.00096072739297701397 0.020442905344854528 -0.037433928628950043 0.095598995558578856
leaf_weight=21314 23 522 313 83 33
leaf_count=21314 23 522 313 83 33
internal_value=0 0.00957321 0.00730587 0.000860894 0.00658787
internal_weight=0 974 951 638 555
internal_count=22288 974 951 638 555
is_linear=0
shrinkage=0.5


Tree=72
num_leaves=6
num_cat=0
split_feature=0 11 9 11 19
split_gain=0.395122 0.873654 0.58184 0.747843 0.301775
threshold=157.50000000000003 4416.9350585937509 12519.989746093752 3972.9680175781255 26.750000000000004
decision_type=2 2 2 2 2
left_child=4 2 3 -2 -1
right_child=1 -3 -4 -5 -6
leaf_value=-0.0020026614583548326 0.058715915866196157 -0.074813902131555712 0.010007429807454102 -0.007220621387738148 0.002722676631325248
leaf_weight=14449 45 34 2381 969 4410
leaf_count=14449 45 34 2381 969 4410
internal_value=0 0.00493714 0.00573582 -0.00429444 -0.000897686
internal_weight=0 3429 3395 1014 18859
internal_count=22288 3429 3395 1014 18859
is_linear=0
shrinkage=0.5


Tree=73
num_leaves=6
num_cat=0
split_feature=13 1 1 1 0
split_gain=0.278236 0.241036 4.81082 4.72389 2.56423
threshold=44.864999771118171 17.55990028381348 17.261300086975101 17.867099761962894 53.500000000000007
decision_type=2 2 2 2 2
left_child=-1 2 -2 -3 -4
right_child=1 3 4 -5 -6
leaf_value=0.051693610076864176 -0.00011935068218359529 -0.082387662673599232 0.11431819219639647 -6.6006624824324758e-05 -0.03688513776952667
leaf_weight=26 4227 176 141 17683 35
leaf_count=26 4227 176 141 17683 35
internal_value=0 -6.03735e-05 0.0032531 -0.000877284 0.0842493
internal_weight=0 22262 4403 17859 176
internal_count=22288 22262 4403 17859 176
is_linear=0
shrinkage=0.5


Tree=74
num_leaves=6
num_cat=0
split_feature=3 13 6 1 13
split_gain=0.301092 0.268785 1.54886 1.59767 0.545264
threshold=107125.00000000001 44.927000045776374 703529.90625000012 17.55990028381348 44.895999908447273
decision_type=2 2 2 2 2
left_child=1 2 3 -1 -5
right_child=-2 -3 -4 4 -6
leaf_value=-0.00076893450281882692 0.044469009288341591 0.00014565314703825897 0.0099607922933733165 -0.052486354146491394 -0.15048679105675547
leaf_weight=59 38 21894 235 22 40
leaf_count=59 38 21894 235 22 40
internal_value=0 -7.59471e-05 -0.0137044 -0.0596656 -0.115712
internal_weight=0 22250 356 121 62
internal_count=22288 22250 356 121 62
is_linear=0
shrinkage=0.5


Tree=75
num_leaves=6
num_cat=0
split_feature=13 1 20 7 7
split_gain=0.251719 0.772862 0.530875 1.0243 0.678698
threshold=45.05999946594239 9986.0073242187518 24.150000572204593 3458.7805175781255 3452.518432617188
decision_type=2 2 2 2 2
left_child=1 2 -1 4 -4
right_child=-2 -3 3 -5 -6
leaf_value=-0.0012736387029539673 -0.0007964844228535011 0.053495488546200488 0.020480732290921837 -0.0058850497505748512 0.10964787359857424
leaf_weight=2761 18199 76 712 518 22
leaf_count=2761 18199 76 712 518 22
internal_value=0 0.00354493 0.00259894 0.011139 0.0231533
internal_weight=0 4089 4013 1252 734
internal_count=22288 4089 4013 1252 734
is_linear=0
shrinkage=0.5


Tree=76
num_leaves=6
num_cat=0
split_feature=11 8 0 8 1
split_gain=0.298981 1.85925 1.25054 1.18212 1.0162
threshold=2878.131469726563 11475.912597656252 4.5000000000000009 11475.912597656252 16.351699829101566
decision_type=2 2 2 2 2
left_child=1 2 -1 -2 -4
right_child=3 -3 4 -5 -6
leaf_value=0.060196606899557664 0.048258559829264414 -0.1145807120599784 -0.014346739280704131 6.4535862077465936e-05 0.084630582386765768
leaf_weight=69 128 40 656 21368 27
leaf_count=69 128 40 656 21368 27
internal_value=0 -0.00954053 -0.00395328 0.000351512 -0.010434
internal_weight=0 792 752 21496 683
internal_count=22288 792 752 21496 683
is_linear=0
shrinkage=0.5


Tree=77
num_leaves=6
num_cat=0
split_feature=2 4 1 1 10
split_gain=0.199436 0.230965 10.3357 19.6901 4.44971
threshold=0.0017349999980069699 19125.000000000004 1019.9175415039064 9983.6098632812518 15210.762207031252
decision_type=2 2 2 2 2
left_child=1 -1 4 -4 -3
right_child=-2 2 3 -5 -6
leaf_value=0.00023241767636212281 0.048703242152918221 0.010395203474110494 -0.31050477717837244 0.050800228473515466 0.17367638787507769
leaf_weight=21621 21 449 73 78 46
leaf_count=21621 21 449 73 78 46
internal_value=0 -4.5932e-05 -0.00936203 -0.12387 0.0255688
internal_weight=0 22267 646 151 495
internal_count=22288 22267 646 151 495
is_linear=0
shrinkage=0.5


Tree=78
num_leaves=6
num_cat=0
split_feature=12 2 11 2 0
split_gain=0.378192 1.82843 1.38428 1.26596 0.793492
threshold=-0.64149999618530262 0.00095349998446181427 2985.7319335937505 0.00061149999964982282 9.5000000000000018
decision_type=2 2 2 2 2
left_child=1 2 -1 -4 -3
right_child=-2 4 3 -5 -6
leaf_value=0.024172484711398726 0.0004180781155333 0.049126136793001068 0.020974041383352973 -0.053664263661580849 -0.052050294160339204
leaf_weight=371 21406 21 93 146 251
leaf_count=371 21406 21 93 146 251
internal_value=0 -0.0101467 0.00505507 -0.0246209 -0.0442389
internal_weight=0 882 610 239 272
internal_count=22288 882 610 239 272
is_linear=0
shrinkage=0.5


Tree=79
num_leaves=6
num_cat=0
split_feature=11 8 6 23 23
split_gain=0.356335 1.7361 0.457186 1.02727 0.848068
threshold=4472.8349609375009 12433.333984375002 653829.93750000012 -95.860000610351548 -95.944999694824205
decision_type=2 2 2 2 2
left_child=-1 -2 -3 4 -4
right_child=1 2 3 -5 -6
leaf_value=0.00017630895889230485 -0.15052639304295831 0.061891462005998779 0.011390837165527046 0.083392679606649006 -0.07897827215923893
leaf_weight=22116 23 23 50 22 54
leaf_count=22116 23 23 50 22 54
internal_value=0 -0.0226701 -0.00293384 -0.014767 -0.0355316
internal_weight=0 172 149 126 104
internal_count=22288 172 149 126 104
is_linear=0
shrinkage=0.5


Tree=80
num_leaves=6
num_cat=0
split_feature=6 4 1 1 13
split_gain=0.275695 1.64756 1.13868 0.931035 2.04493
threshold=722794.90625000012 -69124.999999999985 9988.0439453125018 9985.1860351562518 45.153999328613288
decision_type=2 2 2 2 2
left_child=1 2 -1 -3 -5
right_child=-2 3 -4 4 -6
leaf_value=0.057923033439746016 -0.0013854570003385934 -0.00067794727819375442 -0.033393013075266667 0.0049800373553993632 0.069706171118833177
leaf_weight=204 13752 7504 41 636 151
leaf_count=204 13752 7504 41 636 151
internal_value=0 0.00223205 0.0426416 0.00103795 0.0173989
internal_weight=0 8536 245 8291 787
internal_count=22288 8536 245 8291 787
is_linear=0
shrinkage=0.5


Tree=81
num_leaves=6
num_cat=0
split_feature=2 0 9 0 3
split_gain=0.331236 1.78078 3.77141 2.47223 4.24926
threshold=0.0013049999834038319 1.5000000000000002 13098.270019531252 5.5000000000000009 -1.0000000180025095e-35
decision_type=2 2 2 2 2
left_child=-1 2 -2 4 -3
right_child=1 3 -4 -5 -6
leaf_value=0.00080599278693068788 0.0013006356584554224 -0.10739282190678849 0.22084575429282807 -0.0010668472712108226 -0.0052679154987282373
leaf_weight=18971 71 157 27 2772 290
leaf_count=18971 71 157 27 2772 290
internal_value=0 -0.00460973 0.0617876 -0.00663115 -0.0411373
internal_weight=0 3317 98 3219 447
internal_count=22288 3317 98 3219 447
is_linear=0
shrinkage=0.5


Tree=82
num_leaves=6
num_cat=0
split_feature=3 1 1 9 10
split_gain=0.464048 1.72249 1.43094 1.04306 0.962954
threshold=-71374.999999999985 114.32324981689455 255.80325317382815 13366.395996093752 13515.171386718752
decision_type=2 2 2 2 2
left_child=1 -1 -3 4 -4
right_child=-2 2 3 -5 -6
leaf_value=-0.026156655045348958 -0.00037457072212407957 0.15932939241507224 -0.0038818647576374047 -0.018580921590182698 0.060104001444860659
leaf_weight=184 21703 21 84 100 196
leaf_count=184 21703 21 84 100 196
internal_value=0 0.0138963 0.0322746 0.0252532 0.0409082
internal_weight=0 585 401 380 280
internal_count=22288 585 401 380 280
is_linear=0
shrinkage=0.5


Tree=83
num_leaves=6
num_cat=0
split_feature=10 6 4 13 8
split_gain=0.331499 1.37206 1.01913 1.97608 3.57631
threshold=14244.663574218752 844850.37500000012 69125.000000000015 45.094999313354499 11984.104003906252
decision_type=2 2 2 2 2
left_child=1 -1 -2 -4 -5
right_child=2 -3 3 4 -6
leaf_value=0.0015019021741931792 -0.0043451221029274806 -0.068158731874550738 0.11768552311230451 -0.1834887902845036 0.032568989881487931
leaf_weight=16034 5963 71 50 22 148
leaf_count=16034 5963 71 50 22 148
internal_value=0 0.0011948 -0.00311212 0.0303079 0.00460857
internal_weight=0 16105 6183 220 170
internal_count=22288 16105 6183 220 170
is_linear=0
shrinkage=0.5


Tree=84
num_leaves=6
num_cat=0
split_feature=24 11 2 9 12
split_gain=0.223016 1.53092 0.745502 0.428041 0.227
threshold=-95.967998504638658 4406.0185546875009 0.00062850001268088828 13347.558105468752 -0.46649999916553492
decision_type=2 2 2 2 2
left_child=4 2 3 -2 -1
right_child=1 -3 -4 -5 -6
leaf_value=-6.5856661328162169e-05 0.014030989150827129 0.098126984055852517 -0.13251154288730543 -0.08040164336562157 0.015300472216848802
leaf_weight=21952 30 20 23 20 243
leaf_count=21952 30 20 23 20 243
internal_value=0 -0.0244336 -0.0580119 -0.0237421 0.00010238
internal_weight=0 93 73 50 22195
internal_count=22288 93 73 50 22195
is_linear=0
shrinkage=0.5


Tree=85
num_leaves=6
num_cat=0
split_feature=2 9 12 21 20
split_gain=0.22735 1.32733 0.983436 0.520213 1.25887
threshold=0.0013049999834038319 9902.0937500000018 -0.64149999618530262 33.850000381469734 24.550000190734867
decision_type=2 2 2 2 2
left_child=1 -1 -2 -4 -5
right_child=2 -3 3 4 -6
leaf_value=0.088414677356499743 -0.077231640047911138 0.000468402336896466 0.0013281195528072945 -0.0097142492489363883 -0.13067788088863547
leaf_weight=43 45 18928 2287 963 22
leaf_count=43 45 18928 2287 963 22
internal_value=0 0.000667743 -0.00381904 -0.00280939 -0.012416
internal_weight=0 18971 3317 3272 985
internal_count=22288 18971 3317 3272 985
is_linear=0
shrinkage=0.5


Tree=86
num_leaves=6
num_cat=0
split_feature=24 8 2 24 7
split_gain=0.232822 0.51183 0.487938 0.921037 0.50036
threshold=-97.948501586914048 11970.100097656252 0.0016150000155903401 -97.671001434326158 3465.5515136718755
decision_type=2 2 2 2 2
left_child=1 -1 -2 4 -4
right_child=2 -3 3 -5 -6
leaf_value=0.082961462042294445 -0.00028966973424323245 0.0028022230572084424 -0.0075744703406764365 0.045122463679796117 -0.035710980116937886
leaf_weight=20 16923 4631 385 61 268
leaf_count=20 16923 4631 385 61 268
internal_value=0 0.00314692 -0.000829865 -0.0136334 -0.0191221
internal_weight=0 4651 17637 714 653
internal_count=22288 4651 17637 714 653
is_linear=0
shrinkage=0.5


Tree=87
num_leaves=6
num_cat=0
split_feature=1 3 3 11 9
split_gain=0.321602 0.430451 0.34995 1.75575 2.32505
threshold=12.676650047302248 107125.00000000001 70375.000000000015 4382.3520507812509 13190.416992187502
decision_type=2 2 2 2 2
left_child=1 -1 -2 4 -4
right_child=2 -3 3 -5 -6
leaf_value=-0.010533497260710007 -0.00014853227027615621 -0.078138395528575141 0.0081623533291180529 -0.055375801956993931 0.10082662728218954
leaf_weight=148 21561 28 388 81 82
leaf_count=148 21561 28 388 81 82
internal_value=0 -0.0212888 0.000169448 0.0126122 0.0243293
internal_weight=0 176 22112 551 470
internal_count=22288 176 22112 551 470
is_linear=0
shrinkage=0.5


Tree=88
num_leaves=6
num_cat=0
split_feature=3 18 10 0 4
split_gain=0.280411 0.51021 0.239864 1.33594 0.896649
threshold=107125.00000000001 26.050000190734867 14344.678222656252 44.500000000000007 69125.000000000015
decision_type=2 2 2 2 2
left_child=1 2 -1 4 -4
right_child=-2 -3 3 -5 -6
leaf_value=0.0010199528519564309 0.042914640084889377 -0.057960370898638904 -0.014650699504652181 0.0034986721539129501 0.020306607012462338
leaf_weight=16259 38 38 2215 3538 200
leaf_count=16259 38 38 2215 3538 200
internal_value=0 -7.32924e-05 2.574e-05 -0.00268968 -0.0117557
internal_weight=0 22250 22212 5953 2415
internal_count=22288 22250 22212 5953 2415
is_linear=0
shrinkage=0.5


Tree=89
num_leaves=6
num_cat=0
split_feature=3 4 11 11 2
split_gain=0.348578 0.326891 1.86096 5.55679 1.42834
threshold=-108124.99999999999 19125.000000000004 4225.1889648437509 3971.3234863281255 4.0850000004866167e-05
decision_type=2 2 2 2 2
left_child=-1 -2 3 -3 -4
right_child=1 2 4 -5 -6
leaf_value=0.048490675537519762 0.00024623659703589993 0.018422117599496437 -0.036103542865409205 -0.17482385796404654 0.02291071257640857
leaf_weight=37 21622 93 150 62 324
leaf_count=37 21622 93 150 62 324
internal_value=0 -8.06326e-05 -0.0113168 -0.0588763 0.00423532
internal_weight=0 22251 629 155 474
internal_count=22288 22251 629 155 474
is_linear=0
shrinkage=0.5


Tree=90
num_leaves=6
num_cat=0
split_feature=13 2 2 3 1
split_gain=0.27297 0.416174 0.619132 0.471166 0.42034
threshold=45.153999328613288 2.864999987650663e-05 4.0049999370239682e-05 -71374.999999999985 113.02429962158205
decision_type=2 2 2 2 2
left_child=1 -1 -3 -4 -5
right_child=-2 2 3 4 -6
leaf_value=-0.062471667354527326 0.0019333688763621237 0.026216980809902764 0.021746393170259479 -0.0072853249207133772 -0.00052675615880418548
leaf_weight=28 10036 199 207 3129 8689
leaf_count=28 10036 199 207 3129 8689
internal_value=0 -0.00158368 -0.00144421 -0.00190198 -0.00231619
internal_weight=0 12252 12224 12025 11818
internal_count=22288 12252 12224 12025 11818
is_linear=0
shrinkage=0.5


Tree=91
num_leaves=6
num_cat=0
split_feature=14 12 2 1 16
split_gain=0.180992 0.271818 0.167683 1.25562 0.602528
threshold=24.981500625610355 -0.55349999666213978 0.0016450000111944976 18.979800224304203 26.050000190734867
decision_type=2 2 2 2 2
left_child=1 -1 -2 4 -4
right_child=2 -3 3 -5 -6
leaf_value=0.074769111594650897 -0.00018641999124317847 0.0051734446127777618 0.0057282605617917301 0.075807675653645254 -0.088470668027487889
leaf_weight=20 22084 47 58 55 24
leaf_count=20 22084 47 58 55 24
internal_value=0 0.0259483 -7.82383e-05 0.0173603 -0.0218422
internal_weight=0 67 22221 137 82
internal_count=22288 67 22221 137 82
is_linear=0
shrinkage=0.5


Tree=92
num_leaves=6
num_cat=0
split_feature=1 11 10 21 8
split_gain=0.276098 0.249346 0.570383 0.564338 0.332877
threshold=9986.4897460937518 3820.0969238281255 13530.114746093752 33.850000381469734 12982.307617187502
decision_type=2 2 2 2 2
left_child=-1 -2 3 -3 -4
right_child=1 2 4 -5 -6
leaf_value=0.00018399245629883098 0.026652357781883972 -0.1133233818192301 0.02408967969759326 -0.025278522781333707 -0.026220319247139353
leaf_weight=22047 29 28 62 52 70
leaf_count=22047 29 28 62 52 70
internal_value=0 -0.0168319 -0.0227802 -0.0560942 -0.00258987
internal_weight=0 241 212 80 132
internal_count=22288 241 212 80 132
is_linear=0
shrinkage=0.5


Tree=93
num_leaves=6
num_cat=0
split_feature=9 4 4 2 13
split_gain=0.189612 2.12115 2.34165 0.581762 0.453299
threshold=12293.967773437502 -19124.999999999996 -1.0000000180025095e-35 0.00082750001456588518 44.989999771118171
decision_type=2 2 2 2 2
left_child=1 -1 3 -3 -4
right_child=-2 2 4 -5 -6
leaf_value=0.082372060847374973 -0.00083030273712063481 -0.059479308134892529 -0.017201935285101153 -0.15859343633055686 0.0036823943083826947
leaf_weight=82 16832 57 274 20 5023
leaf_count=82 16832 57 274 20 5023
internal_value=0 0.00256152 0.00134372 -0.0852232 0.0026021
internal_weight=0 5456 5374 77 5297
internal_count=22288 5456 5374 77 5297
is_linear=0
shrinkage=0.5


Tree=94
num_leaves=6
num_cat=0
split_feature=0 3 1 1 2
split_gain=0.279674 1.42054 2.87066 6.39372 4.9998
threshold=2.5000000000000004 -1.0000000180025095e-35 4923.0292968750009 4920.5312500000009 0.00083049997920170437
decision_type=2 2 2 2 2
left_child=1 -1 3 -3 -4
right_child=-2 2 4 -5 -6
leaf_value=0.0391399631309442 -0.00047270470948455846 0.0019129763073280153 -0.17693004031376591 0.18061135020458474 -0.0098127880883854528
leaf_weight=274 20806 901 58 53 196
leaf_count=274 20806 901 58 53 196
internal_value=0 0.00663637 -0.000736139 0.0118407 -0.0479734
internal_weight=0 1482 1208 954 254
internal_count=22288 1482 1208 954 254
is_linear=0
shrinkage=0.5


Tree=95
num_leaves=6
num_cat=0
split_feature=8 1 0 12 9
split_gain=0.20321 1.05094 0.956272 0.748614 0.596515
threshold=11216.390625000002 14.353799819946291 11.500000000000002 -0.465499997138977 9796.8867187500018
decision_type=2 2 2 2 2
left_child=1 2 -1 -3 -2
right_child=4 3 -4 -5 -6
leaf_value=0.081312838377451277 -0.041218778171324549 0.030821781924092455 -0.032312737227000884 0.1503323428798467 2.9462916007504416e-05
leaf_weight=23 88 38 95 20 22024
leaf_count=23 88 38 95 20 22024
internal_value=0 0.0169225 -0.0101654 0.0720323 -0.000134694
internal_weight=0 176 118 58 22112
internal_count=22288 176 118 58 22112
is_linear=0
shrinkage=0.5


Tree=96
num_leaves=6
num_cat=0
split_feature=0 1 1 17 0
split_gain=0.195082 1.05981 2.02555 2.43272 3.90303
threshold=5.5000000000000009 9982.9663085937518 9983.6098632812518 27.150000572204593 2.5000000000000004
decision_type=2 2 2 2 2
left_child=1 -1 -3 4 -4
right_child=-2 2 3 -5 -6
leaf_value=-0.00045742030491197782 0.00065697777340943317 -0.14677266483054016 0.053403822152176872 0.0081253863681059902 -0.16346177407461454
leaf_weight=3295 18616 33 32 253 59
leaf_count=3295 18616 33 32 253 59
internal_value=0 -0.00333069 -0.0284432 -0.0170919 -0.0872013
internal_weight=0 3672 377 344 91
internal_count=22288 3672 377 344 91
is_linear=0
shrinkage=0.5


Tree=97
num_leaves=6
num_cat=0
split_feature=1 11 12 1 3
split_gain=0.218001 2.37731 2.00294 1.76327 1.61285
threshold=18.264149665832523 3046.742065429688 -0.62950000166892994 17.55990028381348 107125.00000000001
decision_type=2 2 2 2 2
left_child=3 2 -2 4 -1
right_child=1 -3 -4 -5 -6
leaf_value=0.0011877110100313444 0.023302110696036382 0.00022784602486211042 0.13725788521220569 -0.030208401659913783 -0.10813508483389501
leaf_weight=4369 129 17172 55 529 34
leaf_count=4369 129 17172 55 529 34
internal_value=0 0.000833587 0.057365 -0.00293344 0.00034352
internal_weight=0 17356 184 4932 4403
internal_count=22288 17356 184 4932 4403
is_linear=0
shrinkage=0.5


Tree=98
num_leaves=6
num_cat=0
split_feature=3 18 1 10 6
split_gain=0.845998 0.21363 0.200743 0.357545 0.557065
threshold=107125.00000000001 26.050000190734867 9985.7856445312518 13567.621582031252 733939.34375000012
decision_type=2 2 2 2 2
left_child=1 2 -1 4 -4
right_child=-2 -3 3 -5 -6
leaf_value=-0.00054303687756022078 0.074540495419090511 -0.037584719615743348 -0.013105968067124775 0.012504808588074252 0.0085705078418655684
leaf_weight=20158 38 38 526 849 679
leaf_count=20158 38 38 526 849 679
internal_value=0 -0.000127305 -6.32234e-05 0.00464568 -0.000891589
internal_weight=0 22250 22212 2054 1205
internal_count=22288 22250 22212 2054 1205
is_linear=0
shrinkage=0.5


Tree=99
num_leaves=6
num_cat=0
split_feature=6 0 2 10 4
split_gain=0.170743 0.186869 0.859142 2.14813 3.06767
threshold=852975.65625000012 2.5000000000000004 4.8850000894162811e-05 14311.237792968752 -1.0000000180025095e-35
decision_type=2 2 2 2 2
left_child=1 2 3 4 -1
right_child=-2 -3 -4 -5 -6
leaf_value=0.16866737545713922 -0.0089363361448251376 -0.000167448524938019 -0.0027536532530015208 -0.002051545917406561 0.021570104751496566
leaf_weight=53 522 20382 938 286 107
leaf_count=53 522 20382 938 286 107
internal_value=0 0.000214314 0.00583649 0.0239028 0.0702961
internal_weight=0 21766 1384 446 160
internal_count=22288 21766 1384 446 160
is_linear=0
shrinkage=0.5


end of trees

feature_importances:
Column_1=97
Column_0=66
Column_3=45
Column_2=39
Column_11=34
Column_4=31
Column_8=25
Column_9=25
Column_12=22
Column_10=18
Column_13=18
Column_7=17
Column_6=16
Column_24=11
Column_18=6
Column_21=6
Column_23=6
Column_20=5
Column_19=4
Column_14=2
Column_15=2
Column_16=2
Column_22=2
Column_17=1

parameters:
[boosting: gbdt]
[objective: regression]
[metric: l1]
[tree_learner: serial]
[device_type: cpu]
[data: ]
[valid: ]
[num_iterations: 100]
[learning_rate: 0.5]
[num_leaves: 6]
[num_threads: 0]
[deterministic: 0]
[force_col_wise: 0]
[force_row_wise: 0]
[histogram_pool_size: -1]
[max_depth: 6]
[min_data_in_leaf: 20]
[min_sum_hessian_in_leaf: 0.001]
[bagging_fraction: 0.7]
[pos_bagging_fraction: 1]
[neg_bagging_fraction: 1]
[bagging_freq: 0]
[bagging_seed: 400]
[feature_fraction: 0.7]
[feature_fraction_bynode: 1]
[feature_fraction_seed: 30056]
[extra_trees: 0]
[extra_seed: 12879]
[early_stopping_round: 0]
[first_metric_only: 0]
[max_delta_step: 0]
[lambda_l1: 0]
[lambda_l2: 0]
[linear_lambda: 0]
[min_gain_to_split: 0]
[drop_rate: 0.8]
[max_drop: 50]
[skip_drop: 0.8]
[xgboost_dart_mode: 0]
[uniform_drop: 0]
[drop_seed: 17869]
[top_rate: 0.2]
[other_rate: 0.1]
[min_data_per_group: 100]
[max_cat_threshold: 32]
[cat_l2: 10]
[cat_smooth: 10]
[max_cat_to_onehot: 4]
[top_k: 20]
[monotone_constraints: ]
[monotone_constraints_method: basic]
[monotone_penalty: 0]
[feature_contri: ]
[forcedsplits_filename: ]
[refit_decay_rate: 0.9]
[cegb_tradeoff: 1]
[cegb_penalty_split: 0]
[cegb_penalty_feature_lazy: ]
[cegb_penalty_feature_coupled: ]
[path_smooth: 0]
[interaction_constraints: ]
[verbosity: 1]
[saved_feature_importance_type: 0]
[linear_tree: 0]
[max_bin: 255]
[max_bin_by_feature: ]
[min_data_in_bin: 3]
[bin_construct_sample_cnt: 200000]
[data_random_seed: 175]
[is_enable_sparse: 1]
[enable_bundle: 1]
[use_missing: 1]
[zero_as_missing: 0]
[feature_pre_filter: 1]
[pre_partition: 0]
[two_round: 0]
[header: 0]
[label_column: ]
[weight_column: ]
[group_column: ]
[ignore_column: ]
[categorical_feature: ]
[forcedbins_filename: ]
[precise_float_parser: 0]
[objective_seed: 16083]
[num_class: 1]
[is_unbalance: 0]
[scale_pos_weight: 1]
[sigmoid: 1]
[boost_from_average: 1]
[reg_sqrt: 0]
[alpha: 0.9]
[fair_c: 1]
[poisson_max_delta_step: 0.7]
[tweedie_variance_power: 1.5]
[lambdarank_truncation_level: 30]
[lambdarank_norm: 1]
[label_gain: ]
[eval_at: ]
[multi_error_top_k: 1]
[auc_mu_weights: ]
[num_machines: 1]
[local_listen_port: 12400]
[time_out: 120]
[machine_list_filename: ]
[machines: ]
[gpu_platform_id: -1]
[gpu_device_id: -1]
[gpu_use_dp: 0]
[num_gpu: 1]

end of parameters

pandas_categorical:null
