tree
version=v3
num_class=1
num_tree_per_iteration=1
label_index=0
max_feature_idx=27
objective=regression
feature_names=Column_0 Column_1 Column_2 Column_3 Column_4 Column_5 Column_6 Column_7 Column_8 Column_9 Column_10 Column_11 Column_12 Column_13 Column_14 Column_15 Column_16 Column_17 Column_18 Column_19 Column_20 Column_21 Column_22 Column_23 Column_24 Column_25 Column_26 Column_27
feature_infos=[205:207] [1:14] [1:641] [1:200] [9.6354999542236328:10001.138671875] [2.0600000425474718e-05:0.071199998259544373] [-110250:110250] [-110250:110250] [-1514:-1500] [27413.599609375:891620.6875] [962.21502685546875:3776.302978515625] [1046.031005859375:14591.265625] [1102.8590087890625:13930.2470703125] [1456.342041015625:16048.3212890625] [1098.2850341796875:4498.72705078125] [-0.67000001668930054:0.27399998903274536] [44.854999542236328:45.7239990234375] [24.972999572753906:25.024999618530273] [26.200000762939453:27.299999237060547] [25.799999237060547:26.600000381469727] [26.899999618530273:27.899999618530273] [25.399999618530273:26.100000381469727] [26.399999618530273:27.200000762939453] [23.700000762939453:24.700000762939453] [30:35.299999237060547] [36.900001525878906:43.599998474121094] [-97.952003479003906:-95.740997314453125] [-98.0989990234375:-95.902999877929688]
tree_sizes=651 651 661 649 663 651 664 667 651 656 652 668 675 655 661 667 652 652 669 671 656 666 667 660 665 663 676 660 676 671 669 671 655 680 658 669 662 658 671 668 660 670 655 648 651 655 674 657 654 658 669 667 665 661 690 680 672 652 661 661 677 682 673 660 686 674 679 668 668 676 670 673 663 659 679 663 660 680 662 672 662 659 656 661 671 662 669 657 654 672 669 680 668 683 661 663 680 670 674 671

Tree=0
num_leaves=6
num_cat=0
split_feature=4 6 4 4 4
split_gain=13753.1 9773.02 14077.1 2728.59 1536.13
threshold=9992.4790039062518 70375.000000000015 4936.5227050781259 257.25610351562506 9987.9389648437518
decision_type=2 2 2 2 2
left_child=1 4 3 -3 -1
right_child=-2 2 -4 -5 -6
leaf_value=0.020755103928069472 6.4621551019729759 0.015913840541034618 -8.3016088549343419 -2.3249441141192202 2.1630968063596638
leaf_weight=21544 82 266 78 234 84
leaf_count=21544 82 266 78 234 84
internal_value=-0.00128251 -0.02515 -2.0542 -1.07961 0.0290756
internal_weight=0 22206 578 500 21628
internal_count=22288 22206 578 500 21628
is_linear=0
shrinkage=1


Tree=1
num_leaves=6
num_cat=0
split_feature=7 1 3 1 14
split_gain=2756.08 5641.61 1952.15 1909.29 1545.86
threshold=-69124.999999999985 4.5000000000000009 2.5000000000000004 6.5000000000000009 4102.9409179687509
decision_type=2 2 2 2 2
left_child=1 -1 4 -3 -2
right_child=2 3 -4 -5 -6
leaf_value=-0.30290937912650406 -1.3455833932350927 3.9061408245660738 0.011847123161801186 1.0540300530772055 -0.23981535593685729
leaf_weight=323 459 159 20239 93 1015
leaf_count=323 459 159 20239 93 1015
internal_value=0 1.08045 -0.0286124 2.85358 -0.584149
internal_weight=0 575 21713 252 1474
internal_count=22288 575 21713 252 1474
is_linear=0
shrinkage=0.5


Tree=2
num_leaves=6
num_cat=0
split_feature=6 5 6 5 14
split_gain=1563.08 2538.76 1326.92 2645.64 1366.24
threshold=-71374.999999999985 0.0015049999929033222 70375.000000000015 0.0014550000196322801 2864.4489746093755
decision_type=2 2 2 2 2
left_child=1 -1 4 -4 -2
right_child=2 -3 3 -5 -6
leaf_value=0.40060247424621331 -0.68596642679767683 3.4851841895611253 -0.34648796604014931 -3.4773709774017334 0.022473785846260044
leaf_weight=499 704 77 500 78 20430
leaf_count=499 704 77 500 78 20430
internal_value=0 0.812951 -0.0215669 -0.768995 -0.00112524
internal_weight=0 576 21712 578 21134
internal_count=22288 576 21712 578 21134
is_linear=0
shrinkage=0.5


Tree=3
num_leaves=6
num_cat=0
split_feature=4 7 4 1 14
split_gain=798.09 709.914 2271.77 1054.01 361.238
threshold=9992.4790039062518 -69124.999999999985 4925.1481933593759 6.5000000000000009 2830.6650390625005
decision_type=2 2 2 2 2
left_child=1 2 -1 -4 -3
right_child=-2 4 3 -5 -6
leaf_value=-0.054190089862220223 1.5569996746574961 -0.4287531096920385 3.4857807709620547 0.84232714078197746 -0.01004204427440277
leaf_weight=419 82 528 78 73 21108
leaf_count=419 82 528 78 73 21108
internal_value=0 -0.00574953 0.545044 2.20782 -0.0202602
internal_weight=0 22206 570 151 21636
internal_count=22288 22206 570 151 21636
is_linear=0
shrinkage=0.5


Tree=4
num_leaves=6
num_cat=0
split_feature=15 5 7 5 5
split_gain=448.02 607.069 173.79 719.716 209.868
threshold=-0.62950000166892994 0.00082249997649341833 -69124.999999999985 0.00019549999706214297 0.0014950000331737103
decision_type=2 2 2 2 2
left_child=1 -1 3 -2 -5
right_child=2 -3 -4 4 -6
leaf_value=0.59182635178255294 -0.20965457587760405 -0.046254384838002031 -0.026695642711515043 1.2664161239900897 0.26085659785148424
leaf_weight=727 342 765 20221 155 78
leaf_count=727 342 765 20221 155 78
internal_value=0 0.26466 -0.0189879 0.252069 0.929791
internal_weight=0 1492 20796 575 233
internal_count=22288 1492 20796 575 233
is_linear=0
shrinkage=0.5


Tree=5
num_leaves=6
num_cat=0
split_feature=6 4 1 6 4
split_gain=318.175 882.774 255.461 227.971 479.764
threshold=70375.000000000015 257.25610351562506 6.5000000000000009 -71374.999999999985 509.73554992675787
decision_type=2 2 2 2 2
left_child=3 -2 -3 4 -1
right_child=1 2 -4 -5 -6
leaf_value=-0.17251797003629502 0.30308888300805165 -0.67546671221398902 -1.7203167676925659 0.001289060674596134 0.74280338292160342
leaf_weight=266 266 234 78 21134 310
leaf_count=266 266 234 78 21134 310
internal_value=0 -0.366129 -0.936679 0.00974769 0.320103
internal_weight=0 578 312 21710 576
internal_count=22288 578 312 21710 576
is_linear=0
shrinkage=0.5


Tree=6
num_leaves=6
num_cat=0
split_feature=12 10 7 7 4
split_gain=137.958 156.903 1275.66 419.568 832.855
threshold=9853.4106445312518 3422.274047851563 69125.000000000015 69125.000000000015 1019.9602661132814
decision_type=2 2 2 2 2
left_child=-1 2 -2 -3 -5
right_child=1 3 -4 4 -6
leaf_value=-0.31053893550680106 0.049051735793426914 -0.0045189434526194594 1.9911784813847653 -0.035734177258632038 -1.4322840132570316
leaf_weight=352 5018 16334 86 343 155
leaf_count=352 5018 16334 86 343 155
internal_value=0 0.00498312 0.0817757 -0.0183028 -0.470403
internal_weight=0 21936 5104 16832 498
internal_count=22288 21936 5104 16832 498
is_linear=0
shrinkage=0.5


Tree=7
num_leaves=6
num_cat=0
split_feature=15 5 3 12 10
split_gain=93.4195 235.121 104.814 91.2741 62.2593
threshold=-0.60050001740455616 0.00090949999867007147 50.500000000000007 10518.750488281252 3277.1020507812505
decision_type=2 2 2 2 2
left_child=1 2 3 -1 -2
right_child=4 -3 -4 -5 -6
leaf_value=0.15963755215586534 -0.15616618482758407 -0.11742480877888378 0.027990484952759877 0.47848771967277604 -0.0052209322481481081
leaf_weight=433 708 787 444 466 19450
leaf_count=433 708 787 444 466 19450
internal_value=0 0.0995835 0.226751 0.324915 -0.0105225
internal_weight=0 2130 1343 899 20158
internal_count=22288 2130 1343 899 20158
is_linear=0
shrinkage=0.5


Tree=8
num_leaves=6
num_cat=0
split_feature=4 6 4 4 6
split_gain=86.8783 78.4189 423.864 476.157 521.158
threshold=9986.4824218750018 5000.0000000000009 1019.9602661132814 9983.3417968750018 70375.000000000015
decision_type=2 2 2 2 2
left_child=1 -1 -3 4 -4
right_child=-2 2 3 -5 -6
leaf_value=0.0037438184611254632 0.29309342978894709 0.038502838899913662 -1.99274140894413 0.80116724190504651 -0.41610388253129232
leaf_weight=20866 250 894 80 46 152
leaf_count=20866 250 894 80 46 152
internal_value=0 -0.00332486 -0.129174 -0.668394 -0.959772
internal_weight=0 22038 1172 278 232
internal_count=22288 22038 1172 278 232
is_linear=0
shrinkage=0.5


Tree=9
num_leaves=6
num_cat=0
split_feature=6 12 10 1 6
split_gain=50.9018 159.945 82.8147 44.2143 43.5524
threshold=21375.000000000004 12543.661621093752 3573.0759277343755 1.5000000000000002 -71374.999999999985
decision_type=2 2 2 2 2
left_child=4 3 -3 -2 -1
right_child=1 2 -4 -5 -6
leaf_value=0.13980306511641377 0.44736634437735617 -0.53005112415932598 -0.052567599610287091 0.016457413777021902 0.00044731208124238863
leaf_weight=576 88 235 148 184 21057
leaf_count=576 88 235 148 184 21057
internal_value=0 -0.137322 -0.345541 0.155869 0.0041578
internal_weight=0 655 383 272 21633
internal_count=22288 655 383 272 21633
is_linear=0
shrinkage=0.5


Tree=10
num_leaves=6
num_cat=0
split_feature=3 11 13 10 3
split_gain=30.3176 132.041 87.4991 100.088 102.532
threshold=5.5000000000000009 11384.809082031252 13513.541503906252 3428.851440429688 4.5000000000000009
decision_type=2 2 2 2 2
left_child=1 -1 3 4 -3
right_child=-2 2 -4 -5 -6
leaf_value=0.69371428693595683 -0.0081901181650367201 0.059279424482422648 0.0718994040105361 -0.19779824318317857 1.0978996583393641
leaf_weight=76 18616 157 2723 688 28
leaf_count=76 18616 157 2723 688 28
internal_value=0 0.0415216 0.0277377 -0.110008 0.216476
internal_weight=0 3672 3596 873 185
internal_count=22288 3672 3596 873 185
is_linear=0
shrinkage=0.5


Tree=11
num_leaves=6
num_cat=0
split_feature=13 15 12 27 1
split_gain=39.6055 25.3171 31.7735 20.8487 38.1643
threshold=8697.8261718750018 -0.64049997925758351 10436.050781250002 -96.021999359130845 2.5000000000000004
decision_type=2 2 2 2 2
left_child=-1 2 -2 -3 -5
right_child=1 3 -4 4 -6
leaf_value=-0.23624905723210593 0.012532208043565495 0.00032430886246916389 0.20497251302244957 0.15414988680375122 -0.22855998991141593
leaf_weight=176 587 20855 338 89 243
leaf_count=176 587 20855 338 89 243
internal_value=0 0.00188042 0.0828509 -0.00165466 -0.125966
internal_weight=0 22112 925 21187 332
internal_count=22288 22112 925 21187 332
is_linear=0
shrinkage=0.5


Tree=12
num_leaves=6
num_cat=0
split_feature=14 4 4 11 13
split_gain=23.1498 136.331 21.4581 17.6064 42.075
threshold=4472.9799804687509 509.73554992675787 13.624349594116213 11532.210449218752 11657.730957031252
decision_type=2 2 2 2 2
left_child=2 -2 -1 -4 -5
right_child=1 -3 3 4 -6
leaf_value=-0.14312070274288338 -0.092856984587386254 0.89846429973840714 -0.063395586777865762 0.081751446972380501 -0.0030033433192784655
leaf_weight=264 125 48 1034 1585 19232
leaf_count=264 125 48 1034 1585 19232
internal_value=0 0.182192 -0.00142524 0.000286701 0.00344986
internal_weight=0 173 22115 21851 20817
internal_count=22288 173 22115 21851 20817
is_linear=0
shrinkage=0.5


Tree=13
num_leaves=6
num_cat=0
split_feature=4 3 10 7 4
split_gain=16.6682 37.7667 17.0923 16.1809 237.092
threshold=9986.3159179687518 4.5000000000000009 3451.2270507812505 -69124.999999999985 4925.1481933593759
decision_type=2 2 2 2 2
left_child=3 -2 -3 4 -1
right_child=1 2 -4 -5 -6
leaf_value=-0.061497049732911702 0.33685081239257542 -0.454430890083313 0.030920801556502016 -0.0037524267601750042 0.88790902227927482
leaf_weight=419 119 20 195 21457 78
leaf_count=419 119 20 195 21457 78
internal_value=0 0.110857 -0.0142282 -0.00168653 0.0875043
internal_weight=0 334 215 21954 497
internal_count=22288 334 215 21954 497
is_linear=0
shrinkage=0.5


Tree=14
num_leaves=6
num_cat=0
split_feature=15 6 10 5 10
split_gain=11.4939 8.78013 43.9215 47.6319 18.0709
threshold=-0.4615000039339065 21375.000000000004 3384.8950195312505 0.0014550000196322801 3461.9370117187505
decision_type=2 2 2 2 2
left_child=1 -1 -3 4 -4
right_child=-2 2 3 -5 -6
leaf_value=0.0027050091995234975 -0.13353039584617363 -0.39134696108453415 0.2424103163860061 -0.3690703333570407 0.0033932682200816032
leaf_weight=21473 160 85 99 78 393
leaf_count=21473 160 85 99 78 393
internal_value=0 0.000965512 -0.0560608 -0.00606195 0.0514882
internal_weight=0 22128 655 570 492
internal_count=22288 22128 655 570 492
is_linear=0
shrinkage=0.5


Tree=15
num_leaves=6
num_cat=0
split_feature=7 7 11 7 1
split_gain=8.74816 8.33751 156.045 20.7289 132.285
threshold=-105874.99999999999 -69124.999999999985 12460.207519531252 -1.0000000180025095e-35 2.5000000000000004
decision_type=2 2 2 2 2
left_child=-1 2 -2 4 -3
right_child=1 3 -4 -5 -6
leaf_value=-0.24292188335990383 -0.59204647766473961 0.2856574244939325 0.17277581401121214 0.0015422476751809648 -0.23112340860787203
leaf_weight=37 78 170 460 21087 456
leaf_count=37 78 170 460 21087 456
internal_value=0 0.000403942 0.0618908 -0.00111957 -0.0907836
internal_weight=0 22251 538 21713 626
internal_count=22288 22251 538 21713 626
is_linear=0
shrinkage=0.5


Tree=16
num_leaves=6
num_cat=0
split_feature=3 10 7 6 13
split_gain=9.22334 76.4261 192.35 144.832 71.579
threshold=6.5000000000000009 3422.274047851563 69125.000000000015 -19124.999999999996 8918.9316406250018
decision_type=2 2 2 2 2
left_child=1 2 3 -1 -5
right_child=-2 -3 -4 4 -6
leaf_value=0.70199617670803538 -0.0046551428942145289 -0.014174316658131972 0.87478197117646539 0.45270840882470731 -0.063709327058759341
leaf_weight=82 18428 3045 84 76 573
leaf_count=82 18428 3045 84 76 573
internal_value=0 0.0222241 0.158216 0.0758743 -0.00323514
internal_weight=0 3860 815 731 649
internal_count=22288 3860 815 731 649
is_linear=0
shrinkage=0.5


Tree=17
num_leaves=6
num_cat=0
split_feature=14 3 4 7 10
split_gain=10.3702 7.57616 9.81757 6.80952 97.0041
threshold=2749.277954101563 11.500000000000002 14.083449840545656 69125.000000000015 3384.8950195312505
decision_type=2 2 2 2 2
left_child=1 -1 -3 -2 -5
right_child=3 2 -4 4 -6
leaf_value=0.073542756923975855 0.0024073788910856466 -0.32563866064196728 -0.056323631697236316 0.50903285272857723 -0.12628663750590988
leaf_weight=39 21528 61 76 68 516
leaf_count=39 21528 61 76 68 516
internal_value=0 -0.120889 -0.176238 0.00096221 -0.0523111
internal_weight=0 176 137 22112 584
internal_count=22288 176 137 22112 584
is_linear=0
shrinkage=0.5


Tree=18
num_leaves=6
num_cat=0
split_feature=4 5 7 4 3
split_gain=6.18408 52.3151 30.7181 14.6014 15.6601
threshold=4925.1481933593759 0.00084150000475347053 69125.000000000015 9985.6987304687518 4.5000000000000009
decision_type=2 2 2 2 2
left_child=-1 -2 3 -3 -5
right_child=1 2 -4 4 -6
leaf_value=-0.0032427739896897416 0.35046593180118962 -0.080806057622594074 0.32354822039604186 0.17661282621938112 0.0051206792626277064
leaf_weight=19354 116 472 75 142 2129
leaf_count=19354 116 472 75 142 2129
internal_value=0 0.0213908 0.00784479 -0.000787281 0.0158437
internal_weight=0 2934 2818 2743 2271
internal_count=22288 2934 2818 2743 2271
is_linear=0
shrinkage=0.5


Tree=19
num_leaves=6
num_cat=0
split_feature=15 5 13 1 4
split_gain=4.65064 15.8077 10.1942 19.7057 15.3763
threshold=-0.63949999213218678 0.00062950002029538165 9818.2558593750018 8.5000000000000018 18.257499694824222
decision_type=2 2 2 2 2
left_child=1 -1 -2 -4 -5
right_child=2 -3 3 4 -6
leaf_value=0.19249688019907032 -0.0536656180848352 0.0084038850317968098 -0.0022234279361707603 -0.021854421903034438 0.13390756672209489
leaf_weight=135 899 856 19683 237 478
leaf_count=135 899 856 19683 237 478
internal_value=0 0.0334821 -0.001558 0.000738533 0.0822774
internal_weight=0 991 21297 20398 715
internal_count=22288 991 21297 20398 715
is_linear=0
shrinkage=0.5


Tree=20
num_leaves=6
num_cat=0
split_feature=3 2 5 5 0
split_gain=7.44882 65.8331 59.7124 29.1789 18.455
threshold=2.5000000000000004 396.50000000000006 0.00062950002029538165 5.014999987906777e-05 205.50000000000003
decision_type=2 2 2 2 2
left_child=1 3 -3 -1 -5
right_child=-2 2 -4 4 -6
leaf_value=0.089090772922561734 -0.002432479145571436 0.1132712498924414 0.64569895724727688 0.15634213435490132 -0.098613870704465964
leaf_weight=434 20814 189 73 79 699
leaf_count=434 20814 189 73 79 699
internal_value=0 0.0343485 0.261619 -0.0147811 -0.072725
internal_weight=0 1474 262 1212 778
internal_count=22288 1474 262 1212 778
is_linear=0
shrinkage=0.5


Tree=21
num_leaves=6
num_cat=0
split_feature=3 4 6 0 7
split_gain=5.33991 3.6452 25.6181 12.9385 4.90672
threshold=110.50000000000001 13.870900154113771 -71374.999999999985 206.50000000000003 19125.000000000004
decision_type=2 2 2 2 2
left_child=1 2 3 -1 -3
right_child=-2 4 -4 -5 -6
leaf_value=-0.061491100973559212 0.011214930792095627 -0.0019842336420294654 0.00057067765167102477 -0.46127614378929138 -0.049471150878849755
leaf_weight=34 7190 13983 465 50 566
leaf_count=34 7190 13983 465 50 566
internal_value=0 -0.0053408 -0.0453354 -0.299458 -0.00383162
internal_weight=0 15098 549 84 14549
internal_count=22288 15098 549 84 14549
is_linear=0
shrinkage=0.5


Tree=22
num_leaves=6
num_cat=0
split_feature=6 11 2 3 6
split_gain=3.26246 2.67948 9.98391 12.2685 3.19531
threshold=107125.00000000001 13901.891113281252 396.50000000000006 2.5000000000000004 -71374.999999999985
decision_type=2 2 2 2 2
left_child=1 4 3 -3 -1
right_child=-2 2 -4 -5 -6
leaf_value=-0.041001928925228741 0.15039744890398449 -0.053498441315411281 0.0046050632404335519 0.19133900443774574 -0.0010269611533591297
leaf_weight=513 36 75 1937 161 19566
leaf_count=513 36 75 1937 161 19566
internal_value=0 -0.000243318 0.016435 0.11353 -0.00204828
internal_weight=0 22252 2173 236 20079
internal_count=22288 22252 2173 236 20079
is_linear=0
shrinkage=0.5


Tree=23
num_leaves=6
num_cat=0
split_feature=16 13 21 15 4
split_gain=3.26832 3.9895 2.39714 2.78747 2.38913
threshold=45.703001022338874 9818.2558593750018 26.050000190734867 -0.52150002121925343 4925.1481933593759
decision_type=2 2 2 2 2
left_child=2 -2 4 -4 -1
right_child=1 -3 3 -5 -6
leaf_value=-0.0026029875472751351 0.033364267383988663 0.29613601366872899 0.0013611852579439681 0.25410531824454663 0.012714326852355228
leaf_weight=19238 52 20 24 20 2934
leaf_count=19238 52 20 24 20 2934
internal_value=0 0.106356 -0.000344691 0.116245 -0.000576062
internal_weight=0 72 22216 44 22172
internal_count=22288 72 22216 44 22172
is_linear=0
shrinkage=0.5


Tree=24
num_leaves=6
num_cat=0
split_feature=5 7 1 10 4
split_gain=2.72576 22.8174 141.178 12.7455 11.932
threshold=0.00071649998426437389 69125.000000000015 6.5000000000000009 3218.633422851563 4936.5227050781259
decision_type=2 2 2 2 2
left_child=3 -2 -3 -1 -5
right_child=1 2 -4 4 -6
leaf_value=0.16275369568541645 -0.0042852635803248152 -0.87236565470695493 0.20664390524873485 0.0019137941096433321 0.37906748340243385
leaf_weight=125 6893 50 77 15122 21
leaf_count=125 6893 50 77 15122 21
internal_value=0 -0.00815456 -0.218163 0.00374935 0.00243682
internal_weight=0 7020 127 15268 15143
internal_count=22288 7020 127 15268 15143
is_linear=0
shrinkage=0.5


Tree=25
num_leaves=6
num_cat=0
split_feature=3 6 4 14 4
split_gain=2.51166 15.9938 28.8449 20.6838 28.4098
threshold=2.5000000000000004 -1.0000000180025095e-35 4923.1525878906259 4249.7380371093759 113.56874847412111
decision_type=2 2 2 2 2
left_child=1 -1 3 4 -3
right_child=-2 2 -4 -5 -6
leaf_value=0.13196616957421464 -0.0014124923000532333 0.025917708361243078 -0.16113383351204008 -0.02471134222059386 0.31316985792786112
leaf_weight=262 20814 251 236 594 131
leaf_count=262 20814 251 236 594 131
internal_value=0 0.0199455 -0.00427024 0.0336599 0.124426
internal_weight=0 1474 1212 976 382
internal_count=22288 1474 1212 976 382
is_linear=0
shrinkage=0.5


Tree=26
num_leaves=6
num_cat=0
split_feature=3 3 15 11 6
split_gain=2.38983 6.58927 28.0229 12.4974 42.5346
threshold=66.500000000000014 49.500000000000007 -0.62950000166892994 12029.958496093752 -19124.999999999996
decision_type=2 2 2 2 2
left_child=1 3 -3 4 -1
right_child=-2 2 -4 -5 -6
leaf_value=0.56479631565712596 0.0053292982726192758 -0.23541694427690199 -0.0139167328501169 -0.0096202836114869829 0.024199615986156889
leaf_weight=37 10822 155 1813 7268 2193
leaf_count=37 10822 155 1813 7268 2193
internal_value=0 -0.00502997 -0.0313621 0.00042609 0.0331692
internal_weight=0 11466 1968 9498 2230
internal_count=22288 11466 1968 9498 2230
is_linear=0
shrinkage=0.5


Tree=27
num_leaves=6
num_cat=0
split_feature=12 3 11 3 3
split_gain=2.4293 12.8668 11.6498 11.2378 16.2372
threshold=10476.839843750002 10.500000000000002 11384.809082031252 27.500000000000004 43.500000000000007
decision_type=2 2 2 2 2
left_child=1 2 -1 -3 -5
right_child=-2 3 -4 4 -6
leaf_value=0.21745789966693049 0.001400209798217734 -0.10765612730172969 0.0064457891996772517 0.060256431381364002 -0.086303228549058725
leaf_weight=95 20792 429 210 415 347
leaf_count=95 20792 429 210 415 347
internal_value=0 -0.0194607 0.0721709 -0.0429263 -0.00648399
internal_weight=0 1496 305 1191 762
internal_count=22288 1496 305 1191 762
is_linear=0
shrinkage=0.5


Tree=28
num_leaves=6
num_cat=0
split_feature=12 14 3 14 13
split_gain=2.32317 3.14626 9.6935 4.14816 4.67928
threshold=9742.5590820312518 2830.6650390625005 4.5000000000000009 2904.9565429687505 11657.730957031252
decision_type=2 2 2 2 2
left_child=-1 2 -2 -3 -5
right_child=1 3 -4 4 -6
leaf_value=-0.057218054417965257 0.28240884229158741 -0.048357836142101651 0.01806018320806756 0.026081197187004929 -0.0014722474630285902
leaf_weight=176 39 440 313 1672 19648
leaf_count=176 39 440 313 1672 19648
internal_value=0 0.000455426 0.0473488 -0.000303144 0.000688604
internal_weight=0 22112 352 21760 21320
internal_count=22288 22112 352 21760 21320
is_linear=0
shrinkage=0.5


Tree=29
num_leaves=6
num_cat=0
split_feature=7 16 4 6 27
split_gain=2.22293 2.03801 4.50258 3.09021 2.39279
threshold=-105874.99999999999 45.396999359130866 9983.3417968750018 -19124.999999999996 -96.098999023437486
decision_type=2 2 2 2 2
left_child=-1 4 3 -3 -2
right_child=1 2 -4 -5 -6
leaf_value=-0.12245349105246164 -0.00019807273609283801 -0.11238157054647169 0.17980771068306195 0.018072067654511761 -0.03493982182270719
leaf_weight=37 20324 47 42 1330 508
leaf_count=37 20324 47 42 1330 508
internal_value=0 0.000203621 0.0185383 0.0136194 -0.00104527
internal_weight=0 22251 1419 1377 20832
internal_count=22288 22251 1419 1377 20832
is_linear=0
shrinkage=0.5


Tree=30
num_leaves=6
num_cat=0
split_feature=5 7 4 6 10
split_gain=1.96376 7.39005 4.19258 4.02106 56.0026
threshold=0.0016450000111944976 -1.0000000180025095e-35 9992.4790039062518 -71374.999999999985 3452.151977539063
decision_type=2 2 2 2 2
left_child=2 -2 3 4 -1
right_child=1 -3 -4 -5 -6
leaf_value=0.27252243281504429 -0.32493603466586635 -0.010100445553629857 0.14647214987068152 0.001079792662866508 -0.13287291479496977
leaf_weight=109 22 122 49 21596 390
leaf_count=109 22 122 49 21596 390
internal_value=0 -0.0582003 0.00037847 5.44789e-05 -0.0443196
internal_weight=0 144 22144 22095 499
internal_count=22288 144 22144 22095 499
is_linear=0
shrinkage=0.5


Tree=31
num_leaves=6
num_cat=0
split_feature=10 7 7 11 7
split_gain=1.93261 20.755 14.0031 9.20001 6.26024
threshold=3301.9584960937505 -19124.999999999996 69125.000000000015 12052.744140625002 -19124.999999999996
decision_type=2 2 2 2 2
left_child=1 -1 -3 -2 -5
right_child=3 2 -4 4 -6
leaf_value=-0.30372433238110302 0.21656697034835815 -0.0074701739849833415 0.34107223461414204 0.052417684113902775 2.6929735354055791e-05
leaf_weight=59 50 4576 29 590 16984
leaf_count=59 50 4576 29 590 16984
internal_value=0 -0.00905063 -0.00527523 0.00239515 0.00178581
internal_weight=0 4664 4605 17624 17574
internal_count=22288 4664 4605 17624 17574
is_linear=0
shrinkage=0.5


Tree=32
num_leaves=6
num_cat=0
split_feature=13 7 4 5 14
split_gain=2.07593 13.9183 11.0027 2.9464 3.48487
threshold=15202.121582031252 -19124.999999999996 509.73554992675787 6.2450002587866052e-05 4414.7875976562509
decision_type=2 2 2 2 2
left_child=-1 -2 -3 -4 -5
right_child=1 2 3 4 -6
leaf_value=0.0014790178847422189 -0.29370685074139724 -0.020611430156965933 0.056265442296217411 0.11663144224566287 0.35499787339485128
leaf_weight=20374 44 1718 83 46 23
leaf_count=20374 44 1718 83 46 23
internal_value=0 -0.0157437 -0.00920343 0.119737 0.196087
internal_weight=0 1914 1870 152 69
internal_count=22288 1914 1870 152 69
is_linear=0
shrinkage=0.5


Tree=33
num_leaves=6
num_cat=0
split_feature=11 15 3 13 11
split_gain=1.49951 2.03106 2.90693 2.63521 2.46469
threshold=14083.723144531252 -0.47249999642372126 37.500000000000007 9098.7143554687518 11478.577148437502
decision_type=2 2 2 2 2
left_child=1 3 -3 -1 -5
right_child=-2 2 -4 4 -6
leaf_value=0.04425069694505171 0.037823082983127927 -0.076076529412319766 0.030233078311491562 -0.048585487154151917 2.6586921095981232e-05
leaf_weight=333 259 199 95 264 21138
leaf_count=333 259 199 95 264 21138
internal_value=0 -0.000444695 -0.0417248 0.000113683 -0.000573057
internal_weight=0 22029 294 21735 21402
internal_count=22288 22029 294 21735 21402
is_linear=0
shrinkage=0.5


Tree=34
num_leaves=6
num_cat=0
split_feature=3 13 2 4 11
split_gain=1.37202 5.42712 5.00567 12.7813 18.4318
threshold=2.5000000000000004 14529.468261718752 396.50000000000006 4922.8898925781259 12822.012207031252
decision_type=2 2 2 2 2
left_child=1 2 3 -1 -5
right_child=-2 -3 -4 4 -6
leaf_value=0.051971228118379335 -0.0010439657460607455 -0.041637094673810361 0.10710152395512233 0.12432677356697194 -0.16465137080515893
leaf_weight=699 20814 331 182 79 183
leaf_count=699 20814 331 182 79 183
internal_value=0 0.0147416 0.0310682 0.0166686 -0.0775167
internal_weight=0 1474 1143 961 262
internal_count=22288 1474 1143 961 262
is_linear=0
shrinkage=0.5


Tree=35
num_leaves=6
num_cat=0
split_feature=4 5 4 7 6
split_gain=1.4807 13.7303 7.42964 107.349 21.4965
threshold=4924.7341308593759 0.00079249998088926088 1014.4663391113282 69125.000000000015 -19124.999999999996
decision_type=2 2 2 2 2
left_child=2 -2 -1 4 -4
right_child=1 -3 3 -5 -6
leaf_value=0.0011612797188543271 0.19742188638353603 0.0041376227775787424 -0.26355292001052905 -0.5990740574896336 0.0094271847915157105
leaf_weight=16549 94 4077 76 80 1412
leaf_count=16549 94 4077 76 80 1412
internal_value=0 0.00849359 -0.00195544 -0.03485 -0.00451535
internal_weight=0 4171 18117 1568 1488
internal_count=22288 4171 18117 1568 1488
is_linear=0
shrinkage=0.5


Tree=36
num_leaves=6
num_cat=0
split_feature=5 4 4 10 9
split_gain=1.54285 2.93849 2.67623 12.6432 2.71361
threshold=0.0016150000155903401 9985.9331054687518 9992.4790039062518 3468.028930664063 743501.93750000012
decision_type=2 2 2 2 2
left_child=1 -1 4 -4 -2
right_child=2 -3 3 -5 -6
leaf_value=0.0006054520081696514 -0.015579273015724017 0.060768651841321915 -0.43628289625048639 0.076942435652017596 0.076628905032218128
leaf_weight=20357 1592 205 20 30 84
leaf_count=20357 1592 205 20 30 84
internal_value=0 0.00120527 -0.0143585 -0.128348 -0.0109579
internal_weight=0 20562 1726 50 1676
internal_count=22288 20562 1726 50 1676
is_linear=0
shrinkage=0.5


Tree=37
num_leaves=6
num_cat=0
split_feature=6 7 13 10 1
split_gain=1.16393 1.0708 16.5202 22.6773 3.7456
threshold=-108124.99999999999 69125.000000000015 14139.915039062502 3603.364379882813 6.5000000000000009
decision_type=2 2 2 2 2
left_child=-1 -2 3 4 -3
right_child=1 2 -4 -5 -6
leaf_value=0.087431972003909508 -0.00071980109422597604 -0.042852951518055744 0.12281579731661853 -0.50707467468455436 0.083448788102764584
leaf_weight=38 21664 247 237 25 77
leaf_count=38 21664 247 237 25 77
internal_value=0 -0.000149322 0.0209409 -0.0482407 -0.0128368
internal_weight=0 22250 586 349 324
internal_count=22288 22250 586 349 324
is_linear=0
shrinkage=0.5


Tree=38
num_leaves=6
num_cat=0
split_feature=13 3 12 3 14
split_gain=1.19961 2.72631 8.78449 6.4151 6.29847
threshold=13456.726074218752 40.500000000000007 10799.143066406252 30.500000000000004 2864.4489746093755
decision_type=2 2 2 2 2
left_child=1 3 4 -1 -3
right_child=-2 2 -4 -5 -6
leaf_value=0.0059045688590431949 -0.0023570025476214581 0.039776375426854367 0.0083976744096945517 0.066811066266300206 -0.078829496041912347
leaf_weight=2289 15775 141 3007 533 543
leaf_count=2289 15775 141 3007 533 543
internal_value=0 0.00570885 -0.00323602 0.0174082 -0.05438
internal_weight=0 6513 3691 2822 684
internal_count=22288 6513 3691 2822 684
is_linear=0
shrinkage=0.5


Tree=39
num_leaves=6
num_cat=0
split_feature=16 7 14 7 3
split_gain=1.10274 3.75647 2.1757 2.57388 1.86596
threshold=45.259500503540046 -105874.99999999999 4081.732543945313 69125.000000000015 49.500000000000007
decision_type=2 2 2 2 2
left_child=1 -1 3 4 -2
right_child=2 -3 -4 -5 -6
leaf_value=-0.18441504732306516 0.034167842001418501 -0.0011424311671964871 -0.0010680748947264813 0.16640245006783516 -0.015097437098452319
leaf_weight=28 810 19175 1991 32 252
leaf_count=28 810 19175 1991 32 252
internal_value=0 -0.00140966 0.00877463 0.0266876 0.0224778
internal_weight=0 19203 3085 1094 1062
internal_count=22288 19203 3085 1094 1062
is_linear=0
shrinkage=0.5


Tree=40
num_leaves=6
num_cat=0
split_feature=12 9 3 3 3
split_gain=1.38182 6.16519 4.81034 7.32076 4.22708
threshold=10597.613281250002 568143.31250000012 40.500000000000007 21.500000000000004 22.500000000000004
decision_type=2 2 2 2 2
left_child=-1 2 3 -2 -5
right_child=1 -3 -4 4 -6
leaf_value=-0.013445485608345239 0.039166780169357318 -0.00082040240736060957 0.0060034688740658263 0.32709545791149142 0.12199241292840812
leaf_weight=1760 363 19516 525 35 89
leaf_count=1760 363 19516 525 35 89
internal_value=0 0.00115277 0.0392046 0.0749963 0.179884
internal_weight=0 20528 1012 487 124
internal_count=22288 20528 1012 487 124
is_linear=0
shrinkage=0.5


Tree=41
num_leaves=6
num_cat=0
split_feature=3 12 1 6 9
split_gain=1.35266 1.54911 2.93262 7.56657 2.60898
threshold=152.50000000000003 12502.951171875002 1.5000000000000002 -71374.999999999985 844914.90625000012
decision_type=2 2 2 2 2
left_child=1 4 3 -3 -1
right_child=-2 2 -4 -5 -6
leaf_value=0.0053549981084437832 0.008544375694428695 -0.3529582719008128 -0.004273739559493752 -0.02931947653522975 -0.1040070862593976
leaf_weight=6453 3835 21 11795 129 55
leaf_count=6453 3835 21 11795 129 55
internal_value=0 -0.00177574 -0.00515723 -0.0746289 0.00443076
internal_weight=0 18453 11945 150 6508
internal_count=22288 18453 11945 150 6508
is_linear=0
shrinkage=0.5


Tree=42
num_leaves=6
num_cat=0
split_feature=5 3 1 12 27
split_gain=1.12781 3.51077 7.65781 5.63701 2.33653
threshold=5.0949998694704852e-05 1.5000000000000002 1.5000000000000002 12537.831542968752 -96.01399993896483
decision_type=2 2 2 2 2
left_child=1 2 -1 -4 -5
right_child=-2 -3 3 4 -6
leaf_value=-0.11311617330172841 -0.0022484943325896175 0.0032613626573047118 0.2230526381003522 -0.025057135852145366 0.10926197271918932
leaf_weight=49 15924 6116 69 61 69
leaf_count=49 15924 6116 69 61 69
internal_value=0 0.00562618 0.0639457 0.107544 0.0462353
internal_weight=0 6364 248 199 130
internal_count=22288 6364 248 199 130
is_linear=0
shrinkage=0.5


Tree=43
num_leaves=6
num_cat=0
split_feature=4 13 4 17 10
split_gain=0.937726 6.89593 3.28092 4.28637 2.7579
threshold=9986.4824218750018 13529.772460937502 9987.9389648437518 25.001500129699711 3468.6550292968755
decision_type=2 2 2 2 2
left_child=-1 2 -2 -4 -3
right_child=1 4 3 -5 -6
leaf_value=0.00034542709418627514 -0.052836447650554112 0.2147358777444987 -0.36839117971248925 -0.059072814172222501 0.016998533711938019
leaf_weight=22038 74 21 24 21 110
leaf_count=22038 74 21 24 21 110
internal_value=0 -0.0304501 -0.117578 -0.224043 0.0486969
internal_weight=0 250 119 45 131
internal_count=22288 250 119 45 131
is_linear=0
shrinkage=0.5


Tree=44
num_leaves=6
num_cat=0
split_feature=7 13 1 4 7
split_gain=0.827593 7.63922 3.95745 8.78169 6.10123
threshold=-19124.999999999996 15130.011230468752 1.5000000000000002 114.51625061035158 -69124.999999999985
decision_type=2 2 2 2 2
left_child=1 2 -1 4 -4
right_child=-2 -3 3 -5 -6
leaf_value=0.13717569316573003 -0.00052765087501131791 -0.12917897482671273 -0.14426312995117122 0.068642607936499192 0.056006470918102916
leaf_weight=85 21639 78 107 320 59
leaf_count=85 21639 78 107 320 59
internal_value=0 0.017593 0.0376424 0.0202343 -0.073083
internal_weight=0 649 571 486 166
internal_count=22288 649 571 486 166
is_linear=0
shrinkage=0.5


Tree=45
num_leaves=6
num_cat=0
split_feature=9 14 19 5 12
split_gain=1.28351 0.756033 1.70228 1.591 1.82397
threshold=862214.50000000012 2770.7180175781255 26.150000572204593 0.0015250000287778678 9742.5590820312518
decision_type=2 2 2 2 2
left_child=1 2 3 4 -1
right_child=-2 -3 -4 -5 -6
leaf_value=-0.02703538869973272 -0.060612402077571584 0.0005576109999460777 -0.11263101872309368 -0.02833835177824023 0.18394676804365145
leaf_weight=20 87 21937 47 176 21
leaf_count=20 87 21937 47 176 21
internal_value=0 0.000237524 -0.02636 -0.00767454 0.0810286
internal_weight=0 22201 264 217 41
internal_count=22288 22201 264 217 41
is_linear=0
shrinkage=0.5


Tree=46
num_leaves=6
num_cat=0
split_feature=4 10 10 4 9
split_gain=0.724169 3.66987 2.30101 2.46962 1.89532
threshold=18.122449874877933 3198.754516601563 3277.1020507812505 112.98704910278322 819454.06250000012
decision_type=2 2 2 2 2
left_child=-1 -2 4 -4 -3
right_child=1 2 3 -5 -6
leaf_value=-0.0054713077401126447 0.15276038027368485 0.029537549924617233 -0.034067033775138311 0.00084887970144376112 -0.075521453801128596
leaf_weight=4757 40 933 523 15990 45
leaf_count=4757 40 933 523 15990 45
internal_value=0 0.00148463 0.00113868 -0.000256978 0.0247035
internal_weight=0 17531 17491 16513 978
internal_count=22288 17531 17491 16513 978
is_linear=0
shrinkage=0.5


Tree=47
num_leaves=6
num_cat=0
split_feature=3 16 1 1 3
split_gain=0.624977 1.778 5.13407 2.41033 2.403
threshold=62.500000000000007 44.947000503540046 4.5000000000000009 9.5000000000000018 9.5000000000000018
decision_type=2 2 2 2 2
left_child=1 2 -1 4 -4
right_child=-2 -3 3 -5 -6
leaf_value=0.017731964422497325 0.0026148637936191481 -0.0015600186280482153 -0.29588070817291734 -0.041234717148149178 -0.10782511044721413
leaf_weight=182 11283 10673 25 72 53
leaf_count=182 11283 10673 25 72 53
internal_value=0 -0.00268092 -0.0387152 -0.107204 -0.168099
internal_weight=0 11005 332 150 78
internal_count=22288 11005 332 150 78
is_linear=0
shrinkage=0.5


Tree=48
num_leaves=6
num_cat=0
split_feature=4 6 4 3 7
split_gain=0.685461 3.93891 1.83953 4.86525 1.63182
threshold=9986.4824218750018 -19124.999999999996 9987.9389648437518 15.500000000000002 -69124.999999999985
decision_type=2 2 2 2 2
left_child=4 -2 3 -3 -1
right_child=1 2 -4 -5 -6
leaf_value=0.02862061561950259 0.068039046762232949 0.20042348504066468 -0.1179940368865062 -0.08210188674274832 -0.00035819745263997844
leaf_weight=497 77 20 89 64 21541
leaf_count=497 77 20 89 64 21541
internal_value=0 -0.0260341 -0.0679047 -0.0148339 0.000295331
internal_weight=0 250 173 84 22038
internal_count=22288 250 173 84 22038
is_linear=0
shrinkage=0.5


Tree=49
num_leaves=6
num_cat=0
split_feature=4 15 5 0 11
split_gain=1.33747 6.06426 1.79997 10.0317 0.888339
threshold=9992.4790039062518 -0.58149999380111683 0.0016450000111944976 205.50000000000003 12874.690917968752
decision_type=2 2 2 2 2
left_child=2 4 -1 -4 -2
right_child=1 -3 3 -5 -6
leaf_value=-8.3698247344929556e-05 0.13809951853472741 -0.21369274698097157 -0.0088610761630762789 0.37492391679968151 -0.0032780760712921618
leaf_weight=22095 20 37 90 21 25
leaf_count=22095 20 37 90 21 25
internal_value=0 -0.0637389 0.000235368 0.0637469 0.0595564
internal_weight=0 82 22206 111 45
internal_count=22288 82 22206 111 45
is_linear=0
shrinkage=0.5


Tree=50
num_leaves=6
num_cat=0
split_feature=4 12 16 26 9
split_gain=0.67697 1.84134 1.36775 1.20673 1.1474
threshold=9985.9135742187518 12601.341796875002 45.09900093078614 -97.898498535156236 619243.84375000012
decision_type=2 2 2 2 2
left_child=3 -2 -3 -1 -4
right_child=1 2 4 -5 -6
leaf_value=-0.043034278751771987 -0.13264738776805726 0.04557773095225353 0.12100154720246792 -0.00036090696745406735 0.0029655588130552153
leaf_weight=167 22 262 21 20765 1051
leaf_count=167 22 262 21 20765 1051
internal_value=0 0.0108267 0.0131928 -0.000701364 0.00527783
internal_weight=0 1356 1334 20932 1072
internal_count=22288 1356 1334 20932 1072
is_linear=0
shrinkage=0.5


Tree=51
num_leaves=6
num_cat=0
split_feature=22 23 13 13 14
split_gain=0.605176 1.13383 1.68976 0.758169 4.31433
threshold=26.550000190734867 24.44999980926514 9216.3325195312518 9956.8344726562518 3008.9589843750005
decision_type=2 2 2 2 2
left_child=1 -1 -3 4 -2
right_child=3 2 -4 -5 -6
leaf_value=0.0091596811337338931 -0.0049867462680335834 -0.014145524817563239 0.17824411845766008 0.00034362504057757701 -0.12503659003119491
leaf_weight=644 1421 21 25 20098 79
leaf_count=644 1421 21 25 20098 79
internal_value=0 0.0145766 0.0904141 -0.000465686 -0.0113094
internal_weight=0 690 46 21598 1500
internal_count=22288 690 46 21598 1500
is_linear=0
shrinkage=0.5


Tree=52
num_leaves=6
num_cat=0
split_feature=14 12 5 3 14
split_gain=0.65097 3.62514 2.51091 1.07009 1.85135
threshold=2864.4489746093755 10058.074218750002 0.0014049999881535771 36.500000000000007 2749.277954101563
decision_type=2 2 2 2 2
left_child=2 -2 -1 4 -4
right_child=1 -3 3 -5 -6
leaf_value=0.046123607610830779 -0.10415631230820768 -8.2987709126946139e-05 -0.0034941061813798216 0.01863934547603377 -0.10169000641528531
leaf_weight=337 84 21500 144 151 72
leaf_count=337 84 21500 144 151 72
internal_value=0 -0.000488017 0.0149622 -0.013652 -0.0362261
internal_weight=0 21584 704 367 216
internal_count=22288 21584 704 367 216
is_linear=0
shrinkage=0.5


Tree=53
num_leaves=6
num_cat=0
split_feature=4 14 7 5 1
split_gain=0.660286 5.17906 1.2383 6.43148 14.7634
threshold=9992.4790039062518 3827.317016601563 -69124.999999999985 0.00019549999706214297 4.5000000000000009
decision_type=2 2 2 2 2
left_child=2 -2 3 4 -1
right_child=1 -3 -4 -5 -6
leaf_value=0.0076984188011789047 -0.26602752036415039 0.026584094828708219 -0.00044065878994236122 0.088217119028150479 -0.40708119341212773
leaf_weight=319 20 62 21636 228 23
leaf_count=319 20 62 21636 228 23
internal_value=0 -0.0447846 0.000165376 0.0231692 -0.0201961
internal_weight=0 82 22206 570 342
internal_count=22288 82 22206 570 342
is_linear=0
shrinkage=0.5


Tree=54
num_leaves=6
num_cat=0
split_feature=7 21 5 7 7
split_gain=3.72209 1.21255 0.709228 2.99965 2.63949
threshold=-105874.99999999999 26.050000190734867 5.1650000386871404e-05 19125.000000000004 -1.0000000180025095e-35
decision_type=2 2 2 2 2
left_child=-1 2 3 -2 -4
right_child=1 -3 4 -5 -6
leaf_value=0.15845344839869319 0.0019725738319068785 -0.090702897120216813 -0.033013163025800825 0.055266283882612531 -0.00061904108203718615
leaf_weight=37 6621 37 657 275 14661
leaf_count=37 6621 37 657 275 14661
internal_value=0 -0.000263484 -0.000112846 0.00409783 -0.00200845
internal_weight=0 22251 22214 6896 15318
internal_count=22288 22251 22214 6896 15318
is_linear=0
shrinkage=0.5


Tree=55
num_leaves=6
num_cat=0
split_feature=7 6 21 3 14
split_gain=0.930522 0.59265 0.752818 0.484373 2.458
threshold=-105874.99999999999 107125.00000000001 26.050000190734867 2.5000000000000004 3955.410522460938
decision_type=2 2 2 2 2
left_child=-1 2 3 4 -2
right_child=1 -3 -4 -5 -6
leaf_value=0.079226724224517472 0.050424682253128912 0.063969485348530322 -0.078098566211279363 -0.00074875581657311472 -0.0013704559868651168
leaf_weight=37 284 36 31 20716 1184
leaf_count=37 284 36 31 20716 1184
internal_value=0 -0.000131742 -0.00023562 -0.000126814 0.00864986
internal_weight=0 22251 22215 22184 1468
internal_count=22288 22251 22215 22184 1468
is_linear=0
shrinkage=0.5


Tree=56
num_leaves=6
num_cat=0
split_feature=26 2 5 9 4
split_gain=0.503549 2.03607 3.42162 2.67993 3.82708
threshold=-97.401000976562486 396.50000000000006 2.864999987650663e-05 724914.75000000012 4925.1481933593759
decision_type=2 2 2 2 2
left_child=-1 2 -2 4 -4
right_child=1 -3 3 -5 -6
leaf_value=0.00083481486762110855 0.047281422399113253 0.011388335388644807 -0.055871157982612087 0.017426477776104895 0.013404549070673625
leaf_weight=19840 176 947 787 271 267
leaf_count=19840 176 947 787 271 267
internal_value=0 -0.00676582 -0.0182195 -0.02692 -0.0383222
internal_weight=0 2448 1501 1325 1054
internal_count=22288 2448 1501 1325 1054
is_linear=0
shrinkage=0.5


Tree=57
num_leaves=6
num_cat=0
split_feature=27 13 12 9 4
split_gain=0.754889 2.97157 2.0301 2.61507 1.38338
threshold=-96.021999359130845 13944.176757812502 12994.420410156252 632302.65625000012 114.51625061035158
decision_type=2 2 2 2 2
left_child=-1 -2 3 -3 -5
right_child=1 2 -4 4 -6
leaf_value=-0.00035782303035757854 0.10243138745003803 -0.2132991493812629 0.037266011971620501 -0.056543939904524727 0.079920197908694923
leaf_weight=21956 88 21 132 65 26
leaf_count=21956 88 21 132 65 26
internal_value=0 0.0236637 -0.00474426 -0.0542564 -0.0175542
internal_weight=0 332 244 112 91
internal_count=22288 332 244 112 91
is_linear=0
shrinkage=0.5


Tree=58
num_leaves=6
num_cat=0
split_feature=21 26 7 21 23
split_gain=1.47492 1.12465 1.11726 0.932734 4.06462
threshold=26.050000190734867 -97.570999145507798 -105874.99999999999 25.94999980926514 24.550000190734867
decision_type=2 2 2 2 2
left_child=2 -2 -1 -4 -5
right_child=1 -3 3 4 -6
leaf_value=-0.096606789218882716 0.16442595061380416 0.0038855971892189701 -0.0006748703540879567 0.0077037579716393864 0.157804382352424
leaf_weight=30 24 20 21419 747 48
leaf_count=30 24 20 21419 747 48
internal_value=0 0.0914531 -0.0001809 -5.06766e-05 0.0167664
internal_weight=0 44 22244 22214 795
internal_count=22288 44 22244 22214 795
is_linear=0
shrinkage=0.5


Tree=59
num_leaves=6
num_cat=0
split_feature=15 5 4 16 19
split_gain=0.380828 1.08569 1.96358 0.751879 0.978976
threshold=-0.64849999547004689 0.00082549999933689844 17.144399642944339 45.076000213623054 25.94999980926514
decision_type=2 2 2 2 2
left_child=1 2 -1 4 -3
right_child=-2 3 -4 -5 -6
leaf_value=-0.14114407668463314 -0.00031373454009252954 0.027853560927671904 0.0047969328961564514 0.0079904436991599052 0.11405659517941047
leaf_weight=26 21786 87 203 133 53
leaf_count=26 21786 87 203 133 53
internal_value=0 0.0136156 -0.0117728 0.034912 0.0604876
internal_weight=0 502 229 273 140
internal_count=22288 502 229 273 140
is_linear=0
shrinkage=0.5


Tree=60
num_leaves=6
num_cat=0
split_feature=7 12 5 6 13
split_gain=0.733312 0.389498 3.57546 2.55265 9.96113
threshold=-105874.99999999999 12838.174804687502 0.0015550000243820252 -71374.999999999985 13541.162109375002
decision_type=2 2 2 2 2
left_child=-1 3 -3 4 -2
right_child=1 2 -4 -5 -6
leaf_value=0.070331959708316905 0.16201553737962657 -0.0018274884276226102 -0.12636473261076828 0.0026413336565133567 -0.091669115611590177
leaf_weight=37 47 9114 58 12813 219
leaf_count=37 47 9114 58 12813 219
internal_value=0 -0.000116951 -0.00261501 0.00163488 -0.0468451
internal_weight=0 22251 9172 13079 266
internal_count=22288 22251 9172 13079 266
is_linear=0
shrinkage=0.5


Tree=61
num_leaves=6
num_cat=0
split_feature=3 10 16 11 19
split_gain=0.37811 0.939657 0.828271 0.916321 0.584175
threshold=88.500000000000014 3277.1020507812505 44.939001083374031 13109.342285156252 26.150000572204593
decision_type=2 2 2 2 2
left_child=4 -2 -3 -4 -1
right_child=1 2 3 -5 -6
leaf_value=-0.0041808653712491432 0.050465340956602947 0.0452807677072396 -0.0032888200015494945 0.0069752508217074934 0.0027107386743923777
leaf_weight=8506 101 109 4735 4021 4816
leaf_count=8506 101 109 4735 4021 4816
internal_value=0 0.00251032 0.00196396 0.00142473 -0.0016895
internal_weight=0 8966 8865 8756 13322
internal_count=22288 8966 8865 8756 13322
is_linear=0
shrinkage=0.5


Tree=62
num_leaves=6
num_cat=0
split_feature=6 25 4 14 4
split_gain=1.1198 0.316564 0.653142 4.18748 6.03837
threshold=-108124.99999999999 41.149999618530281 9985.6987304687518 3847.7460937500005 9985.9956054687518
decision_type=2 2 2 2 2
left_child=-1 2 -2 -4 -5
right_child=1 -3 3 4 -6
leaf_value=0.085758632624913983 0.00018294558850395345 -0.0027573643750712245 0.0020856979857268713 0.19582045665929015 -0.014261575044436155
leaf_weight=38 13346 7629 1138 71 66
leaf_count=38 13346 7629 1138 71 66
internal_value=0 -0.000146464 0.00121586 0.0120279 0.0946131
internal_weight=0 22250 14621 1275 137
internal_count=22288 22250 14621 1275 137
is_linear=0
shrinkage=0.5


Tree=63
num_leaves=6
num_cat=0
split_feature=23 16 15 4 16
split_gain=0.301718 0.915625 1.00792 0.671053 0.495445
threshold=24.650000572204593 45.614000320434577 -0.63650000095367421 18.257499694824222 45.694999694824226
decision_type=2 2 2 2 2
left_child=4 2 -2 -3 -1
right_child=1 3 -4 -5 -6
leaf_value=0.00027462810672679902 -0.14904197701252997 -0.015055801574878085 -0.017476778960789908 0.088793991843149775 -0.043781486038824369
leaf_weight=22082 24 60 37 21 64
leaf_count=22082 24 60 37 21 64
internal_value=0 -0.0229741 -0.0692401 0.0118682 0.00014731
internal_weight=0 142 61 81 22146
internal_count=22288 142 61 81 22146
is_linear=0
shrinkage=0.5


Tree=64
num_leaves=6
num_cat=0
split_feature=5 14 15 15 4
split_gain=0.347968 2.29151 1.91457 3.63108 2.66823
threshold=0.00097449999884702276 2973.7009277343755 -0.62950000166892994 -0.62149998545646656 18.385450363159183
decision_type=2 2 2 2 2
left_child=1 -1 -3 4 -4
right_child=-2 2 3 -5 -6
leaf_value=0.034178079767837738 -0.0043771531941287399 -0.028657477337074841 0.0046110909495672044 0.00028285712240574609 0.15272578446927262
leaf_weight=503 3772 566 55 17324 68
leaf_count=503 3772 566 55 17324 68
internal_value=0 0.000891695 -3.78034e-05 0.000890651 0.0864956
internal_weight=0 18516 18013 17447 123
internal_count=22288 18516 18013 17447 123
is_linear=0
shrinkage=0.5


Tree=65
num_leaves=6
num_cat=0
split_feature=12 12 23 27 14
split_gain=0.418638 1.56571 0.897617 0.838101 0.682373
threshold=9853.4106445312518 9904.2041015625018 24.550000190734867 -97.744499206542955 2830.6650390625005
decision_type=2 2 2 2 2
left_child=2 3 -1 -2 -3
right_child=1 4 -4 -5 -6
leaf_value=0.027499618293776291 -0.11345955662672287 0.039455821006046179 -0.044233287938707282 -0.015768267319626397 -0.00020427639529977727
leaf_weight=301 46 109 51 42 21739
leaf_count=301 46 109 51 42 21739
internal_value=0 -0.000274503 0.0171065 -0.0668342 -6.41157e-06
internal_weight=0 21936 352 88 21848
internal_count=22288 21936 352 88 21848
is_linear=0
shrinkage=0.5


Tree=66
num_leaves=6
num_cat=0
split_feature=4 5 19 4 4
split_gain=0.343093 1.07505 1.30423 2.15921 1.23226
threshold=9985.8686523437518 0.0015349999885074796 26.250000000000004 9985.1577148437518 4925.1481933593759
decision_type=2 2 2 2 2
left_child=1 4 -3 -4 -1
right_child=-2 2 3 -5 -6
leaf_value=-0.00020204815236552485 0.0070023343955884021 -0.021532261202614738 -0.044632260105572641 0.075828650335390727 0.029405936110353713
leaf_weight=19117 1622 1036 62 93 358
leaf_count=19117 1622 1036 62 93 358
internal_value=0 -0.000549588 -0.0151323 0.0276443 0.000342222
internal_weight=0 20666 1191 155 19475
internal_count=22288 20666 1191 155 19475
is_linear=0
shrinkage=0.5


Tree=67
num_leaves=6
num_cat=0
split_feature=20 7 14 3 21
split_gain=0.399361 2.28305 1.36999 2.07993 1.27176
threshold=27.250000000000004 -105874.99999999999 4418.7185058593759 4.5000000000000009 25.94999980926514
decision_type=2 2 2 2 2
left_child=1 -1 -3 -4 -2
right_child=4 2 3 -5 -6
leaf_value=0.15475077461451292 -0.0045455746015280931 0.00024261279433596675 0.19370379946556807 -0.0092215759047706205 -0.075258562061759279
leaf_weight=24 1737 20410 23 28 66
leaf_count=24 1737 20410 23 28 66
internal_value=0 0.00062791 0.000447129 0.0822938 -0.00713407
internal_weight=0 20485 20461 51 1803
internal_count=22288 20485 20461 51 1803
is_linear=0
shrinkage=0.5


Tree=68
num_leaves=6
num_cat=0
split_feature=12 4 15 3 14
split_gain=0.337678 0.993402 0.617721 0.778289 0.565979
threshold=9853.4106445312518 15.031049728393556 -0.46050000190734858 11.500000000000002 2770.7180175781255
decision_type=2 2 2 2 2
left_child=1 2 3 -1 -2
right_child=4 -3 -4 -5 -6
leaf_value=0.04362199022710099 -0.068876258268331492 0.090612654414517477 0.042366610901594604 -0.024243603405667211 -0.00015254724944222081
leaf_weight=56 30 39 85 172 21906
leaf_count=56 30 39 85 172 21906
internal_value=0 0.0153636 0.00598752 -0.00757486 -0.000246535
internal_weight=0 352 313 228 21936
internal_count=22288 352 313 228 21936
is_linear=0
shrinkage=0.5


Tree=69
num_leaves=6
num_cat=0
split_feature=9 5 4 5 9
split_gain=0.291096 0.851286 0.393095 0.370321 1.13512
threshold=856365.15625000012 5.1549999625422067e-05 255.76020050048831 5.1650000386871404e-05 845732.53125000012
decision_type=2 2 2 2 2
left_child=3 2 -2 -1 -5
right_child=1 -3 -4 4 -6
leaf_value=0.00328820156457917 -0.05173887098004043 0.057183747142142451 -0.0096784023534452826 -0.0013225221221075452 0.11500420074887752
leaf_weight=6728 97 34 130 15278 21
leaf_count=6728 97 34 130 15278 21
internal_value=0 -0.0166001 -0.0276514 0.000196696 -0.00116285
internal_weight=0 261 227 22027 15299
internal_count=22288 261 227 22027 15299
is_linear=0
shrinkage=0.5


Tree=70
num_leaves=6
num_cat=0
split_feature=26 4 21 4 9
split_gain=0.245112 1.17097 0.449305 0.226658 1.61415
threshold=-97.887001037597642 9985.9594726562518 25.550000190734867 9986.4824218750018 736915.25000000012
decision_type=2 2 2 2 2
left_child=1 2 -1 -2 -5
right_child=3 -3 -4 4 -6
leaf_value=-0.065727777282396954 -8.8169137230751979e-05 0.040786515900214197 -0.0016724798075220444 0.014121349142832921 -0.070223481860011816
leaf_weight=30 21494 201 313 163 87
leaf_count=30 21494 201 313 163 87
internal_value=0 0.010483 -0.00727498 -0.000262269 -0.0152307
internal_weight=0 544 343 21744 250
internal_count=22288 544 343 21744 250
is_linear=0
shrinkage=0.5


Tree=71
num_leaves=6
num_cat=0
split_feature=6 14 14 14 14
split_gain=0.360674 0.230688 1.82593 1.24551 1.00231
threshold=-108124.99999999999 2864.4489746093755 2879.484985351563 2850.3339843750005 2830.6650390625005
decision_type=2 2 2 2 2
left_child=-1 3 -3 4 -2
right_child=1 2 -4 -5 -6
leaf_value=0.048670425286553312 0.0091085057338756142 -0.072249796310643433 -7.9376092242467889e-05 0.064465888659469783 -0.048528760592241517
leaf_weight=38 528 88 21458 88 88
leaf_count=38 528 88 21458 88 88
internal_value=0 -8.31225e-05 -0.000374141 0.00882352 0.000874611
internal_weight=0 22250 21546 704 616
internal_count=22288 22250 21546 704 616
is_linear=0
shrinkage=0.5


Tree=72
num_leaves=6
num_cat=0
split_feature=12 4 3 15 15
split_gain=0.260089 2.89035 1.99804 2.93485 2.43912
threshold=12159.414550781252 18.4355001449585 39.500000000000007 -0.62950000166892994 -0.62950000166892994
decision_type=2 2 2 2 2
left_child=1 -1 4 -4 -3
right_child=-2 2 3 -5 -6
leaf_value=-0.00032275061440809922 -0.00087866385008470793 0.064910950704450868 -0.067048163984769163 0.054390708631280878 0.2481608780270273
leaf_weight=4296 17624 104 70 172 22
leaf_count=4296 17624 104 70 172 22
internal_value=0 0.00332023 0.0458481 0.0192638 0.096907
internal_weight=0 4664 368 242 126
internal_count=22288 4664 368 242 126
is_linear=0
shrinkage=0.5


Tree=73
num_leaves=6
num_cat=0
split_feature=4 23 12 11 14
split_gain=0.239447 1.96259 1.02486 1.5442 0.8803
threshold=13.901249885559084 24.050000190734867 12543.661621093752 12993.017578125002 4294.9899902343759
decision_type=2 2 2 2 2
left_child=1 -1 3 4 -3
right_child=-2 2 -4 -5 -6
leaf_value=-0.14340826482153857 0.00033246775297558816 -0.0082880278487549117 0.075219816158119679 -0.14157663494725489 0.063711881039974591
leaf_weight=26 21407 750 39 21 45
leaf_count=26 21407 750 39 21 45
internal_value=0 -0.00807848 -0.00396318 -0.00774767 -0.00421256
internal_weight=0 881 855 816 795
internal_count=22288 881 855 816 795
is_linear=0
shrinkage=0.5


Tree=74
num_leaves=6
num_cat=0
split_feature=20 3 15 3 23
split_gain=0.272343 0.694405 1.98912 1.29302 2.03014
threshold=27.150000572204593 47.500000000000007 -0.62149998545646656 30.500000000000004 24.550000190734867
decision_type=2 2 2 2 2
left_child=-1 3 -3 4 -2
right_child=1 2 -4 -5 -6
leaf_value=0.00092964452427310028 -0.0022583931445524096 -0.065536270560384649 -0.0038148125543642246 0.024529117307231667 -0.092791202951163526
leaf_weight=17373 3623 166 611 452 63
leaf_count=17373 3623 166 611 452 63
internal_value=0 -0.003286 -0.0170011 -0.000710692 -0.00380575
internal_weight=0 4915 777 4138 3686
internal_count=22288 4915 777 4138 3686
is_linear=0
shrinkage=0.5


Tree=75
num_leaves=6
num_cat=0
split_feature=9 15 14 12 6
split_gain=0.245781 0.623664 0.966678 0.268217 1.26505
threshold=486453.79687500006 -0.64049997925758351 2973.7009277343755 12175.895019531252 70375.000000000015
decision_type=2 2 2 2 2
left_child=1 2 -1 4 -2
right_child=3 -3 -4 -5 -6
leaf_value=0.0107887734969457 0.0024444876150181518 0.023046299185905908 -0.12712530798658175 -0.00080245134813812752 0.070643129628624068
leaf_weight=24 4683 37 27 17448 69
leaf_count=24 4683 37 27 17448 69
internal_value=0 -0.026372 -0.0622246 0.000104538 0.00343475
internal_weight=0 88 51 22200 4752
internal_count=22288 88 51 22200 4752
is_linear=0
shrinkage=0.5


Tree=76
num_leaves=6
num_cat=0
split_feature=24 3 9 6 10
split_gain=0.232386 0.7381 0.584752 0.978535 0.416675
threshold=30.849999427795414 2.5000000000000004 662276.18750000012 1.0000000180025095e-35 3277.1020507812505
decision_type=2 2 2 2 2
left_child=1 2 3 -1 -3
right_child=-2 4 -4 -5 -6
leaf_value=0.14807046670882432 -0.00033348294353215298 0.026241050647326913 -0.00027873154936565296 0.018103625454629461 -0.0024835649648011454
leaf_weight=28 21376 156 36 30 662
leaf_count=28 21376 156 36 30 662
internal_value=0 0.00781637 0.0497771 0.0808462 0.00299448
internal_weight=0 912 94 58 818
internal_count=22288 912 94 58 818
is_linear=0
shrinkage=0.5


Tree=77
num_leaves=6
num_cat=0
split_feature=12 14 5 5 12
split_gain=0.226536 1.42574 1.18733 1.85981 1.53447
threshold=10476.839843750002 2973.7009277343755 0.0008205000194720925 0.00095149999833665799 10346.121093750002
decision_type=2 2 2 2 2
left_child=2 -2 4 -4 -1
right_child=1 -3 3 -5 -6
leaf_value=-0.11054968660730019 0.068785295582768552 0.00017680236230103365 0.038844018846539111 -0.0094609461139519915 -0.01508835675677965
leaf_weight=57 76 20716 247 1031 161
leaf_count=57 76 20716 247 1031 161
internal_value=0 0.000427584 -0.00594273 -0.00012501 -0.0400484
internal_weight=0 20792 1496 1278 218
internal_count=22288 20792 1496 1278 218
is_linear=0
shrinkage=0.5


Tree=78
num_leaves=6
num_cat=0
split_feature=16 12 16 25 10
split_gain=0.225671 0.352969 0.321883 0.258328 0.246032
threshold=45.694999694824226 10391.166992187502 45.703001022338874 39.250000000000007 3174.8139648437505
decision_type=2 2 2 2 2
left_child=4 2 -2 -3 -1
right_child=1 3 -4 -5 -6
leaf_value=0.012040182510765659 -0.098817585657040283 0.046910894224825112 -0.021313912260371284 -0.0246042219888685 -0.00012095082847617177
leaf_weight=424 21 23 37 28 21755
leaf_count=424 21 23 37 28 21755
internal_value=0 -0.022695 -0.0493756 0.00764769 0.000111536
internal_weight=0 109 58 51 22179
internal_count=22288 109 58 51 22179
is_linear=0
shrinkage=0.5


Tree=79
num_leaves=6
num_cat=0
split_feature=16 5 25 15 5
split_gain=0.193555 1.42468 1.17454 1.03216 1.14922
threshold=44.951000213623054 3.1749999834573834e-05 39.750000000000007 -0.63650000095367421 0.00019549999706214297
decision_type=2 2 2 2 2
left_child=1 -1 -3 -4 -5
right_child=-2 2 3 4 -6
leaf_value=-0.12814080024448535 0.00024986256456169915 -0.072176589882266787 -0.070129078190637462 -0.0079948528737246605 0.042251100685131278
leaf_weight=24 21665 57 44 322 176
leaf_count=24 21665 57 44 322 176
internal_value=0 -0.00868904 -0.00390299 0.00327707 0.00976275
internal_weight=0 623 599 542 498
internal_count=22288 623 599 542 498
is_linear=0
shrinkage=0.5


Tree=80
num_leaves=6
num_cat=0
split_feature=21 3 16 26 9
split_gain=0.294505 2.91776 0.254993 0.938758 0.280474
threshold=26.050000190734867 7.5000000000000009 44.927000045776374 -97.61700057983397 701721.56250000012
decision_type=2 2 2 2 2
left_child=2 -2 3 -1 -5
right_child=1 -3 -4 4 -6
leaf_value=-0.1136068156497045 0.16389674952496652 -0.093882238604627286 0.00012849841617179264 -0.033416637826400496 0.0016480151298577874
leaf_weight=22 23 21 21909 75 238
leaf_count=22 23 21 21909 75 238
internal_value=0 0.0408659 -8.08352e-05 -0.0137713 -0.00675406
internal_weight=0 44 22244 335 313
internal_count=22288 44 22244 335 313
is_linear=0
shrinkage=0.5


Tree=81
num_leaves=6
num_cat=0
split_feature=6 5 7 4 4
split_gain=0.291811 0.180716 1.5058 1.46433 6.16924
threshold=-108124.99999999999 0.001624999975319952 69125.000000000015 9992.4790039062518 9987.9389648437518
decision_type=2 2 2 2 2
left_child=-1 -2 3 4 -3
right_child=1 2 -4 -5 -6
leaf_value=0.043778269514931661 -0.00033851375168024808 0.0083039395510003302 -0.10404636643441587 -0.084637057180893982 0.26646411915620166
leaf_weight=38 21513 647 29 37 24
leaf_count=38 21513 647 29 37 24
internal_value=0 -7.47674e-05 0.00762398 0.012198 0.0175377
internal_weight=0 22250 737 708 671
internal_count=22288 22250 737 708 671
is_linear=0
shrinkage=0.5


Tree=82
num_leaves=6
num_cat=0
split_feature=4 6 9 10 7
split_gain=0.235119 5.00375 1.79013 1.24275 0.628551
threshold=9987.9389648437518 1.0000000180025095e-35 734800.84375000012 3473.262573242188 69125.000000000015
decision_type=2 2 2 2 2
left_child=4 3 -3 -2 -1
right_child=1 2 -4 -5 -6
leaf_value=-0.00029470375400793665 0.17501628856089982 -0.035422838288264313 -0.17797664414392783 0.034407049821774394 0.016455689023258974
leaf_weight=21547 22 49 40 55 575
leaf_count=21547 22 49 40 55 575
internal_value=0 -0.0187472 -0.099492 0.0745811 0.000140676
internal_weight=0 166 89 77 22122
internal_count=22288 166 89 77 22122
is_linear=0
shrinkage=0.5


Tree=83
num_leaves=6
num_cat=0
split_feature=4 9 5 0 4
split_gain=0.32948 2.09125 0.391369 3.00548 0.280045
threshold=9992.4790039062518 732751.59375000012 0.0016450000111944976 205.50000000000003 9987.9389648437518
decision_type=2 2 2 2 2
left_child=2 -2 4 -4 -1
right_child=1 -3 3 -5 -6
leaf_value=6.9110746531754526e-05 0.01521447891957264 -0.16772419117790247 -0.010010447927682738 0.20005639979527109 -0.031383294576096912
leaf_weight=22024 61 21 90 21 71
leaf_count=22024 61 21 90 21 71
internal_value=0 -0.0316357 0.000116821 0.0297319 -3.19583e-05
internal_weight=0 82 22206 111 22095
internal_count=22288 82 22206 111 22095
is_linear=0
shrinkage=0.5


Tree=84
num_leaves=6
num_cat=0
split_feature=3 12 6 27 13
split_gain=0.202707 0.246059 1.18481 1.35226 1.02185
threshold=171.50000000000003 12532.341308593752 -71374.999999999985 -97.805999755859361 13486.553710937502
decision_type=2 2 2 2 2
left_child=1 2 3 4 -1
right_child=-2 -3 -4 -5 -6
leaf_value=0.094533187825055348 0.0044269594578023423 -0.0019070992701526717 0.002494481320372206 -0.099860650991074371 -0.039522354956716299
leaf_weight=21 2317 12249 7596 61 44
leaf_count=21 2317 12249 7596 61 44
internal_value=0 -0.000513608 0.00169681 -0.0463912 0.0037879
internal_weight=0 19971 7722 126 65
internal_count=22288 19971 7722 126 65
is_linear=0
shrinkage=0.5


Tree=85
num_leaves=6
num_cat=0
split_feature=6 27 4 4 4
split_gain=0.391418 0.200984 1.00407 1.62972 1.00979
threshold=-108124.99999999999 -96.021999359130845 4922.8898925781259 507.75535583496099 9968.0097656250018
decision_type=2 2 2 2 2
left_child=-1 -2 3 -3 -4
right_child=1 2 4 -5 -6
leaf_value=0.050702357373666018 -0.00027154284823343244 -0.0060708651781763903 -0.10995414812738696 0.074819391084574388 0.0090094812912866473
leaf_weight=38 21918 153 30 105 44
leaf_count=38 21918 153 30 105 44
internal_value=0 -8.65928e-05 0.0121235 0.0268496 -0.039219
internal_weight=0 22250 332 258 74
internal_count=22288 22250 332 258 74
is_linear=0
shrinkage=0.5


Tree=86
num_leaves=6
num_cat=0
split_feature=20 3 5 18 10
split_gain=0.203129 0.593801 3.22646 4.43279 2.14659
threshold=27.150000572204593 1.5000000000000002 7.980000009411016e-05 26.750000000000004 3446.713012695313
decision_type=2 2 2 2 2
left_child=-1 2 -2 4 -4
right_child=1 -3 3 -5 -6
leaf_value=0.00080286843585063758 0.027587133151450987 -0.0010867828975354447 -0.21638157476432796 0.0055661804250203405 -0.077240283541285842
leaf_weight=17373 199 4462 43 133 78
leaf_count=17373 199 4462 43 133 78
internal_value=0 -0.00283789 -0.0200861 -0.0574364 -0.126687
internal_weight=0 4915 453 254 121
internal_count=22288 4915 453 254 121
is_linear=0
shrinkage=0.5


Tree=87
num_leaves=6
num_cat=0
split_feature=27 3 12 6 1
split_gain=0.279 0.699132 2.45309 5.28304 6.54334
threshold=-96.13000106811522 2.5000000000000004 13048.733886718752 5000.0000000000009 5.5000000000000009
decision_type=2 2 2 2 2
left_child=-1 -2 3 -3 -5
right_child=1 2 -4 4 -6
leaf_value=0.00041413450066968537 0.0081660109837875614 -0.017383116673219626 0.0081976537299245904 -0.028538125027861336 -0.34891395568847655
leaf_weight=21130 439 245 410 34 30
leaf_count=21130 439 245 410 34 30
internal_value=0 -0.0075567 -0.0171565 -0.050798 -0.178714
internal_weight=0 1158 719 309 64
internal_count=22288 1158 719 309 64
is_linear=0
shrinkage=0.5


Tree=88
num_leaves=6
num_cat=0
split_feature=7 4 5 4 4
split_gain=0.295845 4.8809 4.15489 1.83847 1.66748
threshold=69125.000000000015 1019.9602661132814 0.0008205000194720925 254.99544525146487 255.78684997558597
decision_type=2 2 2 2 2
left_child=-1 3 -3 -2 -5
right_child=1 2 -4 4 -6
leaf_value=-0.00029934058851124353 0.0018453056534267083 -0.18021987063380387 -0.0068413501399686759 0.16219813586809698 0.049224878730401815
leaf_weight=21702 191 52 103 39 201
leaf_count=21702 191 52 103 39 201
internal_value=0 0.0110858 -0.065007 0.038451 0.067583
internal_weight=0 586 155 431 240
internal_count=22288 586 155 431 240
is_linear=0
shrinkage=0.5


Tree=89
num_leaves=6
num_cat=0
split_feature=26 13 0 6 15
split_gain=0.253146 0.217667 3.19242 1.78362 1.99313
threshold=-95.775501251220689 14615.318359375002 206.50000000000003 -19124.999999999996 -0.48849999904632563
decision_type=2 2 2 2 2
left_child=1 -1 -3 4 -4
right_child=-2 2 3 -5 -6
leaf_value=0.00076157826792802618 -0.035537189268507061 -0.1659247238188982 0.10760767932360371 -0.0042311243741032208 -0.026438366298944773
leaf_weight=18689 50 30 75 3400 44
leaf_count=18689 50 30 75 3400 44
internal_value=0 7.99019e-05 -0.0035098 -0.00212519 0.0580444
internal_weight=0 22238 3549 3519 119
internal_count=22288 22238 3549 3519 119
is_linear=0
shrinkage=0.5


Tree=90
num_leaves=6
num_cat=0
split_feature=21 17 7 22 16
split_gain=0.293065 1.2499 1.18693 0.23453 1.1735
threshold=26.050000190734867 24.996500015258793 -105874.99999999999 26.750000000000004 45.037000656127937
decision_type=2 2 2 2 2
left_child=2 -2 -1 -4 -5
right_child=1 -3 3 4 -6
leaf_value=-0.099467491482694945 0.12503757039931687 -0.043505797247317707 -0.00082234274777125355 0.067821463711985358 0.0021613268530701608
leaf_weight=30 22 22 17211 69 4934
leaf_count=30 22 22 17211 69 4934
internal_value=0 0.0407659 -8.06374e-05 5.35845e-05 0.00306689
internal_weight=0 44 22244 22214 5003
internal_count=22288 44 22244 22214 5003
is_linear=0
shrinkage=0.5


Tree=91
num_leaves=6
num_cat=0
split_feature=4 6 21 3 13
split_gain=0.19765 1.98577 1.3654 1.00535 1.61146
threshold=113.04545211791994 -71374.999999999985 25.849999427795414 49.500000000000007 9883.9179687500018
decision_type=2 2 2 2 2
left_child=1 -1 -2 -3 -5
right_child=2 3 -4 4 -6
leaf_value=-0.056147810998498214 0.0011364839360741283 0.0048610533681905663 -0.11353858875540587 -0.04760778527935712 -0.0042914872516400561
leaf_weight=167 15829 3427 26 234 2605
leaf_count=167 15829 3427 26 234 2605
internal_value=0 -0.00233754 0.000948433 -0.000903402 -0.00786176
internal_weight=0 6433 15855 6266 2839
internal_count=22288 6433 15855 6266 2839
is_linear=0
shrinkage=0.5


Tree=92
num_leaves=6
num_cat=0
split_feature=21 15 7 22 4
split_gain=0.223078 1.05618 0.278555 0.178274 0.409654
threshold=26.050000190734867 -0.52150002121925343 -105874.99999999999 27.150000572204593 507.75535583496099
decision_type=2 2 2 2 2
left_child=2 -2 -1 -4 -5
right_child=1 -3 3 4 -6
leaf_value=-0.048217626598974071 -0.035150249876702823 0.12042685530614108 -0.00010839882893482805 -0.043796864615398501 0.033298128662863746
leaf_weight=30 24 20 22097 21 96
leaf_count=30 24 20 22097 21 96
internal_value=0 0.0355666 -7.0353e-05 -5.33009e-06 0.0194606
internal_weight=0 44 22244 22214 117
internal_count=22288 44 22244 22214 117
is_linear=0
shrinkage=0.5


Tree=93
num_leaves=6
num_cat=0
split_feature=6 12 0 4 4
split_gain=0.455477 0.180136 1.49739 0.695347 0.460915
threshold=-108124.99999999999 12674.827636718752 206.50000000000003 9992.4790039062518 4924.9392089843759
decision_type=2 2 2 2 2
left_child=-1 3 -3 4 -2
right_child=1 2 -4 -5 -6
leaf_value=0.054694153154023775 0.00056803629196973122 -0.10478507450648716 -0.0012005851511781229 -0.076007395404680017 0.012367110907002319
leaf_weight=38 10301 35 10985 29 900
leaf_count=38 10301 35 10985 29 900
internal_value=0 -9.34103e-05 -0.00152957 0.0013159 0.00151609
internal_weight=0 22250 11020 11230 11201
internal_count=22288 22250 11020 11230 11201
is_linear=0
shrinkage=0.5


Tree=94
num_leaves=6
num_cat=0
split_feature=27 15 9 4 14
split_gain=0.1742 0.203615 0.144122 0.485431 0.232289
threshold=-95.967998504638658 -0.49650000035762781 486453.79687500006 18.385450363159183 2973.7009277343755
decision_type=2 2 2 2 2
left_child=2 -2 3 4 -1
right_child=1 -3 -4 -5 -6
leaf_value=-0.011011566606942903 -0.066342601389624181 -0.0093147396336361356 0.00017037729076816029 0.046227159383263258 -0.069899315384271396
leaf_weight=33 20 72 22108 21 34
leaf_count=33 20 72 22108 21 34
internal_value=0 -0.0217121 8.99943e-05 -0.0201044 -0.0408949
internal_weight=0 92 22196 88 67
internal_count=22288 92 22196 88 67
is_linear=0
shrinkage=0.5


Tree=95
num_leaves=6
num_cat=0
split_feature=7 17 5 4 27
split_gain=0.445721 0.140267 0.363872 0.257554 0.162754
threshold=-105874.99999999999 25.01149940490723 0.00082950000069104146 14.239749908447267 -97.847999572753892
decision_type=2 2 2 2 2
left_child=-1 -2 3 -3 -4
right_child=1 2 4 -5 -6
leaf_value=0.054832762157594833 -0.0002809283253471404 0.04893763310773748 0.010015917773125693 0.0001874542244656624 0.066271171323023736
leaf_weight=37 21754 29 20 412 36
leaf_count=37 21754 29 20 412 36
internal_value=0 -9.11785e-05 0.00821429 0.00339325 0.04618
internal_weight=0 22251 497 441 56
internal_count=22288 22251 497 441 56
is_linear=0
shrinkage=0.5


Tree=96
num_leaves=6
num_cat=0
split_feature=6 23 4 3 15
split_gain=0.199035 0.159741 0.293534 0.146563 0.739015
threshold=107125.00000000001 23.750000000000004 113.56874847412111 30.500000000000004 -0.64849999547004689
decision_type=2 2 2 2 2
left_child=1 2 -1 -3 -5
right_child=-2 3 -4 4 -6
leaf_value=-0.017447529161082848 0.037147720971713878 -0.0019784563336872987 0.059627505777946982 0.031586931343637069 0.00036618233565964846
leaf_weight=21 36 7201 30 192 14808
leaf_count=21 36 7201 30 192 14808
internal_value=0 -6.00988e-05 0.0278907 -0.000124307 0.000765808
internal_weight=0 22252 51 22201 15000
internal_count=22288 22252 51 22201 15000
is_linear=0
shrinkage=0.5


Tree=97
num_leaves=6
num_cat=0
split_feature=11 20 10 3 3
split_gain=0.160348 0.765789 0.5299 0.522576 1.49463
threshold=11599.271484375002 26.94999980926514 3198.754516601563 11.500000000000002 29.500000000000004
decision_type=2 2 2 2 2
left_child=1 -1 -2 -3 -5
right_child=2 3 -4 4 -6
leaf_value=0.091749289096333092 0.051240611599995663 0.010740845266692734 0.00021237722840228637 -0.036126366466649823 0.0036040184034069216
leaf_weight=20 51 319 20917 399 582
leaf_count=20 51 319 20917 399 582
internal_value=0 -0.00534513 0.000336492 -0.00683889 -0.0125554
internal_weight=0 1320 20968 1300 981
internal_count=22288 1320 20968 1300 981
is_linear=0
shrinkage=0.5


Tree=98
num_leaves=6
num_cat=0
split_feature=16 5 23 3 10
split_gain=0.153829 1.18336 0.768678 1.08853 1.66643
threshold=45.05999946594239 2.9650000215042386e-05 24.150000572204593 40.500000000000007 3440.213012695313
decision_type=2 2 2 2 2
left_child=1 -1 -3 4 -4
right_child=-2 2 3 -5 -6
leaf_value=-0.11033086170968802 -0.00062413312043467354 -0.0011723737447876163 0.056660686527096542 0.0017230623974461754 -0.001713153223524596
leaf_weight=23 18183 2826 287 756 213
leaf_count=23 18183 2826 287 756 213
internal_value=0 0.00276458 0.00340182 0.0136938 0.0317934
internal_weight=0 4105 4082 1256 500
internal_count=22288 4105 4082 1256 500
is_linear=0
shrinkage=0.5


Tree=99
num_leaves=6
num_cat=0
split_feature=11 27 3 3 3
split_gain=0.258518 0.640265 0.846864 0.880832 0.798414
threshold=11620.142089843752 -97.786499023437486 3.5000000000000004 4.5000000000000009 2.5000000000000004
decision_type=2 2 2 2 2
left_child=1 -1 4 -4 -3
right_child=-2 2 3 -5 -6
leaf_value=-0.028909240834819959 0.00044219672118928614 -0.012652870495803653 0.076731409137256637 0.00013067394075417965 -0.10161410239954038
leaf_weight=261 20880 75 39 995 38
leaf_count=261 20880 75 39 995 38
internal_value=0 -0.00655758 -0.00147145 0.00301987 -0.042569
internal_weight=0 1408 1147 1034 113
internal_count=22288 1408 1147 1034 113
is_linear=0
shrinkage=0.5


end of trees

feature_importances:
Column_4=77
Column_3=52
Column_7=41
Column_5=39
Column_6=37
Column_14=30
Column_12=27
Column_10=24
Column_15=23
Column_13=21
Column_1=17
Column_9=17
Column_11=15
Column_16=15
Column_21=11
Column_27=11
Column_23=8
Column_0=6
Column_26=6
Column_2=4
Column_19=4
Column_20=4
Column_17=3
Column_22=3
Column_25=3
Column_18=1
Column_24=1

parameters:
[boosting: gbdt]
[objective: regression]
[metric: l1]
[tree_learner: serial]
[device_type: cpu]
[data: ]
[valid: ]
[num_iterations: 100]
[learning_rate: 0.5]
[num_leaves: 6]
[num_threads: 0]
[deterministic: 0]
[force_col_wise: 0]
[force_row_wise: 0]
[histogram_pool_size: -1]
[max_depth: 6]
[min_data_in_leaf: 20]
[min_sum_hessian_in_leaf: 0.001]
[bagging_fraction: 0.7]
[pos_bagging_fraction: 1]
[neg_bagging_fraction: 1]
[bagging_freq: 0]
[bagging_seed: 400]
[feature_fraction: 0.7]
[feature_fraction_bynode: 1]
[feature_fraction_seed: 30056]
[extra_trees: 0]
[extra_seed: 12879]
[early_stopping_round: 0]
[first_metric_only: 0]
[max_delta_step: 0]
[lambda_l1: 0]
[lambda_l2: 0]
[linear_lambda: 0]
[min_gain_to_split: 0]
[drop_rate: 0.8]
[max_drop: 50]
[skip_drop: 0.8]
[xgboost_dart_mode: 0]
[uniform_drop: 0]
[drop_seed: 17869]
[top_rate: 0.2]
[other_rate: 0.1]
[min_data_per_group: 100]
[max_cat_threshold: 32]
[cat_l2: 10]
[cat_smooth: 10]
[max_cat_to_onehot: 4]
[top_k: 20]
[monotone_constraints: ]
[monotone_constraints_method: basic]
[monotone_penalty: 0]
[feature_contri: ]
[forcedsplits_filename: ]
[refit_decay_rate: 0.9]
[cegb_tradeoff: 1]
[cegb_penalty_split: 0]
[cegb_penalty_feature_lazy: ]
[cegb_penalty_feature_coupled: ]
[path_smooth: 0]
[interaction_constraints: ]
[verbosity: 1]
[saved_feature_importance_type: 0]
[linear_tree: 0]
[max_bin: 255]
[max_bin_by_feature: ]
[min_data_in_bin: 3]
[bin_construct_sample_cnt: 200000]
[data_random_seed: 175]
[is_enable_sparse: 1]
[enable_bundle: 1]
[use_missing: 1]
[zero_as_missing: 0]
[feature_pre_filter: 1]
[pre_partition: 0]
[two_round: 0]
[header: 0]
[label_column: ]
[weight_column: ]
[group_column: ]
[ignore_column: ]
[categorical_feature: ]
[forcedbins_filename: ]
[precise_float_parser: 0]
[objective_seed: 16083]
[num_class: 1]
[is_unbalance: 0]
[scale_pos_weight: 1]
[sigmoid: 1]
[boost_from_average: 1]
[reg_sqrt: 0]
[alpha: 0.9]
[fair_c: 1]
[poisson_max_delta_step: 0.7]
[tweedie_variance_power: 1.5]
[lambdarank_truncation_level: 30]
[lambdarank_norm: 1]
[label_gain: ]
[eval_at: ]
[multi_error_top_k: 1]
[auc_mu_weights: ]
[num_machines: 1]
[local_listen_port: 12400]
[time_out: 120]
[machine_list_filename: ]
[machines: ]
[gpu_platform_id: -1]
[gpu_device_id: -1]
[gpu_use_dp: 0]
[num_gpu: 1]

end of parameters

pandas_categorical:null
