tree
version=v3
num_class=1
num_tree_per_iteration=1
label_index=0
max_feature_idx=22
objective=regression
feature_names=Column_0 Column_1 Column_2 Column_3 Column_4 Column_5 Column_6 Column_7 Column_8 Column_9 Column_10 Column_11 Column_12 Column_13 Column_14 Column_15 Column_16 Column_17 Column_18 Column_19 Column_20 Column_21 Column_22
feature_infos=[2.0600000425474718e-05:0.071199998259544373] [-110250:110250] [-110250:110250] [-1514:-1500] [27413.599609375:891620.6875] [962.21502685546875:3783.802978515625] [1046.031005859375:14591.265625] [1102.8590087890625:13930.2470703125] [1456.342041015625:16048.3212890625] [1098.2850341796875:4497.93798828125] [-0.67000001668930054:0.27399998903274536] [44.854999542236328:45.7239990234375] [24.972999572753906:25.024999618530273] [26.200000762939453:27.299999237060547] [25.799999237060547:26.600000381469727] [26.899999618530273:27.899999618530273] [25.399999618530273:26.100000381469727] [26.399999618530273:27.200000762939453] [23.700000762939453:24.700000762939453] [30:35.299999237060547] [36.900001525878906:43.599998474121094] [-97.952003479003906:-95.740997314453125] [-98.0989990234375:-95.902999877929688]
tree_sizes=678 681 686 682 675 676 682 671 673 654 653 666 644 644 643 634 650 643 640 648 654 647 664 662 651 651 631 650 648 663 670 650 657 653 653 638 644 639 655 656 658 635 651 630 641 640 641 650 638 632 627 645 638 650 630 646 656 648 660 645 657 647 650 631 645 648 659 653 646 653 658 636 644 638 645 639 646 633 641 646 644 643 633 626 648 657 652 634 652 651 647 628 639 647 645 646 648 655 640 641

Tree=0
num_leaves=6
num_cat=0
split_feature=9 5 10 8 8
split_gain=1.15181e+11 9.70764e+10 3.52978e+10 1.40645e+09 3.09803e+08
threshold=4109.4411621093759 3385.0825195312505 -0.54850000143051136 13732.458984375002 15025.517089843752
decision_type=2 2 2 2 2
left_child=1 -1 -3 -2 -5
right_child=3 2 -4 4 -6
leaf_value=1054.8324204511887 1553.3982616532371 6038.2986088725484 3512.3013863688711 1108.6950275506117 1298.5554339616215
leaf_weight=2565 2773 2768 2764 8548 2870
leaf_count=2565 2773 2768 2764 8548 2870
internal_value=2092.57 3597.34 4776.21 1233.99 1156.42
internal_weight=0 8097 5532 14191 11418
internal_count=22288 8097 5532 14191 11418
is_linear=0
shrinkage=1


Tree=1
num_leaves=6
num_cat=0
split_feature=0 4 0 3 7
split_gain=4.24309e+10 6.4242e+09 6.3333e+09 6.44801e+09 3.63926e+08
threshold=0.0014950000331737103 594302.40625000012 0.00064450001809746038 -1506.9999999999998 12836.479492187502
decision_type=2 2 2 2 2
left_child=2 -2 4 -4 -1
right_child=1 -3 3 -5 -6
leaf_value=-523.97631407690176 -519.85923397666534 1974.2453451796107 -518.93790800401439 719.00207934226205 -364.88636206034903
leaf_weight=6157 285 2744 1697 2767 8638
leaf_count=6157 285 2744 1697 2767 8638
internal_value=0 1739.57 -273.595 248.396 -431.092
internal_weight=0 3029 19259 4464 14795
internal_count=22288 3029 19259 4464 14795
is_linear=0
shrinkage=0.5


Tree=2
num_leaves=6
num_cat=0
split_feature=0 3 0 3 8
split_gain=1.06875e+10 1.84789e+09 1.54055e+09 1.56399e+09 1.79129e+08
threshold=0.0014450000016950073 -1506.9999999999998 0.00063149997731670748 -1506.9999999999998 13732.458984375002
decision_type=2 2 2 2 2
left_child=2 -2 4 -4 -1
right_child=1 -3 3 -5 -6
leaf_value=-114.73936500618382 -264.50034542902847 993.94828575181054 -259.36585213566218 350.56742324469877 -246.78270109386634
leaf_weight=3314 326 2773 1697 2761 11417
leaf_count=3314 326 2773 1697 2761 11417
internal_value=0 861.565 -139.142 118.388 -217.077
internal_weight=0 3099 19189 4458 14731
internal_count=22288 3099 19189 4458 14731
is_linear=0
shrinkage=0.5


Tree=3
num_leaves=6
num_cat=0
split_feature=0 7 0 3 7
split_gain=2.67188e+09 4.6485e+08 3.85136e+08 3.90996e+08 5.85925e+07
threshold=0.0014450000016950073 12551.353515625002 0.00063149997731670748 -1506.9999999999998 12473.640625000002
decision_type=2 2 2 2 2
left_child=2 -2 4 -4 -1
right_child=1 -3 3 -5 -6
leaf_value=-166.67211479171064 -128.26774229486304 497.86071878811663 -129.682926238672 175.28371668466403 -91.433604067144017
leaf_weight=3349 332 2767 1697 2761 11382
leaf_count=3349 332 2767 1697 2761 11382
internal_value=0 430.783 -69.5709 59.1939 -108.539
internal_weight=0 3099 19189 4458 14731
internal_count=22288 3099 19189 4458 14731
is_linear=0
shrinkage=0.5


Tree=4
num_leaves=6
num_cat=0
split_feature=0 0 3 5 0
split_gain=6.6797e+08 1.27779e+08 1.17133e+08 1.05767e+08 4.93681e+07
threshold=0.0014450000016950073 7.765000191284345e-05 -1506.9999999999998 3400.5429687500005 0.0014950000331737103
decision_type=2 2 2 2 2
left_child=1 -1 -2 -3 -4
right_child=2 3 4 -5 -6
leaf_value=-68.617019609876181 -68.1163014839032 -76.723442468887725 909.2782832554409 51.528918353321743 241.98323621072404
leaf_weight=11371 326 2262 28 5556 2745
leaf_count=11371 326 2262 28 5556 2745
internal_value=0 -34.7854 215.391 14.4214 248.721
internal_weight=0 19189 3099 7818 2773
internal_count=22288 19189 3099 7818 2773
is_linear=0
shrinkage=0.5


Tree=5
num_leaves=6
num_cat=0
split_feature=0 5 0 9 9
split_gain=1.69253e+08 8.67717e+07 2.25722e+07 2.49741e+07 1.32307e+07
threshold=0.00063149997731670748 3385.0825195312505 0.00064450001809746038 3954.3159179687505 4327.6933593750009
decision_type=2 2 2 2 2
left_child=4 -2 -3 -4 -1
right_child=1 2 3 -5 -6
leaf_value=-43.331456619073307 -27.751135121221129 598.69145618785512 124.29233218803896 56.964098387465604 -12.68711166154381
leaf_weight=8903 2024 22 2804 2707 5828
leaf_count=8903 2024 22 2804 2707 5828
internal_value=0 60.8337 93.2385 91.2207 -31.2077
internal_weight=0 7557 5533 5511 14731
internal_count=22288 7557 5533 5511 14731
is_linear=0
shrinkage=0.5


Tree=6
num_leaves=6
num_cat=0
split_feature=0 5 0 0 0
split_gain=4.23133e+07 2.18006e+07 7.77866e+06 5.63019e+06 6.06861e+06
threshold=0.00063149997731670748 3422.2590332031255 3.2650001230649657e-05 0.00064450001809746038 0.0014450000016950073
decision_type=2 2 2 2 2
left_child=2 -2 -1 -3 -5
right_child=1 3 -4 4 -6
leaf_value=-67.552373752843863 -13.306331030412572 299.345722545277 -13.062641398956279 28.991129392060124 62.318041714754969
leaf_weight=687 2070 22 14044 2693 2772
leaf_count=687 2070 22 14044 2693 2772
internal_value=0 30.4169 -15.6038 46.9117 45.8955
internal_weight=0 7557 14731 5487 5465
internal_count=22288 7557 14731 5487 5465
is_linear=0
shrinkage=0.5


Tree=7
num_leaves=6
num_cat=0
split_feature=0 6 16 7 0
split_gain=1.05783e+07 5.56352e+06 4.013e+06 3.62924e+06 9.69635e+06
threshold=0.00063149997731670748 12654.488769531252 25.849999427795414 13074.221679687502 0.0014950000331737103
decision_type=2 2 2 2 2
left_child=2 -2 -1 -3 -5
right_child=1 3 -4 4 -6
leaf_value=-5.9352535051721773 -7.2224015635935217 20.820317475075779 -44.286565895692405 361.33397238595143 46.162684540999564
leaf_weight=14014 2024 5315 717 28 190
leaf_count=14014 2024 5315 717 28 190
internal_value=0 15.2084 -7.80192 23.4137 86.6434
internal_weight=0 7557 14731 5533 218
internal_count=22288 7557 14731 5533 218
is_linear=0
shrinkage=0.5


Tree=8
num_leaves=6
num_cat=0
split_feature=7 9 10 6 8
split_gain=3.19361e+06 3.12238e+06 3.5165e+06 1.89197e+06 1.52583e+06
threshold=12240.425292968752 3954.3159179687505 -0.55149999260902394 13420.215332031252 14328.421875000002
decision_type=2 2 2 2 2
left_child=-1 2 -2 -3 -5
right_child=1 3 -4 4 -6
leaf_value=-10.860631206610996 16.915106458403848 3.6129447313489442 201.66415187028738 15.639494887487157 -13.974058687332365
leaf_weight=5192 2750 10786 26 508 3026
leaf_count=5192 2750 10786 26 508 3026
internal_value=0 3.29834 18.6455 0.323225 -9.71722
internal_weight=0 17096 2776 14320 3534
internal_count=22288 17096 2776 14320 3534
is_linear=0
shrinkage=0.5


Tree=9
num_leaves=6
num_cat=0
split_feature=10 17 7 10 7
split_gain=959452 1.37175e+06 1.16776e+06 3.34369e+06 927782
threshold=-0.49250000715255732 27.050000190734867 13009.827148437502 -0.55149999260902394 12277.347167968752
decision_type=2 2 2 2 2
left_child=1 4 -3 -4 -1
right_child=-2 2 3 -5 -6
leaf_value=-5.501934954544514 -12.468488424173662 6.589758096282015 31.857105365166298 265.64446749687193 2.3582038393458684
leaf_weight=4931 1443 97 65 20 15732
leaf_count=4931 1443 97 65 20 15732
internal_value=0 0.863134 44.0814 86.8659 0.482467
internal_weight=0 20845 182 85 20663
internal_count=22288 20845 182 85 20663
is_linear=0
shrinkage=0.5


Tree=10
num_leaves=6
num_cat=0
split_feature=5 7 8 7 8
split_gain=1.19596e+06 668453 1.4174e+06 535012 565584
threshold=3671.276000976563 13487.604980468752 15025.517089843752 12623.489257812502 14328.421875000002
decision_type=2 2 2 2 2
left_child=3 -2 -3 4 -1
right_child=1 2 -4 -5 -6
leaf_value=-1.5224175563421445 -46.350441563072387 14.951003934061804 -78.569067181281326 2.8700393250336305 -26.334059488012436
leaf_weight=10149 209 172 53 11470 235
leaf_count=10149 209 172 53 11470 235
internal_value=0 -25.9904 -7.07817 0.516145 -2.08393
internal_weight=0 434 225 21854 10384
internal_count=22288 434 225 21854 10384
is_linear=0
shrinkage=0.5


Tree=11
num_leaves=6
num_cat=0
split_feature=0 0 5 3 19
split_gain=1.17392e+06 1.08351e+06 1.38793e+06 628123 533918
threshold=0.0017249999800696971 0.00061250000726431619 3615.6574707031255 -1506.9999999999998 30.750000000000004
decision_type=2 2 2 2 2
left_child=1 3 4 -1 -3
right_child=-2 2 -4 -5 -6
leaf_value=-20.193884186555547 -106.18169283866882 35.745950126206431 122.58835266232491 -1.7847098813423925 4.0175449557959197
leaf_weight=479 26 135 25 14189 7434
leaf_count=479 26 135 25 14189 7434
internal_value=0 0.124011 4.97193 -2.38588 4.58345
internal_weight=0 22262 7594 14668 7569
internal_count=22288 22262 7594 14668 7569
is_linear=0
shrinkage=0.5


Tree=12
num_leaves=6
num_cat=0
split_feature=0 5 0 9 8
split_gain=560691 339433 315268 205062 223901
threshold=5.9949999922537252e-05 3615.6574707031255 0.0017249999800696971 4423.2939453125009 15025.517089843752
decision_type=2 2 2 2 2
left_child=3 2 -2 4 -1
right_child=1 -3 -4 -5 -6
leaf_value=-3.296914684696723 2.0207169681830646 59.098961023183968 -53.0908443744366 11.338928206695174 -34.205180240889725
leaf_weight=8496 13442 26 26 239 59
leaf_count=8496 13442 26 26 239 59
internal_value=0 2.02451 1.91432 -3.10651 -3.51008
internal_weight=0 13494 13468 8794 8555
internal_count=22288 13494 13468 8794 8555
is_linear=0
shrinkage=0.5


Tree=13
num_leaves=6
num_cat=0
split_feature=6 5 14 19 9
split_gain=262545 384110 253096 1.18829e+06 215926
threshold=13343.310546875002 3506.321899414063 26.44999980926514 31.050000190734867 3910.5629882812505
decision_type=2 2 2 2 2
left_child=2 -2 -1 -4 -3
right_child=1 4 3 -5 -6
leaf_value=0.6149340643907657 -66.87242594097431 -25.765347108386813 125.86190110704173 0.69441418515311348 -2.7641600060796172
leaf_weight=18416 24 105 23 108 3612
leaf_count=18416 24 105 23 108 3612
internal_value=0 -3.82102 0.770715 22.6704 -3.41391
internal_weight=0 3741 18547 131 3717
internal_count=22288 3741 18547 131 3717
is_linear=0
shrinkage=0.5


Tree=14
num_leaves=6
num_cat=0
split_feature=10 0 19 14 16
split_gain=222618 180572 346624 1.5871e+06 258792
threshold=-0.44150000810623163 0.00083249999443069111 30.750000000000004 26.44999980926514 25.650000572204593
decision_type=2 2 2 2 2
left_child=1 -1 3 4 -3
right_child=-2 2 -4 -5 -6
leaf_value=-0.64122256862647953 -49.165646553039551 32.197845952851431 2.3022430474688567 143.96181042989096 -29.859171685718355
leaf_weight=18011 23 28 4160 24 42
leaf_count=18011 23 28 4160 24 42
internal_value=0 0.0507887 2.98069 33.0057 -5.03636
internal_weight=0 22265 4254 94 70
internal_count=22288 22265 4254 94 70
is_linear=0
shrinkage=0.5


Tree=15
num_leaves=6
num_cat=0
split_feature=2 9 10 14 9
split_gain=156633 168022 155128 118998 912790
threshold=105875.00000000001 2725.546020507813 -0.46050000190734858 26.44999980926514 3904.246948242188
decision_type=2 2 2 2 2
left_child=1 2 -1 -3 -5
right_child=-2 3 -4 4 -6
leaf_value=9.6627641655504704 -31.65915205539801 0.13669395318204708 58.333027362823486 93.703404313042057 -13.060242338961377
leaf_weight=64 39 21713 22 21 429
leaf_count=64 39 21713 22 21 429
internal_value=0 0.0554949 22.1133 -0.0300969 -8.07794
internal_weight=0 22249 86 22163 450
internal_count=22288 22249 86 22163 450
is_linear=0
shrinkage=0.5


Tree=16
num_leaves=6
num_cat=0
split_feature=0 1 14 9 14
split_gain=181636 151144 263825 149680 288370
threshold=0.0017249999800696971 21375.000000000004 26.44999980926514 4340.2194824218759 26.44999980926514
decision_type=2 2 2 2 2
left_child=1 3 -3 4 -1
right_child=-2 2 -4 -5 -6
leaf_value=-0.57175920405498248 -41.766709547776443 5.2829481334303479 51.854481518268585 2.5296152365827833 -17.709769014852593
leaf_weight=17235 26 612 32 4134 249
leaf_count=17235 26 612 32 4134 249
internal_value=0 0.0487797 7.59706 -0.176083 -0.815832
internal_weight=0 22262 644 21618 17484
internal_count=22288 22262 644 21618 17484
is_linear=0
shrinkage=0.5


Tree=17
num_leaves=6
num_cat=0
split_feature=4 19 9 0 0
split_gain=63246.3 211824 91968.1 496917 125164
threshold=485705.10937500006 33.149999618530281 2725.546020507813 0.0017249999800696971 0.0016549999709241094
decision_type=2 2 2 2 2
left_child=1 -1 3 -2 -4
right_child=2 -3 4 -5 -6
leaf_value=-0.074032757212133968 -5.2309267080747164 -58.610953122377396 0.034848108087352669 83.238791692824591 -31.258354499936104
leaf_weight=68 65 20 22082 21 32
leaf_count=68 65 20 22082 21 32
internal_value=0 -13.3779 0.0530294 16.3721 -0.0104346
internal_weight=0 88 22200 86 22114
internal_count=22288 88 22200 86 22114
is_linear=0
shrinkage=0.5


Tree=18
num_leaves=6
num_cat=0
split_feature=0 0 19 8 19
split_gain=264920 85258 75028.6 147696 60167.8
threshold=0.0017249999800696971 0.0016349999932572248 33.549999237060554 13474.377929687502 30.250000000000004
decision_type=2 2 2 2 2
left_child=1 4 -3 -4 -1
right_child=-2 2 3 -5 -6
leaf_value=-12.39532014180203 -50.441384242131157 4.5794110710609841 60.403408753219992 5.6304966509342194 0.021368448617585328
leaf_weight=98 26 146 20 32 21966
leaf_count=98 26 146 20 32 21966
internal_value=0 0.058911 10.3881 26.697 -0.0337818
internal_weight=0 22262 198 52 22064
internal_count=22288 22262 198 52 22064
is_linear=0
shrinkage=0.5


Tree=19
num_leaves=6
num_cat=0
split_feature=7 3 10 0 21
split_gain=69796 176998 375686 197688 111388
threshold=10597.773437500002 -1506.9999999999998 -0.59150001406669606 0.00063149997731670748 -97.694000244140611
decision_type=2 2 2 2 2
left_child=4 2 3 -2 -1
right_child=1 -3 -4 -5 -6
leaf_value=-27.709608119109582 -11.76304324284823 0.037726991190947176 -73.521032651265458 4.7247155512963142 3.5366599916607995
leaf_weight=29 499 19722 21 286 1731
leaf_count=29 499 19722 21 286 1731
internal_value=0 -0.259079 -7.52163 -5.75604 3.02181
internal_weight=0 20528 806 785 1760
internal_count=22288 20528 806 785 1760
is_linear=0
shrinkage=0.5


Tree=20
num_leaves=6
num_cat=0
split_feature=0 10 21 22 10
split_gain=55577.5 71166.5 48180.4 145642 400847
threshold=0.0017249999800696971 -0.44150000810623163 -95.860000610351548 -96.03749847412108 -0.49650000035762781
decision_type=2 2 2 2 2
left_child=1 2 3 -1 -5
right_child=-2 -3 -4 4 -6
leaf_value=0.0081983861098821383 -23.103583702674278 29.83943862915039 -5.8712207234009757 78.807562078941956 1.5643991064017928
leaf_weight=21805 26 20 344 22 71
leaf_count=21805 26 20 344 22 71
internal_value=0 0.0269829 0.00017555 0.0924105 19.837
internal_weight=0 22262 22242 21898 93
internal_count=22288 22262 22242 21898 93
is_linear=0
shrinkage=0.5


Tree=21
num_leaves=6
num_cat=0
split_feature=10 1 0 5 8
split_gain=52039.6 145275 537568 131880 121100
threshold=-0.47949999570846552 -19124.999999999996 0.0017249999800696971 3671.276000976563 15645.036621093752
decision_type=2 2 2 2 2
left_child=3 -2 -3 4 -1
right_child=1 2 -4 -5 -6
leaf_value=0.038930163206637107 -28.993971193990401 3.2523600392455432 82.837764739990234 -12.425301645640973 -29.825004696846008
leaf_weight=21388 31 597 22 216 34
leaf_count=21388 31 597 22 216 34
internal_value=0 4.40812 6.08092 -0.132419 -0.00846848
internal_weight=0 650 619 21638 21422
internal_count=22288 650 619 21638 21422
is_linear=0
shrinkage=0.5


Tree=22
num_leaves=6
num_cat=0
split_feature=0 8 14 1 10
split_gain=210009 80406.1 51878.4 39380.6 305978
threshold=0.0017249999800696971 15645.036621093752 26.550000190734867 1.0000000180025095e-35 -0.54850000143051136
decision_type=2 2 2 2 2
left_child=1 2 3 -1 -5
right_child=-2 -3 -4 4 -6
leaf_value=-0.19155420180228788 -44.910579461317795 15.401246314890244 -15.071304161297647 -12.728209421651339 4.3339777573900831
leaf_weight=19879 26 85 57 304 1937
leaf_count=19879 26 85 57 304 1937
internal_value=0 0.0524515 -0.00637738 0.0324427 2.01943
internal_weight=0 22262 22177 22120 2241
internal_count=22288 22262 22177 22120 2241
is_linear=0
shrinkage=0.5


Tree=23
num_leaves=6
num_cat=0
split_feature=0 0 18 9 22
split_gain=52502.2 38797.9 57874.3 37125.2 74495.6
threshold=0.0017249999800696971 0.0016349999932572248 24.150000572204593 4323.6484375000009 -96.029998779296861
decision_type=2 2 2 2 2
left_child=1 3 -3 4 -1
right_child=-2 2 -4 -5 -6
leaf_value=-0.31773175690965244 -22.455287786630485 24.254353561462501 2.7604780452056499 1.0353584396008115 -10.809503045347002
leaf_weight=15978 26 39 159 5915 171
leaf_count=15978 26 39 159 5915 171
internal_value=0 0.0262258 6.99412 -0.0363034 -0.428828
internal_weight=0 22262 198 22064 16149
internal_count=22288 22262 198 22064 16149
is_linear=0
shrinkage=0.5


Tree=24
num_leaves=6
num_cat=0
split_feature=16 9 15 12 0
split_gain=40759 37620.9 559710 1.10824e+06 419835
threshold=26.050000190734867 3904.246948242188 27.650000572204593 25.002500534057621 0.0014950000331737103
decision_type=2 2 2 2 2
left_child=1 2 -1 -4 -3
right_child=-2 4 3 -5 -6
leaf_value=0.71693172003702899 -15.561360225791024 -0.11883808640479174 144.60327438116073 -11.950657637360004 -29.555503426363966
leaf_weight=5147 42 16931 20 26 122
leaf_count=5147 42 16931 20 26 122
internal_value=0 0.0293795 1.20766 56.1163 -0.329433
internal_weight=0 22246 5193 46 17053
internal_count=22288 22246 5193 46 17053
is_linear=0
shrinkage=0.5


Tree=25
num_leaves=6
num_cat=0
split_feature=13 11 20 8 0
split_gain=43710.6 1.33956e+06 1.0682e+06 214091 135857
threshold=26.94999980926514 45.274999618530281 41.750000000000007 15645.036621093752 0.0017249999800696971
decision_type=2 2 2 2 2
left_child=3 2 -2 4 -1
right_child=1 -3 -4 -5 -6
leaf_value=-0.15447451856966143 174.6027263045311 -0.31137936579121361 11.185783187672495 -51.866725111007689 36.726082153320313
leaf_weight=21140 20 1063 20 20 25
leaf_count=21140 20 1063 20 20 25
internal_value=0 3.0687 92.8943 -0.159772 -0.110911
internal_weight=0 1103 40 21185 21165
internal_count=22288 1103 40 21185 21165
is_linear=0
shrinkage=0.5


Tree=26
num_leaves=6
num_cat=0
split_feature=0 22 17 1 18
split_gain=81020 551402 37432.2 251569 841139
threshold=0.0016949999844655397 -97.756000518798814 27.050000190734867 5000.0000000000009 24.050000190734867
decision_type=2 2 2 2 2
left_child=2 -2 -1 -4 -5
right_child=1 -3 3 4 -6
leaf_value=-0.07450091901567224 -78.793304556892025 37.210243535041812 0.14067890897963486 108.3876166716218 -2.9113576057656059
leaf_weight=21564 21 20 601 24 58
leaf_count=21564 21 20 601 24 58
internal_value=0 -22.2062 0.0409248 3.6852 29.664
internal_weight=0 41 22247 683 82
internal_count=22288 41 22247 683 82
is_linear=0
shrinkage=0.5


Tree=27
num_leaves=6
num_cat=0
split_feature=9 17 11 0 22
split_gain=53604.3 58507.7 44853.9 39575.2 34596.3
threshold=4481.3381347656259 27.150000572204593 45.396999359130866 0.0017249999800696971 -96.121997833251939
decision_type=2 2 2 2 2
left_child=1 3 -2 4 -1
right_child=2 -3 -4 -5 -6
leaf_value=0.15431743023418193 33.202236604690555 -14.480771019629069 6.173096753586309 -19.49835205078125 -2.8994958139552742
leaf_weight=21136 20 70 66 26 970
leaf_count=21136 20 70 66 26 970
internal_value=0 -0.04826 12.4589 -0.00261228 0.0203177
internal_weight=0 22202 86 22132 22106
internal_count=22288 22202 86 22132 22106
is_linear=0
shrinkage=0.5


Tree=28
num_leaves=6
num_cat=0
split_feature=6 0 17 11 5
split_gain=25302.8 48578 60392.5 535156 177438
threshold=14084.632812500002 2.8550000024551995e-05 27.050000190734867 45.228000640869148 3569.3200683593755
decision_type=2 2 2 2 2
left_child=1 -1 -3 -4 -5
right_child=-2 2 3 4 -6
leaf_value=-8.1042128436027028 4.8941327458804196 -0.11607917555913717 76.753476667404172 17.818583678007126 -4.1690401697072428
leaf_weight=186 261 21346 25 125 345
leaf_count=186 261 21346 25 125 345
internal_value=0 -0.057991 0.0105313 5.47039 1.67873
internal_weight=0 22027 21841 495 470
internal_count=22288 22027 21841 495 470
is_linear=0
shrinkage=0.5


Tree=29
num_leaves=6
num_cat=0
split_feature=10 0 2 0 4
split_gain=34098.2 35930.6 33483.9 29719.7 92629.2
threshold=-0.44150000810623163 0.0017249999800696971 105875.00000000001 3.8950000089243992e-05 699030.12500000012
decision_type=2 2 2 2 2
left_child=1 2 3 4 -1
right_child=-2 -3 -4 -5 -6
leaf_value=-6.9928691835563539 -19.241879794908606 19.772014949632727 15.028306249025706 0.098040173718561413 2.8709957624934526
leaf_weight=551 23 23 37 21235 419
leaf_count=551 23 23 37 21235 419
internal_value=0 0.0198771 -0.000548209 -0.0255907 -2.73209
internal_weight=0 22265 22242 22205 970
internal_count=22288 22265 22242 22205 970
is_linear=0
shrinkage=0.5


Tree=30
num_leaves=6
num_cat=0
split_feature=0 10 7 11 0
split_gain=31257.5 41656.9 21516.8 58512.8 49398.2
threshold=0.0017249999800696971 -0.44150000810623163 12277.347167968752 45.508001327514656 0.00063149997731670748
decision_type=2 2 2 2 2
left_child=1 2 4 -4 -1
right_child=-2 -3 3 -5 -6
leaf_value=-2.1507443215212199 -17.326345150287334 22.829069805145263 0.31468714640046641 -20.150168939999173 0.97954696702221078
leaf_weight=3121 26 20 16972 35 2114
leaf_count=3121 26 20 16972 35 2114
internal_value=0 0.0202356 -0.000274094 0.272571 -0.886669
internal_weight=0 22262 22242 17007 5235
internal_count=22288 22262 22242 17007 5235
is_linear=0
shrinkage=0.5


Tree=31
num_leaves=6
num_cat=0
split_feature=8 13 0 13 10
split_gain=77789.8 227513 130799 23153.1 173670
threshold=15645.036621093752 27.050000190734867 0.0017249999800696971 26.94999980926514 -0.54850000143051136
decision_type=2 2 2 2 2
left_child=2 -2 3 -1 -5
right_child=1 -3 -4 4 -6
leaf_value=-0.095761869037851319 -61.726267290115359 -0.85183629845127917 36.203914642333984 -9.8302722383599619 5.7687959283737857
leaf_weight=21140 20 66 25 229 808
leaf_count=21140 20 66 25 229 808
internal_value=0 -15.0087 0.0581365 0.0173896 2.32406
internal_weight=0 86 22202 22177 1037
internal_count=22288 86 22202 22177 1037
is_linear=0
shrinkage=0.5


Tree=32
num_leaves=6
num_cat=0
split_feature=0 0 8 0 0
split_gain=64462.3 27396.2 21309.6 19318.3 242159
threshold=0.0017249999800696971 2.4050000320130497e-05 15025.517089843752 0.0014450000016950073 0.0014950000331737103
decision_type=2 2 2 2 2
left_child=1 2 -1 -3 -5
right_child=-2 3 -4 4 -6
leaf_value=-0.29065502942022348 -24.881854900946983 -0.12494910504783042 -16.77934714320094 30.297254920005798 0.54807633875837891
leaf_weight=36 26 19110 43 70 3003
leaf_count=36 26 19110 43 70 3003
internal_value=0 0.0290598 -9.26551 0.0621604 1.22573
internal_weight=0 22262 79 22183 3073
internal_count=22288 22262 79 22183 3073
is_linear=0
shrinkage=0.5


Tree=33
num_leaves=6
num_cat=0
split_feature=10 5 11 4 10
split_gain=39252.9 21563.8 158776 119718 68130.6
threshold=-0.44150000810623163 3569.3200683593755 45.486999511718757 847232.46875000012 -0.5545000135898589
decision_type=2 2 2 2 2
left_child=1 3 4 -1 -3
right_child=-2 2 -4 -5 -6
leaf_value=0.2608264142443098 -20.645140088122822 10.511533362997902 -35.907789383083582 29.961572499836194 -0.84819549618563805
leaf_weight=16141 23 135 32 34 5923
leaf_count=16141 23 135 32 34 5923
internal_value=0 0.0213267 -0.7806 0.323258 -0.595049
internal_weight=0 22265 6090 16175 6058
internal_count=22288 22265 6090 16175 6058
is_linear=0
shrinkage=0.5


Tree=34
num_leaves=6
num_cat=0
split_feature=2 10 9 0 0
split_gain=29054.2 61889.5 21547.9 278294 48952.5
threshold=105875.00000000001 -0.44150000810623163 2725.546020507813 0.0017249999800696971 0.0016549999709241094
decision_type=2 2 2 2 2
left_child=1 2 3 -1 -4
right_child=-2 -3 4 -5 -6
leaf_value=-8.2694349509019123 -13.635212421417236 27.154765719459171 -0.0050276259985825803 57.93774096171061 -20.216178456942242
leaf_weight=65 39 21 22112 21 30
leaf_count=65 39 21 22112 21 30
internal_value=0 0.023901 -0.00173101 7.89743 -0.0324115
internal_weight=0 22249 22228 86 22142
internal_count=22288 22249 22228 86 22142
is_linear=0
shrinkage=0.5


Tree=35
num_leaves=6
num_cat=0
split_feature=5 4 2 21 8
split_gain=21850.3 90423.9 30074.2 29523.6 18482.5
threshold=3148.480102539063 531914.78125000012 105875.00000000001 -97.609500885009751 15645.036621093752
decision_type=2 2 2 2 2
left_child=1 -1 4 -3 -2
right_child=2 3 -4 -5 -6
leaf_value=-36.491646057793069 0.035889312739243825 13.497038943426949 14.274252102181718 -7.7833990703026457 -7.3083229938218759
leaf_weight=21 22077 28 37 39 86
leaf_count=21 22077 28 37 39 86
internal_value=0 -7.86318 0.0311694 1.10992 0.00739126
internal_weight=0 88 22200 67 22163
internal_count=22288 88 22200 67 22163
is_linear=0
shrinkage=0.5


Tree=36
num_leaves=6
num_cat=0
split_feature=10 9 18 9 21
split_gain=38915.7 26561.3 22347.6 15768.5 58379.5
threshold=-0.44150000810623163 4472.9653320312509 23.94999980926514 2725.546020507813 -97.624999999999986
decision_type=2 2 2 2 2
left_child=1 3 -3 4 -1
right_child=-2 2 -4 -5 -6
leaf_value=27.668427872161072 -20.556267572485883 16.228845889369648 2.9748119368352963 -0.053499526532966933 -1.3749932484783893
leaf_weight=24 23 42 131 22006 62
leaf_count=24 23 42 131 22006 62
internal_value=0 0.0212349 6.19255 -0.0270921 6.73015
internal_weight=0 22265 173 22092 86
internal_count=22288 22265 173 22092 86
is_linear=0
shrinkage=0.5


Tree=37
num_leaves=6
num_cat=0
split_feature=0 0 7 8 8
split_gain=121124 25473.2 44048.5 199644 22003.3
threshold=0.0017249999800696971 0.0016349999932572248 12551.353515625002 8704.2993164062518 13474.377929687502
decision_type=2 2 2 2 2
left_child=1 -1 3 -3 -4
right_child=-2 2 4 -5 -6
leaf_value=-0.010832314070884003 -34.107165944117767 -0.64020334030019821 -12.695677876472473 55.299140068617731 3.3535592767927382
leaf_weight=22064 26 58 28 22 90
leaf_count=22064 26 58 28 22 90
internal_value=0 0.0398341 5.68581 14.7431 -0.454734
internal_weight=0 22262 198 80 118
internal_count=22288 22262 198 80 118
is_linear=0
shrinkage=0.5


Tree=38
num_leaves=6
num_cat=0
split_feature=0 10 9 0 5
split_gain=30281.1 18766.2 14974.1 30021.4 127455
threshold=0.0017249999800696971 -0.44150000810623163 2831.005493164063 0.0016349999932572248 3442.5729980468755
decision_type=2 2 2 2 2
left_child=1 2 -1 -4 -5
right_child=-2 -3 3 4 -6
leaf_value=-2.7445325147021902 -17.053582709569199 15.328961799293756 0.023236326423935066 44.385428810119627 0.7325280408064524
leaf_weight=484 26 20 21636 20 102
leaf_count=484 26 20 21636 20 102
internal_value=0 0.019917 0.00615115 0.0673393 7.88874
internal_weight=0 22262 22242 21758 122
internal_count=22288 22262 22242 21758 122
is_linear=0
shrinkage=0.5


Tree=39
num_leaves=6
num_cat=0
split_feature=10 9 0 0 12
split_gain=20183.4 40022.8 179911 25351.2 16529.8
threshold=-0.44150000810623163 2725.546020507813 0.0017249999800696971 0.0016549999709241094 24.987500190734867
decision_type=2 2 2 2 2
left_child=1 2 -1 4 -3
right_child=-2 3 -4 -5 -6
leaf_value=-2.218009889125824 -14.804009209508481 -3.5244580894078079 51.015153112865633 -14.551412677764892 0.046261859253747629
leaf_weight=65 23 329 21 30 21820
leaf_count=65 23 329 21 30 21820
internal_value=0 0.0152927 10.7808 -0.0264509 -0.00677741
internal_weight=0 22265 86 22179 22149
internal_count=22288 22265 86 22179 22149
is_linear=0
shrinkage=0.5


Tree=40
num_leaves=6
num_cat=0
split_feature=0 10 4 19 10
split_gain=79979.7 18098.2 14835.2 30520.7 17535.3
threshold=0.0017249999800696971 -0.44150000810623163 485705.10937500006 33.049999237060554 -0.54850000143051136
decision_type=2 2 2 2 2
left_child=1 2 3 -1 -4
right_child=-2 -3 4 -5 -6
leaf_value=0.88185014257148386 -27.715316866452877 15.066485686600208 -0.84155343502647029 22.162384000181667 0.23038045624822004
leaf_weight=63 26 20 4898 23 17258
leaf_count=63 26 20 4898 23 17258
internal_value=0 0.032369 0.0188503 6.57316 -0.00659067
internal_weight=0 22262 22242 86 22156
internal_count=22288 22262 22242 86 22156
is_linear=0
shrinkage=0.5


Tree=41
num_leaves=6
num_cat=0
split_feature=2 15 4 4 22
split_gain=16319.9 303045 212846 667109 26328.4
threshold=69125.000000000015 27.050000190734867 524729.00000000012 589399.71875000012 -96.098999023437486
decision_type=2 2 2 2 2
left_child=-1 -2 -3 -4 -5
right_child=1 2 3 4 -6
leaf_value=0.069749592250301834 -60.177848745476119 -49.719270652248746 88.945393685783657 0.077684741409331404 -8.2216972554997199
leaf_weight=21711 22 21 21 386 127
leaf_count=21711 22 21 21 386 127
internal_value=0 -2.62449 -0.3431 1.59866 -1.97694
internal_weight=0 577 555 534 513
internal_count=22288 577 555 534 513
is_linear=0
shrinkage=0.5


Tree=42
num_leaves=6
num_cat=0
split_feature=21 22 1 8 10
split_gain=15984.8 302134 951688 152292 97126.4
threshold=-95.952499389648423 -96.121997833251939 1.0000000180025095e-35 15645.036621093752 -0.54850000143051136
decision_type=2 2 2 2 2
left_child=3 2 -2 -1 -3
right_child=1 4 -4 -5 -6
leaf_value=-0.051241688885661482 -1.6202338209206408 -14.074105519948043 92.366897328479865 -37.626683659023712 0.6986182671193788
leaf_weight=21100 99 127 37 27 898
leaf_count=21100 99 127 37 27 898
internal_value=0 1.8063 23.9498 -0.0992626 -1.13176
internal_weight=0 1161 136 21127 1025
internal_count=22288 1161 136 21127 1025
is_linear=0
shrinkage=0.5


Tree=43
num_leaves=6
num_cat=0
split_feature=2 20 20 14 8
split_gain=30345.5 123624 315289 195071 58317.9
threshold=-19124.999999999996 38.549999237060554 38.149999618530281 26.44999980926514 14328.421875000002
decision_type=2 2 2 2 2
left_child=1 2 -1 4 -3
right_child=-2 3 -4 -5 -6
leaf_value=-20.805384987592696 0.10159794048252967 0.9676742167199025 67.976530003547666 -43.110218550544232 -9.282477310903797
leaf_weight=20 21632 357 20 32 227
leaf_count=20 21632 357 20 32 227
internal_value=0 -3.35025 23.5856 -5.09933 -3.01655
internal_weight=0 656 40 616 584
internal_count=22288 656 40 616 584
is_linear=0
shrinkage=0.5


Tree=44
num_leaves=6
num_cat=0
split_feature=9 10 19 11 20
split_gain=42426.3 21418.6 17405.7 75902.6 117912
threshold=4481.3381347656259 -0.47949999570846552 30.550000190734867 45.274999618530281 38.350000381469734
decision_type=2 2 2 2 2
left_child=2 -2 3 4 -1
right_child=1 -3 -4 -5 -6
leaf_value=-0.60864637246946007 20.609102058410645 4.5472597327886843 0.016571435184587532 -9.8991833757609129 38.374066634611651
leaf_weight=164 35 51 21808 208 22
leaf_count=164 35 51 21808 208 22
internal_value=0 11.0841 -0.0429344 -3.3366 4.00221
internal_weight=0 86 22202 394 186
internal_count=22288 86 22202 394 186
is_linear=0
shrinkage=0.5


Tree=45
num_leaves=6
num_cat=0
split_feature=13 11 19 9 8
split_gain=24494.3 173834 108606 606214 94238.8
threshold=26.94999980926514 45.267000198364265 30.750000000000004 3910.5629882812505 15645.036621093752
decision_type=2 2 2 2 2
left_child=4 -2 3 -3 -1
right_child=1 2 -4 -5 -6
leaf_value=-0.087185342272037281 47.353316284361341 94.599240580573678 -0.90399236834007635 2.6275024073588296 -34.425190426409245
leaf_weight=21165 21 20 890 172 20
leaf_count=21165 21 20 890 172 20
internal_value=0 2.29717 1.4227 12.2079 -0.119603
internal_weight=0 1103 1082 192 21185
internal_count=22288 1103 1082 192 21185
is_linear=0
shrinkage=0.5


Tree=46
num_leaves=6
num_cat=0
split_feature=9 18 8 22 0
split_gain=30544.4 48495.8 39211.5 167936 81981.1
threshold=4481.3381347656259 24.150000572204593 15598.655273437502 -96.137500762939439 0.0017249999800696971
decision_type=2 2 2 2 2
left_child=2 -2 4 -4 -1
right_child=1 -3 3 -5 -6
leaf_value=-0.027138358909932089 30.973736858367921 2.8686946931887758 -47.274966613106109 2.538544932147488 28.621406936645506
leaf_weight=22090 20 66 23 64 25
leaf_count=22090 20 66 23 64 25
internal_value=0 9.40475 -0.0364295 -10.6305 0.00524752
internal_weight=0 86 22202 87 22115
internal_count=22288 86 22202 87 22115
is_linear=0
shrinkage=0.5


Tree=47
num_leaves=6
num_cat=0
split_feature=0 9 21 19 1
split_gain=57186.6 19236.7 41622.1 20234.3 109060
threshold=0.0017249999800696971 4472.9653320312509 -95.964000701904283 30.550000190734867 5000.0000000000009
decision_type=2 2 2 2 2
left_child=1 3 -3 4 -1
right_child=-2 2 -4 -5 -6
leaf_value=-1.5389570060145596 -23.435649505028358 18.558661563829943 0.74989957125612006 0.050394146058473921 -37.779895579273052
leaf_weight=368 26 44 129 21699 22
leaf_count=368 26 44 129 21699 22
internal_value=0 0.0273707 5.2793 -0.0137621 -3.58332
internal_weight=0 22262 173 22089 390
internal_count=22288 22262 173 22089 390
is_linear=0
shrinkage=0.5


Tree=48
num_leaves=6
num_cat=0
split_feature=8 6 0 17 14
split_gain=17136.1 135609 67682.7 18923 24471.2
threshold=15645.036621093752 12512.351074218752 0.0017249999800696971 27.150000572204593 26.44999980926514
decision_type=2 2 2 2 2
left_child=2 -2 3 -1 -5
right_child=1 -3 -4 4 -6
leaf_value=0.023964710569749567 5.3087517017078012 -38.956351363720991 26.028527812957762 -16.544718311383175 2.2758980105000157
leaf_weight=22107 62 24 25 39 31
leaf_count=22107 62 24 25 39 31
internal_value=0 -7.0443 0.0272863 -0.00202477 -8.20987
internal_weight=0 86 22202 22177 70
internal_count=22288 86 22202 22177 70
is_linear=0
shrinkage=0.5


Tree=49
num_leaves=6
num_cat=0
split_feature=15 11 12 4 6
split_gain=20530.1 59697.2 201338 66645.1 52412.3
threshold=27.750000000000004 45.282999038696296 25.005499839782718 626097.43750000012 13320.702148437502
decision_type=2 2 2 2 2
left_child=-1 2 3 -2 -3
right_child=1 4 -4 -5 -6
leaf_value=0.059727231761192247 -17.593109162495686 10.022280574654756 23.526633373328618 -50.599034643173219 -5.453006677370932
leaf_weight=21948 65 92 28 20 135
leaf_count=21948 65 92 28 20 135
internal_value=0 -3.85557 -13.2459 -25.3592 0.818916
internal_weight=0 340 113 85 227
internal_count=22288 340 113 85 227
is_linear=0
shrinkage=0.5


Tree=50
num_leaves=6
num_cat=0
split_feature=17 2 20 9 21
split_gain=23024.7 99196.7 369136 89678.5 468316
threshold=27.050000190734867 69125.000000000015 41.250000000000007 4083.755004882813 -95.92950057983397
decision_type=2 2 2 2 2
left_child=-1 3 -3 4 -2
right_child=1 2 -4 -5 -6
leaf_value=-0.090357656843581352 -5.5459640527079843 -18.294691454280507 75.561161351203921 -0.88548061446175907 83.181428700685501
leaf_weight=21605 58 22 20 563 20
leaf_count=21605 58 22 20 563 20
internal_value=0 2.85824 26.3986 1.31581 17.2046
internal_weight=0 683 42 641 78
internal_count=22288 683 42 641 78
is_linear=0
shrinkage=0.5


Tree=51
num_leaves=6
num_cat=0
split_feature=0 2 2 10 15
split_gain=57340 14694 18269.7 66949.6 587782
threshold=0.0017249999800696971 -105874.99999999999 -19124.999999999996 -0.54850000143051136 27.550000190734867
decision_type=2 2 2 2 2
left_child=1 -1 3 4 -3
right_child=-2 2 -4 -5 -6
leaf_value=10.120803649226824 -23.46706442649548 10.341114715293601 0.087850530477949523 -0.75221471773672022 -90.000738465785986
leaf_weight=36 26 54 21606 546 20
leaf_count=36 26 54 21606 546 20
internal_value=0 0.0274074 0.0110589 -2.66501 -16.7783
internal_weight=0 22262 22226 620 74
internal_count=22288 22262 22226 620 74
is_linear=0
shrinkage=0.5


Tree=52
num_leaves=6
num_cat=0
split_feature=13 11 21 11 8
split_gain=17208.3 121810 773509 241217 83959.8
threshold=26.94999980926514 45.326000213623054 -95.937000274658189 45.274999618530281 15645.036621093752
decision_type=2 2 2 2 2
left_child=4 2 -2 -4 -1
right_child=1 -3 3 -5 -6
leaf_value=-0.069650021339535975 91.065987639957001 0.22111029822924333 -43.267356716353319 14.266623499518147 -32.480908587574959
leaf_weight=21165 27 998 29 49 20
leaf_count=21165 27 998 29 49 20
internal_value=0 1.92544 18.1247 -7.12422 -0.100248
internal_weight=0 1103 105 78 21185
internal_count=22288 1103 105 78 21185
is_linear=0
shrinkage=0.5


Tree=53
num_leaves=6
num_cat=0
split_feature=7 22 21 10 1
split_gain=17540.2 28726.6 128476 599547 91305.8
threshold=13431.045898437502 -96.121997833251939 -95.952499389648423 -0.49250000715255732 1.0000000180025095e-35
decision_type=2 2 2 2 2
left_child=1 2 -1 -4 -5
right_child=-2 -3 3 4 -6
leaf_value=-0.05355651888796277 2.3260957370297817 -2.9023563787678426 71.900838459239282 3.7256229601123114 -35.149002572764523
leaf_weight=20537 782 868 34 44 23
leaf_count=20537 782 868 34 44 23
internal_value=0 -0.0845814 0.0339296 17.8231 -9.6194
internal_weight=0 21506 20638 101 67
internal_count=22288 21506 20638 101 67
is_linear=0
shrinkage=0.5


Tree=54
num_leaves=6
num_cat=0
split_feature=9 11 6 8 7
split_gain=19484.6 37126.2 31661.3 18512.9 131890
threshold=4481.3381347656259 45.396999359130866 12512.351074218752 15598.655273437502 13392.654785156252
decision_type=2 2 2 2 2
left_child=3 -2 -3 -1 -5
right_child=1 2 -4 4 -6
leaf_value=-0.00045899916216985326 26.383514976501466 -5.6883878601921927 17.823654242924281 -41.821230201494124 3.6728333103837389
leaf_weight=22115 20 45 21 21 66
leaf_count=22115 20 45 21 21 66
internal_value=0 7.51151 1.79272 -0.029096 -7.30849
internal_weight=0 86 66 22202 87
internal_count=22288 86 66 22202 87
is_linear=0
shrinkage=0.5


Tree=55
num_leaves=6
num_cat=0
split_feature=9 8 18 0 6
split_gain=17763.2 34575.1 117014 61698.8 22327.2
threshold=4472.9653320312509 15319.689941406252 24.250000000000004 0.0017249999800696971 12437.360351562502
decision_type=2 2 2 2 2
left_child=1 3 -3 -1 -2
right_child=4 2 -4 -5 -6
leaf_value=-0.028396442510288555 18.867316573262215 2.6447947191990027 -36.605525700109347 24.824944515228271 2.7122449762427023
leaf_weight=22003 25 59 28 25 148
leaf_count=22003 25 59 28 25 148
internal_value=0 -0.0394798 -9.98749 -0.000189909 5.04679
internal_weight=0 22115 87 22028 173
internal_count=22288 22115 87 22028 173
is_linear=0
shrinkage=0.5


Tree=56
num_leaves=6
num_cat=0
split_feature=2 10 10 15 6
split_gain=13797 23005.7 16483 48049.9 260861
threshold=105875.00000000001 -0.44150000810623163 -0.49349999427795405 27.550000190734867 13678.197265625002
decision_type=2 2 2 2 2
left_child=1 2 3 -1 -5
right_child=-2 -3 -4 4 -6
leaf_value=0.0050803179644855027 -9.396146071262848 16.557886691320512 1.6235529811843903 -2.5646940765950843 -59.520382722218834
leaf_weight=20274 39 21 1462 471 21
leaf_count=20274 39 21 1462 471 21
internal_value=0 0.0164704 0.000842805 -0.113402 -4.99573
internal_weight=0 22249 22228 20766 492
internal_count=22288 22249 22228 20766 492
is_linear=0
shrinkage=0.5


Tree=57
num_leaves=6
num_cat=0
split_feature=10 2 6 4 21
split_gain=34123.9 20267.9 8657.71 36405.5 17131.5
threshold=-0.44150000810623163 105875.00000000001 11216.390625000002 528918.09375000012 -97.647998809814439
decision_type=2 2 2 2 2
left_child=1 2 3 -1 -5
right_child=-2 -3 -4 4 -6
leaf_value=20.028440459498338 -19.249147280402806 11.71252311403687 -0.027295982560570767 12.557686656713486 -2.0559679191467946
leaf_weight=28 23 37 22054 24 122
leaf_count=28 23 37 22054 24 122
internal_value=0 0.0198846 0.000421411 3.51352 0.346277
internal_weight=0 22265 22228 174 146
internal_count=22288 22265 22228 174 146
is_linear=0
shrinkage=0.5


Tree=58
num_leaves=6
num_cat=0
split_feature=0 9 0 4 7
split_gain=57745.9 8412.38 14379.1 59007.3 28746.8
threshold=0.0017249999800696971 4418.7485351562509 4.3550000555114827e-05 640261.71875000012 12473.640625000002
decision_type=2 2 2 2 2
left_child=1 2 3 -1 -5
right_child=-2 -3 -4 4 -6
leaf_value=-26.583630167919658 -23.549976002711517 2.4701104350065979 0.10390197891235127 5.2175557328605215 -1.7855212738998054
leaf_weight=23 26 347 20278 163 1451
leaf_count=23 26 347 20278 163 1451
internal_value=0 0.0275042 -0.0111718 -1.43662 -1.07827
internal_weight=0 22262 21915 1637 1614
internal_count=22288 22262 21915 1637 1614
is_linear=0
shrinkage=0.5


Tree=59
num_leaves=6
num_cat=0
split_feature=8 20 0 14 0
split_gain=18485.2 92766 48458.9 12147.1 141393
threshold=15645.036621093752 38.850000381469734 0.0017249999800696971 26.349999427795414 0.0014950000331737103
decision_type=2 2 2 2 2
left_child=2 -2 3 -1 -5
right_child=1 -3 -4 4 -6
leaf_value=-0.068417947000606508 -28.127478014339101 5.641557702478373 22.029328727722167 4.5598308639313183 -14.581681333482265
leaf_weight=21369 33 53 25 696 112
leaf_count=21369 33 53 25 696 112
internal_value=0 -7.31633 0.02834 0.00353839 1.90655
internal_weight=0 86 22202 22177 808
internal_count=22288 86 22202 22177 808
is_linear=0
shrinkage=0.5


Tree=60
num_leaves=6
num_cat=0
split_feature=0 8 19 0 10
split_gain=49596.7 13072.5 11287.5 9728.45 50721.2
threshold=0.0017249999800696971 15645.036621093752 32.649999618530281 0.00086149998242035519 -0.54850000143051136
decision_type=2 2 2 2 2
left_child=1 3 -3 -1 -5
right_child=-2 2 -4 4 -6
leaf_value=-0.15436136842725029 -21.825098349497868 11.035008884072305 -0.67238142181720051 0.1731022227278862 6.6244481682597876
leaf_weight=18144 26 50 35 3701 332
leaf_count=18144 26 50 35 3701 332
internal_value=0 0.0254897 6.21432 0.0017692 0.704183
internal_weight=0 22262 85 22177 4033
internal_count=22288 22262 85 22177 4033
is_linear=0
shrinkage=0.5


Tree=61
num_leaves=6
num_cat=0
split_feature=9 22 10 5 11
split_gain=20174.5 60337.4 19501.1 11558.4 11835.6
threshold=2808.4125976562505 -97.805999755859361 -0.44349999725818628 3170.476928710938 45.212999343872077
decision_type=2 2 2 2 2
left_child=1 -1 -3 -2 -5
right_child=3 2 -4 4 -6
leaf_value=-27.207727296352388 10.219742767712367 -2.7452274055103771 12.23495524344237 0.253640100383906 -0.62640478563080382
leaf_weight=25 28 392 23 16882 4938
leaf_count=25 28 392 23 16882 4938
internal_value=0 -3.35209 -1.915 0.0675082 0.0544805
internal_weight=0 440 415 21848 21820
internal_count=22288 440 415 21848 21820
is_linear=0
shrinkage=0.5


Tree=62
num_leaves=6
num_cat=0
split_feature=7 16 0 0 0
split_gain=10807.3 91170.4 80019.5 313475 941566
threshold=12938.955566406252 25.849999427795414 0.00026850000722333794 0.00064450001809746038 0.00061250000726431619
decision_type=2 2 2 2 2
left_child=-1 2 -2 4 -4
right_child=1 -3 3 -5 -6
leaf_value=-0.27490610258053094 0.17270801704213543 -30.332877318064373 8.055442288517952 -0.48483533233313575 128.49913910627365
leaf_weight=13729 8100 24 86 329 20
leaf_count=13729 8100 24 86 329 20
internal_value=0 0.440961 0.527496 7.13389 30.7807
internal_weight=0 8559 8535 435 106
internal_count=22288 8559 8535 435 106
is_linear=0
shrinkage=0.5


Tree=63
num_leaves=6
num_cat=0
split_feature=15 11 1 8 11
split_gain=28216.9 58366.6 37499.1 28234.6 37955
threshold=27.750000000000004 45.295000076293952 70375.000000000015 14057.996093750002 45.263000488281257
decision_type=2 2 2 2 2
left_child=-1 3 -3 4 -2
right_child=1 2 -4 -5 -6
leaf_value=0.070021462899502701 -2.7187295844477992 -2.0873463832137018 18.817811639358599 -26.340215466916561 -27.768319916725158
leaf_weight=21948 62 202 24 32 20
leaf_count=21948 62 202 24 32 20
internal_value=0 -4.52009 0.13267 -13.744 -8.82839
internal_weight=0 340 226 114 82
internal_count=22288 340 226 114 82
is_linear=0
shrinkage=0.5


Tree=64
num_leaves=6
num_cat=0
split_feature=10 8 0 11 21
split_gain=18315.8 13982.4 164028 90437.4 12002
threshold=-0.44550000131130213 15645.036621093752 0.0017249999800696971 45.396999359130866 -95.952499389648423
decision_type=2 2 2 2 2
left_child=1 2 -1 -3 -5
right_child=-2 3 -4 4 -6
leaf_value=-0.00020718550186545751 -11.428987744876316 -35.799662788584826 43.194803194566205 12.450568437576294 -2.0255887720319961
leaf_weight=22145 35 20 22 21 45
leaf_count=22145 35 20 22 21 45
internal_value=0 0.0179758 0.0426624 -6.34515 2.58046
internal_weight=0 22253 22167 86 66
internal_count=22288 22253 22167 86 66
is_linear=0
shrinkage=0.5


Tree=65
num_leaves=6
num_cat=0
split_feature=0 8 11 1 21
split_gain=67871 13684 13799.7 11169 10604.9
threshold=0.0017249999800696971 15645.036621093752 45.400499343872077 -108124.99999999999 -97.401000976562486
decision_type=2 2 2 2 2
left_child=1 3 -3 -1 -5
right_child=-2 2 -4 4 -6
leaf_value=8.4595400477067013 -25.531251760629509 13.11904710829258 0.35528545644548204 0.1104241921386287 -1.0092674565080231
leaf_weight=39 26 40 45 19770 2368
leaf_count=39 26 40 45 19770 2368
internal_value=0 0.0298182 6.36176 0.00554913 -0.00934407
internal_weight=0 22262 85 22177 22138
internal_count=22288 22262 85 22177 22138
is_linear=0
shrinkage=0.5


Tree=66
num_leaves=6
num_cat=0
split_feature=0 7 0 10 19
split_gain=16967.8 9027.08 14147.4 284510 1.02405e+06
threshold=0.0017249999800696971 9855.1152343750018 0.00086149998242035519 -0.54850000143051136 31.250000000000004
decision_type=2 2 2 2 2
left_child=1 -1 -3 -4 -5
right_child=-2 2 3 4 -6
leaf_value=-2.5927844430556357 -12.76562604193504 -0.1272715185107203 0.24927800994084306 128.49280807971954 0.40539526005446069
leaf_weight=327 26 18229 3615 20 71
leaf_count=327 26 18229 3615 20 71
internal_value=0 0.0149091 0.0537838 0.944355 28.5565
internal_weight=0 22262 21935 3706 91
internal_count=22288 22262 21935 3706 91
is_linear=0
shrinkage=0.5


Tree=67
num_leaves=6
num_cat=0
split_feature=10 10 12 2 1
split_gain=73710.8 9880.38 8543.69 7818.66 8142.79
threshold=-0.44349999725818628 -0.45149999856948847 24.998499870300297 105875.00000000001 5000.0000000000009
decision_type=2 2 2 2 2
left_child=1 3 -3 4 -1
right_child=-2 2 -4 -5 -6
leaf_value=0.10588049168750811 -25.637973783803837 -14.76068963890984 -0.49810646598537761 7.3090177871085498 -1.2532518659674292
leaf_weight=21018 28 21 21 37 1163
leaf_count=21018 28 21 21 37 1163
internal_value=0 0.032249 -7.6294 0.0467323 0.0346181
internal_weight=0 22260 42 22218 22181
internal_count=22288 22260 42 22218 22181
is_linear=0
shrinkage=0.5


Tree=68
num_leaves=6
num_cat=0
split_feature=10 8 22 10 8
split_gain=20529.6 12614.9 96579.4 17287.4 9414.11
threshold=-0.44150000810623163 15645.036621093752 -96.145000457763658 -0.47949999570846552 8704.2993164062518
decision_type=2 2 2 2 2
left_child=1 4 -3 -4 -1
right_child=-2 2 3 -5 -6
leaf_value=3.7021775252945806 -14.930417154146278 -35.507363835970558 14.514299387517182 -2.5387849419244697 0.0098920822455451241
leaf_weight=174 23 21 23 42 22005
leaf_count=174 23 21 23 42 22005
internal_value=0 0.0154233 -6.02854 3.49538 0.038859
internal_weight=0 22265 86 65 22179
internal_count=22288 22265 86 65 22179
is_linear=0
shrinkage=0.5


Tree=69
num_leaves=6
num_cat=0
split_feature=2 0 10 19 10
split_gain=10603.5 18896.3 15167.6 61845 32079.4
threshold=105875.00000000001 0.0017249999800696971 -0.46850000321865076 31.250000000000004 -0.44550000131130213
decision_type=2 2 2 2 2
left_child=1 2 -1 -4 -5
right_child=-2 -3 3 4 -6
leaf_value=0.044497921297861329 -8.2372465156591854 14.036723931630453 -23.34467021908079 -2.7093560509745358 17.377216431227598
leaf_weight=21962 39 24 35 206 22
leaf_count=21962 39 24 35 206 22
internal_value=0 0.014439 -0.000703203 -3.77525 -0.771178
internal_weight=0 22249 22225 263 228
internal_count=22288 22249 22225 263 228
is_linear=0
shrinkage=0.5


Tree=70
num_leaves=6
num_cat=0
split_feature=0 2 7 0 18
split_gain=12041.9 8916.98 8221.69 12895.3 30829.3
threshold=0.0017249999800696971 105875.00000000001 13519.237304687502 2.6550000256975185e-05 24.050000190734867
decision_type=2 2 2 2 2
left_child=1 2 3 4 -1
right_child=-2 -3 -4 -5 -6
leaf_value=-17.205026534696419 -10.754172973907911 7.7681860794892179 2.7948210351455671 -0.010420967087131049 2.6275894184445225
leaf_weight=36 26 37 260 21886 43
leaf_count=36 26 37 260 21886 43
internal_value=0 0.0125599 -0.000351605 -0.0334381 -6.41006
internal_weight=0 22262 22225 21965 79
internal_count=22288 22262 22225 21965 79
is_linear=0
shrinkage=0.5


Tree=71
num_leaves=6
num_cat=0
split_feature=13 7 7 10 9
split_gain=8390.54 61524.1 470790 55055.9 647315
threshold=26.94999980926514 12995.271484375002 13011.326660156252 -0.54850000143051136 4329.6303710937509
decision_type=2 2 2 2 2
left_child=-1 -2 -3 -4 -5
right_child=1 2 3 4 -6
leaf_value=-0.070000798962915889 -4.1213988101353971 72.798192158341408 -5.465163525624491 78.275454398776802 0.15623984528991752
leaf_weight=21185 351 24 199 28 501
leaf_count=21185 351 24 199 28 501
internal_value=0 1.34449 3.89572 1.62421 4.29109
internal_weight=0 1103 752 728 529
internal_count=22288 1103 752 728 529
is_linear=0
shrinkage=0.5


Tree=72
num_leaves=6
num_cat=0
split_feature=13 5 0 11 13
split_gain=23158.3 54860.1 91958.9 36652.1 17327.8
threshold=27.150000572204593 3615.6574707031255 2.7549999686016239e-05 45.479000091552741 26.94999980926514
decision_type=2 2 2 2 2
left_child=4 3 -3 -2 -1
right_child=1 2 -4 -5 -6
leaf_value=-0.035000405224444982 3.4687787707580227 -3.0935337140604302 -38.000342642952653 -18.046809331230495 2.2608822570340328
leaf_weight=21185 142 54 29 23 855
leaf_count=21185 142 54 29 23 855
internal_value=0 -4.80472 -15.2899 0.469636 0.054064
internal_weight=0 248 83 165 22040
internal_count=22288 248 83 165 22040
is_linear=0
shrinkage=0.5


Tree=73
num_leaves=6
num_cat=0
split_feature=14 8 2 0 4
split_gain=10636.9 15429.5 8779.55 18488.8 93780.9
threshold=26.550000190734867 14572.358886718752 105875.00000000001 0.0016549999709241094 536692.50000000012
decision_type=2 2 2 2 2
left_child=2 -2 3 -1 -5
right_child=1 -3 -4 4 -6
leaf_value=0.0054381789270046919 -12.834744832454584 1.5199407893750403 -7.4752834263997965 28.663600058294833 -6.0000452864170075
leaf_weight=22092 39 36 39 32 50
leaf_count=22092 39 36 39 32 50
internal_value=0 -5.9445 0.020071 0.033254 7.52723
internal_weight=0 75 22213 22174 82
internal_count=22288 75 22213 22174 82
is_linear=0
shrinkage=0.5


Tree=74
num_leaves=6
num_cat=0
split_feature=0 5 19 8 21
split_gain=14011.4 12389.3 13432.3 10914.3 13748.1
threshold=0.0017249999800696971 3170.476928710938 31.250000000000004 15645.036621093752 -95.964000701904283
decision_type=2 2 2 2 2
left_child=1 2 -1 -3 -5
right_child=-2 3 -4 4 -6
leaf_value=-12.943708852414161 -11.600345116395216 0.037092487245438607 -2.0043461648747325 15.565027751922607 1.6092330103119215
leaf_weight=31 26 21850 296 25 60
leaf_count=31 26 21850 296 25 60
internal_value=0 0.0135482 -3.04141 0.0590905 5.71388
internal_weight=0 22262 327 21935 85
internal_count=22288 22262 327 21935 85
is_linear=0
shrinkage=0.5


Tree=75
num_leaves=6
num_cat=0
split_feature=8 18 10 15 8
split_gain=12952.4 80527.4 9967.98 9413.97 26240.6
threshold=15645.036621093752 24.250000000000004 -0.47949999570846552 27.750000000000004 13930.218750000002
decision_type=2 2 2 2 2
left_child=3 2 -2 -1 -5
right_child=1 -3 -4 4 -6
leaf_value=0.064021106952508774 10.836001078630316 -28.741400431979585 -2.163898545751969 4.1289452509124684 -5.5140274599449244
leaf_weight=21867 29 27 30 101 234
leaf_count=21867 29 27 30 101 234
internal_value=0 -6.12431 4.22588 0.0237227 -2.60674
internal_weight=0 86 59 22202 335
internal_count=22288 86 59 22202 335
is_linear=0
shrinkage=0.5


Tree=76
num_leaves=6
num_cat=0
split_feature=10 10 12 10 5
split_gain=7068.51 761924 769070 622550 128408
threshold=-0.5545000135898589 -0.54850000143051136 24.996500015258793 -0.54450002312660206 3573.4523925781255
decision_type=2 2 2 2 2
left_child=-1 2 -2 -3 -4
right_child=1 3 4 -5 -6
leaf_value=0.52931893503096406 -135.48679425716401 73.253330093005601 -48.787738722562793 -0.066619084720502153 4.071244283958718
leaf_weight=4916 20 29 20 17276 27
leaf_count=4916 20 29 20 17276 27
internal_value=0 -0.149789 -53.3667 0.0562517 -18.4219
internal_weight=0 17372 67 17305 47
internal_count=22288 17372 67 17305 47
is_linear=0
shrinkage=0.5


Tree=77
num_leaves=6
num_cat=0
split_feature=13 9 0 18 11
split_gain=13655.8 109228 140777 201848 165117
threshold=26.94999980926514 4036.7534179687505 0.0014950000331737103 24.250000000000004 45.475000381469734
decision_type=2 2 2 2 2
left_child=-1 2 3 -2 -4
right_child=1 -3 4 -5 -6
leaf_value=-0.089303034225731909 67.853355646133423 -0.86673088633252782 10.190330215320465 6.7764884425747782 -36.061790856448084
leaf_weight=21185 24 869 157 31 22
leaf_count=21185 24 869 157 31 22
internal_value=0 1.71522 11.3037 33.4282 4.50571
internal_weight=0 1103 234 55 179
internal_count=22288 1103 234 55 179
is_linear=0
shrinkage=0.5


Tree=78
num_leaves=6
num_cat=0
split_feature=21 11 8 11 0
split_gain=8003.27 166788 392860 86358.5 63658.5
threshold=-95.952499389648423 45.169500350952156 14280.201171875002 45.219999313354499 0.001515000010840595
decision_type=2 2 2 2 2
left_child=-1 2 -2 -3 -5
right_child=1 3 -4 4 -6
leaf_value=-0.070236897940645263 84.112077760696408 -23.83118947882306 -2.8660826317059831 -0.32203730536275543 14.785511897007625
leaf_weight=21127 20 37 37 992 75
leaf_count=21127 20 37 37 992 75
internal_value=0 1.27812 27.6526 -0.0836065 0.73988
internal_weight=0 1161 57 1104 1067
internal_count=22288 1161 57 1104 1067
is_linear=0
shrinkage=0.5


Tree=79
num_leaves=6
num_cat=0
split_feature=6 4 7 9 5
split_gain=12942.7 129715 107950 45821.4 467033
threshold=13079.443847656252 831308.03125000012 12473.640625000002 4109.4411621093759 3615.6574707031255
decision_type=2 2 2 2 2
left_child=1 -1 -3 4 -2
right_child=3 2 -4 -5 -6
leaf_value=0.17286811779676448 -1.8872560700419236 27.365076392889023 -3.4682782396504823 0.0035149313512913435 -72.265170017878219
leaf_weight=12549 1325 80 44 8266 24
leaf_count=12549 1325 80 44 8266 24
internal_value=0 0.331881 16.4242 -0.437434 -3.13935
internal_weight=0 12673 124 9615 1349
internal_count=22288 12673 124 9615 1349
is_linear=0
shrinkage=0.5


Tree=80
num_leaves=6
num_cat=0
split_feature=21 9 10 10 0
split_gain=9648.3 108106 408368 45162.2 132015
threshold=-95.952499389648423 3904.246948242188 -0.55349999666213978 -0.55850002169609059 0.0014950000331737103
decision_type=2 2 2 2 2
left_child=-1 2 -2 -3 -5
right_child=1 3 -4 4 -6
leaf_value=-0.077118209284222472 -5.6312304564884732 17.832473283154624 75.129530000945792 0.5820032751514238 -31.549521858041938
leaf_weight=21127 49 35 23 1021 33
leaf_count=21127 49 35 23 1021 33
internal_value=0 1.40334 20.1673 0.162744 -0.424012
internal_weight=0 1161 72 1089 1054
internal_count=22288 1161 72 1089 1054
is_linear=0
shrinkage=0.5


Tree=81
num_leaves=6
num_cat=0
split_feature=10 8 19 2 11
split_gain=6327.24 78450.3 55784.1 148228 249952
threshold=-0.49349999427795405 15319.689941406252 32.750000000000007 69125.000000000015 45.377000808715827
decision_type=2 2 2 2 2
left_child=1 -1 3 -2 -5
right_child=2 -3 -4 4 -6
leaf_value=-0.040312070456633028 1.9237315777874622 -30.616054133999917 -2.8690753031008427 71.382282936524248 -1.3499734180944938
leaf_weight=20782 864 21 573 21 27
leaf_count=20782 864 21 573 21 27
internal_value=0 -0.0711774 0.997106 3.42619 30.4704
internal_weight=0 20803 1485 912 48
internal_count=22288 20803 1485 912 48
is_linear=0
shrinkage=0.5


Tree=82
num_leaves=6
num_cat=0
split_feature=2 8 5 4 4
split_gain=17560.9 136212 262930 236877 89368.9
threshold=69125.000000000015 13732.458984375002 3515.4489746093755 610314.15625000012 593602.75000000012
decision_type=2 2 2 2 2
left_child=-1 2 4 -3 -2
right_child=1 3 -4 -5 -6
leaf_value=0.07235286822742712 -33.395119595030941 50.497272575894989 -56.996845149993895 -0.72498790396863988 0.028091398937006792
leaf_weight=21711 24 24 30 379 120
leaf_count=21711 24 24 30 379 120
internal_value=0 -2.72245 -14.4139 2.32547 -5.54244
internal_weight=0 577 174 403 144
internal_count=22288 577 174 403 144
is_linear=0
shrinkage=0.5


Tree=83
num_leaves=6
num_cat=0
split_feature=1 4 14 4 7
split_gain=7349.5 37924.4 66282 23876.8 23560.9
threshold=-71374.999999999985 608534.56250000012 26.349999427795414 654281.56250000012 13100.867187500002
decision_type=2 2 2 2 2
left_child=1 2 -1 4 -3
right_child=-2 3 -4 -5 -6
leaf_value=1.3258288192936514 -0.047139102854087067 3.2066177342619215 -25.800930771976709 2.5652100725977243 26.891492503029959
leaf_weight=76 21703 21 32 435 21
leaf_count=76 21703 21 32 435 21
internal_value=0 1.74882 -6.71173 3.66442 15.0491
internal_weight=0 585 108 477 42
internal_count=22288 585 108 477 42
is_linear=0
shrinkage=0.5


Tree=84
num_leaves=6
num_cat=0
split_feature=9 5 10 4 4
split_gain=10309.9 31931.3 27276.9 18991 19895.5
threshold=4352.6340332031259 3701.703491210938 -0.48849999904632563 523337.50000000006 526168.09375000012
decision_type=2 2 2 2 2
left_child=1 -1 -3 -2 -5
right_child=3 2 -4 4 -6
leaf_value=-0.087423161341916522 6.7146448468832114 -21.422024757215947 -4.080893451567345 -12.69767329948289 0.68960414606195208
leaf_weight=18850 131 29 104 28 3146
leaf_count=18850 131 29 104 28 3146
internal_value=0 -0.141894 -7.86204 0.815001 0.571506
internal_weight=0 18983 133 3305 3174
internal_count=22288 18983 133 3305 3174
is_linear=0
shrinkage=0.5


Tree=85
num_leaves=6
num_cat=0
split_feature=8 0 11 9 0
split_gain=9342.19 69011.8 64307.4 10038 446498
threshold=15598.655273437502 0.0017249999800696971 45.353500366210945 4109.4411621093759 0.00028049999673385179
decision_type=2 2 2 2 2
left_child=1 3 -2 -1 -5
right_child=2 -3 -4 4 -6
leaf_value=-0.44525216943534196 -23.89540109038353 26.283873810768128 0.93245135120888978 0.13304165617144084 65.716802835464478
leaf_weight=8072 32 25 141 13992 26
leaf_count=8072 32 25 141 13992 26
internal_value=0 0.0286311 -3.65998 -0.00108283 0.254684
internal_weight=0 22115 173 22090 14018
internal_count=22288 22115 173 22090 14018
is_linear=0
shrinkage=0.5


Tree=86
num_leaves=6
num_cat=0
split_feature=8 19 10 10 18
split_gain=6961.06 65361.9 17854.4 7531.85 26279.7
threshold=8604.0019531250018 33.049999237060554 -0.44150000810623163 -0.49349999427795405 23.94999980926514
decision_type=2 2 2 2 2
left_child=1 -1 3 -2 -5
right_child=2 -3 -4 4 -6
leaf_value=4.87061358805125 -0.071141709958402702 -24.385673028017795 14.589875334785098 5.6853732691947805 0.087038766094071088
leaf_weight=60 20803 28 21 258 1118
leaf_count=60 20803 28 21 258 1118
internal_value=0 -4.4382 0.0175929 0.00379524 1.13673
internal_weight=0 88 22200 22179 1376
internal_count=22288 88 22200 22179 1376
is_linear=0
shrinkage=0.5


Tree=87
num_leaves=6
num_cat=0
split_feature=2 21 20 20 21
split_gain=14812.8 27244.7 171615 114367 14228.4
threshold=-19124.999999999996 -95.944999694824205 38.95000076293946 38.649999618530281 -95.964000701904283
decision_type=2 2 2 2 2
left_child=1 3 -3 -1 -5
right_child=-2 2 -4 4 -6
leaf_value=-30.876494738790726 0.070983283781010181 46.54511252641678 -6.2331073978053988 -1.0947478547617793 -11.814136380499059
leaf_weight=36 21632 20 67 500 33
leaf_count=36 21632 20 67 500 33
internal_value=0 -2.34072 5.89982 -3.60069 -1.75842
internal_weight=0 656 87 569 533
internal_count=22288 656 87 569 533
is_linear=0
shrinkage=0.5


Tree=88
num_leaves=6
num_cat=0
split_feature=0 1 12 10 12
split_gain=22044.9 7634.62 66724.4 197971 97295.8
threshold=0.0017249999800696971 5000.0000000000009 24.994500160217289 -0.54450002312660206 24.995500564575199
decision_type=2 2 2 2 2
left_child=1 -1 3 -3 -4
right_child=-2 2 4 -5 -6
leaf_value=0.086329321165788647 -14.550705983088566 -44.923723734915257 13.968327163196191 -3.2015785979873992 -1.1731170848147086
leaf_weight=21080 26 32 123 255 772
leaf_count=21080 26 32 123 255 772
internal_value=0 0.0169939 -1.21955 -7.85353 0.907774
internal_weight=0 22262 1182 287 895
internal_count=22288 22262 1182 287 895
is_linear=0
shrinkage=0.5


Tree=89
num_leaves=6
num_cat=0
split_feature=10 6 0 0 22
split_gain=8012.36 11889.3 71821.6 32833.1 127022
threshold=-0.44349999725818628 11254.066894531252 0.0017249999800696971 0.0016450000111944976 -97.81750106811522
decision_type=2 2 2 2 2
left_child=1 2 -1 -3 -5
right_child=-2 3 -4 4 -6
leaf_value=0.85253611536075669 -8.4527545209441861 0.0026990096944641954 30.701628804206848 5.7950306577411919 -41.944974612105973
leaf_weight=240 28 21938 22 38 22
leaf_count=240 28 21938 22 38 22
internal_value=0 0.0106324 3.35895 -0.0292466 -11.7096
internal_weight=0 22260 262 21998 60
internal_count=22288 22260 262 21998 60
is_linear=0
shrinkage=0.5


Tree=90
num_leaves=6
num_cat=0
split_feature=2 2 22 4 20
split_gain=7171.68 7556.88 22577.8 33667.9 29167.9
threshold=-105874.99999999999 -19124.999999999996 -97.825000762939439 794629.25000000012 38.549999237060554
decision_type=2 2 2 2 2
left_child=-1 2 3 -2 -4
right_child=1 -3 4 -5 -6
leaf_value=7.0514469742774963 -12.333844836399434 0.037921148133540111 15.347828578948974 0.79709176233281265 -0.82540560165788923
leaf_weight=36 104 21632 30 92 394
leaf_count=36 104 21632 30 92 394
internal_value=0 -0.0114081 -1.73252 -6.17034 0.318927
internal_weight=0 22252 620 196 424
internal_count=22288 22252 620 196 424
is_linear=0
shrinkage=0.5


Tree=91
num_leaves=6
num_cat=0
split_feature=9 21 5 12 20
split_gain=6643.38 29376.1 139291 309239 68831
threshold=3971.526489257813 -95.944999694824205 3569.3200683593755 25.0004997253418 39.250000000000007
decision_type=2 2 2 2 2
left_child=1 -1 3 -3 -4
right_child=-2 2 4 -5 -6
leaf_value=0.29324083764113829 -0.15709526715641678 76.562237647920853 -24.752057832020981 -10.310627356881188 5.5574882083864354
leaf_weight=5411 16743 20 26 21 67
leaf_count=5411 16743 20 26 21 67
internal_value=0 0.474346 7.78746 32.0664 -2.91615
internal_weight=0 5545 134 41 93
internal_count=22288 5545 134 41 93
is_linear=0
shrinkage=0.5


Tree=92
num_leaves=6
num_cat=0
split_feature=0 0 8 22 4
split_gain=38092.5 12632.9 19531.4 26170.1 11542.2
threshold=0.0017249999800696971 0.0016450000111944976 8604.0019531250018 -97.825000762939439 546062.81250000012
decision_type=2 2 2 2 2
left_child=1 -1 -3 -4 -5
right_child=-2 2 3 4 -6
leaf_value=-0.0043239559589649422 -19.127131562966568 -5.8096720843479552 -1.3258189418736626 8.0135066168648859 23.642971762904413
leaf_weight=22151 26 29 34 21 27
leaf_count=22151 26 29 34 21 27
internal_value=0 0.0223388 5.34311 9.28739 16.8051
internal_weight=0 22262 111 82 48
internal_count=22288 22262 111 82 48
is_linear=0
shrinkage=0.5


Tree=93
num_leaves=6
num_cat=0
split_feature=0 8 15 1 8
split_gain=9523.14 9545.06 8166.61 41471.1 63081.4
threshold=0.0017249999800696971 15645.036621093752 27.750000000000004 5000.0000000000009 13930.218750000002
decision_type=2 2 2 2 2
left_child=1 2 -1 -4 -5
right_child=-2 -3 3 4 -6
leaf_value=0.028476687507164842 -9.5635670194259053 5.2995073164210602 0.60570925392993225 8.1461931467056274 -22.322932270337951
leaf_weight=21842 26 85 257 25 53
leaf_count=21842 26 85 257 25 53
internal_value=0 0.0111694 -0.00909977 -2.45908 -12.5572
internal_weight=0 22262 22177 335 78
internal_count=22288 22262 22177 335 78
is_linear=0
shrinkage=0.5


Tree=94
num_leaves=6
num_cat=0
split_feature=8 20 0 11 13
split_gain=9876.8 60217.1 50288.3 7452.54 6937.36
threshold=15645.036621093752 38.850000381469734 0.0017249999800696971 45.412000656127937 27.150000572204593
decision_type=2 2 2 2 2
left_child=2 -2 4 -3 -1
right_child=1 3 -4 -5 -6
leaf_value=0.022395618008002275 -22.115217436443675 10.485755235470574 22.433143854141235 -1.4254431426525116 -2.9068701985730407
leaf_weight=21973 33 29 25 24 204
leaf_count=21973 33 29 25 24 204
internal_value=0 -5.34798 0.0207155 5.09201 -0.00454988
internal_weight=0 86 22202 53 22177
internal_count=22288 86 22202 53 22177
is_linear=0
shrinkage=0.5


Tree=95
num_leaves=6
num_cat=0
split_feature=9 8 15 21 10
split_gain=6623.94 28195.6 58142.3 18255.9 13822.6
threshold=4418.7485351562509 15305.353515625002 27.050000190734867 -95.976001739501939 -0.47749999165534968
decision_type=2 2 2 2 2
left_child=1 -1 -3 -2 -5
right_child=3 2 -4 4 -6
leaf_value=-0.0045983380497697261 7.3863452850981099 0.1475483812391758 -32.870155166834593 1.3658574355527378 -8.9456897683632679
leaf_weight=21881 113 40 20 195 39
leaf_count=21881 113 40 20 195 39
internal_value=0 -0.0342791 -10.8584 2.16749 -0.352734
internal_weight=0 21941 60 347 234
internal_count=22288 21941 60 347 234
is_linear=0
shrinkage=0.5


Tree=96
num_leaves=6
num_cat=0
split_feature=12 12 10 9 18
split_gain=4976.28 10326.9 8740.58 4989.21 8892.97
threshold=24.984499931335453 24.985500335693363 -0.49250000715255732 4423.2939453125009 24.250000000000004
decision_type=2 2 2 2 2
left_child=2 -2 -1 -3 -5
right_child=1 3 -4 4 -6
leaf_value=0.96137668501313145 -9.1358183684848964 -0.029126629131204104 11.81014401714007 0.46467321932749456 7.2445624048893267
leaf_weight=82 31 21897 24 189 65
leaf_count=82 31 21897 24 189 65
internal_value=0 -0.016332 3.4177 -0.00356941 2.19968
internal_weight=0 22182 106 22151 254
internal_count=22288 22182 106 22151 254
is_linear=0
shrinkage=0.5


Tree=97
num_leaves=6
num_cat=0
split_feature=0 2 4 4 2
split_gain=22562.2 9233.73 5786.6 29460.2 115747
threshold=0.0017249999800696971 105875.00000000001 701715.71875000012 640261.71875000012 69125.000000000015
decision_type=2 2 2 2 2
left_child=1 2 3 -1 -5
right_child=-2 -3 -4 4 -6
leaf_value=0.13137757635521191 -14.720441070886759 7.9093635243338509 0.18012115005529558 -1.3737920135220087 -22.098164059746434
leaf_weight=5780 26 37 15055 1319 71
leaf_count=5780 26 37 15055 1319 71
internal_value=0 0.0171921 0.00405332 -0.36564 -2.43238
internal_weight=0 22262 22225 7170 1390
internal_count=22288 22262 22225 7170 1390
is_linear=0
shrinkage=0.5


Tree=98
num_leaves=6
num_cat=0
split_feature=0 10 12 10 1
split_gain=12465.9 52416.4 18254 19285.4 22999.3
threshold=3.2650001230649657e-05 -0.49549999833106989 24.991499900817875 -0.4915000051259994 5000.0000000000009
decision_type=2 2 2 2 2
left_child=1 -1 -3 -4 -5
right_child=-2 2 3 4 -6
leaf_value=15.167376350665439 -0.066686476648596088 10.452306465669112 -13.69631415605545 1.9933538584297659 -6.5264303417255478
leaf_weight=69 21601 44 25 453 96
leaf_count=69 21601 44 25 453 96
internal_value=0 2.09679 0.637452 -0.114906 0.503556
internal_weight=0 687 618 574 549
internal_count=22288 687 618 574 549
is_linear=0
shrinkage=0.5


Tree=99
num_leaves=6
num_cat=0
split_feature=2 0 13 22 8
split_gain=6589.38 8316.77 48777.6 28152 10548.9
threshold=105875.00000000001 0.0016549999709241094 26.650000572204593 -97.716999053955064 15305.353515625002
decision_type=2 2 2 2 2
left_child=1 4 -3 -4 -1
right_child=-2 2 3 -5 -6
leaf_value=-0.050643551422473961 -6.493513672779768 -16.433524121344089 21.95154551394058 0.5982849680144211 2.7319628107087279
leaf_weight=21821 39 20 33 29 346
leaf_count=21821 39 20 33 29 346
internal_value=0 0.0113824 5.03757 11.9637 -0.00721044
internal_weight=0 22249 82 62 22167
internal_count=22288 22249 82 62 22167
is_linear=0
shrinkage=0.5


end of trees

feature_importances:
Column_0=95
Column_10=56
Column_8=46
Column_9=36
Column_2=23
Column_4=23
Column_11=23
Column_7=22
Column_5=21
Column_21=19
Column_19=16
Column_1=14
Column_22=14
Column_6=12
Column_12=11
Column_13=11
Column_14=11
Column_20=11
Column_18=10
Column_15=9
Column_3=7
Column_17=6
Column_16=4

parameters:
[boosting: gbdt]
[objective: regression]
[metric: l1]
[tree_learner: serial]
[device_type: cpu]
[data: ]
[valid: ]
[num_iterations: 100]
[learning_rate: 0.5]
[num_leaves: 6]
[num_threads: 0]
[deterministic: 0]
[force_col_wise: 0]
[force_row_wise: 0]
[histogram_pool_size: -1]
[max_depth: 6]
[min_data_in_leaf: 20]
[min_sum_hessian_in_leaf: 0.001]
[bagging_fraction: 0.7]
[pos_bagging_fraction: 1]
[neg_bagging_fraction: 1]
[bagging_freq: 0]
[bagging_seed: 400]
[feature_fraction: 0.7]
[feature_fraction_bynode: 1]
[feature_fraction_seed: 30056]
[extra_trees: 0]
[extra_seed: 12879]
[early_stopping_round: 0]
[first_metric_only: 0]
[max_delta_step: 0]
[lambda_l1: 0]
[lambda_l2: 0]
[linear_lambda: 0]
[min_gain_to_split: 0]
[drop_rate: 0.8]
[max_drop: 50]
[skip_drop: 0.8]
[xgboost_dart_mode: 0]
[uniform_drop: 0]
[drop_seed: 17869]
[top_rate: 0.2]
[other_rate: 0.1]
[min_data_per_group: 100]
[max_cat_threshold: 32]
[cat_l2: 10]
[cat_smooth: 10]
[max_cat_to_onehot: 4]
[top_k: 20]
[monotone_constraints: ]
[monotone_constraints_method: basic]
[monotone_penalty: 0]
[feature_contri: ]
[forcedsplits_filename: ]
[refit_decay_rate: 0.9]
[cegb_tradeoff: 1]
[cegb_penalty_split: 0]
[cegb_penalty_feature_lazy: ]
[cegb_penalty_feature_coupled: ]
[path_smooth: 0]
[interaction_constraints: ]
[verbosity: 1]
[saved_feature_importance_type: 0]
[linear_tree: 0]
[max_bin: 255]
[max_bin_by_feature: ]
[min_data_in_bin: 3]
[bin_construct_sample_cnt: 200000]
[data_random_seed: 175]
[is_enable_sparse: 1]
[enable_bundle: 1]
[use_missing: 1]
[zero_as_missing: 0]
[feature_pre_filter: 1]
[pre_partition: 0]
[two_round: 0]
[header: 0]
[label_column: ]
[weight_column: ]
[group_column: ]
[ignore_column: ]
[categorical_feature: ]
[forcedbins_filename: ]
[precise_float_parser: 0]
[objective_seed: 16083]
[num_class: 1]
[is_unbalance: 0]
[scale_pos_weight: 1]
[sigmoid: 1]
[boost_from_average: 1]
[reg_sqrt: 0]
[alpha: 0.9]
[fair_c: 1]
[poisson_max_delta_step: 0.7]
[tweedie_variance_power: 1.5]
[lambdarank_truncation_level: 30]
[lambdarank_norm: 1]
[label_gain: ]
[eval_at: ]
[multi_error_top_k: 1]
[auc_mu_weights: ]
[num_machines: 1]
[local_listen_port: 12400]
[time_out: 120]
[machine_list_filename: ]
[machines: ]
[gpu_platform_id: -1]
[gpu_device_id: -1]
[gpu_use_dp: 0]
[num_gpu: 1]

end of parameters

pandas_categorical:null
