tree
version=v3
num_class=1
num_tree_per_iteration=1
label_index=0
max_feature_idx=24
objective=regression
feature_names=Column_0 Column_1 Column_2 Column_3 Column_4 Column_5 Column_6 Column_7 Column_8 Column_9 Column_10 Column_11 Column_12 Column_13 Column_14 Column_15 Column_16 Column_17 Column_18 Column_19 Column_20 Column_21 Column_22 Column_23 Column_24
feature_infos=[1:200] [9.6653003692626953:10001.138671875] [2.0600000425474718e-05:0.071199998259544373] [-110250:110250] [-110250:110250] [-1514:-1500] [27413.599609375:891620.6875] [962.21502685546875:3783.802978515625] [1046.031005859375:14591.265625] [1102.8590087890625:13930.2470703125] [1456.342041015625:16048.3212890625] [1098.2850341796875:4498.72705078125] [-0.67000001668930054:0.27399998903274536] [44.854999542236328:45.7239990234375] [24.972999572753906:25.024999618530273] [26.200000762939453:27.299999237060547] [25.799999237060547:26.600000381469727] [26.899999618530273:27.899999618530273] [25.399999618530273:26.100000381469727] [26.399999618530273:27.200000762939453] [23.700000762939453:24.700000762939453] [30:35.299999237060547] [36.900001525878906:43.599998474121094] [-97.952003479003906:-95.740997314453125] [-98.0989990234375:-95.902999877929688]
tree_sizes=658 651 635 671 672 667 642 644 662 662 654 648 677 660 651 663 657 664 654 649 659 675 659 669 668 660 670 656 655 658 669 670 670 659 658 661 670 649 661 677 667 679 673 661 680 684 649 655 668 651 651 686 670 668 678 670 670 670 668 663 668 676 671 659 673 663 675 672 686 666 674 655 678 663 676 668 659 668 678 673 680 668 652 655 685 666 658 670 659 666 661 662 658 667 662 666 671 657 671 674

Tree=0
num_leaves=6
num_cat=0
split_feature=3 2 3 11 2
split_gain=9997.4 13871.4 3036.11 9776.84 2035.12
threshold=70375.000000000015 0.0014550000196322801 -71374.999999999985 3954.7590332031255 5.9250000049360103e-05
decision_type=2 2 2 2 2
left_child=2 4 3 -1 -2
right_child=1 -3 -4 -5 -6
leaf_value=6.7223040840240467 -0.21660098870933048 -8.3023464797981195 0.020745709670055717 0.41847735340069464 -2.2487919122745041
leaf_weight=70 285 77 21132 507 217
leaf_count=70 285 77 21132 507 217
internal_value=-0.00304523 -2.05354 0.0516434 1.18324 -1.09506
internal_weight=0 579 21709 577 502
internal_count=22288 579 21709 577 502
is_linear=0
shrinkage=1


Tree=1
num_leaves=6
num_cat=0
split_feature=1 3 1 9 1
split_gain=4372.57 2407.73 3467.85 1258.63 1037.27
threshold=9987.8168945312518 70375.000000000015 4936.5185546875009 10005.078125000002 257.08885192871099
decision_type=2 2 2 2 2
left_child=1 3 4 -1 -3
right_child=-2 2 -4 -5 -6
leaf_value=-0.69644402768523372 2.5722487267651934 0.1364121961682527 -4.1496511496506727 0.028705578203449555 -1.302974836666043
leaf_weight=616 164 264 77 20929 238
leaf_count=616 164 264 77 20929 238
internal_value=0 -0.0190675 -1.02525 0.00797259 -0.546006
internal_weight=0 22124 579 21545 502
internal_count=22288 22124 579 21545 502
is_linear=0
shrinkage=0.5


Tree=2
num_leaves=6
num_cat=0
split_feature=4 1 1 1 1
split_gain=2775.91 6450.4 1669.35 1245.14 1221.57
threshold=-69124.999999999985 1014.8872680664064 9987.8168945312518 9992.4174804687518 4925.1755371093759
decision_type=2 2 2 2 2
left_child=1 -1 4 -2 -3
right_child=3 2 -4 -5 -6
leaf_value=-0.29394778648418363 -0.035628148399673237 2.6641034667874561 1.1624029652277628 2.0765503747122627 5.4363895685244827
leaf_weight=345 21639 81 75 70 78
leaf_count=345 21639 81 75 70 78
internal_value=0 1.08048 3.10688 -0.0288175 4.02409
internal_weight=0 579 234 21709 159
internal_count=22288 579 234 21709 159
is_linear=0
shrinkage=0.5


Tree=3
num_leaves=6
num_cat=0
split_feature=4 2 3 2 11
split_gain=693.977 1644.23 774.112 2326.73 472.618
threshold=-69124.999999999985 0.00019749999773921448 1.0000000180025095e-35 0.00062750000506639491 2905.848510742188
decision_type=2 2 2 2 2
left_child=1 -1 4 -4 -2
right_child=2 -3 3 -5 -6
leaf_value=-0.16117118440612019 -0.32735319940807728 1.5524051799301357 0.014331472723103023 -1.3016103690319236 0.030621683287172966
leaf_weight=342 969 237 1260 458 19022
leaf_count=342 969 237 1260 458 19022
internal_value=0 0.540241 -0.0144087 -0.336484 0.01327
internal_weight=0 579 21709 1718 19991
internal_count=22288 579 21709 1718 19991
is_linear=0
shrinkage=0.5


Tree=4
num_leaves=6
num_cat=0
split_feature=12 10 0 0 10
split_gain=451.878 481.624 306.029 311.753 555.442
threshold=-0.62950000166892994 9590.0068359375018 2.5000000000000004 5.5000000000000009 15160.728515625002
decision_type=2 2 2 2 2
left_child=1 -1 -2 4 -4
right_child=2 -3 3 -5 -6
leaf_value=0.002340642460492543 -0.24499312440881979 0.57249328856665982 0.080866249480760877 -0.025209682467325332 0.84997622572135789
leaf_weight=801 1398 689 1892 17240 268
leaf_count=801 1398 689 1892 17240 268
internal_value=0 0.265988 -0.0190558 -0.00277435 0.176293
internal_weight=0 1490 20798 19400 2160
internal_count=22288 1490 20798 19400 2160
is_linear=0
shrinkage=0.5


Tree=5
num_leaves=6
num_cat=0
split_feature=1 9 10 2 0
split_gain=210.379 156.24 143.887 275.479 115.454
threshold=9992.4174804687518 9802.1640625000018 11655.433593750002 0.0008074999786913396 50.500000000000007
decision_type=2 2 2 2 2
left_child=1 -1 3 4 -3
right_child=-2 2 -4 -5 -6
leaf_value=-0.38530750113899226 0.79939908370739077 0.40115973661266652 -0.012464474242171893 -0.056976964293712268 0.082371675837784999
leaf_weight=264 82 770 19565 1157 450
leaf_count=264 82 770 19565 1157 450
internal_value=0 -0.00295194 0.00164846 0.117811 0.283574
internal_weight=0 22206 21942 2377 1220
internal_count=22288 22206 21942 2377 1220
is_linear=0
shrinkage=0.5


Tree=6
num_leaves=6
num_cat=0
split_feature=3 2 7 7 2
split_gain=112.111 399.405 246.574 78.652 70.194
threshold=70375.000000000015 0.0014550000196322801 3386.587036132813 3460.514038085938 5.9250000049360103e-05
decision_type=2 2 2 2 2
left_child=-1 2 4 -4 -2
right_child=1 -3 3 -5 -6
leaf_value=0.0057913231621921427 -1.5422000360488892 -1.2774773634873426 0.52774150011151333 -0.0086235043110483942 -0.5399520417739605
leaf_weight=21709 25 77 86 333 58
leaf_count=21709 25 77 86 333 58
internal_value=0 -0.21714 -0.0544982 0.101466 -0.841834
internal_weight=0 579 502 419 83
internal_count=22288 579 502 419 83
is_linear=0
shrinkage=0.5


Tree=7
num_leaves=6
num_cat=0
split_feature=4 10 1 1 1
split_gain=70.5005 494.867 193.511 741.543 95.9781
threshold=-69124.999999999985 15115.861328125002 4925.1755371093759 9987.8168945312518 9992.4174804687518
decision_type=2 2 2 2 2
left_child=1 2 -1 -4 -2
right_child=4 -3 3 -5 -6
leaf_value=0.15022324751981808 -0.006483401299647789 -0.98227241560816769 1.904895427899483 -0.29704673131306963 0.57993603093283519
leaf_weight=346 21639 80 78 75 70
leaf_count=346 21639 80 78 75 70
internal_value=0 0.172191 0.357276 0.825512 -0.00459251
internal_weight=0 579 499 153 21709
internal_count=22288 579 499 153 21709
is_linear=0
shrinkage=0.5


Tree=8
num_leaves=6
num_cat=0
split_feature=12 0 2 1 1
split_gain=60.5669 61.1178 457.441 697.672 189.209
threshold=-0.4615000039339065 3.5000000000000004 0.00019250000332249331 512.35690307617199 9982.8129882812518
decision_type=2 2 2 2 2
left_child=1 2 3 -1 -4
right_child=-2 -3 4 -5 -6
leaf_value=0.019487683292547155 -0.30847098505790521 0.010919274981837337 -0.43956420299251975 1.451676083566702 0.11512814931990822
leaf_weight=1123 158 19936 788 92 191
leaf_count=1123 158 19936 788 92 191
internal_value=0 0.00220237 -0.0770047 0.127933 -0.331345
internal_weight=0 22130 2194 1215 979
internal_count=22288 22130 2194 1215 979
is_linear=0
shrinkage=0.5


Tree=9
num_leaves=6
num_cat=0
split_feature=12 1 8 0 4
split_gain=57.3182 40.06 31.7318 45.7349 17.9411
threshold=-0.63949999213218678 18.018549919128422 11217.368652343752 10.500000000000002 69125.000000000015
decision_type=2 2 2 2 2
left_child=1 -1 3 -2 -4
right_child=2 -3 4 -5 -6
leaf_value=0.063845002020908787 0.42718797922134399 0.30577314492336222 -0.0013344858137956321 -0.33397935936729956 -0.090654980450881495
leaf_weight=770 23 220 20558 139 578
leaf_count=770 23 220 20558 139 578
internal_value=0 0.117607 -0.00546675 -0.225912 -0.00377711
internal_weight=0 990 21298 162 21136
internal_count=22288 990 21298 162 21136
is_linear=0
shrinkage=0.5


Tree=10
num_leaves=6
num_cat=0
split_feature=3 1 7 1 1
split_gain=37.0321 269.739 125.927 48.1121 18.7986
threshold=-71374.999999999985 114.43835067749025 3455.683471679688 4925.1755371093759 9987.8168945312518
decision_type=2 2 2 2 2
left_child=1 -1 -3 -4 -2
right_child=4 2 3 -5 -6
leaf_value=-0.37064340292045506 -0.0023523566470309478 0.80587261018499867 -0.0040475758177751396 0.41510986793236654 -0.2264363089021533
leaf_weight=186 21617 113 156 122 94
leaf_count=186 21617 113 156 122 94
internal_value=0 0.125019 0.360807 0.179899 -0.00332255
internal_weight=0 577 391 278 21711
internal_count=22288 577 391 278 21711
is_linear=0
shrinkage=0.5


Tree=11
num_leaves=6
num_cat=0
split_feature=4 2 1 11 10
split_gain=22.7523 160.8 90.6398 63.9444 63.1386
threshold=-69124.999999999985 0.00019749999773921448 9987.8168945312518 4316.2800292968759 15160.728515625002
decision_type=2 2 2 2 2
left_child=1 4 3 -3 -1
right_child=-2 2 -4 -5 -6
leaf_value=-0.025451317534112092 -0.0026089565192306411 0.94277522340416908 -0.040097605064511301 0.31446125776302525 -0.60191328483715389
leaf_weight=285 21709 80 75 82 57
leaf_count=285 21709 80 75 82 57
internal_value=0 0.0978201 0.414348 0.62474 -0.121528
internal_weight=0 579 237 162 342
internal_count=22288 579 237 162 342
is_linear=0
shrinkage=0.5


Tree=12
num_leaves=6
num_cat=0
split_feature=2 8 1 3 2
split_gain=19.3613 20.5171 198.285 29.4181 29.8446
threshold=0.0016349999932572248 12030.538574218752 509.73493957519537 1.0000000180025095e-35 0.00091050000628456484
decision_type=2 2 2 2 2
left_child=1 2 3 4 -1
right_child=-2 -3 -4 -5 -6
leaf_value=0.05968062901788436 -0.14725751598782805 -0.0050567622890683468 0.78224653485177575 -0.23429021292499133 -0.043133894124781309
leaf_weight=2179 221 18645 87 112 1044
leaf_count=2179 221 18645 87 112 1044
internal_value=0 0.00147478 0.0370623 0.0176227 0.0263768
internal_weight=0 22067 3422 3335 3223
internal_count=22288 22067 3422 3335 3223
is_linear=0
shrinkage=0.5


Tree=13
num_leaves=6
num_cat=0
split_feature=9 1 2 11 9
split_gain=11.1633 62.3924 12.4322 47.3867 22.1211
threshold=12017.278808593752 18.261600494384769 0.0014049999881535771 2789.726440429688 9855.8623046875018
decision_type=2 2 2 2 2
left_child=1 2 3 4 -1
right_child=-2 -3 -4 -5 -6
leaf_value=0.17690345895444526 -0.0041017847541961047 0.16711264006036342 -0.097035586283413147 -0.0098175811549241505 0.82584616541862488
leaf_weight=29 19648 635 359 1593 24
leaf_count=29 19648 635 359 1593 24
internal_value=0 0.0305272 -0.0127305 0.00565681 0.470764
internal_weight=0 2640 2005 1646 53
internal_count=22288 2640 2005 1646 53
is_linear=0
shrinkage=0.5


Tree=14
num_leaves=6
num_cat=0
split_feature=4 2 12 2 7
split_gain=9.90678 39.161 19.0604 16.1496 14.8811
threshold=-69124.999999999985 0.00019749999773921448 -0.54550001025199879 0.00064250000286847364 3432.3935546875005
decision_type=2 2 2 2 2
left_child=1 4 -3 -4 -1
right_child=-2 2 3 -5 -6
leaf_value=-0.22794065058949481 -0.0017215512336429936 0.010307853143957973 0.16366614937959684 0.47858004592642001 0.015342369208626564
leaf_weight=83 21709 74 84 79 259
leaf_count=83 21709 74 84 79 259
internal_value=0 0.0645478 0.220753 0.316293 -0.0437
internal_weight=0 579 237 163 342
internal_count=22288 579 237 163 342
is_linear=0
shrinkage=0.5


Tree=15
num_leaves=6
num_cat=0
split_feature=12 0 0 2 0
split_gain=9.73283 14.678 10.0418 9.07324 102.9
threshold=-0.64149999618530262 49.500000000000007 3.5000000000000004 0.00062750000506639491 3.5000000000000004
decision_type=2 2 2 2 2
left_child=1 2 -1 -2 -5
right_child=3 -3 -4 4 -6
leaf_value=-0.15695723719605037 0.0049098940667042928 -0.3185529223141762 0.076178774710129377 -0.20851939643190054 0.0025586478547141283
leaf_weight=49 14601 26 805 637 6170
leaf_count=49 14601 26 805 637 6170
internal_value=0 0.0515348 0.0628021 -0.0021184 -0.0171941
internal_weight=0 880 854 21408 6807
internal_count=22288 880 854 21408 6807
is_linear=0
shrinkage=0.5


Tree=16
num_leaves=6
num_cat=0
split_feature=1 4 8 4 1
split_gain=10.1919 23.1492 28.5649 11.2837 486.072
threshold=9985.9125976562518 69125.000000000015 12846.035644531252 69125.000000000015 1019.9466857910157
decision_type=2 2 2 2 2
left_child=3 -2 -3 -1 -5
right_child=1 2 -4 4 -6
leaf_value=-0.00084161487120235805 0.029408093816791034 0.0054485490918159485 0.76912425210078561 0.16282909536114093 -1.0382403333981831
leaf_weight=20408 1300 25 24 426 105
leaf_count=20408 1300 25 24 426 105
internal_value=0 0.0421243 0.379494 -0.00271387 -0.0746705
internal_weight=0 1349 49 20939 531
internal_count=22288 1349 49 20939 531
is_linear=0
shrinkage=0.5


Tree=17
num_leaves=6
num_cat=0
split_feature=4 3 13 1 3
split_gain=7.30347 6.25503 5.8854 35.9048 15.4989
threshold=-105874.99999999999 107125.00000000001 45.396999359130866 9983.3837890625018 70375.000000000015
decision_type=2 2 2 2 2
left_child=-1 2 -2 4 -4
right_child=1 -3 3 -5 -6
leaf_value=0.22502584000014597 -0.0028224750312247446 0.20788442532324958 0.029174997588073695 0.51657740029229504 -0.22280906519154087
leaf_weight=36 20803 36 1312 37 64
leaf_count=36 20803 36 1312 37 64
internal_value=0 -0.000364054 -0.000701511 0.0305245 0.0174548
internal_weight=0 22252 22216 1413 1376
internal_count=22288 22252 22216 1413 1376
is_linear=0
shrinkage=0.5


Tree=18
num_leaves=6
num_cat=0
split_feature=11 4 3 11 2
split_gain=5.64155 62.1632 26.9628 9.86035 20.0352
threshold=4473.1210937500009 69125.000000000015 -19124.999999999996 4423.5671386718759 3.92500005546026e-05
decision_type=2 2 2 2 2
left_child=3 2 -2 -1 -5
right_child=1 -3 -4 4 -6
leaf_value=-4.18908176812512e-05 0.44910176753997805 0.87508975375782361 -0.11971628902538214 -0.46099462168557304 0.030248696568842028
leaf_weight=22030 25 22 125 35 51
leaf_count=22030 25 22 125 35 51
internal_value=0 0.0902034 -0.0249133 -0.000701528 -0.169676
internal_weight=0 172 150 22116 86
internal_count=22288 172 150 22116 86
is_linear=0
shrinkage=0.5


Tree=19
num_leaves=6
num_cat=0
split_feature=1 4 1 4 1
split_gain=4.32401 95.6614 84.3426 393.426 77.7344
threshold=4922.8295898437509 69125.000000000015 1019.9466857910157 69125.000000000015 9985.9125976562518
decision_type=2 2 2 2 2
left_child=2 -2 -1 -4 -3
right_child=1 4 3 -5 -6
leaf_value=-0.00031942964007766056 0.0043121046901963911 1.2302263826131821 0.31528368688720676 -1.1950125446567288 0.18587908528897226
leaf_weight=16724 5312 28 98 77 49
leaf_count=16724 5312 28 98 77 49
internal_value=0 0.0123326 -0.0039328 -0.349247 0.565642
internal_weight=0 5389 16899 175 77
internal_count=22288 5389 16899 175 77
is_linear=0
shrinkage=0.5


Tree=20
num_leaves=6
num_cat=0
split_feature=0 8 1 10 9
split_gain=7.05907 36.7673 17.3295 21.2509 31.1434
threshold=4.5000000000000009 11385.346191406252 14.092999935150148 13473.320800781252 12506.416015625002
decision_type=2 2 2 2 2
left_child=1 -1 -3 -4 -5
right_child=-2 2 3 4 -6
leaf_value=0.51816439386960622 -0.0034571143261105269 -0.13594280427853975 -0.050637123715526866 0.19373864743974992 0.024914563742809731
leaf_weight=37 19365 175 673 325 1713
leaf_count=37 19365 175 673 325 1713
internal_value=0 0.0229035 0.016554 0.026398 0.051837
internal_weight=0 2923 2886 2711 2038
internal_count=22288 2923 2886 2711 2038
is_linear=0
shrinkage=0.5


Tree=21
num_leaves=6
num_cat=0
split_feature=0 0 9 11 1
split_gain=4.34427 5.03723 27.7879 14.6679 12.611
threshold=110.50000000000001 10.500000000000002 10005.078125000002 2832.266967773438 509.73493957519537
decision_type=2 2 2 2 2
left_child=1 2 -1 -3 -4
right_child=-2 3 4 -5 -6
leaf_value=0.28887939273283397 0.010139452819168372 -0.098959525444300686 -0.018862497388129638 -0.0068879992677360613 0.034661394734655702
leaf_weight=87 7167 452 2623 10063 1896
leaf_count=87 7167 452 2623 10063 1896
internal_value=0 -0.00480586 0.00898267 -0.0108458 0.00359409
internal_weight=0 15121 4606 10515 4519
internal_count=22288 15121 4606 10515 4519
is_linear=0
shrinkage=0.5


Tree=22
num_leaves=6
num_cat=0
split_feature=12 0 0 0 9
split_gain=3.78727 9.26859 14.1637 7.46923 5.83241
threshold=-0.64049997925758351 42.500000000000007 30.500000000000004 36.500000000000007 10519.884277343752
decision_type=2 2 2 2 2
left_child=1 2 -1 -4 -2
right_child=4 -3 3 -5 -6
leaf_value=0.0055825086595351868 -0.04081859956945811 -0.10561979661584583 0.20740943874793444 0.02309145839032602 0.00037334545000567907
leaf_weight=564 897 109 171 81 20466
leaf_count=564 897 109 171 81 20466
internal_value=0 0.0313226 0.0496151 0.148164 -0.00135624
internal_weight=0 925 816 252 21363
internal_count=22288 925 816 252 21363
is_linear=0
shrinkage=0.5


Tree=23
num_leaves=6
num_cat=0
split_feature=3 9 3 3 11
split_gain=4.28697 4.29974 24.9133 20.8906 33.3316
threshold=107125.00000000001 12534.718750000002 70375.000000000015 21375.000000000004 4413.5170898437509
decision_type=2 2 2 2 2
left_child=1 2 -1 -3 -5
right_child=-2 3 -4 4 -6
leaf_value=0.0046527710742328204 0.17240233217469519 -0.0024588704093080243 0.19635065212695069 -0.075656678557366491 -0.60144903465653909
leaf_weight=8346 36 13352 173 348 33
leaf_count=8346 36 13352 173 348 33
internal_value=0 -0.000278918 0.00854568 -0.00575309 -0.121198
internal_weight=0 22252 8519 13733 381
internal_count=22288 22252 8519 13733 381
is_linear=0
shrinkage=0.5


Tree=24
num_leaves=6
num_cat=0
split_feature=13 23 23 1 3
split_gain=3.17319 3.10484 4.23235 7.49285 7.08738
threshold=45.710500717163093 -95.775501251220689 -95.868000030517564 255.97254943847659 1.0000000180025095e-35
decision_type=2 2 2 2 2
left_child=1 2 -1 -4 -5
right_child=-2 -3 3 4 -6
leaf_value=-0.00086541218925544874 0.12978086902690616 -0.12473032233305276 0.17189467902656416 0.16368893176121146 -0.036973767266657027
leaf_weight=21843 47 50 98 57 193
leaf_count=21843 47 50 98 57 193
internal_value=0 -0.000274255 6.16521e-06 0.0547127 0.00877733
internal_weight=0 22241 22191 348 250
internal_count=22288 22241 22191 348 250
is_linear=0
shrinkage=0.5


Tree=25
num_leaves=6
num_cat=0
split_feature=4 2 4 6 3
split_gain=2.22848 2.12622 26.3208 25.7923 16.1867
threshold=-105874.99999999999 0.00089049999951384972 69125.000000000015 730414.00000000012 70375.000000000015
decision_type=2 2 2 2 2
left_child=-1 -2 4 -4 -3
right_child=1 2 3 -5 -6
leaf_value=0.12430017084504168 0.0020733376140179226 -0.011925364214558934 0.46939992504539313 -0.14487298607826232 -0.24348024723978787
leaf_weight=36 18291 3805 54 25 77
leaf_count=36 18291 3805 54 25 77
internal_value=0 -0.000201097 -0.0107039 0.27501 -0.0165183
internal_weight=0 22252 3961 79 3882
internal_count=22288 22252 3961 79 3882
is_linear=0
shrinkage=0.5


Tree=26
num_leaves=6
num_cat=0
split_feature=9 1 8 12 7
split_gain=2.71657 7.56634 6.4634 6.23541 4.36216
threshold=10005.078125000002 15.381700038909914 11505.722656250002 -0.62950000166892994 3218.633422851563
decision_type=2 2 2 2 2
left_child=1 -1 3 -2 -4
right_child=2 -3 4 -5 -6
leaf_value=0.00019437185916683624 -0.034385596939578787 0.12708864745144627 0.044886068563817091 -0.19936451328814858 -0.00096527851995605431
leaf_weight=458 280 158 532 72 20788
leaf_count=458 280 158 532 72 20788
internal_value=0 0.0327419 -0.000930649 -0.0681313 0.000178855
internal_weight=0 616 21672 352 21320
internal_count=22288 616 21672 352 21320
is_linear=0
shrinkage=0.5


Tree=27
num_leaves=6
num_cat=0
split_feature=0 9 1 1 4
split_gain=3.33633 20.0234 23.4037 30.7662 11.9841
threshold=2.5000000000000004 12551.444824218752 113.55950164794923 4923.8273925781259 1.0000000180025095e-35
decision_type=2 2 2 2 2
left_child=1 2 -1 -4 -3
right_child=-2 4 3 -5 -6
leaf_value=0.032734362643701664 -0.0016220245085088684 -0.089876363156014744 0.43452364084671957 -0.027455233331573636 0.025305940777667402
leaf_weight=365 20824 374 98 57 570
leaf_count=365 20824 374 98 57 570
internal_value=0 0.0230717 0.101858 0.264635 -0.0203277
internal_weight=0 1464 520 155 944
internal_count=22288 1464 520 155 944
is_linear=0
shrinkage=0.5


Tree=28
num_leaves=6
num_cat=0
split_feature=10 1 4 7 9
split_gain=2.84409 43.2615 8.44914 63.3061 43.5202
threshold=15272.701660156252 512.35690307617199 69125.000000000015 3403.315063476563 13048.707519531252
decision_type=2 2 2 2 2
left_child=2 -2 -1 -4 -5
right_child=1 -3 3 4 -6
leaf_value=0.00052037078957225353 -0.0051649065696210529 0.4269160015715493 0.47364268779754637 -0.21119434808034301 0.11590440255602809
leaf_weight=20960 720 63 50 352 143
leaf_count=20960 720 63 50 352 143
internal_value=0 0.0296002 -0.00107775 -0.0625394 -0.116699
internal_weight=0 783 21505 545 495
internal_count=22288 783 21505 545 495
is_linear=0
shrinkage=0.5


Tree=29
num_leaves=6
num_cat=0
split_feature=1 11 4 1 11
split_gain=2.21228 31.8197 8.35381 6.77951 17.695
threshold=4924.9372558593759 3987.140991210938 69125.000000000015 9985.6967773437518 3904.908569335938
decision_type=2 2 2 2 2
left_child=-1 2 3 4 -2
right_child=1 -3 -4 -5 -6
leaf_value=-0.0020033845868595718 -0.12680822207281986 0.29129346678353318 0.16576021118013962 0.011901987050498164 0.036937855692594224
leaf_weight=19185 333 99 77 2267 327
leaf_count=19185 333 99 77 2267 327
internal_value=0 0.0123864 0.0031947 -0.00108188 -0.0456795
internal_weight=0 3103 3004 2927 660
internal_count=22288 3103 3004 2927 660
is_linear=0
shrinkage=0.5


Tree=30
num_leaves=6
num_cat=0
split_feature=0 9 0 1 9
split_gain=2.64606 3.83996 20.2514 29.8759 11.6865
threshold=68.500000000000014 12121.553222656252 49.500000000000007 18.018549919128422 10651.225097656252
decision_type=2 2 2 2 2
left_child=1 2 3 -1 -4
right_child=-2 -3 4 -5 -6
leaf_value=0.0086029458572127026 0.0057408329912362038 -0.010566324337423636 -0.14599010527336875 0.1627501165427353 -0.01691256924905115
leaf_weight=1891 10561 8650 257 377 552
leaf_count=1891 10561 8650 257 377 552
internal_value=0 -0.00517003 0.00999993 0.0342262 -0.0579174
internal_weight=0 11727 3077 2268 809
internal_count=22288 11727 3077 2268 809
is_linear=0
shrinkage=0.5


Tree=31
num_leaves=6
num_cat=0
split_feature=0 10 2 4 2
split_gain=2.59209 11.5212 13.9642 9.5714 10.4969
threshold=2.5000000000000004 14614.720214843752 4.724999962490984e-05 1.0000000180025095e-35 0.00019250000332249331
decision_type=2 2 2 2 2
left_child=1 2 -1 -4 -5
right_child=-2 -3 3 4 -6
leaf_value=0.14588006443571389 -0.0014297089079056773 -0.070473329236795751 -0.041077544401748635 -0.045241152814958455 0.11046869721442906
leaf_weight=254 20824 282 430 159 339
leaf_count=254 20824 282 430 159 339
internal_value=0 0.0203362 0.0420015 0.0135692 0.0607541
internal_weight=0 1464 1182 928 498
internal_count=22288 1464 1182 928 498
is_linear=0
shrinkage=0.5


Tree=32
num_leaves=6
num_cat=0
split_feature=0 0 4 0 2
split_gain=2.20211 3.9192 11.8856 3.84989 7.16125
threshold=21.500000000000004 22.500000000000004 1.0000000180025095e-35 1.5000000000000002 5.1150000217603526e-05
decision_type=2 2 2 2 2
left_child=3 2 -2 4 -1
right_child=1 -3 -4 -5 -6
leaf_value=0.095145418776683657 0.33808358689504009 0.0024270749837983384 -0.011258720225032447 -0.012553327661134124 -0.0092346670944327327
leaf_weight=248 35 15960 80 5478 487
leaf_count=248 35 15960 80 5478 487
internal_value=0 0.00308979 0.0950629 -0.00799426 0.0259847
internal_weight=0 16075 115 6213 735
internal_count=22288 16075 115 6213 735
is_linear=0
shrinkage=0.5


Tree=33
num_leaves=6
num_cat=0
split_feature=2 3 3 8 2
split_gain=1.46856 3.77478 2.94783 12.744 23.0018
threshold=2.864999987650663e-05 70375.000000000015 70375.000000000015 13419.687988281252 0.00020850000146310779
decision_type=2 2 2 2 2
left_child=1 -1 -2 -4 -5
right_child=2 -3 3 4 -6
leaf_value=0.010400692343241782 0.00037002073098782473 0.1518849034539678 -0.08123303548068761 -0.029380257207047001 0.45261806019527073
leaf_weight=330 21379 55 399 91 34
leaf_count=330 21379 55 399 91 34
internal_value=0 0.0306127 -0.000538095 -0.0375889 0.101723
internal_weight=0 385 21903 524 125
internal_count=22288 385 21903 524 125
is_linear=0
shrinkage=0.5


Tree=34
num_leaves=6
num_cat=0
split_feature=3 10 1 0 0
split_gain=1.77979 1.60327 16.0339 5.80804 6.16306
threshold=107125.00000000001 15272.701660156252 509.73493957519537 5.5000000000000009 2.5000000000000004
decision_type=2 2 2 2 2
left_child=1 -1 3 4 -3
right_child=-2 2 -4 -5 -6
leaf_value=-0.00099023438887417439 0.11108409075273408 -0.011353941360205601 0.19996394169603773 0.016283856138807683 -0.23052520953394748
leaf_weight=21469 36 79 109 541 54
leaf_count=21469 36 79 109 541 54
internal_value=0 -0.000179715 0.0220438 -0.00672961 -0.100341
internal_weight=0 22252 783 674 133
internal_count=22288 22252 783 674 133
is_linear=0
shrinkage=0.5


Tree=35
num_leaves=6
num_cat=0
split_feature=1 3 3 3 1
split_gain=1.32476 7.23908 6.31874 2.46294 14.2329
threshold=13.888749599456789 -71374.999999999985 -108124.99999999999 -71374.999999999985 114.43835067749025
decision_type=2 2 2 2 2
left_child=1 2 -1 4 -2
right_child=3 -3 -4 -5 -6
leaf_value=0.0065561524725386072 -0.13258555483538659 -0.0033987464154520766 -0.2693207859992981 -7.8347466021125566e-05 0.078797074756525518
leaf_weight=35 100 706 51 21005 391
leaf_count=35 100 706 51 21005 391
internal_value=0 -0.0200826 -0.157045 0.000739924 0.0357456
internal_weight=0 792 86 21496 491
internal_count=22288 792 86 21496 491
is_linear=0
shrinkage=0.5


Tree=36
num_leaves=6
num_cat=0
split_feature=9 11 8 0 2
split_gain=1.27988 2.83179 2.18873 2.41201 1.35835
threshold=9694.3251953125018 2725.819458007813 11217.368652343752 29.500000000000004 5.0750000809784985e-05
decision_type=2 2 2 2 2
left_child=-1 -2 3 -3 -4
right_child=1 2 4 -5 -6
leaf_value=-0.060180317548325875 0.15125208872280294 -0.0084621281609596581 0.0060266155363626816 0.17601750843931693 -0.0027009221589169271
leaf_weight=88 31 34 6195 37 15903
leaf_count=88 31 34 6195 37 15903
internal_value=0 0.000238553 2.7383e-05 0.0876751 -0.000254226
internal_weight=0 22200 22169 71 22098
internal_count=22288 22200 22169 71 22098
is_linear=0
shrinkage=0.5


Tree=37
num_leaves=6
num_cat=0
split_feature=1 11 13 1 24
split_gain=1.89935 3.64945 4.94031 3.53975 2.77107
threshold=9987.8168945312518 3824.327026367188 45.396999359130866 9986.4790039062518 -97.887001037597642
decision_type=2 2 2 2 2
left_child=3 -2 -3 -1 -5
right_child=1 2 -4 4 -6
leaf_value=1.16491081730846e-05 -0.16623373364564031 0.049536238632734035 -0.20577658216158548 0.05188463994812581 0.26592224724590779
leaf_weight=22042 50 90 24 62 20
leaf_count=22042 50 90 24 62 20
internal_value=0 -0.0536101 -0.00421383 0.000397399 0.104089
internal_weight=0 164 114 22124 82
internal_count=22288 164 114 22124 82
is_linear=0
shrinkage=0.5


Tree=38
num_leaves=6
num_cat=0
split_feature=20 3 8 1 1
split_gain=1.42405 2.36066 8.8764 6.18854 18.0412
threshold=24.250000000000004 5000.0000000000009 12063.048828125002 1014.1884155273439 4922.8295898437509
decision_type=2 2 2 2 2
left_child=1 -1 -3 -4 -5
right_child=-2 2 3 4 -6
leaf_value=-0.0014515250649817927 0.005217933095361291 0.19756485762574325 -0.010324016543648517 -0.23703546267279307 0.03167730725759671
leaf_weight=13231 8241 41 525 128 122
leaf_count=13231 8241 41 525 128 122
internal_value=0 -0.00306122 -0.0291616 -0.0411562 -0.105904
internal_weight=0 14047 816 775 250
internal_count=22288 14047 816 775 250
is_linear=0
shrinkage=0.5


Tree=39
num_leaves=6
num_cat=0
split_feature=19 7 1 1 8
split_gain=1.17864 1.34059 2.2311 1.96563 4.50456
threshold=26.550000190734867 3290.2314453125005 509.71060180664068 113.03505325317384 12988.156250000002
decision_type=2 2 2 2 2
left_child=-1 2 -2 4 -3
right_child=1 3 -4 -5 -6
leaf_value=0.020357852474357514 -0.011129221956901249 0.0010503622219053832 0.12816781229500113 0.0036796580834016867 -0.038318667688951445
leaf_weight=689 3281 2818 29 14492 979
leaf_count=689 3281 2818 29 14492 979
internal_value=0 -0.000649408 -0.00990879 0.00102638 -0.00910036
internal_weight=0 21599 3310 18289 3797
internal_count=22288 21599 3310 18289 3797
is_linear=0
shrinkage=0.5


Tree=40
num_leaves=6
num_cat=0
split_feature=10 9 0 0 0
split_gain=1.35385 11.0949 8.28017 7.50961 6.55533
threshold=9590.0068359375018 10480.144531250002 9.5000000000000018 23.500000000000004 43.500000000000007
decision_type=2 2 2 2 2
left_child=2 -2 -1 -4 -5
right_child=1 -3 3 4 -6
leaf_value=0.10106551611612155 -0.12527754116970835 8.648183905152791e-05 -0.07011468937779379 0.059448007903578751 -0.034051981076117954
leaf_weight=233 178 20790 300 479 308
leaf_count=233 178 20790 300 479 308
internal_value=0 -0.000977749 0.0155314 -0.00280296 0.0228559
internal_weight=0 20968 1320 1087 787
internal_count=22288 20968 1320 1087 787
is_linear=0
shrinkage=0.5


Tree=41
num_leaves=6
num_cat=0
split_feature=16 11 2 16 2
split_gain=0.939005 1.33275 4.15095 3.52894 2.61978
threshold=25.849999427795414 3826.6350097656255 0.00066550000337883841 26.250000000000004 0.00079249998088926088
decision_type=2 2 2 2 2
left_child=-1 2 3 -2 -4
right_child=1 -3 4 -5 -6
leaf_value=-0.025768971974287722 0.036905255570491138 -0.001075361494038246 -0.036361021482860197 0.18717498378828168 0.0086458570962131328
leaf_weight=348 560 19161 395 42 1782
leaf_count=348 560 19161 395 42 1782
internal_value=0 0.000408733 0.0106415 0.0473892 0.000479703
internal_weight=0 21940 2779 602 2177
internal_count=22288 21940 2779 602 2177
is_linear=0
shrinkage=0.5


Tree=42
num_leaves=6
num_cat=0
split_feature=0 3 2 2 9
split_gain=0.806503 11.5788 7.72425 7.31366 7.62712
threshold=2.5000000000000004 -1.0000000180025095e-35 0.00019250000332249331 4.9649999709799893e-05 13284.832519531252
decision_type=2 2 2 2 2
left_child=1 2 -1 4 -3
right_child=-2 3 -4 -5 -6
leaf_value=0.031586727220565082 -0.00079749127350429083 0.092086055540952977 0.20425087228629804 -0.037373654027064933 -0.0551887330355018
leaf_weight=150 20824 276 114 795 129
leaf_count=150 20824 276 114 795 129
internal_value=0 0.0113436 0.106146 -0.00951304 0.0451763
internal_weight=0 1464 264 1200 405
internal_count=22288 1464 264 1200 405
is_linear=0
shrinkage=0.5


Tree=43
num_leaves=6
num_cat=0
split_feature=4 9 1 1 9
split_gain=0.952105 3.5845 3.37687 9.14023 4.43102
threshold=-1.0000000180025095e-35 12245.745605468752 113.55950164794923 254.47705078125003 12970.416992187502
decision_type=2 2 2 2 2
left_child=1 -1 -3 4 -4
right_child=-2 2 3 -5 -6
leaf_value=0.088302682160439211 -0.00077749843539339956 -0.054085995417028923 0.23966501191968009 -0.0018430130781702226 0.028473627003954678
leaf_weight=142 21094 204 63 744 41
leaf_count=142 21094 204 63 744 41
internal_value=0 0.0137358 0.00367069 0.017565 0.156407
internal_weight=0 1194 1052 848 104
internal_count=22288 1194 1052 848 104
is_linear=0
shrinkage=0.5


Tree=44
num_leaves=6
num_cat=0
split_feature=4 0 13 13 23
split_gain=1.28425 0.910672 1.64705 1.0572 1.74864
threshold=-105874.99999999999 157.50000000000003 44.943000793457038 45.153999328613288 -97.393501281738267
decision_type=2 2 2 2 2
left_child=-1 3 -3 4 -2
right_child=1 2 -4 -5 -6
leaf_value=0.094360857105736315 -0.0033804249807200849 0.10238669647110833 0.0060926863729260589 0.0024937257264620355 -0.031616504015423007
leaf_weight=36 9474 45 3368 8783 582
leaf_count=36 9474 45 3368 8783 582
internal_value=0 -0.00015266 0.00736231 -0.00151412 -0.00501461
internal_weight=0 22252 3413 18839 10056
internal_count=22288 22252 3413 18839 10056
is_linear=0
shrinkage=0.5


Tree=45
num_leaves=6
num_cat=0
split_feature=4 9 7 12 12
split_gain=0.897625 0.825794 1.09894 3.11431 6.10226
threshold=105875.00000000001 9694.3251953125018 3218.633422851563 -0.62950000166892994 -0.6235000193119048
decision_type=2 2 2 2 2
left_child=1 -1 -3 -4 -5
right_child=-2 2 3 4 -6
leaf_value=-0.049033603460398006 0.075788763351738453 0.013574597979269047 -0.036419301187400756 0.12595494664302956 -0.00040700065049393023
leaf_weight=86 39 1408 598 96 20061
leaf_count=86 39 1408 598 96 20061
internal_value=0 -0.000132849 5.69023e-05 -0.000860126 0.000194812
internal_weight=0 22249 22163 20755 20157
internal_count=22288 22249 22163 20755 20157
is_linear=0
shrinkage=0.5


Tree=46
num_leaves=6
num_cat=0
split_feature=4 6 7 7 7
split_gain=0.728267 3.8835 2.74539 2.1991 2.15328
threshold=-19124.999999999996 826353.53125000012 3716.8020019531255 3649.3254394531255 3316.4890136718755
decision_type=2 2 2 2 2
left_child=1 2 3 4 -1
right_child=-2 -3 -4 -5 -6
leaf_value=-0.05833335714251326 -0.00049576025126749654 -0.071088816364348495 0.21532708927989005 -0.13195021273124785 0.044858152440645456
leaf_weight=57 21637 106 20 21 447
leaf_count=57 21637 106 20 21 447
internal_value=0 0.0164774 0.0335086 0.0265822 0.0331877
internal_weight=0 651 545 525 504
internal_count=22288 651 545 525 504
is_linear=0
shrinkage=0.5


Tree=47
num_leaves=6
num_cat=0
split_feature=1 10 13 1 3
split_gain=1.0929 1.35172 1.50288 0.812892 2.15378
threshold=9987.8168945312518 13536.102539062502 45.396999359130866 9986.3188476562518 5000.0000000000009
decision_type=2 2 2 2 2
left_child=3 -2 -3 -1 -5
right_child=1 2 -4 4 -6
leaf_value=3.9534349372647794e-05 -0.10122266912564509 0.02592184151869591 -0.11653325970595081 0.013414653055361714 0.18489507186625684
leaf_weight=21960 59 81 24 143 21
leaf_count=21960 59 81 24 143 21
internal_value=0 -0.0406663 -0.00663932 0.000301449 0.0353725
internal_weight=0 164 105 22124 164
internal_count=22288 164 105 22124 164
is_linear=0
shrinkage=0.5


Tree=48
num_leaves=6
num_cat=0
split_feature=1 23 0 0 11
split_gain=0.68421 2.75937 1.35587 4.24168 3.36515
threshold=15.166649818420412 -95.860000610351548 2.5000000000000004 4.5000000000000009 4231.7084960937509
decision_type=2 2 2 2 2
left_child=1 2 -1 4 -4
right_child=-2 -3 3 -5 -6
leaf_value=0.039478339316991892 0.0011657711183962972 -0.13550059033966647 0.050200497134628291 -0.00193540456158132 -0.098481008115049923
leaf_weight=163 18935 41 47 2902 200
leaf_count=163 18935 41 47 2902 200
internal_value=0 -0.00658332 -0.00498743 -0.00728908 -0.0701894
internal_weight=0 3353 3312 3149 247
internal_count=22288 3353 3312 3149 247
is_linear=0
shrinkage=0.5


Tree=49
num_leaves=6
num_cat=0
split_feature=11 0 0 2 15
split_gain=0.70696 3.29711 4.7487 2.85222 2.39679
threshold=2851.074584960938 10.500000000000002 29.500000000000004 0.0015250000287778678 26.750000000000004
decision_type=2 2 2 2 2
left_child=1 3 -3 4 -1
right_child=-2 2 -4 -5 -6
leaf_value=0.073609381067280599 0.00047515480153465569 -0.085468355968143755 0.011083334527336891 0.18329896784716232 -0.12130749206213902
leaf_weight=46 21671 235 278 34 24
leaf_count=46 21671 235 278 34 24
internal_value=0 -0.0166889 -0.033146 0.0644886 0.00678074
internal_weight=0 617 513 104 70
internal_count=22288 617 513 104 70
is_linear=0
shrinkage=0.5


Tree=50
num_leaves=6
num_cat=0
split_feature=3 12 0 0 0
split_gain=1.60844 0.862907 1.00792 1.4089 2.03915
threshold=107125.00000000001 -0.4615000039339065 20.500000000000004 37.500000000000007 47.500000000000007
decision_type=2 2 2 2 2
left_child=1 -1 -3 -4 -5
right_child=-2 2 3 4 -6
leaf_value=-0.00043415010015629852 0.10560141737288278 0.13864965186942191 -0.034754589435901685 0.14846765466867701 -0.016436945455073303
leaf_weight=22094 36 21 62 38 37
leaf_count=22094 36 21 62 38 37
internal_value=0 -0.000170845 0.0366485 0.0210133 0.0671147
internal_weight=0 22252 158 137 75
internal_count=22288 22252 158 137 75
is_linear=0
shrinkage=0.5


Tree=51
num_leaves=6
num_cat=0
split_feature=2 1 2 1 2
split_gain=0.773696 2.76105 4.22834 5.19199 4.59449
threshold=0.0016150000155903401 9985.6967773437518 0.0015850000199861827 4925.1755371093759 0.0014550000196322801
decision_type=2 2 2 2 2
left_child=1 2 3 -1 -5
right_child=-2 -3 -4 4 -6
leaf_value=-0.00056556267608624594 -0.010206422881442169 0.030304917477150466 -0.063631837959446089 0.12388284042804749 0.010303514608976376
leaf_weight=19186 1714 766 260 158 204
leaf_count=19186 1714 766 260 158 204
internal_value=0 0.000850287 -0.00028876 0.000553741 0.0598768
internal_weight=0 20574 19808 19548 362
internal_count=22288 20574 19808 19548 362
is_linear=0
shrinkage=0.5


Tree=52
num_leaves=6
num_cat=0
split_feature=11 0 12 10 0
split_gain=0.941344 4.54369 6.59555 8.09692 5.92475
threshold=3826.6350097656255 40.500000000000007 -0.62950000166892994 9590.0068359375018 30.500000000000004
decision_type=2 2 2 2 2
left_child=1 4 3 -3 -1
right_child=-2 2 -4 -5 -6
leaf_value=0.0090980204981568717 -0.001279792954603007 0.01495091135636616 0.0089982634916951718 -0.13277687822105921 0.079153507143881918
leaf_weight=1323 19295 162 900 217 391
leaf_count=1323 19295 162 900 217 391
internal_value=0 0.00825045 -0.0143019 -0.069632 0.0250792
internal_weight=0 2993 1279 379 1714
internal_count=22288 2993 1279 379 1714
is_linear=0
shrinkage=0.5


Tree=53
num_leaves=6
num_cat=0
split_feature=9 9 10 2 0
split_gain=1.05512 2.39873 3.03556 1.82519 1.69042
threshold=9905.4458007812518 10005.078125000002 9217.3486328125018 0.0011449999874457719 10.500000000000002
decision_type=2 2 2 2 2
left_child=4 -2 3 -3 -1
right_child=1 2 -4 -5 -6
leaf_value=0.054513038057139362 0.05862459846684942 -0.024128048598035193 0.00055305847308591933 -0.1279691354038992 -0.036437399844269899
leaf_weight=59 176 107 21495 70 381
leaf_count=59 176 107 21495 70 381
internal_value=0 0.000488209 1.60784e-05 -0.0651951 -0.0242418
internal_weight=0 21848 21672 177 440
internal_count=22288 21848 21672 177 440
is_linear=0
shrinkage=0.5


Tree=54
num_leaves=6
num_cat=0
split_feature=19 6 3 19 3
split_gain=0.626991 1.41288 4.5399 1.16559 1.57515
threshold=27.050000190734867 612950.06250000012 5000.0000000000009 26.750000000000004 -1.0000000180025095e-35
decision_type=2 2 2 2 2
left_child=3 2 -2 -1 -5
right_child=1 -3 -4 4 -6
leaf_value=-0.0013560676546580054 -0.016137153577327135 0.00054440493835224949 -0.21029024270764138 0.0020785386926466119 0.023727900491263332
leaf_weight=17291 184 476 36 3156 1145
leaf_count=17291 184 476 36 3156 1145
internal_value=0 -0.0147709 -0.0479077 0.000476128 0.00784197
internal_weight=0 696 220 21592 4301
internal_count=22288 696 220 21592 4301
is_linear=0
shrinkage=0.5


Tree=55
num_leaves=6
num_cat=0
split_feature=0 12 1 8 1
split_gain=0.757352 1.82673 4.65241 13.2428 8.36997
threshold=5.5000000000000009 -0.52750000357627858 509.67034912109381 12420.698242187502 509.00669860839849
decision_type=2 2 2 2 2
left_child=1 -1 4 -4 -3
right_child=-2 2 3 -5 -6
leaf_value=-0.025060776455190642 0.0012917243965368727 -0.006019829720316114 0.17894763751460832 0.0037890698438841908 -0.16567757543782854
leaf_weight=979 18629 1805 129 660 86
leaf_count=979 18629 1805 129 660 86
internal_value=0 -0.00657653 0.000175734 0.0324272 -0.0132808
internal_weight=0 3659 2680 789 1891
internal_count=22288 3659 2680 789 1891
is_linear=0
shrinkage=0.5


Tree=56
num_leaves=6
num_cat=0
split_feature=11 13 2 11 2
split_gain=0.523192 1.15326 2.07669 1.00142 2.4529
threshold=2851.074584960938 45.707000732421882 0.00077350001083686959 2986.810424804688 0.00087350001558661472
decision_type=2 2 2 2 2
left_child=-1 3 -3 4 -2
right_child=1 2 -4 -5 -6
leaf_value=-0.014356934820562963 0.048642965935869142 0.2000457982183434 -0.020252734949083431 -0.00048272908910205629 -0.0037453089519431547
leaf_weight=617 360 20 23 20679 589
leaf_count=617 360 20 23 20679 589
internal_value=0 0.00040876 0.0822117 0.000246122 0.016128
internal_weight=0 21671 43 21628 949
internal_count=22288 21671 43 21628 949
is_linear=0
shrinkage=0.5


Tree=57
num_leaves=6
num_cat=0
split_feature=2 8 2 21 11
split_gain=0.542293 1.83138 4.76606 11.0838 3.29163
threshold=5.1650000386871404e-05 13641.107421875002 0.00019250000332249331 32.95000076293946 4335.6335449218759
decision_type=2 2 2 2 2
left_child=-1 -2 3 -3 -4
right_child=1 2 4 -5 -6
leaf_value=0.0036577781655395642 -0.00086206344386274998 -0.47002549507888036 -0.09115538193693315 -0.0080309641245450529 0.027865286125325437
leaf_weight=6966 15000 20 86 37 179
leaf_count=6966 15000 20 86 37 179
internal_value=0 -0.00166297 -0.0389725 -0.170134 -0.0107603
internal_weight=0 15322 322 57 265
internal_count=22288 15322 322 57 265
is_linear=0
shrinkage=0.5


Tree=58
num_leaves=6
num_cat=0
split_feature=12 21 16 8 10
split_gain=0.599451 0.916974 1.03641 0.595814 2.16627
threshold=-0.4615000039339065 32.850000381469734 26.050000190734867 11555.250488281252 9590.0068359375018
decision_type=2 2 2 2 2
left_child=3 -2 -3 -1 -5
right_child=1 2 -4 4 -6
leaf_value=-0.012214076746442407 0.00048193212306923858 0.14497231813147665 0.014607727982013697 0.053918805863598693 -0.000136100591044035
leaf_weight=989 97 30 31 187 20954
leaf_count=989 97 30 31 187 20954
internal_value=0 0.0306883 0.0787215 -0.000219103 0.000342035
internal_weight=0 158 61 22130 21141
internal_count=22288 158 61 22130 21141
is_linear=0
shrinkage=0.5


Tree=59
num_leaves=6
num_cat=0
split_feature=12 22 13 13 24
split_gain=0.597331 1.68061 2.00325 2.3243 1.51442
threshold=-0.63949999213218678 39.750000000000007 44.969999313354499 45.064001083374031 -97.770999908447251
decision_type=2 2 2 2 2
left_child=1 -1 -3 -4 -5
right_child=-2 2 3 4 -6
leaf_value=-0.040490037354175001 0.00055807195294687575 -0.10011930941519412 0.046336351577309864 -0.071719995006128301 0.0033376918296403966
leaf_weight=340 21298 44 258 91 257
leaf_count=340 21298 44 258 91 257
internal_value=0 -0.0120059 0.00289353 0.010373 -0.0162895
internal_weight=0 990 650 606 348
internal_count=22288 990 650 606 348
is_linear=0
shrinkage=0.5


Tree=60
num_leaves=6
num_cat=0
split_feature=13 16 1 1 13
split_gain=0.460338 0.442755 3.90292 2.8388 2.98237
threshold=44.864999771118171 26.250000000000004 9983.3837890625018 9985.8393554687518 45.177000045776374
decision_type=2 2 2 2 2
left_child=-1 -2 -3 4 -4
right_child=1 2 3 -5 -6
leaf_value=0.065247422912054598 -0.0009037404902216069 0.00016982268503497341 -0.00057898235061894297 -0.015470495462701048 0.15103447518777102
leaf_weight=27 19583 2453 46 69 110
leaf_count=27 19583 2453 46 69 110
internal_value=0 -7.91375e-05 0.00595081 0.0689764 0.106328
internal_weight=0 22261 2678 225 156
internal_count=22288 22261 2678 225 156
is_linear=0
shrinkage=0.5


Tree=61
num_leaves=6
num_cat=0
split_feature=11 10 1 0 12
split_gain=0.495135 3.09717 2.49223 3.90856 2.8913
threshold=3827.7319335937505 11655.433593750002 18.434299468994144 50.500000000000007 -0.62950000166892994
decision_type=2 2 2 2 2
left_child=2 -2 3 -1 -5
right_child=1 -3 -4 4 -6
leaf_value=0.0087069266765777177 -0.10103564836423505 -0.00055477814070709801 0.026822368455856727 -0.10930152919431517 -0.02107742602808493
leaf_weight=1640 77 19042 975 118 436
leaf_count=1640 77 19042 975 118 436
internal_value=0 -0.000959456 0.00578852 -0.00355879 -0.0398688
internal_weight=0 19119 3169 2194 554
internal_count=22288 19119 3169 2194 554
is_linear=0
shrinkage=0.5


Tree=62
num_leaves=6
num_cat=0
split_feature=2 1 9 4 1
split_gain=0.758971 3.11144 1.21898 1.08998 2.38157
threshold=0.0013049999834038319 4925.1755371093759 10005.078125000002 69125.000000000015 9985.0009765625018
decision_type=2 2 2 2 2
left_child=1 2 -1 -2 -5
right_child=3 -3 -4 4 -6
leaf_value=0.046293969620982638 -0.0084557974594928476 0.071085052704733295 0.00027235092011489333 0.19073313008993864 -0.0029387619854931379
leaf_weight=145 3201 158 18705 22 57
leaf_count=145 3201 158 18705 22 57
internal_value=0 0.00121204 0.000626363 -0.0070239 0.0509952
internal_weight=0 19008 18850 3280 79
internal_count=22288 19008 18850 3280 79
is_linear=0
shrinkage=0.5


Tree=63
num_leaves=6
num_cat=0
split_feature=12 0 11 1 9
split_gain=0.500526 1.51776 1.78417 3.24152 1.79468
threshold=-0.63949999213218678 2.5000000000000004 2964.996948242188 16.827750205993656 10393.654296875002
decision_type=2 2 2 2 2
left_child=1 -1 3 -3 -4
right_child=-2 2 4 -5 -6
leaf_value=-0.10639819655334577 0.00051085316653826562 -0.017176250172657972 -0.12780732032842934 0.062630832400625669 -0.020701307213378393
leaf_weight=40 21298 356 44 198 352
leaf_count=40 21298 356 44 198 352
internal_value=0 -0.0109901 -0.00697287 0.0113469 -0.032602
internal_weight=0 990 950 554 396
internal_count=22288 990 950 554 396
is_linear=0
shrinkage=0.5


Tree=64
num_leaves=6
num_cat=0
split_feature=10 3 1 8 11
split_gain=0.624675 2.52202 0.962843 1.54751 1.39078
threshold=11969.407226562502 -71374.999999999985 17.885749816894535 11670.359375000002 2974.633911132813
decision_type=2 2 2 2 2
left_child=1 -1 4 -4 -3
right_child=-2 2 3 -5 -6
leaf_value=-0.10268900336490737 -0.0014587526143331395 0.00021097791158695934 0.07245018417775935 0.0087361301714803056 -0.052682283434157449
leaf_weight=54 17096 1442 98 3462 136
leaf_count=54 17096 1442 98 3462 136
internal_value=0 0.00480332 0.00593306 0.0104901 -0.00434763
internal_weight=0 5192 5138 3560 1578
internal_count=22288 5192 5138 3560 1578
is_linear=0
shrinkage=0.5


Tree=65
num_leaves=6
num_cat=0
split_feature=0 3 7 9 1
split_gain=0.537778 5.31713 4.67689 2.62436 3.63352
threshold=2.5000000000000004 -1.0000000180025095e-35 3454.682006835938 13024.203125000002 254.47705078125003
decision_type=2 2 2 2 2
left_child=1 2 -1 -3 -5
right_child=-2 3 -4 4 -6
leaf_value=0.18994992034366498 -0.00065121501457907928 0.010955063684908267 0.035471631927724609 -0.2468055450124666 -0.027800014084048506
leaf_weight=65 20824 823 199 20 357
leaf_count=65 20824 823 199 20 357
internal_value=0 0.00926291 0.0735061 -0.00487058 -0.0394183
internal_weight=0 1464 264 1200 377
internal_count=22288 1464 264 1200 377
is_linear=0
shrinkage=0.5


Tree=66
num_leaves=6
num_cat=0
split_feature=0 9 1 0 1
split_gain=0.457395 0.671135 2.29827 1.29955 1.09928
threshold=143.50000000000003 12206.291015625002 18.565349578857425 30.500000000000004 112.96179962158205
decision_type=2 2 2 2 2
left_child=1 2 -1 -4 -3
right_child=-2 4 3 -5 -6
leaf_value=0.0015711233314292857 0.0044896232895446217 -0.020114336066239854 0.10276485841521728 0.023992981005413121 -0.0017127160585920507
leaf_weight=4187 4522 868 84 139 12488
leaf_count=4187 4522 868 84 139 12488
internal_value=0 -0.00114275 0.00420534 0.0536649 -0.00290863
internal_weight=0 17766 4410 223 13356
internal_count=22288 17766 4410 223 13356
is_linear=0
shrinkage=0.5


Tree=67
num_leaves=6
num_cat=0
split_feature=7 2 6 0 9
split_gain=0.588463 1.60268 1.27885 0.697816 1.50345
threshold=3574.7514648437505 2.7549999686016239e-05 844754.59375000012 2.5000000000000004 13039.821777343752
decision_type=2 2 2 2 2
left_child=1 -1 -3 4 -2
right_child=3 2 -4 -5 -6
leaf_value=0.080088966612674992 0.060225386947273599 -0.0015285420867272108 -0.079320365844189 0.00280886495223787 0.00035066707094107168
leaf_weight=60 171 16609 53 5124 271
leaf_count=60 171 16609 53 5124 271
internal_value=0 -0.00148225 -0.00177599 0.00445314 0.0235149
internal_weight=0 16722 16662 5566 442
internal_count=22288 16722 16662 5566 442
is_linear=0
shrinkage=0.5


Tree=68
num_leaves=6
num_cat=0
split_feature=3 22 2 3 11
split_gain=0.629716 0.407954 0.400924 1.44339 4.35518
threshold=107125.00000000001 37.049999237060554 5.2449999202508486e-05 5000.0000000000009 4327.7529296875009
decision_type=2 2 2 2 2
left_child=1 -1 -3 -4 -5
right_child=-2 2 3 4 -6
leaf_value=-0.049338126047846993 0.066075441097685442 0.0029781543395746195 -0.00047853084514168294 -0.059787554037127946 0.024653893476457037
leaf_weight=42 36 7444 14136 370 260
leaf_count=42 36 7444 14136 370 260
internal_value=0 -0.000106899 -1.38007e-05 -0.00152214 -0.0249387
internal_weight=0 22252 22210 14766 630
internal_count=22288 22252 22210 14766 630
is_linear=0
shrinkage=0.5


Tree=69
num_leaves=6
num_cat=0
split_feature=1 3 7 3 8
split_gain=0.385032 1.63589 0.747881 0.803201 0.575074
threshold=13.872049808502199 107125.00000000001 3522.255981445313 -71374.999999999985 11217.368652343752
decision_type=2 2 2 2 2
left_child=1 2 3 -1 -2
right_child=4 -3 -4 -5 -6
leaf_value=-0.070901824335012131 0.034055556148857816 -0.12380906939506531 0.026484178569829226 -0.0081093496115027999 0.00017755323378163603
leaf_weight=57 126 31 138 478 21458
leaf_count=57 126 31 138 478 21458
internal_value=0 -0.011507 -0.00633411 -0.0147994 0.000375321
internal_weight=0 704 673 535 21584
internal_count=22288 704 673 535 21584
is_linear=0
shrinkage=0.5


Tree=70
num_leaves=6
num_cat=0
split_feature=3 10 1 4 3
split_gain=1.075 0.413964 11.3475 3.18831 1.25984
threshold=107125.00000000001 14629.680664062502 254.75940704345706 69125.000000000015 70375.000000000015
decision_type=2 2 2 2 2
left_child=1 -1 -3 4 -4
right_child=-2 2 3 -5 -6
leaf_value=0.00078823797685466878 0.086332071863580495 -0.34776977232346934 -0.0038690497221252353 0.078719109512568483 -0.060040928131801265
leaf_weight=18776 36 24 3233 116 103
leaf_count=18776 36 24 3233 116 103
internal_value=0 -0.000139671 -0.00515187 -0.00276983 -0.00560337
internal_weight=0 22252 3476 3452 3336
internal_count=22288 22252 3476 3452 3336
is_linear=0
shrinkage=0.5


Tree=71
num_leaves=6
num_cat=0
split_feature=3 8 2 7 7
split_gain=0.399226 4.68823 8.52623 1.90719 1.44953
threshold=70375.000000000015 13419.687988281252 0.00020850000146310779 3565.589477539063 3386.587036132813
decision_type=2 2 2 2 2
left_child=-1 3 -3 4 -2
right_child=1 2 -4 -5 -6
leaf_value=-0.00034559168784742617 -0.059788539975177475 0.025808727260150519 0.30796117204077106 -0.10162702940658412 0.015415680404169173
leaf_weight=21709 83 126 34 55 281
leaf_count=21709 83 126 34 55 281
internal_value=0 0.0129576 0.0857661 -0.0148452 -0.00173253
internal_weight=0 579 160 419 364
internal_count=22288 579 160 419 364
is_linear=0
shrinkage=0.5


Tree=72
num_leaves=6
num_cat=0
split_feature=22 2 3 3 11
split_gain=0.42446 0.680475 2.74788 3.43893 4.64848
threshold=41.149999618530281 0.00026549999893177306 1.0000000180025095e-35 70375.000000000015 3954.7590332031255
decision_type=2 2 2 2 2
left_child=-1 -2 -3 4 -4
right_child=1 2 3 -5 -6
leaf_value=0.0015725386093280239 0.00059663532422745693 -0.0035204258059655961 0.019268329715195261 0.042756431761222916 -0.12573516200398277
leaf_weight=14669 4797 2493 81 74 174
leaf_count=14669 4797 2493 81 74 174
internal_value=0 -0.00302764 -0.00918839 -0.0521374 -0.0796752
internal_weight=0 7619 2822 329 255
internal_count=22288 7619 2822 329 255
is_linear=0
shrinkage=0.5


Tree=73
num_leaves=6
num_cat=0
split_feature=4 1 1 9 12
split_gain=0.457423 1.03853 4.03964 1.39338 1.32961
threshold=-1.0000000180025095e-35 113.65959930419923 254.47705078125003 12591.934082031252 -0.52549999952316273
decision_type=2 2 2 2 2
left_child=1 -1 -3 4 -4
right_child=-2 2 3 -5 -6
leaf_value=-0.014389681489177261 -0.00053891002103764534 0.11532261025179953 -0.084337103699672053 0.015052412989566282 0.036601871792244667
leaf_weight=329 21094 96 73 663 33
leaf_count=329 21094 96 73 663 33
internal_value=0 0.00952074 0.018615 0.00654227 -0.0466863
internal_weight=0 1194 865 769 106
internal_count=22288 1194 865 769 106
is_linear=0
shrinkage=0.5


Tree=74
num_leaves=6
num_cat=0
split_feature=1 2 1 13 13
split_gain=0.366804 1.47107 2.53082 1.89183 1.20506
threshold=9985.8549804687518 0.0015949999797157945 9985.6967773437518 45.157999038696296 45.107000350952156
decision_type=2 2 2 2 2
left_child=1 2 -1 -4 -2
right_child=4 -3 3 -5 -6
leaf_value=-8.7742648860574782e-05 0.028038647952017215 -0.021230262770839343 -0.022139530818633461 0.13852906037579504 -0.0013808427354609716
leaf_weight=19674 488 828 27 57 1214
leaf_count=19674 488 828 27 57 1214
internal_value=0 -0.000583237 0.000282019 0.0868856 0.00705436
internal_weight=0 20586 19758 84 1702
internal_count=22288 20586 19758 84 1702
is_linear=0
shrinkage=0.5


Tree=75
num_leaves=6
num_cat=0
split_feature=24 1 1 4 3
split_gain=0.407872 1.33938 4.25773 5.75234 2.67227
threshold=-97.505500793457017 4921.0422363281259 1019.9466857910157 69125.000000000015 -71374.999999999985
decision_type=2 2 2 2 2
left_child=-1 2 4 -4 -2
right_child=1 -3 3 -5 -6
leaf_value=0.00072415625934599628 -0.078812728025725171 0.014496275810752416 0.020221732002028148 -0.26927326035660665 -0.0024788180785265124
leaf_weight=19996 124 578 32 37 1521
leaf_count=19996 124 578 32 37 1521
internal_value=0 -0.00631773 -0.0133367 -0.135015 -0.00823286
internal_weight=0 2292 1714 69 1645
internal_count=22288 2292 1714 69 1645
is_linear=0
shrinkage=0.5


Tree=76
num_leaves=6
num_cat=0
split_feature=3 10 11 19 8
split_gain=0.562007 2.10781 2.57646 1.69661 1.98113
threshold=-71374.999999999985 14459.134277343752 4312.0061035156259 26.849999427795414 12039.449218750002
decision_type=2 2 2 2 2
left_child=1 2 -1 4 -3
right_child=-2 3 -4 -5 -6
leaf_value=0.018399061840145958 -0.00040931103625835123 -0.0078423466799514632 -0.074469574554823337 -0.010664732123179168 0.13257104307517745
leaf_weight=295 21711 35 100 58 89
leaf_count=295 21711 35 100 58 89
internal_value=0 0.0154013 -0.00511199 0.0599219 0.0929382
internal_weight=0 577 395 182 124
internal_count=22288 577 395 182 124
is_linear=0
shrinkage=0.5


Tree=77
num_leaves=6
num_cat=0
split_feature=24 10 9 4 24
split_gain=0.308093 0.344853 0.815254 0.299978 0.2819
threshold=-95.967998504638658 14417.811523437502 13410.028808593752 105875.00000000001 -97.778999328613267
decision_type=2 2 2 2 2
left_child=3 -2 -3 4 -1
right_child=1 2 -4 -5 -6
leaf_value=-0.0015708228937659579 -0.054662718228495645 0.078406055551022286 -0.062647441845564616 0.043934357358524814 0.002013854323468079
leaf_weight=12171 54 20 21 39 9983
leaf_count=12171 54 20 21 39 9983
internal_value=0 -0.0284133 0.00615914 0.000121627 4.44986e-05
internal_weight=0 95 41 22193 22154
internal_count=22288 95 41 22193 22154
is_linear=0
shrinkage=0.5


Tree=78
num_leaves=6
num_cat=0
split_feature=3 6 2 21 12
split_gain=0.314095 0.276486 0.317001 0.351665 0.253733
threshold=107125.00000000001 851957.34375000012 5.1349999921512797e-05 33.649999618530281 -0.63949999213218678
decision_type=2 2 2 2 2
left_child=1 4 -3 -4 -1
right_child=-2 2 3 -5 -6
leaf_value=-0.0075995195816277476 0.046665718943889566 -0.013895799434059254 0.079104719904717055 -0.0083708563060672196 0.00059470418951306371
leaf_weight=990 36 561 20 27 20654
leaf_count=990 36 561 20 27 20654
internal_value=0 -7.54973e-05 -0.0105912 0.0288528 0.000219899
internal_weight=0 22252 608 47 21644
internal_count=22288 22252 608 47 21644
is_linear=0
shrinkage=0.5


Tree=79
num_leaves=6
num_cat=0
split_feature=13 6 4 7 7
split_gain=0.315007 0.321233 0.623213 0.953992 0.551946
threshold=45.72200012207032 617347.15625000012 69125.000000000015 3601.0534667968755 3281.707885742188
decision_type=2 2 2 2 2
left_child=1 2 -1 -4 -3
right_child=-2 4 3 -5 -6
leaf_value=0.002587711630009266 -0.057251983477423586 -0.015742457341254332 0.060589085857221413 -0.057060398737944308 -0.00046867785503756416
leaf_weight=5403 24 614 96 21 16130
leaf_count=5403 24 614 96 21 16130
internal_value=0 6.17161e-05 0.00336951 0.0394725 -0.00102877
internal_weight=0 22264 5520 117 16744
internal_count=22288 22264 5520 117 16744
is_linear=0
shrinkage=0.5


Tree=80
num_leaves=6
num_cat=0
split_feature=1 4 23 0 17
split_gain=0.366066 0.285604 0.263898 0.678441 1.6478
threshold=10.145450115203859 -105874.99999999999 -97.517002105712876 3.5000000000000004 27.150000572204593
decision_type=2 2 2 2 2
left_child=-1 -2 3 4 -3
right_child=1 2 -4 -5 -6
leaf_value=-0.032184688013165381 0.050593640827823298 0.036236254918540788 -0.003094202741215849 0.00027412150198600344 -0.0071845783362849431
leaf_weight=88 28 438 5095 16203 436
leaf_count=88 28 438 5095 16203 436
internal_value=0 0.000127579 6.38477e-05 0.00100607 0.0145755
internal_weight=0 22200 22172 17077 874
internal_count=22288 22200 22172 17077 874
is_linear=0
shrinkage=0.5


Tree=81
num_leaves=6
num_cat=0
split_feature=3 0 0 6 12
split_gain=0.268229 0.256859 1.11856 3.79452 3.11212
threshold=-108124.99999999999 30.500000000000004 33.500000000000007 566120.40625000012 -0.63949999213218678
decision_type=2 2 2 2 2
left_child=-1 -2 3 4 -3
right_child=1 2 -4 -5 -6
leaf_value=0.04142951949212987 -0.0025176874102688243 0.057966599070753619 0.00043480761128264305 -0.004587079710990042 0.25492006471311607
leaf_weight=39 7244 78 14649 251 27
leaf_count=39 7244 78 14649 251 27
internal_value=0 -7.26213e-05 0.00110779 0.0288002 0.108612
internal_weight=0 22249 15005 356 105
internal_count=22288 22249 15005 356 105
is_linear=0
shrinkage=0.5


Tree=82
num_leaves=6
num_cat=0
split_feature=10 9 3 1 11
split_gain=0.251932 0.867893 0.348914 0.815654 0.930058
threshold=15277.854492187502 13051.501953125002 1.0000000180025095e-35 507.65840148925787 4473.1210937500009
decision_type=2 2 2 2 2
left_child=-1 -2 -3 -4 -5
right_child=1 2 3 4 -6
leaf_value=-0.00030181075122084758 0.10946458395725737 0.001314847836317287 -0.035912643457132 0.12881251089274884 0.015652696703277204
leaf_weight=21592 21 568 31 30 46
leaf_count=21592 21 568 31 30 46
internal_value=0 0.00936307 0.0062488 0.0324403 0.060321
internal_weight=0 696 675 107 76
internal_count=22288 696 675 107 76
is_linear=0
shrinkage=0.5


Tree=83
num_leaves=6
num_cat=0
split_feature=2 12 1 20 1
split_gain=0.221087 1.05155 1.486 0.449738 0.487006
threshold=0.0016349999932572248 -0.58250001072883595 9987.8168945312518 24.44999980926514 9987.8168945312518
decision_type=2 2 2 2 2
left_child=-1 2 -2 4 -3
right_child=1 3 -4 -5 -6
leaf_value=-0.00015759447313089766 0.14559326252128812 0.024104496126793409 0.0018212860790876354 -0.064319922074932478 -0.048772177869273771
leaf_weight=22067 32 88 41 29 31
leaf_count=22067 32 88 41 29 31
internal_value=0 0.0157359 0.0648446 -0.00848662 0.00511982
internal_weight=0 221 73 148 119
internal_count=22288 221 73 148 119
is_linear=0
shrinkage=0.5


Tree=84
num_leaves=6
num_cat=0
split_feature=0 22 0 9 9
split_gain=0.219799 0.403149 0.373567 2.56857 0.957199
threshold=62.500000000000007 37.250000000000007 52.500000000000007 11003.833007812502 12184.876953125002
decision_type=2 2 2 2 2
left_child=1 -1 4 -4 -3
right_child=-2 2 3 -5 -6
leaf_value=-0.067715017327471913 0.0015534931066183944 0.0074315949435576354 -0.04897689896809581 0.0042629705628268628 -0.003533997726515498
leaf_weight=23 11263 2769 309 849 7075
leaf_count=23 11263 2769 309 849 7075
internal_value=0 -0.00158703 -0.00144879 -0.00994352 -0.000449507
internal_weight=0 11025 11002 1158 9844
internal_count=22288 11025 11002 1158 9844
is_linear=0
shrinkage=0.5


Tree=85
num_leaves=6
num_cat=0
split_feature=12 11 2 9 22
split_gain=0.383688 1.2511 0.707428 1.1907 0.618551
threshold=-0.63949999213218678 3009.1215820312505 0.0011449999874457719 10005.078125000002 38.95000076293946
decision_type=2 2 2 2 2
left_child=1 2 3 -1 -3
right_child=-2 4 -4 -5 -6
leaf_value=0.092453361785423155 0.00044727177490460604 -0.1169140233002879 -0.035286388035387972 0.00021353914496752478 -0.03490798575090124
leaf_weight=37 21298 27 128 643 155
leaf_count=37 21298 27 128 643 155
internal_value=0 -0.00962222 -0.00118636 0.00523247 -0.0470737
internal_weight=0 990 808 680 182
internal_count=22288 990 808 680 182
is_linear=0
shrinkage=0.5


Tree=86
num_leaves=6
num_cat=0
split_feature=4 9 10 7 6
split_gain=0.273103 1.21453 1.3874 1.27212 0.755012
threshold=-19124.999999999996 13376.346191406252 15184.222656250002 3508.4304199218755 709814.96875000012
decision_type=2 2 2 2 2
left_child=1 2 3 -1 -5
right_child=-2 -3 -4 4 -6
leaf_value=0.034217083188686666 -0.00030359140175597281 0.072309293052447696 -0.10808271335230933 0.0088820287966606855 -0.04133467230436827
leaf_weight=252 21637 70 27 165 137
leaf_count=252 21637 70 27 165 137
internal_value=0 0.0100903 0.00259407 0.00798807 -0.0138984
internal_weight=0 651 581 554 302
internal_count=22288 651 581 554 302
is_linear=0
shrinkage=0.5


Tree=87
num_leaves=6
num_cat=0
split_feature=11 11 9 16 21
split_gain=0.218221 1.18801 1.81546 1.06375 1.57868
threshold=2851.074584960938 2905.848510742188 10211.400390625002 26.150000572204593 32.649999618530281
decision_type=2 2 2 2 2
left_child=3 -2 -3 -1 -5
right_child=1 2 -4 4 -6
leaf_value=0.00018347290853938769 0.029074552976908308 -0.069918114067335682 9.3708192148039739e-05 0.016187828499823809 -0.10726417305299127
leaf_weight=511 352 93 21226 45 61
leaf_count=511 352 93 21226 45 61
internal_value=0 0.000263989 -0.000211705 -0.00927214 -0.0548553
internal_weight=0 21671 21319 617 106
internal_count=22288 21671 21319 617 106
is_linear=0
shrinkage=0.5


Tree=88
num_leaves=6
num_cat=0
split_feature=20 18 19 10 20
split_gain=0.204535 1.16292 1.24106 1.60663 0.978057
threshold=24.44999980926514 25.94999980926514 26.550000190734867 9217.3486328125018 24.550000190734867
decision_type=2 2 2 2 2
left_child=-1 2 3 -2 -3
right_child=1 4 -4 -5 -6
leaf_value=-0.00045878818891361187 -0.015946057021871886 -0.0093749825443540293 0.00026631379693175074 0.16932012416422368 0.10776913610087442
leaf_weight=20415 22 28 1749 25 49
leaf_count=20415 22 28 1749 25 49
internal_value=0 0.00500062 0.00242092 0.0825998 0.0651713
internal_weight=0 1873 1796 47 77
internal_count=22288 1873 1796 47 77
is_linear=0
shrinkage=0.5


Tree=89
num_leaves=6
num_cat=0
split_feature=12 0 0 11 21
split_gain=0.255531 2.03931 1.40669 1.20508 1.0349
threshold=-0.63049998879432667 57.500000000000007 2.5000000000000004 2905.848510742188 31.750000000000004
decision_type=2 2 2 2 2
left_child=1 2 3 -1 -4
right_child=-2 -3 4 -5 -6
leaf_value=-0.027881108734401919 0.00044692268781664065 -0.1376729917166562 -0.029417819998925551 -0.1745754565067944 0.0061909745355306599
leaf_weight=42 20836 29 250 21 1110
leaf_count=42 20836 29 250 21 1110
internal_value=0 -0.00641328 -0.00373827 -0.0767792 -0.00035476
internal_weight=0 1452 1423 63 1360
internal_count=22288 1452 1423 63 1360
is_linear=0
shrinkage=0.5


Tree=90
num_leaves=6
num_cat=0
split_feature=13 9 21 7 13
split_gain=0.256804 1.37023 0.727946 0.34523 0.308197
threshold=45.620000839233406 10393.654296875002 32.149999618530281 3242.7429199218755 45.549499511718757
decision_type=2 2 2 2 2
left_child=4 -2 -3 -4 -1
right_child=1 2 3 -5 -6
leaf_value=1.5731787899456526e-05 -0.062175976502413674 0.090137997475851855 0.030283990695974546 -0.036266262267599811 0.024157542573407124
leaf_weight=21956 93 28 38 40 133
leaf_count=21956 93 28 38 40 133
internal_value=0 -0.0178812 0.0209812 -0.00384434 0.000161092
internal_weight=0 199 106 78 22089
internal_count=22288 199 106 78 22089
is_linear=0
shrinkage=0.5


Tree=91
num_leaves=6
num_cat=0
split_feature=3 1 13 0 1
split_gain=0.190669 1.75736 0.722501 0.49668 0.415589
threshold=-71374.999999999985 112.42354965209962 45.440000534057624 8.5000000000000018 9987.8168945312518
decision_type=2 2 2 2 2
left_child=1 3 -3 -1 -2
right_child=4 2 -4 -5 -6
leaf_value=-0.07083687572429577 -9.415458789321201e-05 0.027515750107944419 -0.052697552833706141 0.0012971582955547741 -0.033412246897994997
leaf_weight=75 21617 437 30 35 94
leaf_count=75 21617 437 30 35 94
internal_value=0 0.0089707 0.0223629 -0.0478851 -0.000238409
internal_weight=0 577 467 110 21711
internal_count=22288 577 467 110 21711
is_linear=0
shrinkage=0.5


Tree=92
num_leaves=6
num_cat=0
split_feature=1 2 0 2 1
split_gain=0.210277 0.333214 1.14993 0.909586 0.681989
threshold=9992.4174804687518 0.0016349999932572248 11.500000000000002 0.0016450000111944976 14.325399875640871
decision_type=2 2 2 2 2
left_child=1 -1 3 -3 -4
right_child=-2 2 4 -5 -6
leaf_value=-8.323052335025086e-05 -0.025273099665177941 0.028658936022753444 -0.052301375497655386 0.13713085343543854 0.039845733332537839
leaf_weight=22023 82 68 57 27 31
leaf_count=22023 82 68 57 27 31
internal_value=0 9.33259e-05 0.0213409 0.0594878 -0.0198405
internal_weight=0 22206 183 95 88
internal_count=22288 22206 183 95 88
is_linear=0
shrinkage=0.5


Tree=93
num_leaves=6
num_cat=0
split_feature=12 12 11 16 2
split_gain=0.238081 0.762394 0.397832 0.699424 0.482119
threshold=-0.4615000039339065 -0.45949999988079065 2750.151489257813 26.050000190734867 0.0016150000155903401
decision_type=2 2 2 2 2
left_child=2 -2 3 4 -1
right_child=1 -3 -4 -5 -6
leaf_value=0.0411913963260069 0.10140891256742179 0.0046412233828389739 -3.6202878538244512e-07 -0.097187028222331967 -0.045644506360545303
leaf_weight=31 24 134 22037 29 33
leaf_count=31 24 134 22037 29 33
internal_value=0 0.0193401 -0.000138081 -0.0327716 -0.00358337
internal_weight=0 158 22130 93 64
internal_count=22288 158 22130 93 64
is_linear=0
shrinkage=0.5


Tree=94
num_leaves=6
num_cat=0
split_feature=9 1 9 2 0
split_gain=0.187528 0.667533 0.656151 0.627567 0.619656
threshold=9802.1640625000018 14.297450065612795 9855.8623046875018 0.0013449999969452622 28.500000000000004
decision_type=2 2 2 2 2
left_child=1 -1 3 -2 -3
right_child=2 4 -4 -5 -6
leaf_value=-0.0095299831531331716 0.034609819878824055 0.084124580918982325 1.4067499385461961e-05 -0.06614641151185531 0.010813120046597241
leaf_weight=145 20 49 21936 68 70
leaf_count=145 20 49 21936 68 70
internal_value=0 0.0132469 -0.000158789 -0.0432473 0.0410002
internal_weight=0 264 22024 88 119
internal_count=22288 264 22024 88 119
is_linear=0
shrinkage=0.5


Tree=95
num_leaves=6
num_cat=0
split_feature=21 7 9 9 0
split_gain=0.208225 0.347056 1.26028 1.51432 0.57324
threshold=32.95000076293946 3482.0654296875005 13197.860351562502 13083.865722656252 175.50000000000003
decision_type=2 2 2 2 2
left_child=-1 2 3 -2 -5
right_child=1 -3 -4 4 -6
leaf_value=0.00145959771801197 -0.0043753715379751153 0.0011246655564437983 0.10738971769809723 -0.16190530556486921 -0.042193172988481818
leaf_weight=11656 5000 5567 25 20 20
leaf_count=11656 5000 5567 25 20 20
internal_value=0 -0.00160018 -0.00459508 -0.00515056 -0.102049
internal_weight=0 10632 5065 5040 40
internal_count=22288 10632 5065 5040 40
is_linear=0
shrinkage=0.5


Tree=96
num_leaves=6
num_cat=0
split_feature=0 11 10 1 0
split_gain=0.211647 1.07906 0.958654 2.93028 5.91504
threshold=5.5000000000000009 4473.1210937500009 15184.222656250002 509.73493957519537 2.5000000000000004
decision_type=2 2 2 2 2
left_child=2 -2 -1 4 -4
right_child=1 -3 3 -5 -6
leaf_value=-0.00079075662393266095 0.00046295352450767633 0.06653536531713701 0.0072077081415280247 0.027219083207631323 -0.15909616555027822
leaf_weight=3296 18567 62 124 145 94
leaf_count=3296 18567 62 124 145 94
internal_value=0 0.000682852 -0.00347659 -0.0278637 -0.0645013
internal_weight=0 18629 3659 363 218
internal_count=22288 18629 3659 363 218
is_linear=0
shrinkage=0.5


Tree=97
num_leaves=6
num_cat=0
split_feature=4 9 9 13 13
split_gain=0.359071 0.81298 0.742605 0.683218 0.528866
threshold=-19124.999999999996 13350.968750000002 13485.986816406252 45.392999649047859 45.126499176025398
decision_type=2 2 2 2 2
left_child=1 3 -3 4 -1
right_child=-2 2 -4 -5 -6
leaf_value=-0.011909398777924919 -0.00034811030030236891 0.084782353875833369 -0.021920672967098653 -0.059135217249441221 0.021195176513334874
leaf_weight=187 21637 63 22 39 340
leaf_count=187 21637 63 22 39 340
internal_value=0 0.01157 0.0571651 0.00472267 0.00944839
internal_weight=0 651 85 566 527
internal_count=22288 651 85 566 527
is_linear=0
shrinkage=0.5


Tree=98
num_leaves=6
num_cat=0
split_feature=10 10 0 3 1
split_gain=0.160003 0.337442 0.345419 1.45307 1.01452
threshold=15226.386230468752 15160.728515625002 5.5000000000000009 1.0000000180025095e-35 509.73493957519537
decision_type=2 2 2 2 2
left_child=1 -1 3 4 -3
right_child=-2 2 -4 -5 -6
leaf_value=7.5697302351734799e-05 0.0048732452295138558 -0.18411150530335449 -0.0057548145883105214 0.0079825443271720024 -0.039807836661629119
leaf_weight=19765 1566 21 826 81 29
leaf_count=19765 1566 21 826 81 29
internal_value=0 -0.00036828 -0.00953778 -0.0333907 -0.100415
internal_weight=0 20722 957 131 50
internal_count=22288 20722 957 131 50
is_linear=0
shrinkage=0.5


Tree=99
num_leaves=6
num_cat=0
split_feature=13 13 0 2 11
split_gain=0.17184 0.603244 0.38579 0.332115 0.182924
threshold=44.884000778198249 44.899999618530281 52.500000000000007 0.0013049999834038319 3825.5739746093755
decision_type=2 2 2 2 2
left_child=2 3 -1 -2 -3
right_child=1 4 -4 -5 -6
leaf_value=-0.034582079521247318 -0.015895805851323531 0.003722922341678534 0.031278254774440066 -0.10701597714796662 -0.00055365407176311509
leaf_weight=28 20 2874 108 20 19238
leaf_count=28 20 2874 108 20 19238
internal_value=0 -0.000108783 0.0177188 -0.0614559 2.19256e-06
internal_weight=0 22152 136 40 22112
internal_count=22288 22152 136 40 22112
is_linear=0
shrinkage=0.5


end of trees

feature_importances:
Column_1=83
Column_0=61
Column_2=50
Column_3=45
Column_9=41
Column_11=33
Column_4=32
Column_10=25
Column_12=24
Column_7=21
Column_13=21
Column_8=16
Column_6=8
Column_21=7
Column_16=6
Column_19=5
Column_22=5
Column_23=5
Column_24=5
Column_20=4
Column_15=1
Column_17=1
Column_18=1

parameters:
[boosting: gbdt]
[objective: regression]
[metric: l1]
[tree_learner: serial]
[device_type: cpu]
[data: ]
[valid: ]
[num_iterations: 100]
[learning_rate: 0.5]
[num_leaves: 6]
[num_threads: 0]
[deterministic: 0]
[force_col_wise: 0]
[force_row_wise: 0]
[histogram_pool_size: -1]
[max_depth: 6]
[min_data_in_leaf: 20]
[min_sum_hessian_in_leaf: 0.001]
[bagging_fraction: 0.7]
[pos_bagging_fraction: 1]
[neg_bagging_fraction: 1]
[bagging_freq: 0]
[bagging_seed: 400]
[feature_fraction: 0.7]
[feature_fraction_bynode: 1]
[feature_fraction_seed: 30056]
[extra_trees: 0]
[extra_seed: 12879]
[early_stopping_round: 0]
[first_metric_only: 0]
[max_delta_step: 0]
[lambda_l1: 0]
[lambda_l2: 0]
[linear_lambda: 0]
[min_gain_to_split: 0]
[drop_rate: 0.8]
[max_drop: 50]
[skip_drop: 0.8]
[xgboost_dart_mode: 0]
[uniform_drop: 0]
[drop_seed: 17869]
[top_rate: 0.2]
[other_rate: 0.1]
[min_data_per_group: 100]
[max_cat_threshold: 32]
[cat_l2: 10]
[cat_smooth: 10]
[max_cat_to_onehot: 4]
[top_k: 20]
[monotone_constraints: ]
[monotone_constraints_method: basic]
[monotone_penalty: 0]
[feature_contri: ]
[forcedsplits_filename: ]
[refit_decay_rate: 0.9]
[cegb_tradeoff: 1]
[cegb_penalty_split: 0]
[cegb_penalty_feature_lazy: ]
[cegb_penalty_feature_coupled: ]
[path_smooth: 0]
[interaction_constraints: ]
[verbosity: 1]
[saved_feature_importance_type: 0]
[linear_tree: 0]
[max_bin: 255]
[max_bin_by_feature: ]
[min_data_in_bin: 3]
[bin_construct_sample_cnt: 200000]
[data_random_seed: 175]
[is_enable_sparse: 1]
[enable_bundle: 1]
[use_missing: 1]
[zero_as_missing: 0]
[feature_pre_filter: 1]
[pre_partition: 0]
[two_round: 0]
[header: 0]
[label_column: ]
[weight_column: ]
[group_column: ]
[ignore_column: ]
[categorical_feature: ]
[forcedbins_filename: ]
[precise_float_parser: 0]
[objective_seed: 16083]
[num_class: 1]
[is_unbalance: 0]
[scale_pos_weight: 1]
[sigmoid: 1]
[boost_from_average: 1]
[reg_sqrt: 0]
[alpha: 0.9]
[fair_c: 1]
[poisson_max_delta_step: 0.7]
[tweedie_variance_power: 1.5]
[lambdarank_truncation_level: 30]
[lambdarank_norm: 1]
[label_gain: ]
[eval_at: ]
[multi_error_top_k: 1]
[auc_mu_weights: ]
[num_machines: 1]
[local_listen_port: 12400]
[time_out: 120]
[machine_list_filename: ]
[machines: ]
[gpu_platform_id: -1]
[gpu_device_id: -1]
[gpu_use_dp: 0]
[num_gpu: 1]

end of parameters

pandas_categorical:null
